{"learner":{"attributes":{"best_iteration":"99","best_ntree_limit":"100","scikit_learn":"{\"n_estimators\": 100, \"objective\": \"reg:squarederror\", \"max_depth\": null, \"max_leaves\": null, \"max_bin\": null, \"grow_policy\": null, \"learning_rate\": null, \"verbosity\": null, \"booster\": null, \"tree_method\": null, \"gamma\": null, \"min_child_weight\": null, \"max_delta_step\": null, \"subsample\": null, \"sampling_method\": null, \"colsample_bytree\": null, \"colsample_bylevel\": null, \"colsample_bynode\": null, \"reg_alpha\": null, \"reg_lambda\": null, \"scale_pos_weight\": null, \"base_score\": null, \"missing\": NaN, \"num_parallel_tree\": null, \"random_state\": null, \"n_jobs\": null, \"monotone_constraints\": null, \"interaction_constraints\": null, \"importance_type\": null, \"gpu_id\": null, \"validate_parameters\": null, \"predictor\": null, \"enable_categorical\": false, \"feature_types\": null, \"max_cat_to_onehot\": null, \"max_cat_threshold\": null, \"eval_metric\": null, \"early_stopping_rounds\": null, \"callbacks\": null, \"_estimator_type\": \"regressor\"}"},"feature_names":[],"feature_types":[],"gradient_booster":{"model":{"gbtree_model_param":{"num_parallel_tree":"1","num_trees":"100","size_leaf_vector":"0"},"tree_info":[0,0,0,0,0,0,0,0,0,0,0,0,0,0,0,0,0,0,0,0,0,0,0,0,0,0,0,0,0,0,0,0,0,0,0,0,0,0,0,0,0,0,0,0,0,0,0,0,0,0,0,0,0,0,0,0,0,0,0,0,0,0,0,0,0,0,0,0,0,0,0,0,0,0,0,0,0,0,0,0,0,0,0,0,0,0,0,0,0,0,0,0,0,0,0,0,0,0,0,0],"trees":[{"base_weights":[-4.5048782E-1,-1.1432885E0,-1.0262066E-1,-1.4896116E0,-8.729092E-1,-5.805462E-1,2.701483E-1,-1.9044831E0,-1.3502636E0,-4.9212617E-1,-1.2413878E0,-1.159914E0,-3.8409248E-1,8.427606E-1,-2.7068025E-1,-2.3217976E0,-1.7244142E0,-1.4183205E0,-8.8412845E-1,-9.783847E-1,-2.3333447E-1,-1.3095946E0,-7.9310894E-1,-1.6151419E0,-9.666464E-1,-3.5809666E-1,-7.746365E-1,1.6706415E-1,1.1954969E0,-4.2456526E-1,1.7300816E-1,-1.9297849E0,-2.7484994E0,-1.7804198E0,-1.3285128E0,-1.1174623E0,-1.4664674E0,-9.822717E-1,-7.8079003E-1,-1.3673776E0,-8.0030555E-1,-6.0415894E-1,2.3958175E-1,-1.3840432E0,-1.0899185E0,-9.1699654E-1,-4.419056E-1,-1.1131604E0,-2.1909912E0,-1.4941614E0,-9.319642E-1,-5.061326E-1,-2.9609415E-1,-9.483196E-1,-7.003567E-1,-3.8731116E-1,4.2447934E-1,7.2052E-1,1.8039057E0,-9.005674E-3,-6.2510616E-1,-2.2681868E-1,2.6795352E-1,-1.5462418E0,-2.6172826E0,-2.9435666E0,-2.4931588E0,-2.1822374E0,-1.754892E0,-1.5288357E0,-1.2754445E0,-1.2488865E0,-1.0610993E0,-1.5117254E0,-1.2427696E0,-1.050158E0,-8.578783E-1,-9.2661726E-1,-7.1772856E-1,-1.4160309E0,-1.000168E0,-8.762051E-1,-2.7019575E-1,-3.344E-1,-6.978323E-1,6.323948E-1,1.0465762E-1,-1.0986168E0,-1.5280372E0,-7.7461296E-1,-1.1406883E0,-6.98151E-1,-1.0215214E0,-6.968597E-1,-3.6512923E-1,-5.429369E-1,-2.0052834E0,-2.460904E0,-1.8315278E0,-2.0894248E0,-1.221862E0,-8.891569E-1,-1.2259573E0,1.8362036E-1,-6.8760884E-1,-4.874358E-1,-2.4675633E-1,-3.238233E-1,-1.1275964E0,-6.131725E-1,-7.8435487E-1,-6.047914E-1,-2.08605E-1,3.1039473E-1,1.1552398E0,5.2097285E-1,1.0454003E0,1.9094979E0,1.1904596E0,-3.4371883E-1,2.4006176E-1,-7.880075E-1,-5.072374E-1,-3.4003505E-1,-7.6901E-2,1.5755996E-1,4.45014E-1],"categories":[],"categories_nodes":[],"categories_segments":[],"categories_sizes":[],"default_left":[1,1,1,1,1,1,1,1,1,1,1,1,1,1,1,1,1,1,1,1,1,1,1,1,1,1,1,1,1,1,1,1,1,1,1,1,1,1,1,1,1,1,1,1,1,1,1,1,1,1,1,1,1,1,1,1,1,1,1,1,1,1,1,0,0,0,0,0,0,0,0,0,0,0,0,0,0,0,0,0,0,0,0,0,0,0,0,0,0,0,0,0,0,0,0,0,0,0,0,0,0,0,0,0,0,0,0,0,0,0,0,0,0,0,0,0,0,0,0,0,0,0,0,0,0,0,0],"id":0,"left_children":[1,3,5,7,9,11,13,15,17,19,21,23,25,27,29,31,33,35,37,39,41,43,45,47,49,51,53,55,57,59,61,63,65,67,69,71,73,75,77,79,81,83,85,87,89,91,93,95,97,99,101,103,105,107,109,111,113,115,117,119,121,123,125,-1,-1,-1,-1,-1,-1,-1,-1,-1,-1,-1,-1,-1,-1,-1,-1,-1,-1,-1,-1,-1,-1,-1,-1,-1,-1,-1,-1,-1,-1,-1,-1,-1,-1,-1,-1,-1,-1,-1,-1,-1,-1,-1,-1,-1,-1,-1,-1,-1,-1,-1,-1,-1,-1,-1,-1,-1,-1,-1,-1,-1,-1,-1,-1],"loss_changes":[1.9175014E4,2.4891094E3,9.436892E3,6.714551E2,2.0953457E3,2.6414067E3,9.216147E3,2.1609668E2,2.7572656E2,9.2444165E2,2.3106152E2,5.1550146E2,1.7571655E2,3.445043E3,1.0450527E3,1.41896E2,4.3089355E1,1.0869629E2,1.0541382E1,1.7568677E2,8.4138947E2,1.0621875E2,4.332202E1,5.0342627E2,7.4130615E1,1.490481E2,1.3281982E1,7.078367E2,2.7431455E3,9.470322E2,1.4970581E2,1.17775635E2,1.3530762E1,1.4561523E1,7.927551E-1,6.489746E0,6.456543E1,3.89563E0,4.3743896E0,1.2876465E1,7.029529E1,6.7715576E1,1.11710724E2,2.0036719E2,2.5881836E1,1.626001E1,4.913212E0,4.7557202E2,7.4470215E1,3.845575E1,4.7689453E1,6.0058496E2,1.0805701E2,3.5573273E1,5.0920715E0,6.1008575E1,2.8201062E2,3.4531738E2,2.6738574E2,3.0853726E2,1.4677612E2,1.282251E1,6.2204514E1,0E0,0E0,0E0,0E0,0E0,0E0,0E0,0E0,0E0,0E0,0E0,0E0,0E0,0E0,0E0,0E0,0E0,0E0,0E0,0E0,0E0,0E0,0E0,0E0,0E0,0E0,0E0,0E0,0E0,0E0,0E0,0E0,0E0,0E0,0E0,0E0,0E0,0E0,0E0,0E0,0E0,0E0,0E0,0E0,0E0,0E0,0E0,0E0,0E0,0E0,0E0,0E0,0E0,0E0,0E0,0E0,0E0,0E0,0E0,0E0,0E0,0E0,0E0,0E0],"parents":[2147483647,0,0,1,1,2,2,3,3,4,4,5,5,6,6,7,7,8,8,9,9,10,10,11,11,12,12,13,13,14,14,15,15,16,16,17,17,18,18,19,19,20,20,21,21,22,22,23,23,24,24,25,25,26,26,27,27,28,28,29,29,30,30,31,31,32,32,33,33,34,34,35,35,36,36,37,37,38,38,39,39,40,40,41,41,42,42,43,43,44,44,45,45,46,46,47,47,48,48,49,49,50,50,51,51,52,52,53,53,54,54,55,55,56,56,57,57,58,58,59,59,60,60,61,61,62,62],"right_children":[2,4,6,8,10,12,14,16,18,20,22,24,26,28,30,32,34,36,38,40,42,44,46,48,50,52,54,56,58,60,62,64,66,68,70,72,74,76,78,80,82,84,86,88,90,92,94,96,98,100,102,104,106,108,110,112,114,116,118,120,122,124,126,-1,-1,-1,-1,-1,-1,-1,-1,-1,-1,-1,-1,-1,-1,-1,-1,-1,-1,-1,-1,-1,-1,-1,-1,-1,-1,-1,-1,-1,-1,-1,-1,-1,-1,-1,-1,-1,-1,-1,-1,-1,-1,-1,-1,-1,-1,-1,-1,-1,-1,-1,-1,-1,-1,-1,-1,-1,-1,-1,-1,-1,-1,-1,-1],"split_conditions":[7.5E0,5.5E0,5.5E0,2.0205E3,8.5E0,2.0205E3,8.5E0,2.5E0,6.5E0,6.5E0,6.5E0,2.5E0,2.25E1,6.5E0,1.15E1,1.5E0,6.5E0,5E-1,2.25E1,2.0205E3,2.0215E3,1.15E1,1.15E1,1.5E0,2.5E0,2.0215E3,2.0215E3,2.0205E3,2.0215E3,9.5E0,2.0195E3,1.95E1,1.65E1,2.5E0,6.5E0,2.0215E3,5.5E0,2.0225E3,2.0215E3,6.5E0,2.65E1,1.5E0,1.5E0,9.5E0,5E-1,9.5E0,2.0195E3,1.85E1,1.65E1,2.0195E3,2.15E1,1.5E0,1.5E0,1.5E0,2.25E1,2.0195E3,2.65E1,2.0205E3,2.65E1,2.0205E3,2.0205E3,1.75E1,2.0215E3,-4.6387255E-1,-7.851848E-1,-8.8307E-1,-7.479477E-1,-6.5467125E-1,-5.264676E-1,-4.586507E-1,-3.8263336E-1,-3.7466595E-1,-3.183298E-1,-4.5351765E-1,-3.728309E-1,-3.150474E-1,-2.573635E-1,-2.779852E-1,-2.1531858E-1,-4.2480928E-1,-3.000504E-1,-2.6286155E-1,-8.1058726E-2,-1.00320004E-1,-2.0934969E-1,1.8971844E-1,3.1397287E-2,-3.2958508E-1,-4.584112E-1,-2.3238389E-1,-3.422065E-1,-2.0944531E-1,-3.0645645E-1,-2.0905793E-1,-1.0953877E-1,-1.6288108E-1,-6.0158503E-1,-7.382712E-1,-5.494584E-1,-6.268275E-1,-3.665586E-1,-2.667471E-1,-3.6778718E-1,5.508611E-2,-2.0628266E-1,-1.4623074E-1,-7.4026905E-2,-9.7146995E-2,-3.3827892E-1,-1.8395175E-1,-2.3530647E-1,-1.8143743E-1,-6.25815E-2,9.311842E-2,3.4657195E-1,1.5629186E-1,3.136201E-1,5.728494E-1,3.571379E-1,-1.03115655E-1,7.2018534E-2,-2.3640226E-1,-1.5217122E-1,-1.0201052E-1,-2.3070302E-2,4.7267992E-2,1.3350421E-1],"split_indices":[3,1,1,0,1,0,1,1,3,1,3,1,3,1,1,1,3,3,4,0,0,1,1,1,2,0,0,0,0,1,0,2,2,2,2,0,3,0,0,3,2,3,3,1,3,1,0,2,2,0,3,1,1,1,4,0,2,0,2,0,0,2,0,0,0,0,0,0,0,0,0,0,0,0,0,0,0,0,0,0,0,0,0,0,0,0,0,0,0,0,0,0,0,0,0,0,0,0,0,0,0,0,0,0,0,0,0,0,0,0,0,0,0,0,0,0,0,0,0,0,0,0,0,0,0,0,0],"split_type":[0,0,0,0,0,0,0,0,0,0,0,0,0,0,0,0,0,0,0,0,0,0,0,0,0,0,0,0,0,0,0,0,0,0,0,0,0,0,0,0,0,0,0,0,0,0,0,0,0,0,0,0,0,0,0,0,0,0,0,0,0,0,0,0,0,0,0,0,0,0,0,0,0,0,0,0,0,0,0,0,0,0,0,0,0,0,0,0,0,0,0,0,0,0,0,0,0,0,0,0,0,0,0,0,0,0,0,0,0,0,0,0,0,0,0,0,0,0,0,0,0,0,0,0,0,0,0],"sum_hessian":[7.9563E4,2.6595E4,5.2968E4,1.1658E4,1.4937E4,2.321E4,2.9758E4,2.928E3,8.73E3,7.347E3,7.59E3,5.876E3,1.7334E4,1.4454E4,1.5304E4,8.79E2,2.049E3,7.616E3,1.114E3,2.551E3,4.796E3,6.586E3,1.004E3,1.749E3,4.127E3,1.6254E4,1.08E3,4.958E3,9.496E3,1.1363E4,3.941E3,4.61E2,4.18E2,1.792E3,2.57E2,1.054E3,6.562E3,5.67E2,5.47E2,7.99E2,1.752E3,2.688E3,2.108E3,4.915E3,1.671E3,7.41E2,2.63E2,9.36E2,8.13E2,2.52E2,3.875E3,4.796E3,1.1458E4,3.2E2,7.6E2,1.572E3,3.386E3,5.334E3,4.162E3,3.699E3,7.664E3,7.56E2,3.185E3,2.98E2,1.63E2,2.31E2,1.87E2,1.02E2,1.69E3,4.8E1,2.09E2,3.1E2,7.44E2,5.453E3,1.109E3,3.62E2,2.05E2,1.61E2,3.86E2,7.03E2,9.6E1,1.532E3,2.2E2,6.94E2,1.994E3,5.38E2,1.57E3,1.651E3,3.264E3,2.34E2,1.437E3,2.42E2,4.99E2,5.9E1,2.04E2,5.72E2,3.64E2,4.61E2,3.52E2,7.7E1,1.75E2,3.386E3,4.89E2,9.99E2,3.797E3,2.347E3,9.111E3,7.2E1,2.48E2,3.77E2,3.83E2,7.08E2,8.64E2,2.93E3,4.56E2,3.306E3,2.028E3,3.549E3,6.13E2,1.578E3,2.121E3,3.215E3,4.449E3,4.3E2,3.26E2,1.963E3,1.222E3],"tree_param":{"num_deleted":"0","num_feature":"6","num_nodes":"127","size_leaf_vector":"0"}},{"base_weights":[-3.1552392E-1,-8.0070955E-1,-7.1903825E-2,-1.0433704E0,-6.11261E-1,-4.0659368E-1,1.891452E-1,-1.3348119E0,-9.454805E-1,-3.4464583E-1,-8.6926085E-1,-8.125659E-1,-2.6893544E-1,5.900428E-1,-1.8949994E-1,-1.6285311E0,-1.2080765E0,-9.930239E-1,-6.1984575E-1,-5.744319E-1,-6.857905E-2,-9.512027E-1,-6.3205737E-1,-1.1317719E0,-6.7704684E-1,-2.1894862E-1,-3.92626E-1,1.1698436E-1,8.369952E-1,-2.972326E-1,1.21119834E-1,-1.353553E0,-1.9278423E0,-1.2741848E0,-1.008561E0,-8.5102373E-1,-1.0503899E0,-5.657586E-1,-7.5245047E-1,-7.3871756E-1,-2.703055E-1,-4.7351837E-1,1.6781208E-1,-7.6944244E-1,-1.0427505E0,-7.052601E-1,-4.2147142E-1,-7.8002816E-1,-1.5352758E0,-9.0790355E-1,-6.3133514E-1,-1.9906844E-1,-5.1679045E-1,-3.7409815E-1,-7.9058135E-1,-1.4217877E-1,3.9270768E-1,5.044521E-1,1.2629573E0,-6.3123633E-3,-4.3762496E-1,-1.589383E-1,1.876242E-1,-1.0986984E0,-1.8868345E0,-2.0358374E0,-1.6956515E0,-1.1441067E0,-1.3404069E0,-1.4650526E0,-9.722229E-1,-9.6355414E-1,-8.020754E-1,-1.0965117E0,-8.702746E-1,-7.2078145E-1,-5.1112103E-1,-7.944813E-1,-6.019901E-1,-8.994826E-1,-4.8467463E-1,-4.728788E-1,-1.8224192E-1,-5.395415E-1,1.5379746E-1,2.3595339E-1,-3.1982255E-1,-9.5001006E-1,-6.3897145E-1,-1.1761674E0,-9.4433445E-1,-8.709266E-1,-5.885436E-1,-5.4025424E-1,-3.1054074E-1,-4.135989E0,-6.834985E-1,-1.623585E0,-9.366009E-1,-8.056565E-1,-1.0295078E0,-6.0864687E-1,-9.4769984E-1,-3.146554E-1,-1.5112884E-1,-5.865319E-1,-4.0077448E-1,-2.4866259E-1,-4.0778637E-1,-9.242673E-1,-5.3728502E-2,-4.2360988E-1,-3.418698E-2,2.601772E-1,1.0458823E0,2.8922856E-1,7.1756005E-1,1.3909184E0,9.5950276E-1,3.117578E-1,-1.9389999E-1,-3.9931864E-1,-7.1528697E-1,-1.3444227E-1,-6.6041523E-1,2.2019914E-1,-3.2432425E-1],"categories":[],"categories_nodes":[],"categories_segments":[],"categories_sizes":[],"default_left":[1,1,1,1,1,1,1,1,1,1,1,1,1,1,1,1,1,1,1,1,1,1,1,1,1,1,1,1,1,1,1,1,1,1,1,1,1,1,1,1,1,1,1,1,1,1,1,1,1,1,1,1,1,1,1,1,1,1,1,1,1,1,1,0,0,0,0,0,0,0,0,0,0,0,0,0,0,0,0,0,0,0,0,0,0,0,0,0,0,0,0,0,0,0,0,0,0,0,0,0,0,0,0,0,0,0,0,0,0,0,0,0,0,0,0,0,0,0,0,0,0,0,0,0,0,0,0],"id":1,"left_children":[1,3,5,7,9,11,13,15,17,19,21,23,25,27,29,31,33,35,37,39,41,43,45,47,49,51,53,55,57,59,61,63,65,67,69,71,73,75,77,79,81,83,85,87,89,91,93,95,97,99,101,103,105,107,109,111,113,115,117,119,121,123,125,-1,-1,-1,-1,-1,-1,-1,-1,-1,-1,-1,-1,-1,-1,-1,-1,-1,-1,-1,-1,-1,-1,-1,-1,-1,-1,-1,-1,-1,-1,-1,-1,-1,-1,-1,-1,-1,-1,-1,-1,-1,-1,-1,-1,-1,-1,-1,-1,-1,-1,-1,-1,-1,-1,-1,-1,-1,-1,-1,-1,-1,-1,-1,-1],"loss_changes":[9.404484E3,1.2220254E3,4.628003E3,3.3135938E2,1.0272358E3,1.296938E3,4.5174663E3,1.0706348E2,1.3455518E2,4.660905E2,1.4694434E2,2.5346387E2,1.07094604E2,1.6885776E3,5.122008E2,6.981836E1,2.5753418E1,6.1154297E1,7.5713196E0,2.0015442E2,3.1970212E2,9.30459E1,2.9793762E1,2.4718018E2,4.2989014E1,7.3011475E1,3.6481995E1,3.5441272E2,1.3446201E3,4.641369E2,7.344991E1,6.071698E1,7.0544434E0,1.1697754E1,7.118469E0,1.1328613E1,4.40791E1,6.3737946E0,1.5454102E0,1.0587378E2,2.5031609E1,5.106772E1,7.015344E1,4.398987E1,4.8101807E1,2.7466614E1,6.4996185E0,3.0071387E2,4.1514282E1,7.6254883E0,2.41792E1,6.4102844E1,6.0112762E0,2.0046814E1,2.1720367E1,7.76985E1,2.0774487E2,2.4448682E2,1.603164E2,2.2082475E2,8.124097E1,9.210348E0,5.3203354E1,0E0,0E0,0E0,0E0,0E0,0E0,0E0,0E0,0E0,0E0,0E0,0E0,0E0,0E0,0E0,0E0,0E0,0E0,0E0,0E0,0E0,0E0,0E0,0E0,0E0,0E0,0E0,0E0,0E0,0E0,0E0,0E0,0E0,0E0,0E0,0E0,0E0,0E0,0E0,0E0,0E0,0E0,0E0,0E0,0E0,0E0,0E0,0E0,0E0,0E0,0E0,0E0,0E0,0E0,0E0,0E0,0E0,0E0,0E0,0E0,0E0,0E0,0E0,0E0],"parents":[2147483647,0,0,1,1,2,2,3,3,4,4,5,5,6,6,7,7,8,8,9,9,10,10,11,11,12,12,13,13,14,14,15,15,16,16,17,17,18,18,19,19,20,20,21,21,22,22,23,23,24,24,25,25,26,26,27,27,28,28,29,29,30,30,31,31,32,32,33,33,34,34,35,35,36,36,37,37,38,38,39,39,40,40,41,41,42,42,43,43,44,44,45,45,46,46,47,47,48,48,49,49,50,50,51,51,52,52,53,53,54,54,55,55,56,56,57,57,58,58,59,59,60,60,61,61,62,62],"right_children":[2,4,6,8,10,12,14,16,18,20,22,24,26,28,30,32,34,36,38,40,42,44,46,48,50,52,54,56,58,60,62,64,66,68,70,72,74,76,78,80,82,84,86,88,90,92,94,96,98,100,102,104,106,108,110,112,114,116,118,120,122,124,126,-1,-1,-1,-1,-1,-1,-1,-1,-1,-1,-1,-1,-1,-1,-1,-1,-1,-1,-1,-1,-1,-1,-1,-1,-1,-1,-1,-1,-1,-1,-1,-1,-1,-1,-1,-1,-1,-1,-1,-1,-1,-1,-1,-1,-1,-1,-1,-1,-1,-1,-1,-1,-1,-1,-1,-1,-1,-1,-1,-1,-1,-1,-1,-1],"split_conditions":[7.5E0,5.5E0,5.5E0,2.0205E3,8.5E0,2.0205E3,8.5E0,2.5E0,6.5E0,2.0215E3,5.5E0,2.5E0,4.5E0,6.5E0,1.15E1,1.5E0,5.5E0,1.5E0,4.5E0,7.5E0,6.5E0,1.5E0,1.15E1,1.5E0,5.5E0,2.25E1,2.95E1,2.0215E3,2.0215E3,9.5E0,2.0195E3,2.05E1,1.95E1,1.5E0,2.5E0,2.0215E3,5.5E0,7.5E0,3.75E1,2.0205E3,2.0195E3,2.75E1,2.75E1,2.0205E3,2.0205E3,2.0205E3,6.5E0,2.0195E3,2.55E1,3.5E0,2.25E1,2.0215E3,2.0225E3,1.5E0,4.5E0,2.0195E3,2.55E1,7.5E0,4.5E0,1.15E1,2.15E1,2.25E1,2.25E1,-3.296095E-1,-5.6605035E-1,-6.107513E-1,-5.086955E-1,-3.4323204E-1,-4.0212208E-1,-4.395158E-1,-2.916669E-1,-2.8906626E-1,-2.4062262E-1,-3.2895353E-1,-2.6108238E-1,-2.1623445E-1,-1.5333632E-1,-2.3834439E-1,-1.8059704E-1,-2.698448E-1,-1.454024E-1,-1.4186364E-1,-5.4672576E-2,-1.6186245E-1,4.613924E-2,7.078602E-2,-9.594677E-2,-2.8500304E-1,-1.9169144E-1,-3.5285023E-1,-2.8330034E-1,-2.61278E-1,-1.7656308E-1,-1.6207628E-1,-9.316222E-2,-1.2407968E0,-2.0504956E-1,-4.870755E-1,-2.809803E-1,-2.4169695E-1,-3.0885234E-1,-1.8259406E-1,-2.8430995E-1,-9.439662E-2,-4.5338653E-2,-1.7595957E-1,-1.2023235E-1,-7.459878E-2,-1.2233592E-1,-2.772802E-1,-1.611855E-2,-1.2708297E-1,-1.0256095E-2,7.805316E-2,3.1376472E-1,8.676857E-2,2.1526803E-1,4.1727552E-1,2.8785083E-1,9.352735E-2,-5.817E-2,-1.197956E-1,-2.145861E-1,-4.0332682E-2,-1.9812457E-1,6.6059746E-2,-9.729728E-2],"split_indices":[3,1,1,0,1,0,1,1,3,0,3,1,5,1,1,1,3,3,5,1,1,3,1,1,2,3,2,0,0,1,0,2,2,3,2,0,3,4,4,0,0,2,2,0,0,0,3,0,2,5,3,0,0,1,1,0,2,1,5,2,3,3,3,0,0,0,0,0,0,0,0,0,0,0,0,0,0,0,0,0,0,0,0,0,0,0,0,0,0,0,0,0,0,0,0,0,0,0,0,0,0,0,0,0,0,0,0,0,0,0,0,0,0,0,0,0,0,0,0,0,0,0,0,0,0,0,0],"split_type":[0,0,0,0,0,0,0,0,0,0,0,0,0,0,0,0,0,0,0,0,0,0,0,0,0,0,0,0,0,0,0,0,0,0,0,0,0,0,0,0,0,0,0,0,0,0,0,0,0,0,0,0,0,0,0,0,0,0,0,0,0,0,0,0,0,0,0,0,0,0,0,0,0,0,0,0,0,0,0,0,0,0,0,0,0,0,0,0,0,0,0,0,0,0,0,0,0,0,0,0,0,0,0,0,0,0,0,0,0,0,0,0,0,0,0,0,0,0,0,0,0,0,0,0,0,0,0],"sum_hessian":[7.9563E4,2.6595E4,5.2968E4,1.1658E4,1.4937E4,2.321E4,2.9758E4,2.928E3,8.73E3,7.347E3,7.59E3,5.876E3,1.7334E4,1.4454E4,1.5304E4,8.79E2,2.049E3,7.616E3,1.114E3,4.009E3,3.338E3,5.639E3,1.951E3,1.749E3,4.127E3,1.2347E4,4.987E3,4.958E3,9.496E3,1.1363E4,3.941E3,4.61E2,4.18E2,1.535E3,5.14E2,2.196E3,5.42E3,7.95E2,3.19E2,2.602E3,1.407E3,1.23E3,2.108E3,1.892E3,3.747E3,1.446E3,5.05E2,9.36E2,8.13E2,6.79E2,3.448E3,1.1576E4,7.71E2,4.767E3,2.2E2,2.556E3,2.402E3,5.334E3,4.162E3,3.699E3,7.664E3,7.56E2,3.185E3,3.14E2,1.47E2,2.8E2,1.38E2,5.24E2,1.011E3,3.5E1,4.79E2,6.6E2,1.536E3,4.311E3,1.109E3,2.04E2,5.91E2,2.46E2,7.3E1,1.592E3,1.01E3,4.25E2,9.82E2,1.113E3,1.17E2,1.85E3,2.58E2,7.91E2,1.101E3,1.586E3,2.161E3,5.95E2,8.51E2,2.42E2,2.63E2,2.5E1,9.11E2,7.07E2,1.06E2,3.73E2,3.06E2,3.22E3,2.28E2,3.392E3,8.184E3,4.79E2,2.92E2,1.011E3,3.756E3,1.86E2,3.4E1,7.08E2,1.848E3,1.998E3,4.04E2,2.655E3,2.679E3,2.925E3,1.237E3,1.372E3,2.327E3,6.737E3,9.27E2,7.22E2,3.4E1,2.995E3,1.9E2],"tree_param":{"num_deleted":"0","num_feature":"6","num_nodes":"127","size_leaf_vector":"0"}},{"base_weights":[-2.2101031E-1,-5.330188E-1,-3.2884285E-2,-6.985688E-1,-4.0415505E-1,-2.747186E-1,1.5606461E-1,-9.12966E-1,-6.269082E-1,-2.2690196E-1,-5.754787E-1,-5.595599E-1,-1.7779678E-1,4.4907412E-1,-1.2042316E-1,-1.12895E0,-8.2000387E-1,-6.952637E-1,-3.9038795E-1,-4.81438E-1,-9.299754E-2,-6.660392E-1,-4.0030336E-1,-7.794277E-1,-4.6618992E-1,-1.5390775E-1,-3.3418065E-1,1.0663425E-1,6.28871E-1,-1.9603552E-1,9.750157E-2,-3.3140757E0,-1.1008406E0,-8.766132E-1,-6.1698693E-1,-5.2825123E-1,-7.2200495E-1,-3.560489E-1,-6.0547674E-1,-6.352532E-1,-3.1828624E-1,-3.520762E-1,4.8532594E-2,-4.5954064E-1,-7.0682025E-1,-3.334357E-1,-5.665137E-1,-2.9382064E0,-7.456738E-1,-5.2311224E-1,-3.7593916E-1,-1.2978636E-1,-2.967943E-1,-4.4806236E-1,-2.856804E-1,-1.9383645E-1,2.4783133E-1,2.4859574E-1,8.3178616E-1,1.6247397E-2,-2.9800206E-1,1.762787E-2,2.7688605E-1,-8.757495E-1,-1.3398726E0,-1.0160329E0,-8.3349067E-1,-1.1467983E0,-5.7622015E-1,-4.5306867E-1,-5.9750926E-1,-8.319713E-1,-6.759486E-1,-4.2444617E-1,-2.844843E-1,-5.8406746E-1,-7.678652E-1,-7.0122313E-1,-3.8370162E-1,-4.933637E-1,-1.4300242E-1,-5.58785E-1,-1.6803344E-1,4.6441707E-1,-5.1412163E-3,-6.048742E-1,-3.576853E-1,-7.586123E-1,-5.54101E-1,-3.9352006E-1,-1.621954E-1,-6.174634E-1,-4.1363588E-1,-4.617432E-1,-1.064723E0,-4.8120508E-1,-6.305635E-1,-7.541568E-1,-3.359824E-1,-2.5293946E-1,-1.0451279E-1,-2.7231103E-1,-5.4161066E-1,3.088516E-2,-5.783137E-1,-1.9696127E-1,-4.140543E-1,-5.4285973E-2,-3.4956428E-1,1.7540723E-2,4.4594663E-1,-6.615657E-2,5.5813456E-1,1.0218964E0,6.150131E-1,-2.241499E-1,1.945985E-1,-4.1348174E-1,-2.1462394E-1,-1.4259364E-1,1.4043744E-1,3.166547E-1,-1.3587156E-2],"categories":[],"categories_nodes":[],"categories_segments":[],"categories_sizes":[],"default_left":[1,1,1,1,1,1,1,1,1,1,1,1,1,1,1,1,1,1,1,1,1,1,1,1,1,1,1,1,1,1,1,0,1,1,1,1,1,1,1,1,1,1,1,1,1,1,1,0,1,1,1,1,1,1,1,1,1,1,1,1,1,1,1,0,0,0,0,0,0,0,0,0,0,0,0,0,0,0,0,0,0,0,0,0,0,0,0,0,0,0,0,0,0,0,0,0,0,0,0,0,0,0,0,0,0,0,0,0,0,0,0,0,0,0,0,0,0,0,0,0,0,0,0],"id":2,"left_children":[1,3,5,7,9,11,13,15,17,19,21,23,25,27,29,31,33,35,37,39,41,43,45,47,49,51,53,55,57,59,61,-1,63,65,67,69,71,73,75,77,79,81,83,85,87,89,91,-1,93,95,97,99,101,103,105,107,109,111,113,115,117,119,121,-1,-1,-1,-1,-1,-1,-1,-1,-1,-1,-1,-1,-1,-1,-1,-1,-1,-1,-1,-1,-1,-1,-1,-1,-1,-1,-1,-1,-1,-1,-1,-1,-1,-1,-1,-1,-1,-1,-1,-1,-1,-1,-1,-1,-1,-1,-1,-1,-1,-1,-1,-1,-1,-1,-1,-1,-1,-1,-1,-1],"loss_changes":[4.670144E3,6.381836E2,2.2681724E3,2.0066357E2,5.109873E2,6.0096765E2,2.2575776E3,6.491089E1,1.5849292E2,2.819621E2,1.3549731E2,1.13100586E2,6.0641296E1,8.3290845E2,2.3627782E2,5.6791504E1,2.5846191E1,3.3636963E1,1.6063019E1,7.136932E1,1.9886462E2,4.71709E1,3.2253113E1,1.1774866E2,1.9746277E1,4.8541656E1,1.1758118E1,1.9770885E2,6.843115E2,2.3042392E2,5.2923126E1,0E0,5.1177856E1,9.932861E0,1.022493E1,5.222687E0,3.2676758E1,9.194107E0,6.014633E-1,2.4075562E1,4.246338E1,7.279698E1,7.830834E1,1.3594849E1,3.6818115E1,2.1378174E1,6.256256E0,0E0,1.4644177E2,1.0404663E1,2.2490707E1,3.7513657E1,1.205011E1,4.0005737E1,1.7138954E1,3.236154E1,1.4462056E2,3.0089478E2,2.3773486E2,1.4817717E2,6.914966E1,5.0333435E1,1.3150169E1,0E0,0E0,0E0,0E0,0E0,0E0,0E0,0E0,0E0,0E0,0E0,0E0,0E0,0E0,0E0,0E0,0E0,0E0,0E0,0E0,0E0,0E0,0E0,0E0,0E0,0E0,0E0,0E0,0E0,0E0,0E0,0E0,0E0,0E0,0E0,0E0,0E0,0E0,0E0,0E0,0E0,0E0,0E0,0E0,0E0,0E0,0E0,0E0,0E0,0E0,0E0,0E0,0E0,0E0,0E0,0E0,0E0,0E0,0E0,0E0],"parents":[2147483647,0,0,1,1,2,2,3,3,4,4,5,5,6,6,7,7,8,8,9,9,10,10,11,11,12,12,13,13,14,14,15,15,16,16,17,17,18,18,19,19,20,20,21,21,22,22,23,23,24,24,25,25,26,26,27,27,28,28,29,29,30,30,32,32,33,33,34,34,35,35,36,36,37,37,38,38,39,39,40,40,41,41,42,42,43,43,44,44,45,45,46,46,48,48,49,49,50,50,51,51,52,52,53,53,54,54,55,55,56,56,57,57,58,58,59,59,60,60,61,61,62,62],"right_children":[2,4,6,8,10,12,14,16,18,20,22,24,26,28,30,32,34,36,38,40,42,44,46,48,50,52,54,56,58,60,62,-1,64,66,68,70,72,74,76,78,80,82,84,86,88,90,92,-1,94,96,98,100,102,104,106,108,110,112,114,116,118,120,122,-1,-1,-1,-1,-1,-1,-1,-1,-1,-1,-1,-1,-1,-1,-1,-1,-1,-1,-1,-1,-1,-1,-1,-1,-1,-1,-1,-1,-1,-1,-1,-1,-1,-1,-1,-1,-1,-1,-1,-1,-1,-1,-1,-1,-1,-1,-1,-1,-1,-1,-1,-1,-1,-1,-1,-1,-1,-1,-1,-1],"split_conditions":[8.5E0,5.5E0,5.5E0,2.0205E3,8.5E0,2.0205E3,8.5E0,2.5E0,6.5E0,6.5E0,5.5E0,2.5E0,2.15E1,6.5E0,1.15E1,2.0195E3,6.5E0,5E-1,5.5E0,2.0215E3,2.0205E3,5E-1,4.5E0,2.0195E3,4.5E0,5.5E0,2.0215E3,2.0205E3,2.0205E3,9.5E0,2.0215E3,-9.9422276E-1,1.5E0,7.5E0,2.5E0,2.25E1,2.0215E3,2.25E1,2.85E1,6.5E0,1.55E1,7.5E0,5E-1,2.0205E3,1.15E1,1.15E1,1.15E1,-8.81462E-1,1.5E0,4.5E0,3.5E0,5.5E0,2.85E1,1.5E0,3.5E0,1.65E1,1.45E1,7.5E0,1.65E1,2.0205E3,2.0205E3,1.35E1,2.15E1,-2.6272488E-1,-4.019618E-1,-3.048099E-1,-2.500472E-1,-3.440395E-1,-1.7286605E-1,-1.3592061E-1,-1.7925279E-1,-2.495914E-1,-2.027846E-1,-1.2733385E-1,-8.534529E-2,-1.7522025E-1,-2.3035957E-1,-2.1036695E-1,-1.15110494E-1,-1.4800912E-1,-4.2900726E-2,-1.6763552E-1,-5.0410032E-2,1.3932513E-1,-1.542365E-3,-1.8146226E-1,-1.07305594E-1,-2.2758369E-1,-1.662303E-1,-1.1805602E-1,-4.865862E-2,-1.8523903E-1,-1.2409077E-1,-1.3852297E-1,-3.194169E-1,-1.4436153E-1,-1.8916906E-1,-2.2624706E-1,-1.00794725E-1,-7.588184E-2,-3.135384E-2,-8.1693314E-2,-1.624832E-1,9.265549E-3,-1.7349412E-1,-5.9088383E-2,-1.24216296E-1,-1.6285792E-2,-1.0486929E-1,5.262217E-3,1.33784E-1,-1.9846972E-2,1.6744037E-1,3.0656892E-1,1.8450394E-1,-6.724497E-2,5.837955E-2,-1.2404453E-1,-6.438719E-2,-4.2778093E-2,4.2131234E-2,9.4996415E-2,-4.076147E-3],"split_indices":[3,1,1,0,1,0,1,1,3,1,3,1,3,1,1,0,3,3,5,0,0,3,5,0,1,5,0,0,0,1,0,0,1,2,2,4,0,4,2,3,2,1,3,0,1,1,1,0,1,5,2,2,2,1,1,3,2,1,3,0,0,2,3,0,0,0,0,0,0,0,0,0,0,0,0,0,0,0,0,0,0,0,0,0,0,0,0,0,0,0,0,0,0,0,0,0,0,0,0,0,0,0,0,0,0,0,0,0,0,0,0,0,0,0,0,0,0,0,0,0,0,0,0],"split_type":[0,0,0,0,0,0,0,0,0,0,0,0,0,0,0,0,0,0,0,0,0,0,0,0,0,0,0,0,0,0,0,0,0,0,0,0,0,0,0,0,0,0,0,0,0,0,0,0,0,0,0,0,0,0,0,0,0,0,0,0,0,0,0,0,0,0,0,0,0,0,0,0,0,0,0,0,0,0,0,0,0,0,0,0,0,0,0,0,0,0,0,0,0,0,0,0,0,0,0,0,0,0,0,0,0,0,0,0,0,0,0,0,0,0,0,0,0,0,0,0,0,0,0],"sum_hessian":[7.9563E4,2.9927E4,4.9636E4,1.3097E4,1.683E4,2.1771E4,2.7865E4,3.278E3,9.819E3,8.273E3,8.557E3,5.526E3,1.6245E4,1.3528E4,1.4337E4,9.83E2,2.295E3,7.616E3,2.203E3,2.851E3,5.422E3,5.639E3,2.918E3,1.645E3,3.881E3,1.4094E4,2.151E3,4.658E3,8.87E3,1.0644E4,3.693E3,1.1E1,9.72E2,1.792E3,5.03E2,1.054E3,6.562E3,1.902E3,3.01E2,1.466E3,1.385E3,1.915E3,3.507E3,9.32E2,4.707E3,2.083E3,8.35E2,2.4E1,1.621E3,2.377E3,1.504E3,1.206E4,2.034E3,6.4E2,1.511E3,1.489E3,3.169E3,3.087E3,5.783E3,3.454E3,7.19E3,2.556E3,1.137E3,5.03E2,4.69E2,4.18E2,1.374E3,3.4E1,4.69E2,5.09E2,5.45E2,1.932E3,4.63E3,9.7E2,9.32E2,2.7E2,3.1E1,1.16E3,3.06E2,6.92E2,6.93E2,9.01E2,1.014E3,4E2,3.107E3,3.82E2,5.5E2,3.512E3,1.195E3,1.541E3,5.42E2,6.24E2,2.11E2,8.59E2,7.62E2,1.714E3,6.63E2,1.42E2,1.362E3,2.052E3,1.0008E4,1.851E3,1.83E2,1.37E2,5.03E2,8.95E2,6.16E2,7.86E2,7.03E2,1.466E3,1.703E3,1.531E3,1.556E3,3.079E3,2.704E3,1.471E3,1.983E3,3.013E3,4.177E3,1.109E3,1.447E3,1E3,1.37E2],"tree_param":{"num_deleted":"0","num_feature":"6","num_nodes":"123","size_leaf_vector":"0"}},{"base_weights":[-1.5480803E-1,-4.232785E-1,-4.4328935E-2,-5.3658766E-1,-3.3474067E-1,-2.0811552E-1,8.338494E-2,-6.847329E-1,-4.8678535E-1,-2.2799096E-1,-5.096118E-1,-4.0234926E-1,-1.4231385E-1,2.7954116E-1,-1.01422474E-1,-8.075055E-1,-5.825327E-1,-5.627447E-1,-4.3757826E-1,-2.3070803E-2,-3.124521E-1,-5.925006E-1,-3.4744567E-1,-5.5153114E-1,-3.3880845E-1,-1.8395925E-1,-7.246936E-2,1.1486165E-1,4.767821E-1,-2.9607978E-1,-5.587989E-2,-2.3792043E0,-7.9451436E-1,-7.130016E-1,-5.5226564E-1,-4.84298E-1,-6.500091E-1,-5.148571E-1,-3.076325E-1,-2.2218673E-1,8.454991E-2,-4.5376432E-1,-2.3356579E-1,-6.75282E-1,-5.316148E-1,-5.506886E-1,-2.943837E-1,-4.216739E-1,-8.7955654E-1,-5.923622E-1,-3.2209358E-1,2.154552E-1,-2.8795245E-1,-6.4868575E-1,7.582788E-2,2.2352158E-1,-1.5448937E-1,2.0475343E-1,6.3360953E-1,-6.1721075E-1,-2.607148E-1,4.7170487E-3,-2.0876245E-1,-5.7147276E-1,-8.3392096E-1,-9.978631E-1,-6.369889E-1,-4.1167018E-1,-5.759735E-1,-2.2567175E-1,-9.221652E-1,-1.3372718E0,-3.6190626E-1,-6.411393E-1,-4.8416045E-1,-3.3442315E-1,-1.0472526E-1,-3.2457677E-1,-1.2024605E-1,-9.791528E-2,1.6062537E-1,-5.3977114E-1,-3.7284684E-1,-4.349921E-1,-1.4955468E-1,-8.8177586E-1,-6.4357305E-1,-6.363554E-1,-5.1318747E-1,-3.5063645E-1,-5.857987E-1,-1.6901584E-1,-3.4353787E-1,-3.1702347E-2,-8.4949267E-1,-1.1961925E0,-4.7041678E-1,-1.114191E0,-4.1464433E-1,-2.9235977E-1,-4.5712635E-1,5.5619186E-1,-4.1544935E-1,-5.432518E-1,-2.1171588E-1,6.358024E-2,-1.0067828E0,3.4318787E-1,-5.0139762E-3,-1.9402996E-2,3.4151143E-1,-1.2517433E-1,-6.012924E-1,-1.5011009E-2,3.7003863E-1,7.46196E-1,3.559113E-1,-8.013258E-1,-1.3690108E-1,-2.3692162E-1,-6.80376E-1,4.0024E-2,-2.689325E-1,-2.5350547E-1,-7.4263096E-2],"categories":[],"categories_nodes":[],"categories_segments":[],"categories_sizes":[],"default_left":[1,1,1,1,1,1,1,1,1,1,1,1,1,1,1,1,1,1,1,1,1,1,1,1,1,1,1,1,1,1,1,0,1,1,1,1,1,1,1,1,1,1,1,1,1,1,1,1,1,1,1,1,1,1,1,1,1,1,1,1,1,1,1,0,0,0,0,0,0,0,0,0,0,0,0,0,0,0,0,0,0,0,0,0,0,0,0,0,0,0,0,0,0,0,0,0,0,0,0,0,0,0,0,0,0,0,0,0,0,0,0,0,0,0,0,0,0,0,0,0,0,0,0,0,0],"id":3,"left_children":[1,3,5,7,9,11,13,15,17,19,21,23,25,27,29,31,33,35,37,39,41,43,45,47,49,51,53,55,57,59,61,-1,63,65,67,69,71,73,75,77,79,81,83,85,87,89,91,93,95,97,99,101,103,105,107,109,111,113,115,117,119,121,123,-1,-1,-1,-1,-1,-1,-1,-1,-1,-1,-1,-1,-1,-1,-1,-1,-1,-1,-1,-1,-1,-1,-1,-1,-1,-1,-1,-1,-1,-1,-1,-1,-1,-1,-1,-1,-1,-1,-1,-1,-1,-1,-1,-1,-1,-1,-1,-1,-1,-1,-1,-1,-1,-1,-1,-1,-1,-1,-1,-1,-1,-1],"loss_changes":[2.3598792E3,2.3252637E2,1.1791338E3,7.472266E1,2.4300842E2,3.1559265E2,1.1482103E3,3.1613281E1,2.8224121E1,1.3999545E2,6.61427E1,5.904834E1,5.364926E1,4.9902405E2,1.4456592E2,2.1774292E1,5.130768E0,2.01604E1,4.6306213E1,5.0634083E1,6.3747437E1,1.609729E1,1.7869507E1,7.907153E1,1.8393341E1,4.8009808E2,5.8906506E2,2.4515118E2,2.9811707E2,3.4954254E1,1.2245538E2,0E0,9.639954E0,4.9941864E0,3.5627747E0,1.7860413E2,2.7929333E2,1.0931274E1,9.358414E0,8.613827E0,2.1309372E1,1.4072632E1,6.2174255E1,8.468323E0,3.3135376E0,2.2178116E0,8.125542E0,2.2320119E2,6.7838806E1,2.4577362E1,1.6392242E1,5.1358496E2,1.7836206E2,3.5995416E2,1.1851061E2,1.7106528E2,3.1464851E1,9.292185E1,1.3836389E2,2.695057E1,2.7667221E1,9.147837E1,2.2560379E1,0E0,0E0,0E0,0E0,0E0,0E0,0E0,0E0,0E0,0E0,0E0,0E0,0E0,0E0,0E0,0E0,0E0,0E0,0E0,0E0,0E0,0E0,0E0,0E0,0E0,0E0,0E0,0E0,0E0,0E0,0E0,0E0,0E0,0E0,0E0,0E0,0E0,0E0,0E0,0E0,0E0,0E0,0E0,0E0,0E0,0E0,0E0,0E0,0E0,0E0,0E0,0E0,0E0,0E0,0E0,0E0,0E0,0E0,0E0,0E0,0E0,0E0],"parents":[2147483647,0,0,1,1,2,2,3,3,4,4,5,5,6,6,7,7,8,8,9,9,10,10,11,11,12,12,13,13,14,14,15,15,16,16,17,17,18,18,19,19,20,20,21,21,22,22,23,23,24,24,25,25,26,26,27,27,28,28,29,29,30,30,32,32,33,33,34,34,35,35,36,36,37,37,38,38,39,39,40,40,41,41,42,42,43,43,44,44,45,45,46,46,47,47,48,48,49,49,50,50,51,51,52,52,53,53,54,54,55,55,56,56,57,57,58,58,59,59,60,60,61,61,62,62],"right_children":[2,4,6,8,10,12,14,16,18,20,22,24,26,28,30,32,34,36,38,40,42,44,46,48,50,52,54,56,58,60,62,-1,64,66,68,70,72,74,76,78,80,82,84,86,88,90,92,94,96,98,100,102,104,106,108,110,112,114,116,118,120,122,124,-1,-1,-1,-1,-1,-1,-1,-1,-1,-1,-1,-1,-1,-1,-1,-1,-1,-1,-1,-1,-1,-1,-1,-1,-1,-1,-1,-1,-1,-1,-1,-1,-1,-1,-1,-1,-1,-1,-1,-1,-1,-1,-1,-1,-1,-1,-1,-1,-1,-1,-1,-1,-1,-1,-1,-1,-1,-1,-1,-1,-1,-1],"split_conditions":[6.5E0,5.5E0,5.5E0,2.0205E3,9.5E0,2.0205E3,8.5E0,3.5E0,2.5E0,1.5E0,1.15E1,2.5E0,2.0225E3,2.0215E3,2.0195E3,2.0195E3,6.5E0,1.5E0,2.0225E3,2.0205E3,2.0205E3,2.0205E3,2.0195E3,2.15E1,2.5E0,1.5E0,1.5E0,4.5E0,6.5E0,3.5E0,4.5E0,-7.137613E-1,5E-1,1.5E0,5E-1,2.0225E3,2.0215E3,6.5E0,2.75E1,7.5E0,6.5E0,7.5E0,6.5E0,4.5E0,5E-1,5E-1,1.5E0,1.5E0,1.5E0,1.5E0,2.05E1,2.05E1,2.5E0,1.05E1,2.5E0,6.5E0,2.25E1,1.35E1,2.15E1,1.15E1,2.25E1,2.15E1,1.15E1,-1.7144184E-1,-2.501763E-1,-2.9935893E-1,-1.9109668E-1,-1.23501055E-1,-1.7279206E-1,-6.7701526E-2,-2.7664956E-1,-4.0118155E-1,-1.0857188E-1,-1.923418E-1,-1.4524814E-1,-1.0032695E-1,-3.141758E-2,-9.737303E-2,-3.607382E-2,-2.9374585E-2,4.8187613E-2,-1.6193135E-1,-1.11854054E-1,-1.3049763E-1,-4.4866405E-2,-2.6453277E-1,-1.9307192E-1,-1.9090663E-1,-1.5395625E-1,-1.0519094E-1,-1.7573962E-1,-5.0704755E-2,-1.0306136E-1,-9.510704E-3,-2.5484782E-1,-3.5885775E-1,-1.4112504E-1,-3.3425733E-1,-1.2439331E-1,-8.770794E-2,-1.371379E-1,1.6685757E-1,-1.2463481E-1,-1.6297555E-1,-6.351477E-2,1.9074071E-2,-3.0203485E-1,1.0295636E-1,-1.504193E-3,-5.820899E-3,1.0245343E-1,-3.75523E-2,-1.8038772E-1,-4.5033027E-3,1.11011595E-1,2.238588E-1,1.067734E-1,-2.4039775E-1,-4.1070327E-2,-7.107649E-2,-2.0411281E-1,1.2007201E-2,-8.067975E-2,-7.6051645E-2,-2.227893E-2],"split_indices":[3,1,1,0,1,0,1,1,1,3,1,1,0,0,0,0,2,1,0,0,0,0,0,2,2,1,1,5,1,2,5,0,3,5,3,0,0,2,2,1,1,1,1,2,5,3,3,1,1,5,3,2,1,2,1,1,3,2,2,1,3,3,1,0,0,0,0,0,0,0,0,0,0,0,0,0,0,0,0,0,0,0,0,0,0,0,0,0,0,0,0,0,0,0,0,0,0,0,0,0,0,0,0,0,0,0,0,0,0,0,0,0,0,0,0,0,0,0,0,0,0,0,0,0,0],"split_type":[0,0,0,0,0,0,0,0,0,0,0,0,0,0,0,0,0,0,0,0,0,0,0,0,0,0,0,0,0,0,0,0,0,0,0,0,0,0,0,0,0,0,0,0,0,0,0,0,0,0,0,0,0,0,0,0,0,0,0,0,0,0,0,0,0,0,0,0,0,0,0,0,0,0,0,0,0,0,0,0,0,0,0,0,0,0,0,0,0,0,0,0,0,0,0,0,0,0,0,0,0,0,0,0,0,0,0,0,0,0,0,0,0,0,0,0,0,0,0,0,0,0,0,0,0],"sum_hessian":[7.9563E4,2.3195E4,5.6368E4,1.0172E4,1.3023E4,2.4696E4,3.1672E4,2.556E3,7.616E3,8.088E3,4.935E3,6.248E3,1.8448E4,1.5364E4,1.6308E4,1.158E3,1.398E3,2.99E3,4.626E3,2.361E3,5.727E3,3.264E3,1.671E3,1.864E3,4.384E3,1.1556E4,6.892E3,8.374E3,6.99E3,3.091E3,1.3217E4,8E0,1.15E3,2.59E2,1.139E3,1.578E3,1.412E3,2.899E3,1.727E3,8.28E2,1.533E3,2.05E3,3.677E3,1.379E3,1.885E3,3.44E2,1.327E3,1.337E3,5.27E2,2.69E2,4.115E3,2.387E3,9.169E3,1.41E3,5.482E3,5.967E3,2.407E3,2.557E3,4.433E3,3.05E2,2.786E3,9.466E3,3.751E3,1.75E2,9.75E2,5.2E1,2.07E2,1.67E2,9.72E2,9.93E2,5.85E2,4.16E2,9.96E2,5.63E2,2.336E3,1.525E3,2.02E2,4.12E2,4.16E2,4.51E2,1.082E3,9.91E2,1.059E3,1.081E3,2.596E3,1.8E2,1.199E3,2.77E2,1.608E3,5.3E1,2.91E2,3.75E2,9.52E2,7E2,6.37E2,2.96E2,2.31E2,6.7E1,2.02E2,3.375E3,7.4E2,1.55E3,8.37E2,2.107E3,7.062E3,4.72E2,9.38E2,1.272E3,4.21E3,1.951E3,4.016E3,2.26E3,1.47E2,1.098E3,1.459E3,3.153E3,1.28E3,2.2E2,8.5E1,2.638E3,1.48E2,8.385E3,1.081E3,2.814E3,9.37E2],"tree_param":{"num_deleted":"0","num_feature":"6","num_nodes":"125","size_leaf_vector":"0"}},{"base_weights":[-1.0845697E-1,-2.7292985E-1,-9.287948E-3,-3.510765E-1,-2.1209937E-1,-1.297829E-1,8.485637E-2,-4.5464885E-1,-3.1645688E-1,-1.4135075E-1,-3.2680693E-1,-2.71065E-1,-8.170979E-2,2.3096132E-1,-5.301076E-2,-5.657963E-1,-4.0681618E-1,-3.5684863E-1,-2.3701653E-1,-2.600768E-1,-7.6574914E-2,-3.8923734E-1,-2.0545699E-1,-3.816811E-1,-2.2409302E-1,-2.6482904E-1,-6.843191E-2,3.5637617E-1,4.3085817E-2,-3.0638587E-2,-3.8155937E-1,-1.9244862E0,-5.484581E-1,-6.359198E-1,-3.9209673E-1,-2.6111352E-1,-4.0554368E-1,-3.2430136E-1,-1.796965E-1,-5.7899814E-2,-2.8482178E-1,-2.0441405E-1,-2.3750493E-2,-4.292516E-1,-3.106126E-1,-2.5799996E-1,-8.512885E-2,-2.0828729E0,-3.552252E-1,-8.078879E-2,-2.463323E-1,-8.459603E-2,-9.676819E-1,-5.5227157E-2,-2.5264424E-1,4.6084803E-1,9.531315E-2,-9.5511764E-2,2.0898078E-1,-7.785622E-2,1.048454E-1,-4.4611874E-1,-1.8188147E-1,-4.0188587E-1,-7.044665E-1,-1.4156349E0,-3.9453486E-1,-4.3256214E-1,-3.0867237E-1,-2.0648718E-1,-3.133628E-1,-4.6791723E-1,-3.6555302E-1,-4.5528516E-1,-2.6819935E-1,-5.8515817E-2,-2.4060681E-1,5.3135934E-3,-2.9371116E-1,-3.5443074E-1,-2.1960841E-1,-4.002049E-1,-1.4141926E-1,6.1605234E-2,-1.2926354E-1,-5.351762E-1,-4.030148E-1,-4.7827148E-1,-2.6893803E-1,-3.3692202E-1,-1.5641215E-1,-2.5083601E-2,-2.0165443E-1,-2.2617054E-1,-5.969161E-1,-5.1606333E-1,-5.9734035E-2,-2.3179208E-1,-4.1055444E-1,2.2919814E-1,-1.9422111E-1,-1.0483812E0,-8.551991E-1,-1.2958905E-1,-2.4187177E-2,-2.1120872E-1,-3.8028964E-1,2.56326E-1,5.674458E-1,-1.0115778E-1,1.916577E-1,-2.9835619E-2,-4.28696E-1,2.8206563E-1,-1.3968511E-1,8.342006E-2,-1.5468049E-1,5.8701072E-2,3.0457222E-1,-5.479432E-1,-3.713676E-1,-5.3430773E-2,-3.087226E-1],"categories":[],"categories_nodes":[],"categories_segments":[],"categories_sizes":[],"default_left":[1,1,1,1,1,1,1,1,1,1,1,1,1,1,1,1,1,1,1,1,1,1,1,1,1,1,1,1,1,1,1,0,1,1,1,1,1,1,1,1,1,1,1,1,1,1,1,0,1,1,1,1,1,1,1,1,1,1,1,1,1,1,1,0,0,0,0,0,0,0,0,0,0,0,0,0,0,0,0,0,0,0,0,0,0,0,0,0,0,0,0,0,0,0,0,0,0,0,0,0,0,0,0,0,0,0,0,0,0,0,0,0,0,0,0,0,0,0,0,0,0,0,0],"id":4,"left_children":[1,3,5,7,9,11,13,15,17,19,21,23,25,27,29,31,33,35,37,39,41,43,45,47,49,51,53,55,57,59,61,-1,63,65,67,69,71,73,75,77,79,81,83,85,87,89,91,-1,93,95,97,99,101,103,105,107,109,111,113,115,117,119,121,-1,-1,-1,-1,-1,-1,-1,-1,-1,-1,-1,-1,-1,-1,-1,-1,-1,-1,-1,-1,-1,-1,-1,-1,-1,-1,-1,-1,-1,-1,-1,-1,-1,-1,-1,-1,-1,-1,-1,-1,-1,-1,-1,-1,-1,-1,-1,-1,-1,-1,-1,-1,-1,-1,-1,-1,-1,-1,-1,-1],"loss_changes":[1.2977354E3,1.4219409E2,5.630889E2,4.6820923E1,1.3654413E2,1.4785043E2,5.613191E2,1.7202515E1,3.142517E1,8.005438E1,4.8557434E1,2.8631958E1,3.948297E1,3.1876007E2,1.0537758E2,2.2124817E1,7.493408E0,3.0233276E1,1.6517197E1,1.8369034E1,4.549705E1,1.319989E1,1.3779831E1,7.334094E1,1.2351959E1,1.3900981E2,3.6835663E1,2.212279E2,1.245711E2,8.589102E1,1.1701294E1,0E0,2.1966003E1,2.522646E1,7.158203E0,6.205948E0,1.0584595E1,9.5190735E0,1.4762985E1,5.993949E0,1.4784241E1,2.424099E1,4.2958252E1,7.5825195E0,9.883896E0,1.2125916E1,4.647819E0,0E0,5.0457336E1,4.7622585E0,7.9279327E0,3.0144266E1,1.1367188E0,3.262777E1,5.2774887E0,1.2617297E2,4.393445E1,6.458363E1,6.2878494E1,1.2336706E2,3.1962547E1,5.048462E0,3.6493912E0,0E0,0E0,0E0,0E0,0E0,0E0,0E0,0E0,0E0,0E0,0E0,0E0,0E0,0E0,0E0,0E0,0E0,0E0,0E0,0E0,0E0,0E0,0E0,0E0,0E0,0E0,0E0,0E0,0E0,0E0,0E0,0E0,0E0,0E0,0E0,0E0,0E0,0E0,0E0,0E0,0E0,0E0,0E0,0E0,0E0,0E0,0E0,0E0,0E0,0E0,0E0,0E0,0E0,0E0,0E0,0E0,0E0,0E0,0E0,0E0],"parents":[2147483647,0,0,1,1,2,2,3,3,4,4,5,5,6,6,7,7,8,8,9,9,10,10,11,11,12,12,13,13,14,14,15,15,16,16,17,17,18,18,19,19,20,20,21,21,22,22,23,23,24,24,25,25,26,26,27,27,28,28,29,29,30,30,32,32,33,33,34,34,35,35,36,36,37,37,38,38,39,39,40,40,41,41,42,42,43,43,44,44,45,45,46,46,48,48,49,49,50,50,51,51,52,52,53,53,54,54,55,55,56,56,57,57,58,58,59,59,60,60,61,61,62,62],"right_children":[2,4,6,8,10,12,14,16,18,20,22,24,26,28,30,32,34,36,38,40,42,44,46,48,50,52,54,56,58,60,62,-1,64,66,68,70,72,74,76,78,80,82,84,86,88,90,92,-1,94,96,98,100,102,104,106,108,110,112,114,116,118,120,122,-1,-1,-1,-1,-1,-1,-1,-1,-1,-1,-1,-1,-1,-1,-1,-1,-1,-1,-1,-1,-1,-1,-1,-1,-1,-1,-1,-1,-1,-1,-1,-1,-1,-1,-1,-1,-1,-1,-1,-1,-1,-1,-1,-1,-1,-1,-1,-1,-1,-1,-1,-1,-1,-1,-1,-1,-1,-1,-1,-1],"split_conditions":[8.5E0,5.5E0,5.5E0,2.0205E3,9.5E0,2.0205E3,8.5E0,2.5E0,5.5E0,2.0205E3,1.15E1,2.5E0,2.5E0,1.75E1,2.25E1,2.0195E3,2.5E0,1.5E0,2.5E0,5E-1,6.5E0,5.5E0,2.0215E3,2.0195E3,1.05E1,4.5E0,2.25E1,4.5E0,2.0215E3,1.15E1,1.15E1,-5.7734585E-1,1.5E0,1.5E0,5.5E0,2.25E1,2.5E0,2.0215E3,3.5E0,8.5E0,7.5E0,7.5E0,1.65E1,2.0195E3,6.5E0,1.75E1,2.05E1,-6.248619E-1,1.95E1,2.5E0,2.25E1,1.5E0,1.5E0,2.0215E3,3.75E1,2.0205E3,6.5E0,2.25E1,2.25E1,9.5E0,2.55E1,2.0205E3,2.25E1,-1.20565765E-1,-2.1133997E-1,-4.2469049E-1,-1.1836046E-1,-1.2976865E-1,-9.260172E-2,-6.1946157E-2,-9.400885E-2,-1.4037518E-1,-1.0966591E-1,-1.3658555E-1,-8.045981E-2,-1.7554745E-2,-7.2182044E-2,1.5940781E-3,-8.811335E-2,-1.06329225E-1,-6.588253E-2,-1.2006147E-1,-4.242578E-2,1.8481571E-2,-3.877906E-2,-1.6055287E-1,-1.20904446E-1,-1.4348145E-1,-8.068141E-2,-1.0107661E-1,-4.692365E-2,-7.525081E-3,-6.0496334E-2,-6.785116E-2,-1.7907482E-1,-1.5481901E-1,-1.7920211E-2,-6.9537625E-2,-1.2316634E-1,6.875945E-2,-5.8266334E-2,-3.1451437E-1,-2.5655973E-1,-3.8876716E-2,-7.2561535E-3,-6.336262E-2,-1.14086896E-1,7.68978E-2,1.7023376E-1,-3.0347334E-2,5.7497315E-2,-8.950686E-3,-1.2860881E-1,8.461969E-2,-4.1905534E-2,2.502602E-2,-4.640415E-2,1.7610323E-2,9.137167E-2,-1.6438296E-1,-1.1141028E-1,-1.6029233E-2,-9.261678E-2],"split_indices":[3,1,1,0,1,0,1,1,3,0,1,1,2,3,3,0,2,3,1,3,1,3,0,0,3,1,3,5,0,1,1,0,1,5,3,4,1,0,1,1,1,2,2,0,2,2,2,0,2,2,3,1,2,0,4,0,1,3,3,1,2,0,4,0,0,0,0,0,0,0,0,0,0,0,0,0,0,0,0,0,0,0,0,0,0,0,0,0,0,0,0,0,0,0,0,0,0,0,0,0,0,0,0,0,0,0,0,0,0,0,0,0,0,0,0,0,0,0,0,0,0,0,0],"split_type":[0,0,0,0,0,0,0,0,0,0,0,0,0,0,0,0,0,0,0,0,0,0,0,0,0,0,0,0,0,0,0,0,0,0,0,0,0,0,0,0,0,0,0,0,0,0,0,0,0,0,0,0,0,0,0,0,0,0,0,0,0,0,0,0,0,0,0,0,0,0,0,0,0,0,0,0,0,0,0,0,0,0,0,0,0,0,0,0,0,0,0,0,0,0,0,0,0,0,0,0,0,0,0,0,0,0,0,0,0,0,0,0,0,0,0,0,0,0,0,0,0,0,0],"sum_hessian":[7.9563E4,2.9927E4,4.9636E4,1.3097E4,1.683E4,2.1771E4,2.7865E4,3.278E3,9.819E3,1.0411E4,6.419E3,5.526E3,1.6245E4,1.3528E4,1.4337E4,9.83E2,2.295E3,6.507E3,3.312E3,3.674E3,6.737E3,4.237E3,2.182E3,1.645E3,3.881E3,1.097E3,1.5148E4,8.112E3,5.416E3,1.3424E4,9.13E2,1.1E1,9.72E2,1.36E2,2.159E3,2.196E3,4.311E3,1.311E3,2.001E3,4.01E2,3.273E3,1.969E3,4.768E3,2.805E3,1.432E3,1.518E3,6.64E2,2.4E1,1.621E3,5.22E2,3.359E3,8.74E2,2.23E2,1.4136E4,1.012E3,5.793E3,2.319E3,2.951E3,2.465E3,9.955E3,3.469E3,6.89E2,2.24E2,5.03E2,4.69E2,3.1E1,1.05E2,1.451E3,7.08E2,1.076E3,1.12E3,1.68E3,2.631E3,3.91E2,9.2E2,6.7E2,1.331E3,3.17E2,8.4E1,1.581E3,1.692E3,4.78E2,1.491E3,2.636E3,2.132E3,5.53E2,2.252E3,2.83E2,1.149E3,8.53E2,6.65E2,4.39E2,2.25E2,1.058E3,5.63E2,2.3E1,4.99E2,3.088E3,2.71E2,2.26E2,6.48E2,1.25E2,9.8E1,4.162E3,9.974E3,7.66E2,2.46E2,1.986E3,3.807E3,7.63E2,1.556E3,2.466E3,4.85E2,2.038E3,4.27E2,3.212E3,6.743E3,2.819E3,6.5E2,2.89E2,4E2,1.12E2,1.12E2],"tree_param":{"num_deleted":"0","num_feature":"6","num_nodes":"123","size_leaf_vector":"0"}},{"base_weights":[-7.5991385E-2,-1.9116953E-1,-6.544647E-3,-2.4593583E-1,-1.4853866E-1,-9.094088E-2,5.9395254E-2,-2.7509606E-1,-1.7126124E-1,-7.591246E-2,-2.1873738E-1,-1.8996935E-1,-5.724512E-2,1.6168621E-1,-3.712823E-2,-9.8805085E-2,-3.163948E-1,-5.4569435E-1,-7.590423E-2,-1.5288082E-1,1.621636E-2,-3.348309E-1,-1.9087622E-1,-2.2457653E-1,-9.733497E-2,-2.9846555E-2,-1.2491005E-1,-8.111939E-3,2.5084502E-1,-1.8985431E-3,-1.838587E-1,1.3044052E-1,-5.5905664E-1,-5.246924E-1,-2.6125658E-1,-1.06730215E-1,-7.840019E-1,-1.9326982E-1,1.5869312E-2,-2.5597066E-1,-9.574153E-2,3.1863695E-1,-2.2848517E-2,-5.037456E-1,-3.140047E-1,-2.2724208E-1,-1.2103025E-1,-2.1139646E-1,-4.0414113E-1,-2.0193659E-1,-2.833816E-2,7.256397E-2,-5.501577E-2,-2.0649894E-1,-1.0009424E-1,-2.2663863E-1,7.260983E-2,-4.5625493E-2,3.0825442E-1,2.8553681E-2,-1.8815255E-1,-2.3990108E-1,-2.2284323E-2,2.281933E-1,-1.3416824E-1,-3.4393474E-1,-6.478719E-1,-7.382428E-1,-2.2072065E-1,-3.744147E-1,-2.3932499E-1,8.2927406E-2,-3.2152855E-1,-5.9079087E-1,-8.867251E-1,-3.826459E-1,-1.6035378E-1,2.501923E-1,-5.3354032E-2,-3.509953E-1,-7.2712354E-2,-2.1749447E-1,-3.784786E-2,5.674318E-2,3.641532E-1,-2.5250006E-1,1.619945E-2,-6.511919E-1,-3.6192045E-1,-3.320097E-1,-1.7373092E-1,-1.4496478E-1,-2.68824E-1,-2.1478541E-1,-2.6136728E-2,-1.11593425E-1,-2.3950788E-1,-5.679417E-1,-3.0522898E-1,-5.103284E-1,-1.7891508E-1,4.746219E-2,-1.4764881E-1,-8.498487E-2,8.907681E-2,-1.627812E-1,-3.747979E-2,8.825918E-2,-2.8232765E-1,4.0494803E-2,-1.3486503E-1,-3.2562873E-1,7.168401E-2,-2.0756876E-1,1.1768884E-1,-3.4378955E-1,2.7448386E-1,3.8056532E-1,1.3721918E-1,-9.296071E-2,5.668921E-2,-2.9672977E-1,-1.095108E-1,-3.360533E-1,-1.7159118E-1,-8.032946E-2,1.0981048E-1],"categories":[],"categories_nodes":[],"categories_segments":[],"categories_sizes":[],"default_left":[1,1,1,1,1,1,1,1,1,1,1,1,1,1,1,1,1,1,1,1,1,1,1,1,1,1,1,1,1,1,1,1,1,1,1,1,1,1,1,1,1,1,1,1,1,1,1,1,1,1,1,1,1,1,1,1,1,1,1,1,1,1,1,0,0,0,0,0,0,0,0,0,0,0,0,0,0,0,0,0,0,0,0,0,0,0,0,0,0,0,0,0,0,0,0,0,0,0,0,0,0,0,0,0,0,0,0,0,0,0,0,0,0,0,0,0,0,0,0,0,0,0,0,0,0,0,0],"id":5,"left_children":[1,3,5,7,9,11,13,15,17,19,21,23,25,27,29,31,33,35,37,39,41,43,45,47,49,51,53,55,57,59,61,63,65,67,69,71,73,75,77,79,81,83,85,87,89,91,93,95,97,99,101,103,105,107,109,111,113,115,117,119,121,123,125,-1,-1,-1,-1,-1,-1,-1,-1,-1,-1,-1,-1,-1,-1,-1,-1,-1,-1,-1,-1,-1,-1,-1,-1,-1,-1,-1,-1,-1,-1,-1,-1,-1,-1,-1,-1,-1,-1,-1,-1,-1,-1,-1,-1,-1,-1,-1,-1,-1,-1,-1,-1,-1,-1,-1,-1,-1,-1,-1,-1,-1,-1,-1,-1],"loss_changes":[6.3641113E2,6.983728E1,2.7623923E2,2.8474182E1,8.579233E1,7.263878E1,2.7514038E2,6.8537415E1,1.3138803E2,5.8673443E1,2.7616943E1,1.769667E1,3.011509E1,2.048176E2,7.4116615E1,1.8883148E2,8.749481E1,7.805884E1,3.1616116E1,2.6529785E1,4.4510708E1,5.663864E0,1.7508728E1,9.435699E0,1.0856129E1,2.9813847E1,9.458954E0,8.220056E1,1.5100024E2,6.558897E1,2.5131378E1,3.094078E1,1.1145294E1,1.0343863E2,1.4887665E1,1.0781532E1,9.082214E0,7.9674034E0,2.6744932E1,2.7958862E1,2.0447168E1,5.1170387E0,2.992839E1,3.5284042E0,3.6701508E0,1.5490097E1,2.1044113E1,1.0494308E1,4.2659607E0,4.1542816E0,8.218768E0,5.944374E0,1.753854E1,2.441E1,1.7564564E1,3.71438E1,4.3004913E1,1.375353E2,9.186456E1,3.3985435E1,1.3842892E1,1.3479294E1,5.498723E0,0E0,0E0,0E0,0E0,0E0,0E0,0E0,0E0,0E0,0E0,0E0,0E0,0E0,0E0,0E0,0E0,0E0,0E0,0E0,0E0,0E0,0E0,0E0,0E0,0E0,0E0,0E0,0E0,0E0,0E0,0E0,0E0,0E0,0E0,0E0,0E0,0E0,0E0,0E0,0E0,0E0,0E0,0E0,0E0,0E0,0E0,0E0,0E0,0E0,0E0,0E0,0E0,0E0,0E0,0E0,0E0,0E0,0E0,0E0,0E0,0E0,0E0,0E0,0E0],"parents":[2147483647,0,0,1,1,2,2,3,3,4,4,5,5,6,6,7,7,8,8,9,9,10,10,11,11,12,12,13,13,14,14,15,15,16,16,17,17,18,18,19,19,20,20,21,21,22,22,23,23,24,24,25,25,26,26,27,27,28,28,29,29,30,30,31,31,32,32,33,33,34,34,35,35,36,36,37,37,38,38,39,39,40,40,41,41,42,42,43,43,44,44,45,45,46,46,47,47,48,48,49,49,50,50,51,51,52,52,53,53,54,54,55,55,56,56,57,57,58,58,59,59,60,60,61,61,62,62],"right_children":[2,4,6,8,10,12,14,16,18,20,22,24,26,28,30,32,34,36,38,40,42,44,46,48,50,52,54,56,58,60,62,64,66,68,70,72,74,76,78,80,82,84,86,88,90,92,94,96,98,100,102,104,106,108,110,112,114,116,118,120,122,124,126,-1,-1,-1,-1,-1,-1,-1,-1,-1,-1,-1,-1,-1,-1,-1,-1,-1,-1,-1,-1,-1,-1,-1,-1,-1,-1,-1,-1,-1,-1,-1,-1,-1,-1,-1,-1,-1,-1,-1,-1,-1,-1,-1,-1,-1,-1,-1,-1,-1,-1,-1,-1,-1,-1,-1,-1,-1,-1,-1,-1,-1,-1,-1,-1],"split_conditions":[8.5E0,5.5E0,5.5E0,2.0225E3,8.5E0,2.0205E3,8.5E0,1.5E0,1.5E0,2.0215E3,2.0195E3,4.5E0,4.5E0,6.5E0,2.05E1,2.05E1,2.5E0,1.15E1,1.35E1,1.15E1,5E-1,3.5E0,5.5E0,2.25E1,1.25E1,1.15E1,7.5E0,8.5E0,2.0195E3,5.5E0,1.15E1,1.55E1,2.35E1,1.75E1,5.5E0,6.5E0,1.85E1,2.5E0,2.5E0,7.5E0,6.5E0,4.5E0,4.5E0,1.05E1,7.5E0,1.5E0,2.25E1,1.5E0,2.5E0,1.5E0,1.75E1,3.5E0,4.5E0,1.5E0,1.25E1,2.0225E3,2.0195E3,1.65E1,4.5E0,2.0195E3,2.0205E3,2.0205E3,2.0215E3,6.845799E-2,-4.0250473E-2,-1.0318043E-1,-1.9436158E-1,-2.2147284E-1,-6.62162E-2,-1.1232442E-1,-7.17975E-2,2.4878222E-2,-9.645857E-2,-1.7723727E-1,-2.6601756E-1,-1.1479378E-1,-4.8106138E-2,7.50577E-2,-1.600621E-2,-1.0529859E-1,-2.1813707E-2,-6.524835E-2,-1.1354359E-2,1.7022954E-2,1.0924596E-1,-7.575002E-2,4.859835E-3,-1.9535758E-1,-1.0857614E-1,-9.9602915E-2,-5.211928E-2,-4.3489438E-2,-8.064721E-2,-6.443562E-2,-7.841019E-3,-3.347803E-2,-7.185237E-2,-1.7038253E-1,-9.156869E-2,-1.5309852E-1,-5.3674527E-2,1.4238658E-2,-4.4294644E-2,-2.5495462E-2,2.6723044E-2,-4.883436E-2,-1.1243938E-2,2.6477756E-2,-8.46983E-2,1.2148442E-2,-4.045951E-2,-9.768862E-2,2.1505203E-2,-6.227063E-2,3.5306655E-2,-1.0313687E-1,8.234516E-2,1.141696E-1,4.1165754E-2,-2.7888214E-2,1.7006764E-2,-8.901893E-2,-3.2853242E-2,-1.00816E-1,-5.1477354E-2,-2.409884E-2,3.2943144E-2],"split_indices":[3,1,1,0,1,0,1,1,1,0,0,1,5,1,3,2,1,2,2,2,3,2,3,3,2,3,2,2,0,5,1,2,2,2,2,2,2,2,1,1,1,2,2,1,3,3,4,1,1,2,3,2,2,1,2,0,0,2,5,0,0,0,0,0,0,0,0,0,0,0,0,0,0,0,0,0,0,0,0,0,0,0,0,0,0,0,0,0,0,0,0,0,0,0,0,0,0,0,0,0,0,0,0,0,0,0,0,0,0,0,0,0,0,0,0,0,0,0,0,0,0,0,0,0,0,0,0],"split_type":[0,0,0,0,0,0,0,0,0,0,0,0,0,0,0,0,0,0,0,0,0,0,0,0,0,0,0,0,0,0,0,0,0,0,0,0,0,0,0,0,0,0,0,0,0,0,0,0,0,0,0,0,0,0,0,0,0,0,0,0,0,0,0,0,0,0,0,0,0,0,0,0,0,0,0,0,0,0,0,0,0,0,0,0,0,0,0,0,0,0,0,0,0,0,0,0,0,0,0,0,0,0,0,0,0,0,0,0,0,0,0,0,0,0,0,0,0,0,0,0,0,0,0,0,0,0,0],"sum_hessian":[7.9563E4,2.9927E4,4.9636E4,1.3097E4,1.683E4,2.1771E4,2.7865E4,9.417E3,3.68E3,8.273E3,8.557E3,5.526E3,1.6245E4,1.3528E4,1.4337E4,1.788E3,7.629E3,7.46E2,2.934E3,4.507E3,3.766E3,1.654E3,6.903E3,4.022E3,1.504E3,1.1564E4,4.681E3,4.658E3,8.87E3,1.1562E4,2.775E3,1.194E3,5.94E2,1.595E3,6.034E3,2.63E2,4.83E2,1.287E3,1.647E3,1.606E3,2.901E3,4.3E2,3.336E3,1.79E2,1.475E3,4.538E3,2.365E3,3.749E3,2.73E2,5.97E2,9.07E2,2.281E3,9.283E3,1.09E3,3.591E3,1.256E3,3.402E3,1.439E3,7.431E3,9.938E3,1.624E3,2.06E3,7.15E2,8.72E2,3.22E2,1.75E2,4.19E2,9.36E2,6.59E2,9.77E2,5.057E3,1.4E2,1.23E2,1.7E2,3.13E2,1.89E2,1.098E3,3.75E2,1.272E3,1.057E3,5.49E2,9.34E2,1.967E3,6.4E1,3.66E2,4.84E2,2.852E3,8.6E1,9.3E1,1.306E3,1.69E2,1.525E3,3.013E3,1.189E3,1.176E3,8.25E2,2.924E3,1.01E2,1.72E2,4E1,5.57E2,5.55E2,3.52E2,2.16E2,2.065E3,1.298E3,7.985E3,2.23E2,8.67E2,7.12E2,2.879E3,9.43E2,3.13E2,4.71E2,2.931E3,7.45E2,6.94E2,5.222E3,2.209E3,1.868E3,8.07E3,6.81E2,9.43E2,8.54E2,1.206E3,4.97E2,2.18E2],"tree_param":{"num_deleted":"0","num_feature":"6","num_nodes":"127","size_leaf_vector":"0"}},{"base_weights":[-5.3233612E-2,-1.5277249E-1,-1.22721465E-2,-2.3823839E-2,-1.7420438E-1,1.02948705E-2,-1.4883578E-1,7.844032E-2,-5.7682823E-2,-2.6836133E-1,-1.5874289E-1,-5.395148E-2,6.0377575E-2,-2.570047E-1,-1.2573147E-1,5.9248437E-3,1.504147E-1,-1.8886493E-1,-3.515315E-2,-2.9274404E-1,-1.4999588E-1,-1.9415046E-1,-1.179188E-1,-1.0046824E-1,-1.2135326E-2,3.424793E-2,2.895679E-1,-3.1831706E-1,-1.9382286E-1,-2.7085173E-1,-1.05487235E-1,-2.9425764E-2,9.500608E-2,3.31673E-1,1.967572E-2,-1.2270907E-1,-2.1854116E-1,-9.643366E-2,1.4791705E-2,-3.111011E-1,-2.1706842E-1,-2.0010102E-1,4.1063162E-3,-2.1971463E-1,-1.2648232E-1,-2.9056357E-2,-1.7418079E-1,-2.3951866E-1,-2.786919E-2,5.9914414E-2,-1.1722371E-1,5.941066E-2,-1.5562107E-1,3.7001532E-1,6.0808696E-2,-3.8813525E-1,-2.9621103E-1,-3.065329E-1,-1.7845471E-1,-3.127704E-1,5.913885E-3,-9.13274E-2,-2.9432774E-1,2.259771E-1,-7.2717845E-2,-1.9309393E-1,1.563988E-1,2.4015872E-1,4.5671162E-1,-1.1308577E-1,4.354157E-2,-1.4956851E-1,-2.50145E-2,-2.3390017E-1,-1.413171E-1,-1.6277274E-1,-7.077867E-2,1.2323906E-1,-9.202644E-2,-2.7021214E-1,-3.3774576E-1,-2.333073E-1,2.1695612E-1,-2.8503427E-1,-1.5538509E-1,-2.8144846E-2,1.3994354E-1,-1.2540114E-1,-2.3685242E-1,-3.827863E-1,-7.5112104E-2,9.3641214E-2,-9.159382E-2,-2.5558597E-1,-1.5488246E-1,9.457449E-2,-6.2220174E-1,-8.9042515E-2,5.302991E-2,-1.4416112E-1,1.6405606E-1,-2.5595564E-1,7.24358E-3,1.2268169E-1,-2.253132E-2,-8.241941E-2,-2.3276584E-1,1.902916E-1,4.5759538E-1,-3.5172257E-1,2.4835137E-1,-3.913889E-2,-4.1473022E-1,-2.4389122E-1,-3.2443368E-1,6.527019E-2,-3.5907874E-1,-1.9506192E-1,-1.0773514E-1,-4.6764016E-1,-2.9426998E-1,2.413497E-1,-2.2106816E-1,-1.3009405E-1,-4.2521823E-2,-2.2234066E-1,-3.662829E-1],"categories":[],"categories_nodes":[],"categories_segments":[],"categories_sizes":[],"default_left":[1,1,1,1,1,1,1,1,1,1,1,1,1,1,1,1,1,1,1,1,1,1,1,1,1,1,1,1,1,1,1,1,1,1,1,1,1,1,1,1,1,1,1,1,1,1,1,1,1,1,1,1,1,1,1,1,1,1,1,1,1,1,1,0,0,0,0,0,0,0,0,0,0,0,0,0,0,0,0,0,0,0,0,0,0,0,0,0,0,0,0,0,0,0,0,0,0,0,0,0,0,0,0,0,0,0,0,0,0,0,0,0,0,0,0,0,0,0,0,0,0,0,0,0,0,0,0],"id":6,"left_children":[1,3,5,7,9,11,13,15,17,19,21,23,25,27,29,31,33,35,37,39,41,43,45,47,49,51,53,55,57,59,61,63,65,67,69,71,73,75,77,79,81,83,85,87,89,91,93,95,97,99,101,103,105,107,109,111,113,115,117,119,121,123,125,-1,-1,-1,-1,-1,-1,-1,-1,-1,-1,-1,-1,-1,-1,-1,-1,-1,-1,-1,-1,-1,-1,-1,-1,-1,-1,-1,-1,-1,-1,-1,-1,-1,-1,-1,-1,-1,-1,-1,-1,-1,-1,-1,-1,-1,-1,-1,-1,-1,-1,-1,-1,-1,-1,-1,-1,-1,-1,-1,-1,-1,-1,-1,-1],"loss_changes":[3.2440112E2,6.4100586E1,1.7372144E2,1.1455214E1,2.8913391E1,1.5565936E2,1.9946045E1,4.2945566E0,7.3377523E0,8.0486145E0,2.4676025E1,4.1220444E1,1.6279184E2,5.384903E0,1.9328918E1,1.2970657E0,9.780553E0,6.87809E-1,6.4961185E0,3.1609344E0,3.7147722E0,1.5798889E1,3.9686592E1,1.0126564E2,8.451354E1,1.16602325E2,5.117488E1,9.839325E-1,1.1491394E0,9.352779E0,1.54392395E1,3.2782242E0,2.0996072E0,1.8699245E0,7.6852417E-1,2.980212E-1,2.6346684E-1,1.6104174E0,1.3564792E1,1.9438629E0,3.2715912E0,1.3343372E0,5.252668E-1,1.070105E1,3.303206E1,2.3634342E1,7.5969696E0,4.399969E2,3.262765E1,1.4075946E2,7.839671E1,1.1172472E2,1.6109001E1,3.2306274E1,5.617858E1,1.5430698E0,7.256241E-1,1.6254478E0,7.0009995E-1,1.8679962E0,5.7714033E0,1.0177372E1,2.0060349E0,0E0,0E0,0E0,0E0,0E0,0E0,0E0,0E0,0E0,0E0,0E0,0E0,0E0,0E0,0E0,0E0,0E0,0E0,0E0,0E0,0E0,0E0,0E0,0E0,0E0,0E0,0E0,0E0,0E0,0E0,0E0,0E0,0E0,0E0,0E0,0E0,0E0,0E0,0E0,0E0,0E0,0E0,0E0,0E0,0E0,0E0,0E0,0E0,0E0,0E0,0E0,0E0,0E0,0E0,0E0,0E0,0E0,0E0,0E0,0E0,0E0,0E0,0E0,0E0],"parents":[2147483647,0,0,1,1,2,2,3,3,4,4,5,5,6,6,7,7,8,8,9,9,10,10,11,11,12,12,13,13,14,14,15,15,16,16,17,17,18,18,19,19,20,20,21,21,22,22,23,23,24,24,25,25,26,26,27,27,28,28,29,29,30,30,31,31,32,32,33,33,34,34,35,35,36,36,37,37,38,38,39,39,40,40,41,41,42,42,43,43,44,44,45,45,46,46,47,47,48,48,49,49,50,50,51,51,52,52,53,53,54,54,55,55,56,56,57,57,58,58,59,59,60,60,61,61,62,62],"right_children":[2,4,6,8,10,12,14,16,18,20,22,24,26,28,30,32,34,36,38,40,42,44,46,48,50,52,54,56,58,60,62,64,66,68,70,72,74,76,78,80,82,84,86,88,90,92,94,96,98,100,102,104,106,108,110,112,114,116,118,120,122,124,126,-1,-1,-1,-1,-1,-1,-1,-1,-1,-1,-1,-1,-1,-1,-1,-1,-1,-1,-1,-1,-1,-1,-1,-1,-1,-1,-1,-1,-1,-1,-1,-1,-1,-1,-1,-1,-1,-1,-1,-1,-1,-1,-1,-1,-1,-1,-1,-1,-1,-1,-1,-1,-1,-1,-1,-1,-1,-1,-1,-1,-1,-1,-1,-1],"split_conditions":[6.5E0,5E-1,5.5E0,7.5E0,5E-1,5.5E0,9.5E0,6.5E0,5E-1,5.5E0,6.5E0,2.0215E3,2.0225E3,2.25E1,2.0195E3,2.0225E3,8.5E0,2.25E1,5.5E0,2.0225E3,3.75E1,2.0225E3,8.5E0,2.5E0,3.5E0,2.15E1,2.15E1,7.5E0,4.5E0,2.75E1,2.25E1,1.5E0,1.5E0,2.0215E3,5E-1,2.55E1,2.0225E3,2.0205E3,8.5E0,2.5E0,7.5E0,7.5E0,2.0225E3,1.5E0,1.5E0,2.5E0,2.0195E3,1.5E0,2.0205E3,1.5E0,2.0225E3,9.5E0,2.25E1,6.5E0,2.45E1,1.5E0,7.5E0,1.5E0,2.55E1,2.5E0,2.85E1,6.5E0,2.25E1,6.779313E-2,-2.1815354E-2,-5.792818E-2,4.6919644E-2,7.204762E-2,1.370135E-1,-3.392573E-2,1.30624715E-2,-4.4870555E-2,-7.50435E-3,-7.017005E-2,-4.239513E-2,-4.8831824E-2,-2.1233601E-2,3.697172E-2,-2.7607935E-2,-8.106364E-2,-1.0132373E-1,-6.999219E-2,6.508684E-2,-8.551028E-2,-4.661553E-2,-8.443454E-3,4.1983064E-2,-3.7620343E-2,-7.105573E-2,-1.14835896E-1,-2.2533633E-2,2.8092366E-2,-2.7478145E-2,-7.6675795E-2,-4.646474E-2,2.8372347E-2,-1.8666053E-1,-2.6712755E-2,1.5908973E-2,-4.3248337E-2,4.921682E-2,-7.67867E-2,2.173074E-3,3.680451E-2,-6.7593963E-3,-2.4725825E-2,-6.9829755E-2,5.708748E-2,1.3727862E-1,-1.0551678E-1,7.450541E-2,-1.1741668E-2,-1.2441907E-1,-7.316737E-2,-9.733011E-2,1.9581059E-2,-1.0772362E-1,-5.8518577E-2,-3.2320544E-2,-1.4029205E-1,-8.8281E-2,7.240491E-2,-6.632045E-2,-3.9028216E-2,-1.2756548E-2,-6.67022E-2,-1.0988488E-1],"split_indices":[3,3,5,4,5,1,3,1,5,3,1,0,0,4,0,0,1,4,1,0,4,0,1,1,1,3,2,2,2,2,3,1,1,0,5,2,0,0,1,3,1,4,0,1,1,3,0,1,0,1,0,1,3,2,2,1,3,1,2,2,2,1,4,0,0,0,0,0,0,0,0,0,0,0,0,0,0,0,0,0,0,0,0,0,0,0,0,0,0,0,0,0,0,0,0,0,0,0,0,0,0,0,0,0,0,0,0,0,0,0,0,0,0,0,0,0,0,0,0,0,0,0,0,0,0,0,0],"split_type":[0,0,0,0,0,0,0,0,0,0,0,0,0,0,0,0,0,0,0,0,0,0,0,0,0,0,0,0,0,0,0,0,0,0,0,0,0,0,0,0,0,0,0,0,0,0,0,0,0,0,0,0,0,0,0,0,0,0,0,0,0,0,0,0,0,0,0,0,0,0,0,0,0,0,0,0,0,0,0,0,0,0,0,0,0,0,0,0,0,0,0,0,0,0,0,0,0,0,0,0,0,0,0,0,0,0,0,0,0,0,0,0,0,0,0,0,0,0,0,0,0,0,0,0,0,0,0],"sum_hessian":[7.9563E4,2.3195E4,5.6368E4,3.306E3,1.9889E4,4.8375E4,7.993E3,8.22E2,2.484E3,2.803E3,1.7086E4,2.1191E4,2.7184E4,1.405E3,6.588E3,4.1E2,4.12E2,3.63E2,2.121E3,2.323E3,4.8E2,9.148E3,7.938E3,1.0031E4,1.116E4,2.4403E4,2.781E3,7.11E2,6.94E2,8.05E2,5.783E3,2.94E2,1.16E2,1.72E2,2.4E2,1.14E2,2.49E2,9.52E2,1.169E3,1.867E3,4.56E2,3.62E2,1.18E2,6.638E3,2.51E3,3.078E3,4.86E3,3.44E3,6.591E3,6.621E3,4.539E3,2.1548E4,2.855E3,2.057E3,7.24E2,1.67E2,5.44E2,8.1E1,6.13E2,6.99E2,1.06E2,5.381E3,4.02E2,4.2E1,2.52E2,2E1,9.6E1,1.01E2,7.1E1,3.6E1,2.04E2,8.9E1,2.5E1,2.06E2,4.3E1,2.64E2,6.88E2,5.8E2,5.89E2,7.41E2,1.126E3,4.4E2,1.6E1,1.23E2,2.39E2,9.6E1,2.2E1,1.022E3,5.616E3,4.18E2,2.092E3,1.039E3,2.039E3,9.29E2,3.931E3,1.837E3,1.603E3,3.753E3,2.838E3,2.237E3,4.384E3,2.146E3,2.393E3,1.2159E4,9.389E3,1.466E3,1.389E3,6.75E2,1.382E3,2.26E2,4.98E2,1.2E1,1.55E2,1.94E2,3.5E2,1E1,7.1E1,4.95E2,1.18E2,7.2E1,6.27E2,5.2E1,5.4E1,2.998E3,2.383E3,2.03E2,1.99E2],"tree_param":{"num_deleted":"0","num_feature":"6","num_nodes":"127","size_leaf_vector":"0"}},{"base_weights":[-3.7285298E-2,-9.7397834E-2,-1.0404547E-3,-1.4063077E-1,-7.670982E-2,1.7614108E-2,-1.223457E-1,-2.0905346E-1,-1.1870551E-1,-1.04083836E-1,-3.853704E-2,-2.5169946E-2,6.632427E-2,-9.0642065E-2,-2.1664004E-1,-2.4331534E-1,-1.3928893E-1,-1.6525671E-1,-7.905304E-2,-1.699295E-1,-8.7724686E-2,1.0258956E-2,-1.0162532E-1,-6.302519E-2,9.904783E-3,1.838919E-1,-5.8569717E-3,-1.597986E-1,-5.894747E-2,-1.5569139E-1,-2.7888224E-1,-1.6122884E-1,-2.8749394E-1,-2.0177695E-1,-7.692442E-2,-2.0334992E-1,-5.2258547E-2,-3.4624778E-2,-1.2464471E-1,1.5537821E-1,-2.339085E-1,-1.15372464E-1,-3.264649E-2,4.928902E-2,-1.3953824E-1,-1.355215E-1,-3.4841977E-2,-1.7153437E-1,-2.14768E-2,-5.162302E-2,5.121887E-2,9.8937914E-2,2.9356486E-1,-4.028017E-2,9.266898E-2,-1.9093938E-1,-1.4685826E-2,-1.0439224E-1,1.665215E-3,-2.236796E-1,-1.19633034E-1,-3.7601694E-1,-2.6612553E-1,-6.920565E-2,-1.7968309E-1,-3.6624208E-1,-2.3082022E-1,-3.4462157E-1,-1.9096E-1,-2.0792781E-1,-4.8613373E-2,-2.6150712E-1,-1.6929123E-1,1.6230941E-1,-1.7465967E-1,-1.0643008E-1,1.6391316E-1,-1.7919727E-1,3.5861064E-2,2.742663E-1,1.0071342E-1,-4.926044E-1,-1.709716E-1,-6.370253E-2,-1.679171E-1,-1.439699E-1,4.6162005E-3,1.4914094E-1,-9.14158E-4,-1.8687797E-1,-4.8227523E-2,-1.22342125E-1,-2.0937309E-1,-1.16890244E-1,3.664793E-2,9.349855E-2,-4.7383052E-1,-1.3551219E-1,1.3130941E-2,2.9156896E-1,-1.2021398E-1,-3.225721E-1,1.3172778E-1,1.998089E-1,-3.450609E-2,3.4859768E-1,-1.7522117E-2,6.0935356E-2,-8.836081E-2,1.3657725E-1,-2.3730617E-2,-1.4533822E-1,-2.2241461E-1,-5.5527367E-2,2.8773907E-1,-8.0995575E-2,-2.180207E-1,4.5524094E-2,-1.3983217E-1,-2.5301147E-1,-1.11260094E-1,-1.5869726E-1,-6.1548974E-2,-4.875855E-1,-2.2262298E-1,-3.0403665E-1,-2.1714483E-1],"categories":[],"categories_nodes":[],"categories_segments":[],"categories_sizes":[],"default_left":[1,1,1,1,1,1,1,1,1,1,1,1,1,1,1,1,1,1,1,1,1,1,1,1,1,1,1,1,1,1,1,1,1,1,1,1,1,1,1,1,1,1,1,1,1,1,1,1,1,1,1,1,1,1,1,1,1,1,1,1,1,1,1,0,0,0,0,0,0,0,0,0,0,0,0,0,0,0,0,0,0,0,0,0,0,0,0,0,0,0,0,0,0,0,0,0,0,0,0,0,0,0,0,0,0,0,0,0,0,0,0,0,0,0,0,0,0,0,0,0,0,0,0,0,0,0,0],"id":7,"left_children":[1,3,5,7,9,11,13,15,17,19,21,23,25,27,29,31,33,35,37,39,41,43,45,47,49,51,53,55,57,59,61,63,65,67,69,71,73,75,77,79,81,83,85,87,89,91,93,95,97,99,101,103,105,107,109,111,113,115,117,119,121,123,125,-1,-1,-1,-1,-1,-1,-1,-1,-1,-1,-1,-1,-1,-1,-1,-1,-1,-1,-1,-1,-1,-1,-1,-1,-1,-1,-1,-1,-1,-1,-1,-1,-1,-1,-1,-1,-1,-1,-1,-1,-1,-1,-1,-1,-1,-1,-1,-1,-1,-1,-1,-1,-1,-1,-1,-1,-1,-1,-1,-1,-1,-1,-1,-1],"loss_changes":[1.7335152E2,2.6756927E1,1.1232554E2,1.4504471E1,2.1149796E1,8.966031E1,1.9758728E1,5.580841E0,1.3530083E1,1.2683968E1,2.6032463E1,3.0413025E1,1.7072601E2,1.0847004E1,6.2690964E0,5.6617126E0,3.0085773E0,1.4512634E1,8.024998E0,4.8842514E1,1.4378983E1,2.788929E1,8.343807E0,4.9660645E1,3.0226606E1,7.127515E1,4.2283154E1,7.0286446E0,9.360064E0,2.0398903E0,9.184952E-1,9.266796E-1,4.476593E0,5.321617E-1,1.4363408E0,4.9531784E0,2.2404728E1,2.8657907E1,1.713316E1,2.4809895E0,3.182756E1,1.7061089E1,1.3100711E1,1.8968887E1,4.2530937E0,2.3551178E0,7.2952533E0,2.4440549E2,3.1443602E1,1.12485E2,2.141277E2,5.8076046E1,5.718686E1,4.496705E1,1.6501242E1,1.8063011E0,3.4249907E0,5.145199E0,9.048388E0,9.3141556E-1,1.2449937E0,1.4830503E0,1.2895241E0,0E0,0E0,0E0,0E0,0E0,0E0,0E0,0E0,0E0,0E0,0E0,0E0,0E0,0E0,0E0,0E0,0E0,0E0,0E0,0E0,0E0,0E0,0E0,0E0,0E0,0E0,0E0,0E0,0E0,0E0,0E0,0E0,0E0,0E0,0E0,0E0,0E0,0E0,0E0,0E0,0E0,0E0,0E0,0E0,0E0,0E0,0E0,0E0,0E0,0E0,0E0,0E0,0E0,0E0,0E0,0E0,0E0,0E0,0E0,0E0,0E0,0E0,0E0,0E0],"parents":[2147483647,0,0,1,1,2,2,3,3,4,4,5,5,6,6,7,7,8,8,9,9,10,10,11,11,12,12,13,13,14,14,15,15,16,16,17,17,18,18,19,19,20,20,21,21,22,22,23,23,24,24,25,25,26,26,27,27,28,28,29,29,30,30,31,31,32,32,33,33,34,34,35,35,36,36,37,37,38,38,39,39,40,40,41,41,42,42,43,43,44,44,45,45,46,46,47,47,48,48,49,49,50,50,51,51,52,52,53,53,54,54,55,55,56,56,57,57,58,58,59,59,60,60,61,61,62,62],"right_children":[2,4,6,8,10,12,14,16,18,20,22,24,26,28,30,32,34,36,38,40,42,44,46,48,50,52,54,56,58,60,62,64,66,68,70,72,74,76,78,80,82,84,86,88,90,92,94,96,98,100,102,104,106,108,110,112,114,116,118,120,122,124,126,-1,-1,-1,-1,-1,-1,-1,-1,-1,-1,-1,-1,-1,-1,-1,-1,-1,-1,-1,-1,-1,-1,-1,-1,-1,-1,-1,-1,-1,-1,-1,-1,-1,-1,-1,-1,-1,-1,-1,-1,-1,-1,-1,-1,-1,-1,-1,-1,-1,-1,-1,-1,-1,-1,-1,-1,-1,-1,-1,-1,-1,-1,-1,-1],"split_conditions":[8.5E0,2.0205E3,2.15E1,4.5E0,6.5E0,6.5E0,3.75E1,5.5E0,2.0195E3,6.5E0,9.5E0,2.0215E3,8.5E0,2.0205E3,2.25E1,1.5E0,2.25E1,2.35E1,8.5E0,1.5E0,5.5E0,2.45E1,1.15E1,2.5E0,1.25E1,2.0215E3,1.15E1,1.05E1,6.5E0,2.0205E3,3.5E0,5.5E0,2.5E0,2.5E0,2.0195E3,7.5E0,7.5E0,7.5E0,1.15E1,2.0215E3,2.5E0,2.5E0,7.5E0,2.5E0,5.5E0,5.5E0,2.0215E3,1.5E0,7.5E0,1.5E0,1.5E0,3.5E0,2.65E1,9.5E0,4.5E0,5.5E0,2.75E1,5.5E0,2.35E1,1.05E1,6.5E0,7.5E0,2.0215E3,-2.0761695E-2,-5.390493E-2,-1.0987263E-1,-6.924607E-2,-1.0338648E-1,-5.7288002E-2,-6.2378343E-2,-1.4584012E-2,-7.845214E-2,-5.078737E-2,4.8692826E-2,-5.2397903E-2,-3.1929027E-2,4.917395E-2,-5.3759184E-2,1.075832E-2,8.227989E-2,3.0214027E-2,-1.4778133E-1,-5.1291484E-2,-1.911076E-2,-5.0375134E-2,-4.319097E-2,1.3848601E-3,4.4742282E-2,-2.742474E-4,-5.606339E-2,-1.4468257E-2,-3.670264E-2,-6.2811926E-2,-3.5067074E-2,1.0994379E-2,2.8049566E-2,-1.4214917E-1,-4.0653657E-2,3.9392826E-3,8.7470695E-2,-3.6064196E-2,-9.6771635E-2,3.9518338E-2,5.994267E-2,-1.0351827E-2,1.0457931E-1,-5.256635E-3,1.8280607E-2,-2.6508244E-2,4.0973175E-2,-7.1191853E-3,-4.360147E-2,-6.672439E-2,-1.6658211E-2,8.632173E-2,-2.4298673E-2,-6.540622E-2,1.3657229E-2,-4.1949652E-2,-7.5903445E-2,-3.337803E-2,-4.760918E-2,-1.8464694E-2,-1.4627565E-1,-6.678689E-2,-9.1211E-2,-6.514345E-2],"split_indices":[3,0,3,1,1,1,4,3,0,2,1,0,1,0,3,3,4,2,1,1,3,2,1,1,2,0,1,1,1,0,2,2,1,2,0,1,1,1,1,0,1,3,4,3,3,5,0,1,2,1,1,5,2,1,5,1,2,1,2,1,1,1,0,0,0,0,0,0,0,0,0,0,0,0,0,0,0,0,0,0,0,0,0,0,0,0,0,0,0,0,0,0,0,0,0,0,0,0,0,0,0,0,0,0,0,0,0,0,0,0,0,0,0,0,0,0,0,0,0,0,0,0,0,0,0,0,0],"split_type":[0,0,0,0,0,0,0,0,0,0,0,0,0,0,0,0,0,0,0,0,0,0,0,0,0,0,0,0,0,0,0,0,0,0,0,0,0,0,0,0,0,0,0,0,0,0,0,0,0,0,0,0,0,0,0,0,0,0,0,0,0,0,0,0,0,0,0,0,0,0,0,0,0,0,0,0,0,0,0,0,0,0,0,0,0,0,0,0,0,0,0,0,0,0,0,0,0,0,0,0,0,0,0,0,0,0,0,0,0,0,0,0,0,0,0,0,0,0,0,0,0,0,0,0,0,0,0],"sum_hessian":[7.9563E4,2.9927E4,4.9636E4,9.684E3,2.0243E4,4.3021E4,6.615E3,2.348E3,7.336E3,1.1788E4,8.455E3,2.2904E4,2.0117E4,4.952E3,1.663E3,1.573E3,7.75E2,3.373E3,3.963E3,2.344E3,9.444E3,4.768E3,3.687E3,1.1015E4,1.1889E4,7.652E3,1.2465E4,1.555E3,3.397E3,8.42E2,8.21E2,5.52E2,1.021E3,3.86E2,3.89E2,2.522E3,8.51E2,2.008E3,1.955E3,3.85E2,1.959E3,6.287E3,3.157E3,3.783E3,9.85E2,2.445E3,1.242E3,3.049E3,7.966E3,4.776E3,7.113E3,4.313E3,3.339E3,9.238E3,3.227E3,1.28E3,2.75E2,1.941E3,1.456E3,2.9E2,5.52E2,9.2E1,7.29E2,9.3E1,4.59E2,4.25E2,5.96E2,2.5E1,3.61E2,6.8E1,3.21E2,9.29E2,1.593E3,3.09E2,5.42E2,1.475E3,5.33E2,1.459E3,4.96E2,1.2E2,2.65E2,3.82E2,1.577E3,3.171E3,3.116E3,7.91E2,2.366E3,1.265E3,2.518E3,6.48E2,3.37E2,2.077E3,3.68E2,5.78E2,6.64E2,1.625E3,1.424E3,1.854E3,6.112E3,7.95E2,3.981E3,1.26E3,5.853E3,2.456E3,1.857E3,2.837E3,5.02E2,2.975E3,6.263E3,2.343E3,8.84E2,5.25E2,7.55E2,2.43E2,3.2E1,1.611E3,3.3E2,1.112E3,3.44E2,2.29E2,6.1E1,3.29E2,2.23E2,5.2E1,4E1,4.08E2,3.21E2],"tree_param":{"num_deleted":"0","num_feature":"6","num_nodes":"127","size_leaf_vector":"0"}},{"base_weights":[-2.6120864E-2,-8.382249E-2,-6.9126515E-3,-3.7742484E-2,-1.3076474E-1,1.8325511E-2,-6.999064E-2,4.222765E-3,-7.9383455E-2,-1.5307328E-1,-8.6526915E-2,-7.455267E-2,3.173685E-2,-1.5865143E-1,-5.7452325E-2,-9.112769E-2,1.980642E-2,-1.6506103E-1,-6.518465E-2,-2.160727E-1,-1.4248985E-1,-1.2658581E-1,-4.525838E-2,-1.5282156E0,-6.666201E-2,-1.1256679E-2,6.944773E-2,-1.4479907E-1,-1.0549622E0,-1.1717417E-1,-4.0474888E-2,-1.0433739E-1,5.734439E-2,-2.4872558E-2,5.346258E-2,-1.7591701E-1,-4.788554E-2,-7.965457E-2,8.984338E-4,-2.2853944E-1,-1.484401E-1,-1.7715667E-1,-1.2570125E-1,-1.7651299E-1,-1.1452738E-1,-1.1774756E-1,-3.195952E-2,-1.1931061E-1,4.3634232E-2,-5.8167824E-3,-1.0334797E-1,1.1020341E-1,4.737523E-3,-1.8929768E-1,8.78229E-2,-4.9113783E-1,-1.1661855E0,-1.6615301E-1,-6.719745E-2,-7.079509E-2,-2.397899E-3,-2.254891E-1,-8.824156E-2,1.8470818E-1,-1.5946491E-1,-4.0802605E-2,1.7858088E-2,1.1229657E-1,-4.9843807E-3,-8.001403E-2,-1.8618444E-1,1.3497007E-1,-2.3509502E-1,-3.637434E-2,-1.0059073E-1,-2.5191167E-1,3.904301E-2,-1.3207236E-1,-2.3801588E-1,-4.2662054E-1,-1.1411675E-1,-3.0204245E-1,-1.6272368E-1,-1.446913E-1,-9.83886E-2,5.0572544E-2,-1.8925248E-1,-1.366226E-1,-8.610181E-2,-1.0530206E-1,-3.5788244E-1,-1.8075066E-2,-1.15528226E-1,-2.2216392E-1,-3.712188E-2,1.9510114E-1,-8.298248E-2,-1.21369526E-1,-2.2144536E-3,-4.5889497E-2,-1.5738207E-1,1.720027E-1,7.0314687E-3,-1.6146151E-2,1.4170095E-1,-1.1278543E-1,-2.115516E-1,2.4051659E-1,-1.1391722E-1,-2.7244234E-1,-1.554847E-1,-2.5998242E-2,-1.0974453E-1,-9.4836034E-2,1.7146856E-2,4.0067784E-2,-1.2499657E-1],"categories":[],"categories_nodes":[],"categories_segments":[],"categories_sizes":[],"default_left":[1,1,1,1,1,1,1,1,1,1,1,1,1,1,1,1,1,1,1,1,1,1,1,0,1,1,1,1,1,1,1,1,1,1,1,1,1,1,1,1,1,1,1,1,1,1,1,1,1,1,1,1,1,1,1,0,0,1,1,1,1,0,0,0,0,0,0,0,0,0,0,0,0,0,0,0,0,0,0,0,0,0,0,0,0,0,0,0,0,0,0,0,0,0,0,0,0,0,0,0,0,0,0,0,0,0,0,0,0,0,0,0,0,0,0,0,0],"id":8,"left_children":[1,3,5,7,9,11,13,15,17,19,21,23,25,27,29,31,33,35,37,39,41,43,45,-1,47,49,51,53,55,57,59,61,63,65,67,69,71,73,75,77,79,81,83,85,87,89,91,93,95,97,99,101,103,105,107,-1,-1,109,111,113,115,-1,-1,-1,-1,-1,-1,-1,-1,-1,-1,-1,-1,-1,-1,-1,-1,-1,-1,-1,-1,-1,-1,-1,-1,-1,-1,-1,-1,-1,-1,-1,-1,-1,-1,-1,-1,-1,-1,-1,-1,-1,-1,-1,-1,-1,-1,-1,-1,-1,-1,-1,-1,-1,-1,-1,-1],"loss_changes":[8.818379E1,4.297798E1,9.503249E1,1.752575E1,9.700638E0,5.3110657E1,1.8954643E1,7.4254045E0,6.1131954E0,4.331085E0,5.453045E0,6.160862E1,6.0406456E1,2.6082268E1,1.5150375E1,1.3827949E0,6.459819E0,9.0109825E-1,4.130928E0,7.578049E-1,3.239296E0,9.8820496E-1,1.5656667E0,0E0,3.1083958E1,8.721237E0,5.2344772E1,2.1568142E1,1.433979E0,8.08617E0,1.34382305E1,1.2378759E0,1.6310463E0,1.2573032E0,8.425296E0,6.290798E-1,2.1541338E0,3.2076378E0,7.5027065E0,6.9166565E-1,1.3739796E0,3.2421722E0,1.945816E0,9.468889E-1,8.373852E-1,7.154412E-1,1.5956528E0,3.0618362E1,3.3194546E1,6.8430285E0,3.0074587E0,7.764513E1,2.194365E1,2.9524536E0,1.0346888E1,0E0,0E0,1.8512993E0,2.8701591E0,1.3701691E1,2.6874395E1,0E0,0E0,0E0,0E0,0E0,0E0,0E0,0E0,0E0,0E0,0E0,0E0,0E0,0E0,0E0,0E0,0E0,0E0,0E0,0E0,0E0,0E0,0E0,0E0,0E0,0E0,0E0,0E0,0E0,0E0,0E0,0E0,0E0,0E0,0E0,0E0,0E0,0E0,0E0,0E0,0E0,0E0,0E0,0E0,0E0,0E0,0E0,0E0,0E0,0E0,0E0,0E0,0E0,0E0,0E0,0E0],"parents":[2147483647,0,0,1,1,2,2,3,3,4,4,5,5,6,6,7,7,8,8,9,9,10,10,11,11,12,12,13,13,14,14,15,15,16,16,17,17,18,18,19,19,20,20,21,21,22,22,24,24,25,25,26,26,27,27,28,28,29,29,30,30,31,31,32,32,33,33,34,34,35,35,36,36,37,37,38,38,39,39,40,40,41,41,42,42,43,43,44,44,45,45,46,46,47,47,48,48,49,49,50,50,51,51,52,52,53,53,54,54,57,57,58,58,59,59,60,60],"right_children":[2,4,6,8,10,12,14,16,18,20,22,24,26,28,30,32,34,36,38,40,42,44,46,-1,48,50,52,54,56,58,60,62,64,66,68,70,72,74,76,78,80,82,84,86,88,90,92,94,96,98,100,102,104,106,108,-1,-1,110,112,114,116,-1,-1,-1,-1,-1,-1,-1,-1,-1,-1,-1,-1,-1,-1,-1,-1,-1,-1,-1,-1,-1,-1,-1,-1,-1,-1,-1,-1,-1,-1,-1,-1,-1,-1,-1,-1,-1,-1,-1,-1,-1,-1,-1,-1,-1,-1,-1,-1,-1,-1,-1,-1,-1,-1,-1,-1],"split_conditions":[5.5E0,2.5E0,4.5E0,2.25E1,4.5E0,2.0195E3,2.0195E3,5E-1,5E-1,5E-1,2.25E1,2.5E0,5.5E0,3.05E1,9.5E0,2.85E1,5.5E0,2.85E1,2.0225E3,2.65E1,2.0205E3,6.5E0,2.5E0,-4.584647E-1,2.15E1,2.25E1,1.65E1,2.65E1,7.5E0,2.25E1,6.5E0,2.0195E3,7.5E0,2.0225E3,8.5E0,1.5E0,2.0215E3,5E-1,1.5E0,1.5E0,1.5E0,2.5E0,6.5E0,1.5E0,2.0215E3,2.85E1,5.5E0,7.5E0,7.5E0,1.5E0,2.25E1,9.5E0,1.15E1,5.5E0,8E0,-1.4734136E-1,-3.4985566E-1,3.5E0,5.5E0,2.45E1,2.35E1,-6.7646734E-2,-2.647247E-2,5.5412456E-2,-4.7839474E-2,-1.2240782E-2,5.3574266E-3,3.368897E-2,-1.4953143E-3,-2.400421E-2,-5.5855334E-2,4.0491022E-2,-7.052851E-2,-1.0912303E-2,-3.0177219E-2,-7.5573504E-2,1.1712903E-2,-3.962171E-2,-7.140476E-2,-1.2798616E-1,-3.4235027E-2,-9.061274E-2,-4.8817106E-2,-4.340739E-2,-2.951658E-2,1.51717635E-2,-5.6775745E-2,-4.098678E-2,-2.5830543E-2,-3.159062E-2,-1.0736474E-1,-5.42252E-3,-3.465847E-2,-6.6649176E-2,-1.1136564E-2,5.8530346E-2,-2.4894746E-2,-3.641086E-2,-6.6433614E-4,-1.3766849E-2,-4.7214624E-2,5.1600814E-2,2.1094407E-3,-4.8438455E-3,4.2510286E-2,-3.383563E-2,-6.346548E-2,7.215498E-2,-3.4175165E-2,-8.1732705E-2,-4.6645414E-2,-7.799473E-3,-3.292336E-2,-2.8450811E-2,5.144057E-3,1.20203355E-2,-3.7498973E-2],"split_indices":[3,3,5,4,3,0,0,5,5,5,4,1,1,2,3,2,1,2,0,2,0,2,1,0,2,3,3,2,3,4,1,0,1,0,1,1,0,3,1,1,1,1,1,1,0,2,5,1,1,2,4,1,1,1,1,0,0,2,5,2,2,0,0,0,0,0,0,0,0,0,0,0,0,0,0,0,0,0,0,0,0,0,0,0,0,0,0,0,0,0,0,0,0,0,0,0,0,0,0,0,0,0,0,0,0,0,0,0,0,0,0,0,0,0,0,0,0],"split_type":[0,0,0,0,0,0,0,0,0,0,0,0,0,0,0,0,0,0,0,0,0,0,0,0,0,0,0,0,0,0,0,0,0,0,0,0,0,0,0,0,0,0,0,0,0,0,0,0,0,0,0,0,0,0,0,0,0,0,0,0,0,0,0,0,0,0,0,0,0,0,0,0,0,0,0,0,0,0,0,0,0,0,0,0,0,0,0,0,0,0,0,0,0,0,0,0,0,0,0,0,0,0,0,0,0,0,0,0,0,0,0,0,0,0,0,0,0],"sum_hessian":[7.9563E4,1.987E4,5.9693E4,1.0028E4,9.842E3,4.2635E4,1.7058E4,4.995E3,5.033E3,6.541E3,3.301E3,5.379E3,3.7256E4,2.112E3,1.4946E4,7.01E2,4.294E3,7.14E2,4.319E3,9.38E2,5.603E3,1.674E3,1.627E3,2.8E1,5.351E3,1.7409E4,1.9847E4,2.081E3,3.1E1,3.307E3,1.1639E4,6.44E2,5.7E1,1.845E3,2.449E3,6.53E2,6.1E1,3.543E3,7.76E2,7.9E2,1.48E2,1.825E3,3.778E3,3.23E2,1.351E3,2.51E2,1.376E3,3.622E3,1.729E3,1.6439E4,9.7E2,1.2177E4,7.67E3,1.747E3,3.34E2,6E0,2.5E1,1.669E3,1.638E3,6.479E3,5.16E3,7.4E1,5.7E2,3.6E1,2.1E1,1.344E3,5.01E2,1.22E3,1.229E3,6.4E1,5.89E2,3.1E1,3E1,1.156E3,2.387E3,1.01E2,6.75E2,7.2E1,7.18E2,1.5E1,1.33E2,1.87E2,1.638E3,2.226E3,1.552E3,1.7E1,3.06E2,7.58E2,5.93E2,2.4E2,1.1E1,1.181E3,1.95E2,1.608E3,2.014E3,7.87E2,9.42E2,4.96E2,1.5943E4,4.71E2,4.99E2,7.615E3,4.562E3,6.656E3,1.014E3,3.95E2,1.352E3,1.9E2,1.44E2,1.5E2,1.519E3,8.33E2,8.05E2,5.088E3,1.391E3,3.833E3,1.327E3],"tree_param":{"num_deleted":"0","num_feature":"6","num_nodes":"117","size_leaf_vector":"0"}},{"base_weights":[-1.8313926E-2,-5.5596277E-2,-3.696358E-4,-7.4065566E-2,2.3193536E-2,-3.8083892E-2,2.6776478E-2,-5.8152676E-2,-1.9595481E-1,-4.92529E-2,1.1769278E-1,-2.888558E-2,-9.3924396E-2,-7.1200775E-3,7.362262E-2,-9.1407076E-2,3.3854656E-2,-6.0875666E-1,-1.5060821E-1,-1.1559287E-1,1.4273914E-2,8.580789E-2,2.6725417E-1,-8.917166E-2,-1.6792072E-2,-7.483767E-2,-1.3642491E-1,5.8314648E-2,-2.5079614E-2,1.459761E-1,-1.5666956E-2,-1.0923461E-1,1.1334824E-2,9.433172E-2,-4.0329534E-1,-3.885766E-1,-6.99496E-1,-2.667095E-1,-1.2555768E-1,-1.4975049E-1,-8.777693E-2,-4.059026E-2,6.0058232E-2,2.629462E-3,1.2912172E-1,9.0651624E-2,4.221024E-1,-2.3749205E-1,-8.063504E-2,-6.6814564E-2,-6.4891963E-3,1.3183708E-1,-9.538493E-2,-3.895131E-1,-9.778412E-2,3.0227821E-2,1.0544584E-1,6.4415657E-3,-5.614397E-2,2.4175967E-1,5.1099718E-2,-4.0163387E-2,7.2031796E-2,-7.1313985E-2,-2.8928933E-1,-6.454192E-1,9.310189E-2,2.5107184E-1,-6.995227E-2,-2.4272443E-1,-5.3562564E-1,-1.9243799E-1,-4.826368E-1,-8.572504E-1,-4.2296487E-1,-1.4575477E-1,-3.6529616E-1,-1.0811111E-1,-1.893832E-1,-1.2869997E-1,-2.3534758E-1,-7.492315E-2,-1.5353885E-1,3.674324E-2,-2.2541131E-1,-2.9643854E-2,3.6551955E-1,9.769709E-2,-1.1473018E-2,1.4864695E-1,-2.3472948E-2,3.0862337E-1,-8.598532E-2,2.223997E-1,5.4368776E-1,-5.587553E-3,-3.15341E-1,-1.0299739E-1,-2.2323804E-2,-1.2188583E-1,4.0156554E-2,1.9751081E-2,-2.7881319E-2,3.8620228E-1,-3.1479243E-3,-1.327951E-1,9.288946E-3,-8.379149E-1,-2.5820756E-1,1.4065693E-1,-1.2223966E-1,2.766799E-1,-2.068083E-2,-3.2251856E-1,1.952131E-1,-8.3290756E-2,5.7487853E-2,-9.909961E-2,1.0744225E-1,2.729435E-1,5.8353964E-2,1.4481749E-1,-5.9908062E-2,-8.741025E-2,9.4138394E-4,-1.23576164E-1,1.8127558E-1],"categories":[],"categories_nodes":[],"categories_segments":[],"categories_sizes":[],"default_left":[1,1,1,1,1,1,1,1,1,1,1,1,1,1,1,1,1,1,1,1,1,1,1,1,1,1,1,1,1,1,1,1,1,1,1,1,1,1,1,1,1,1,1,1,1,1,1,1,1,1,1,1,1,1,1,1,1,1,1,1,1,1,1,0,0,0,0,0,0,0,0,0,0,0,0,0,0,0,0,0,0,0,0,0,0,0,0,0,0,0,0,0,0,0,0,0,0,0,0,0,0,0,0,0,0,0,0,0,0,0,0,0,0,0,0,0,0,0,0,0,0,0,0,0,0,0,0],"id":9,"left_children":[1,3,5,7,9,11,13,15,17,19,21,23,25,27,29,31,33,35,37,39,41,43,45,47,49,51,53,55,57,59,61,63,65,67,69,71,73,75,77,79,81,83,85,87,89,91,93,95,97,99,101,103,105,107,109,111,113,115,117,119,121,123,125,-1,-1,-1,-1,-1,-1,-1,-1,-1,-1,-1,-1,-1,-1,-1,-1,-1,-1,-1,-1,-1,-1,-1,-1,-1,-1,-1,-1,-1,-1,-1,-1,-1,-1,-1,-1,-1,-1,-1,-1,-1,-1,-1,-1,-1,-1,-1,-1,-1,-1,-1,-1,-1,-1,-1,-1,-1,-1,-1,-1,-1,-1,-1,-1],"loss_changes":[5.3228718E1,3.7621346E1,5.499215E1,4.060988E1,3.3620316E1,1.1544388E1,4.9596115E1,5.6686153E1,4.517124E1,1.1717588E1,1.0139271E1,1.4071745E1,2.5685825E0,2.1298025E1,8.47112E1,2.492611E1,1.3008435E2,4.503166E0,6.3068237E0,1.279026E0,3.5718746E0,6.3333406E0,1.0189362E1,4.0642014E0,8.286289E0,9.338112E0,9.58497E0,5.163471E0,1.3924375E1,6.580913E1,1.2613452E1,7.91544E1,1.08159904E2,1.1130861E2,1.2576523E1,1.2354393E0,6.9662476E0,4.5496235E0,1.9783211E0,1.0670452E0,6.241541E-1,9.255762E0,2.1246239E1,8.095564E-1,3.447731E0,6.8028655E0,4.710991E0,3.1576033E0,3.9761314E0,1.6181675E1,7.485394E0,6.8339777E0,7.8251324E0,7.4377365E0,5.0028734E0,3.0707113E1,5.603681E1,3.233855E1,5.033767E1,2.0596405E1,3.7877056E1,8.912249E0,2.7417398E1,0E0,0E0,0E0,0E0,0E0,0E0,0E0,0E0,0E0,0E0,0E0,0E0,0E0,0E0,0E0,0E0,0E0,0E0,0E0,0E0,0E0,0E0,0E0,0E0,0E0,0E0,0E0,0E0,0E0,0E0,0E0,0E0,0E0,0E0,0E0,0E0,0E0,0E0,0E0,0E0,0E0,0E0,0E0,0E0,0E0,0E0,0E0,0E0,0E0,0E0,0E0,0E0,0E0,0E0,0E0,0E0,0E0,0E0,0E0,0E0,0E0,0E0,0E0,0E0],"parents":[2147483647,0,0,1,1,2,2,3,3,4,4,5,5,6,6,7,7,8,8,9,9,10,10,11,11,12,12,13,13,14,14,15,15,16,16,17,17,18,18,19,19,20,20,21,21,22,22,23,23,24,24,25,25,26,26,27,27,28,28,29,29,30,30,31,31,32,32,33,33,34,34,35,35,36,36,37,37,38,38,39,39,40,40,41,41,42,42,43,43,44,44,45,45,46,46,47,47,48,48,49,49,50,50,51,51,52,52,53,53,54,54,55,55,56,56,57,57,58,58,59,59,60,60,61,61,62,62],"right_children":[2,4,6,8,10,12,14,16,18,20,22,24,26,28,30,32,34,36,38,40,42,44,46,48,50,52,54,56,58,60,62,64,66,68,70,72,74,76,78,80,82,84,86,88,90,92,94,96,98,100,102,104,106,108,110,112,114,116,118,120,122,124,126,-1,-1,-1,-1,-1,-1,-1,-1,-1,-1,-1,-1,-1,-1,-1,-1,-1,-1,-1,-1,-1,-1,-1,-1,-1,-1,-1,-1,-1,-1,-1,-1,-1,-1,-1,-1,-1,-1,-1,-1,-1,-1,-1,-1,-1,-1,-1,-1,-1,-1,-1,-1,-1,-1,-1,-1,-1,-1,-1,-1,-1,-1,-1,-1],"split_conditions":[2.0205E3,1.05E1,9.5E0,9.5E0,1.75E1,5.5E0,6.5E0,7.5E0,3.5E0,1.15E1,2.85E1,5E-1,2.15E1,1.25E1,9.5E0,2.65E1,2.75E1,6.5E0,8.5E0,2.0195E3,2.0195E3,7.5E0,2.0195E3,2.5E0,5.5E0,1.5E0,1.5E0,2.0225E3,3.5E0,1.65E1,2.45E1,6.5E0,1.5E0,8.5E0,2.5E0,1.5E0,2.5E0,2.0195E3,1.85E1,1.85E1,5.5E0,1.25E1,1.35E1,5E-1,5.5E0,1.15E1,2.95E1,2.5E0,2.0225E3,7.5E0,1.65E1,2.0215E3,2.0225E3,2.25E1,2.5E0,1.5E0,1.5E0,1.65E1,2.45E1,5.5E0,1.65E1,2.0215E3,1.05E1,-2.1394197E-2,-8.67868E-2,-1.9362576E-1,2.7930567E-2,7.5321555E-2,-2.0985682E-2,-7.281733E-2,-1.606877E-1,-5.77314E-2,-1.4479105E-1,-2.5717512E-1,-1.2688947E-1,-4.3726433E-2,-1.09588854E-1,-3.2433335E-2,-5.681496E-2,-3.8609993E-2,-7.060428E-2,-2.2476945E-2,-4.6061657E-2,1.1022972E-2,-6.76234E-2,-8.893156E-3,1.0965587E-1,2.9309127E-2,-3.4419054E-3,4.4594087E-2,-7.0418846E-3,9.258702E-2,-2.5795596E-2,6.671991E-2,1.6310634E-1,-1.676266E-3,-9.46023E-2,-3.089922E-2,-6.6971416E-3,-3.656575E-2,1.2046967E-2,5.9253247E-3,-8.364396E-3,1.15860686E-1,-9.4437733E-4,-3.983853E-2,2.7866838E-3,-2.5137448E-1,-7.746227E-2,4.2197082E-2,-3.66719E-2,8.3003975E-2,-6.2042493E-3,-9.675557E-2,5.856393E-2,-2.4987228E-2,1.7246356E-2,-2.9729882E-2,3.2232676E-2,8.188305E-2,1.750619E-2,4.344525E-2,-1.7972419E-2,-2.6223077E-2,2.824152E-4,-3.7072852E-2,5.4382674E-2],"split_indices":[0,1,3,1,2,5,1,1,2,1,2,5,2,3,1,2,2,3,2,0,0,3,0,2,2,1,1,0,1,3,2,1,1,1,5,2,2,0,3,3,5,2,2,3,5,1,2,1,0,1,2,0,0,2,1,1,1,3,2,5,2,0,1,0,0,0,0,0,0,0,0,0,0,0,0,0,0,0,0,0,0,0,0,0,0,0,0,0,0,0,0,0,0,0,0,0,0,0,0,0,0,0,0,0,0,0,0,0,0,0,0,0,0,0,0,0,0,0,0,0,0,0,0,0,0,0,0],"split_type":[0,0,0,0,0,0,0,0,0,0,0,0,0,0,0,0,0,0,0,0,0,0,0,0,0,0,0,0,0,0,0,0,0,0,0,0,0,0,0,0,0,0,0,0,0,0,0,0,0,0,0,0,0,0,0,0,0,0,0,0,0,0,0,0,0,0,0,0,0,0,0,0,0,0,0,0,0,0,0,0,0,0,0,0,0,0,0,0,0,0,0,0,0,0,0,0,0,0,0,0,0,0,0,0,0,0,0,0,0,0,0,0,0,0,0,0,0,0,0,0,0,0,0,0,0,0,0],"sum_hessian":[7.9563E4,2.5851E4,5.3712E4,2.0942E4,4.909E3,2.248E4,3.1232E4,1.8525E4,2.417E3,2.779E3,2.13E3,1.9302E4,3.178E3,1.8121E4,1.3111E4,1.3607E4,4.918E3,2.38E2,2.179E3,1.359E3,1.42E3,1.757E3,3.73E2,3.224E3,1.6078E4,2.195E3,9.83E2,3.902E3,1.4219E4,7.242E3,5.869E3,1.1595E4,2.012E3,4.321E3,5.97E2,7.1E1,1.67E2,3.85E2,1.794E3,6.08E2,7.51E2,6.46E2,7.74E2,6.02E2,1.155E3,1.75E2,1.98E2,1.74E2,3.05E3,2.745E3,1.3333E4,1.98E2,1.997E3,1.29E2,8.54E2,2.446E3,1.456E3,7.058E3,7.161E3,3.603E3,3.639E3,4.588E3,1.281E3,9.579E3,2.016E3,2.22E2,1.79E3,2.211E3,2.11E3,2.71E2,3.26E2,2.4E1,4.7E1,1.05E2,6.2E1,1.74E2,2.11E2,1.411E3,3.83E2,4.9E2,1.18E2,6.3E2,1.21E2,4.56E2,1.9E2,5.99E2,1.75E2,7.7E1,5.25E2,1.024E3,1.31E2,7.8E1,9.7E1,7.6E1,1.22E2,4.4E1,1.3E2,2.204E3,8.46E2,1.812E3,9.33E2,5.988E3,7.345E3,6.8E1,1.3E2,1.471E3,5.26E2,2.8E1,1.01E2,7.9E1,7.75E2,4.18E2,2.028E3,2.52E2,1.204E3,2.559E3,4.499E3,5.672E3,1.489E3,3.079E3,5.24E2,1.973E3,1.666E3,2.134E3,2.454E3,4.59E2,8.22E2],"tree_param":{"num_deleted":"0","num_feature":"6","num_nodes":"127","size_leaf_vector":"0"}},{"base_weights":[-1.2836239E-2,-3.7319195E-3,-6.784134E-2,-3.4521434E-2,1.169982E-2,-8.088688E-2,-8.3783455E-3,3.1179054E-2,-4.384483E-2,2.627853E-2,-5.203391E-2,5.3906012E-2,-9.182317E-2,-2.0035963E-1,2.6258867E-2,5.3226706E-2,-3.3598606E-2,-9.073705E-2,-3.4638554E-2,-6.057795E-2,3.2534637E-2,-1.3830623E-2,-8.955415E-2,2.7075085E-1,-2.5790218E-1,-1.3256228E-1,-5.1797543E-2,-7.529895E-3,-4.6878E-1,4.814363E-2,-2.5651342E-1,1.2537058E-2,8.3910815E-2,-1.7126735E-2,-7.663738E-2,-1.0204098E-1,-4.3672454E-2,-8.596847E-2,-2.4806248E-2,-1.363635E-1,6.623051E-2,-5.6531867E-3,5.2082833E-2,-9.6337564E-2,-2.8200208E-3,-5.5032443E-2,-1.5956236E-1,-9.889869E-3,3.150488E-1,-7.951236E-2,-4.45987E-1,-4.2455518E-1,-1.1049988E-1,3.494318E-2,-7.029906E-2,1.404639E-1,-8.705992E-2,-9.1655874E-1,2.1977637E-2,2.4767302E-2,5.829872E-1,-3.884492E-1,-1.0457656E-1,7.1616694E-2,-2.3312252E-3,1.448449E-1,2.1197136E-2,-5.9059925E-2,5.1789492E-2,3.4512337E-2,-9.5801234E-2,2.152804E-2,-1.1163266E-1,-2.6822528E-1,-4.7191596E-3,-1.1381775E0,-8.239485E-2,-3.5084695E-2,3.006677E-2,-6.5156445E-2,-5.1927215E-1,3.360543E-1,-1.3236654E-1,2.1636344E-2,-1.3437161E-1,3.678058E-2,1.5993538E-1,-4.239403E-1,-8.799891E-2,1.45853115E-2,-5.7686582E-2,-2.0919496E-2,-8.832995E-2,-1.1641853E-1,-1.951687E-1,-1.0371305E-1,1.9915552E-1,4.1390178E-1,1.9606923E-1,-2.259081E-1,-1.3359772E-2,-5.653524E-1,-3.9547968E-1,-2.927093E-1,-1.2676436E0,-9.998791E-2,-2.73303E-1,6.4427946E-3,3.5060707E-1,-9.0463825E-2,2.9299675E-2,8.607827E-2,2.3366967E-1,-2.6292598E-1,9.62433E-2,-4.9956772E-1,-1.105129E0,-2.6148591E-2,1.6498272E-1,1.0391878E-2,3.347431E-1,2.5095126E-1,8.149373E-1,-3.3281595E-1,-4.405249E-1,-1.5475567E-1,-5.4261368E-2],"categories":[],"categories_nodes":[],"categories_segments":[],"categories_sizes":[],"default_left":[1,1,1,1,1,1,1,1,1,1,1,1,1,1,1,1,1,1,1,1,1,1,1,1,1,1,1,1,1,1,1,1,1,1,1,1,1,1,1,1,1,1,1,1,1,1,1,1,1,1,1,1,1,1,1,1,1,1,1,1,1,1,1,0,0,0,0,0,0,0,0,0,0,0,0,0,0,0,0,0,0,0,0,0,0,0,0,0,0,0,0,0,0,0,0,0,0,0,0,0,0,0,0,0,0,0,0,0,0,0,0,0,0,0,0,0,0,0,0,0,0,0,0,0,0,0,0],"id":10,"left_children":[1,3,5,7,9,11,13,15,17,19,21,23,25,27,29,31,33,35,37,39,41,43,45,47,49,51,53,55,57,59,61,63,65,67,69,71,73,75,77,79,81,83,85,87,89,91,93,95,97,99,101,103,105,107,109,111,113,115,117,119,121,123,125,-1,-1,-1,-1,-1,-1,-1,-1,-1,-1,-1,-1,-1,-1,-1,-1,-1,-1,-1,-1,-1,-1,-1,-1,-1,-1,-1,-1,-1,-1,-1,-1,-1,-1,-1,-1,-1,-1,-1,-1,-1,-1,-1,-1,-1,-1,-1,-1,-1,-1,-1,-1,-1,-1,-1,-1,-1,-1,-1,-1,-1,-1,-1,-1],"loss_changes":[3.984413E1,3.243602E1,8.764256E0,1.3962643E1,4.225472E1,1.3664276E1,1.3530743E1,4.047865E0,8.613644E0,2.011259E1,1.2133894E1,4.7129173E1,1.3969078E1,1.6093655E1,1.0681157E1,2.638331E0,5.091164E-1,1.7378902E0,8.419151E0,2.3909721E1,2.5772568E1,3.8115888E0,1.0313385E1,5.112585E0,9.56053E0,2.731253E1,6.943367E0,2.1543598E0,2.858775E1,2.0002348E1,2.4450693E0,7.995226E-1,4.601717E0,1.5115745E0,4.2718756E-1,3.1314259E0,5.561873E0,9.991055E0,7.9000044E0,4.2419014E1,4.9933243E1,4.1065964E1,3.7680706E1,1.3121867E0,3.5370977E0,3.2490292E0,2.1433144E0,1.1386132E0,4.0941772E0,1.4302816E0,6.1442184E-1,3.275396E1,6.7326317E0,6.8441095E0,7.1625443E0,3.0430567E-1,3.861486E0,4.794899E0,4.3789867E-1,6.836534E0,4.9555473E0,4.4597626E-2,1.405642E-1,0E0,0E0,0E0,0E0,0E0,0E0,0E0,0E0,0E0,0E0,0E0,0E0,0E0,0E0,0E0,0E0,0E0,0E0,0E0,0E0,0E0,0E0,0E0,0E0,0E0,0E0,0E0,0E0,0E0,0E0,0E0,0E0,0E0,0E0,0E0,0E0,0E0,0E0,0E0,0E0,0E0,0E0,0E0,0E0,0E0,0E0,0E0,0E0,0E0,0E0,0E0,0E0,0E0,0E0,0E0,0E0,0E0,0E0,0E0,0E0,0E0,0E0,0E0,0E0],"parents":[2147483647,0,0,1,1,2,2,3,3,4,4,5,5,6,6,7,7,8,8,9,9,10,10,11,11,12,12,13,13,14,14,15,15,16,16,17,17,18,18,19,19,20,20,21,21,22,22,23,23,24,24,25,25,26,26,27,27,28,28,29,29,30,30,31,31,32,32,33,33,34,34,35,35,36,36,37,37,38,38,39,39,40,40,41,41,42,42,43,43,44,44,45,45,46,46,47,47,48,48,49,49,50,50,51,51,52,52,53,53,54,54,55,55,56,56,57,57,58,58,59,59,60,60,61,61,62,62],"right_children":[2,4,6,8,10,12,14,16,18,20,22,24,26,28,30,32,34,36,38,40,42,44,46,48,50,52,54,56,58,60,62,64,66,68,70,72,74,76,78,80,82,84,86,88,90,92,94,96,98,100,102,104,106,108,110,112,114,116,118,120,122,124,126,-1,-1,-1,-1,-1,-1,-1,-1,-1,-1,-1,-1,-1,-1,-1,-1,-1,-1,-1,-1,-1,-1,-1,-1,-1,-1,-1,-1,-1,-1,-1,-1,-1,-1,-1,-1,-1,-1,-1,-1,-1,-1,-1,-1,-1,-1,-1,-1,-1,-1,-1,-1,-1,-1,-1,-1,-1,-1,-1,-1,-1,-1,-1,-1],"split_conditions":[5.5E0,7.5E0,2.0225E3,5E-1,2.05E1,1.5E0,1.5E0,3.75E1,5E-1,2.5E0,2.25E1,1.8E1,1.55E1,1.85E1,2.9E1,5.5E0,8.5E0,2.0225E3,2.5E0,7.5E0,4.5E0,2.0195E3,2.25E1,2.5E0,2.5E1,2.5E0,1.85E1,4.5E0,2.55E1,2.7E1,5.5E0,1.5E0,8.5E0,5.5E0,4.5E0,1.5E0,1.5E0,2.0195E3,2.0225E3,6.5E0,9.5E0,2.55E1,2.0225E3,1.5E0,2.35E1,3.75E1,5.5E0,1.65E1,1.1E1,2.0205E3,2.0205E3,1.35E1,1.45E1,1.15E1,2.85E1,1.55E1,1.15E1,7.5E0,1.75E1,7.5E0,1.05E1,1.15E1,1.05E1,2.1485008E-2,-6.993676E-4,4.3453474E-2,6.3591413E-3,-1.7717978E-2,1.5536848E-2,1.0353701E-2,-2.874037E-2,6.458412E-3,-3.34898E-2,-8.046759E-2,-1.4157479E-3,-3.4145325E-1,-2.4718458E-2,-1.0525409E-2,9.020031E-3,-1.9546933E-2,-1.5578166E-1,1.00816295E-1,-3.9709963E-2,6.4909034E-3,-4.0311486E-2,1.1034175E-2,4.7980618E-2,-1.271821E-1,-2.6399674E-2,4.3755937E-3,-1.7305976E-2,-6.275849E-3,-2.6498986E-2,-3.492556E-2,-5.8550615E-2,-3.1113917E-2,5.974666E-2,1.24170534E-1,5.882077E-2,-6.777243E-2,-4.007932E-3,-1.6960572E-1,-1.1864391E-1,-8.781279E-2,-3.802931E-1,-2.9996375E-2,-8.1990905E-2,1.9328385E-3,1.05182126E-1,-2.7139148E-2,8.789903E-3,2.5823483E-2,7.01009E-2,-7.88778E-2,2.8872991E-2,-1.4987032E-1,-3.315387E-1,-7.844578E-3,4.9494818E-2,3.1175634E-3,1.0042294E-1,7.528538E-2,2.4448119E-1,-9.984479E-2,-1.3215747E-1,-4.6426702E-2,-1.627841E-2],"split_indices":[5,3,0,3,3,1,1,4,5,2,4,2,2,2,2,1,1,0,1,1,1,0,3,2,2,1,2,2,2,2,1,1,1,1,2,1,1,0,0,1,1,2,0,2,2,4,1,3,2,0,0,2,2,1,2,3,2,3,3,1,3,3,3,0,0,0,0,0,0,0,0,0,0,0,0,0,0,0,0,0,0,0,0,0,0,0,0,0,0,0,0,0,0,0,0,0,0,0,0,0,0,0,0,0,0,0,0,0,0,0,0,0,0,0,0,0,0,0,0,0,0,0,0,0,0,0,0],"split_type":[0,0,0,0,0,0,0,0,0,0,0,0,0,0,0,0,0,0,0,0,0,0,0,0,0,0,0,0,0,0,0,0,0,0,0,0,0,0,0,0,0,0,0,0,0,0,0,0,0,0,0,0,0,0,0,0,0,0,0,0,0,0,0,0,0,0,0,0,0,0,0,0,0,0,0,0,0,0,0,0,0,0,0,0,0,0,0,0,0,0,0,0,0,0,0,0,0,0,0,0,0,0,0,0,0,0,0,0,0,0,0,0,0,0,0,0,0,0,0,0,0,0,0,0,0,0,0],"sum_hessian":[7.9563E4,6.8265E4,1.1298E4,2.2791E4,4.5474E4,9.265E3,2.033E3,2.832E3,1.9959E4,3.7009E4,8.465E3,6.95E2,8.57E3,3.1E2,1.723E3,2.113E3,7.19E2,3.274E3,1.6685E4,2.486E3,3.4523E4,4.195E3,4.27E3,4.1E2,2.85E2,4.246E3,4.324E3,1.81E2,1.29E2,1.6E3,1.23E2,9.09E2,1.204E3,5.21E2,1.98E2,2.639E3,6.35E2,2.681E3,1.4004E4,1.556E3,9.3E2,1.1689E4,2.2834E4,4.93E2,3.702E3,2.861E3,1.409E3,5.6E1,3.54E2,1.47E2,1.38E2,2.97E2,3.949E3,7.6E2,3.564E3,6.3E1,1.18E2,6.7E1,6.2E1,1.534E3,6.6E1,6.5E1,5.8E1,1.82E2,7.27E2,6.1E2,5.94E2,3.24E2,1.97E2,2.9E1,1.69E2,1.9E2,2.449E3,9.3E1,5.42E2,8E0,2.673E3,1.1795E4,2.209E3,1.313E3,2.43E2,3.94E2,5.36E2,9.645E3,2.044E3,1.9998E4,2.836E3,1.1E1,4.82E2,2.811E3,8.91E2,1.414E3,1.447E3,6.39E2,7.7E2,3.9E1,1.7E1,1.92E2,1.62E2,4.5E1,1.02E2,3.8E1,1E2,2.58E2,3.9E1,3.711E3,2.38E2,6.98E2,6.2E1,2.964E3,6E2,4.1E1,2.2E1,6E1,5.8E1,2.2E1,4.5E1,4.7E1,1.5E1,1.467E3,6.7E1,2.8E1,3.8E1,3.5E1,3E1,2.8E1,3E1],"tree_param":{"num_deleted":"0","num_feature":"6","num_nodes":"127","size_leaf_vector":"0"}},{"base_weights":[-9.0069E-3,1.8773706E-3,-3.616005E-2,-3.1425748E-2,1.2940092E-2,-6.2117573E-2,-2.377589E-2,-4.800587E-3,-5.8470864E-2,3.6584012E-2,-6.185439E-3,-5.793718E-2,-2.9577047E-1,-5.9532253E-3,-5.8422748E-2,4.6143815E-2,-2.1456052E-2,-7.4277885E-2,-2.7206976E-2,-2.3079958E-2,5.626E-2,-3.9767947E-2,1.0122585E-2,-7.382959E-2,5.0114866E-2,-6.051915E-1,-1.3943857E-1,1.4718859E-1,-2.1951232E-2,-2.705771E-1,-2.6162062E-2,9.578868E-3,7.299914E-2,-5.62746E-2,-3.2974817E-3,-9.0830855E-2,-5.52455E-2,-4.4535827E-2,2.6081325E-2,-1.0593939E-1,6.0847078E-2,3.0865636E-2,8.491456E-2,-5.6137756E-2,3.0409232E-2,-9.798068E-3,3.7957E-2,-6.078547E-2,-2.2304666E-1,1.387529E-1,-4.1743167E-2,-4.8199338E-1,-8.524184E-1,-2.1684863E-1,-5.5185292E-2,2.733118E-1,-1.1190959E-1,-5.3597745E-2,6.73186E-2,-9.465924E-1,-1.940632E-1,-1.0883712E-1,1.7024834E-2,-4.6643384E-2,2.3807025E-2,1.2641148E-1,1.9125871E-2,1.1043714E-2,-7.964001E-2,1.8665519E-2,-5.021905E-2,-1.5844683E-1,-8.553422E-2,-1.9922556E-2,-9.658273E-2,-7.407865E-2,-2.9363303E-2,-2.3348523E-2,3.5568643E-2,-6.676888E-2,-1.3634248E-1,-7.150794E-2,7.048467E-2,-3.7148483E-2,4.168513E-2,1.4314565E-1,4.891227E-2,1.1579552E-2,-8.4625386E-2,-5.619471E-3,2.028546E-1,1.650246E-2,-3.5600793E-2,1.6569802E-1,4.931923E-4,-9.8128796E-2,-2.8970527E-2,-5.139242E-1,-1.688355E-1,5.717853E-2,4.8915517E-1,-1.8660758E-1,1.13142565E-1,-5.8081806E-1,-3.985989E-1,-6.2324822E-2,-2.2258636E-1,-6.3203424E-2,1.8393178E-2,8.70429E-2,3.6819723E-1,-2.551855E-1,-5.018619E-3,-9.689936E-2,6.375879E-2,1.5274468E-2,1.5326044E-1,-6.637845E-1,-1.0317224E0,-3.4662858E-1,-1.569029E-1,-7.317993E-1,-8.77246E-2,2.3566425E-1,-1.2177785E-2],"categories":[],"categories_nodes":[],"categories_segments":[],"categories_sizes":[],"default_left":[1,1,1,1,1,1,1,1,1,1,1,1,1,1,1,1,1,1,1,1,1,1,1,1,1,1,1,1,1,1,1,1,1,1,1,1,1,1,1,1,1,1,1,1,1,1,1,1,1,1,1,1,0,1,1,1,1,1,1,1,1,1,1,0,0,0,0,0,0,0,0,0,0,0,0,0,0,0,0,0,0,0,0,0,0,0,0,0,0,0,0,0,0,0,0,0,0,0,0,0,0,0,0,0,0,0,0,0,0,0,0,0,0,0,0,0,0,0,0,0,0,0,0,0,0],"id":11,"left_children":[1,3,5,7,9,11,13,15,17,19,21,23,25,27,29,31,33,35,37,39,41,43,45,47,49,51,53,55,57,59,61,63,65,67,69,71,73,75,77,79,81,83,85,87,89,91,93,95,97,99,101,103,-1,105,107,109,111,113,115,117,119,121,123,-1,-1,-1,-1,-1,-1,-1,-1,-1,-1,-1,-1,-1,-1,-1,-1,-1,-1,-1,-1,-1,-1,-1,-1,-1,-1,-1,-1,-1,-1,-1,-1,-1,-1,-1,-1,-1,-1,-1,-1,-1,-1,-1,-1,-1,-1,-1,-1,-1,-1,-1,-1,-1,-1,-1,-1,-1,-1,-1,-1,-1,-1],"loss_changes":[2.351459E1,2.0926104E1,7.317251E0,1.0198221E1,1.928033E1,7.1649876E0,9.518404E0,6.0576024E0,3.47015E0,2.2383783E1,1.2909399E1,1.2410524E1,6.15565E0,2.4943863E1,3.582939E1,1.7265751E0,3.4013472E0,1.4649696E0,2.1813676E0,3.28926E1,1.043063E1,8.85311E0,8.798303E0,1.2246853E1,7.5535336E0,8.988285E-1,5.5545163E-1,3.1499784E1,2.6045187E1,3.5557983E1,1.623325E1,5.9786487E-1,2.9153643E0,2.9013438E0,3.645952E0,8.796406E-1,3.1709876E0,7.96587E-1,2.7282542E-1,2.8252506E0,3.0026617E0,5.5964313E0,1.41147E1,1.2054033E1,9.0596695E0,6.2771926E0,3.1676239E1,6.880869E0,7.892248E0,1.3463605E1,1.0252582E1,2.397108E-2,0E0,2.6025057E-2,2.6530877E-2,1.1420837E1,4.838228E0,3.4592422E1,1.0790449E1,1.0004387E0,3.4719677E0,2.0453394E1,1.9074398E1,0E0,0E0,0E0,0E0,0E0,0E0,0E0,0E0,0E0,0E0,0E0,0E0,0E0,0E0,0E0,0E0,0E0,0E0,0E0,0E0,0E0,0E0,0E0,0E0,0E0,0E0,0E0,0E0,0E0,0E0,0E0,0E0,0E0,0E0,0E0,0E0,0E0,0E0,0E0,0E0,0E0,0E0,0E0,0E0,0E0,0E0,0E0,0E0,0E0,0E0,0E0,0E0,0E0,0E0,0E0,0E0,0E0,0E0,0E0,0E0,0E0,0E0],"parents":[2147483647,0,0,1,1,2,2,3,3,4,4,5,5,6,6,7,7,8,8,9,9,10,10,11,11,12,12,13,13,14,14,15,15,16,16,17,17,18,18,19,19,20,20,21,21,22,22,23,23,24,24,25,25,26,26,27,27,28,28,29,29,30,30,31,31,32,32,33,33,34,34,35,35,36,36,37,37,38,38,39,39,40,40,41,41,42,42,43,43,44,44,45,45,46,46,47,47,48,48,49,49,50,50,51,51,53,53,54,54,55,55,56,56,57,57,58,58,59,59,60,60,61,61,62,62],"right_children":[2,4,6,8,10,12,14,16,18,20,22,24,26,28,30,32,34,36,38,40,42,44,46,48,50,52,54,56,58,60,62,64,66,68,70,72,74,76,78,80,82,84,86,88,90,92,94,96,98,100,102,104,-1,106,108,110,112,114,116,118,120,122,124,-1,-1,-1,-1,-1,-1,-1,-1,-1,-1,-1,-1,-1,-1,-1,-1,-1,-1,-1,-1,-1,-1,-1,-1,-1,-1,-1,-1,-1,-1,-1,-1,-1,-1,-1,-1,-1,-1,-1,-1,-1,-1,-1,-1,-1,-1,-1,-1,-1,-1,-1,-1,-1,-1,-1,-1,-1,-1,-1,-1,-1,-1],"split_conditions":[4.5E0,5.5E0,2.0205E3,2.5E0,1.35E1,3.05E1,2.05E1,7.5E0,4.5E0,7.5E0,2.0205E3,2.65E1,2.0195E3,1.5E0,1.5E0,5.5E0,4.5E0,6.5E0,3.75E1,9.5E0,6.5E0,1.05E1,6.5E0,2.45E1,7.5E0,1.55E1,7.5E0,2.0225E3,2.0225E3,2.15E1,2.45E1,5E-1,8.5E0,1.5E0,9.5E0,2.0195E3,9.5E0,7.5E0,2.5E0,5.5E0,2.5E0,4.5E0,8.5E0,1.65E1,2.55E1,3.5E0,7.5E0,1.15E1,2.5E0,6.5E0,1.05E1,5E0,-2.5572553E-1,5E-1,2.15E1,5.5E0,5.5E0,1.55E1,5.5E0,6.5E0,2.25E1,2.5E0,2.5E0,-1.39930155E-2,7.1421075E-3,3.7923448E-2,5.7377615E-3,3.3131144E-3,-2.3892004E-2,5.5996557E-3,-1.5065716E-2,-4.7534052E-2,-2.5660267E-2,-5.9767673E-3,-2.8974822E-2,-2.2223596E-2,-8.808991E-3,-7.004557E-3,1.0670593E-2,-2.0030664E-2,-4.0902745E-2,-2.1452382E-2,2.1145402E-2,-1.1144545E-2,1.250554E-2,4.2943697E-2,1.4673682E-2,3.4738656E-3,-2.5387617E-2,-1.6858414E-3,6.0856383E-2,4.9507385E-3,-1.0680238E-2,4.970941E-2,1.4795769E-4,-2.9438639E-2,-8.691158E-3,-1.5417726E-1,-5.0650652E-2,1.715356E-2,1.4674656E-1,-5.5982277E-2,3.394277E-2,-1.7424542E-1,-1.1957968E-1,-1.8697448E-2,-6.677591E-2,-1.8961027E-2,5.5179535E-3,2.6112871E-2,1.1045917E-1,-7.6555654E-2,-1.5055857E-3,-2.906981E-2,1.9127637E-2,4.5823404E-3,4.5978133E-2,-1.9913536E-1,-3.0951673E-1,-1.0398858E-1,-4.7070872E-2,-2.195398E-1,-2.6317382E-2,7.0699275E-2,-3.6533356E-3],"split_indices":[5,3,0,3,3,2,2,4,3,4,0,2,0,1,1,1,1,1,4,3,1,1,1,2,1,3,1,0,0,2,2,5,1,1,1,0,1,4,1,1,2,2,1,3,2,1,1,2,1,1,1,3,0,3,3,2,5,2,1,3,2,1,1,0,0,0,0,0,0,0,0,0,0,0,0,0,0,0,0,0,0,0,0,0,0,0,0,0,0,0,0,0,0,0,0,0,0,0,0,0,0,0,0,0,0,0,0,0,0,0,0,0,0,0,0,0,0,0,0,0,0,0,0,0,0],"split_type":[0,0,0,0,0,0,0,0,0,0,0,0,0,0,0,0,0,0,0,0,0,0,0,0,0,0,0,0,0,0,0,0,0,0,0,0,0,0,0,0,0,0,0,0,0,0,0,0,0,0,0,0,0,0,0,0,0,0,0,0,0,0,0,0,0,0,0,0,0,0,0,0,0,0,0,0,0,0,0,0,0,0,0,0,0,0,0,0,0,0,0,0,0,0,0,0,0,0,0,0,0,0,0,0,0,0,0,0,0,0,0,0,0,0,0,0,0,0,0,0,0,0,0,0,0],"sum_hessian":[7.9563E4,5.6797E4,2.2766E4,1.4162E4,4.2635E4,7.352E3,1.5414E4,7.137E3,7.025E3,1.9065E4,2.357E4,7.224E3,1.28E2,1.0179E4,5.235E3,1.758E3,5.379E3,4.665E3,2.36E3,4.728E3,1.4337E4,7.704E3,1.5866E4,6.298E3,9.26E2,4.2E1,8.6E1,9.62E2,9.217E3,6.9E2,4.545E3,7.45E2,1.013E3,1.843E3,3.536E3,2.493E3,2.172E3,1.781E3,5.79E2,2.379E3,2.349E3,7.602E3,6.735E3,6.247E3,1.457E3,9.248E3,6.618E3,5.793E3,5.05E2,4.71E2,4.55E2,3E1,1.2E1,4.4E1,4.2E1,6.47E2,3.15E2,6.805E3,2.412E3,6.9E1,6.21E2,1.559E3,2.986E3,1.5E2,5.95E2,5.08E2,5.05E2,4.75E2,1.368E3,2.409E3,1.127E3,1.79E2,2.314E3,1.172E3,1E3,6.03E2,1.178E3,9.3E1,4.86E2,1.041E3,1.338E3,1.59E2,2.19E3,1.043E3,6.559E3,2.572E3,4.163E3,1.85E3,4.397E3,1.206E3,2.51E2,4.58E3,4.668E3,1.5E3,5.118E3,2.664E3,3.129E3,7.8E1,4.27E2,3.83E2,8.8E1,2.35E2,2.2E2,1.1E1,1.9E1,2E0,4.2E1,3.8E1,4E0,2.19E2,4.28E2,1.34E2,1.81E2,4.971E3,1.834E3,1.503E3,9.09E2,1.8E1,5.1E1,1.2E2,5.01E2,5E1,1.509E3,3.51E2,2.635E3],"tree_param":{"num_deleted":"0","num_feature":"6","num_nodes":"125","size_leaf_vector":"0"}},{"base_weights":[-6.324168E-3,-4.7180377E-2,-4.4627578E-4,-9.890303E-1,-4.3775465E-2,2.9003564E-3,-7.784468E-2,-6.7964174E-2,1.6457707E-2,-1.6453162E-2,1.7844936E-2,-2.3356223E-4,-1.0425617E-1,-1.8568248E-1,-5.6797642E-2,1.2082781E-1,-6.440533E-2,1.5347601E-2,-2.4495553E-2,-8.523644E-3,3.3406112E-2,-6.1229657E-2,1.3018049E-2,-8.847091E-2,-1.4398831E-1,-1.3192145E0,-1.0467466E-1,1.7829377E-2,-7.868743E-2,-6.678411E-2,6.120752E-1,-2.6023787E-2,-2.2800626E-1,4.4901226E-2,-1.4211256E-2,-5.0638843E-2,1.6498489E-3,1.9907463E-2,-9.43792E-2,2.1916442E-2,1.1783571E-1,-1.4301658E-1,9.9003725E-3,2.1882067E-3,6.1535545E-2,-6.518559E-2,-1.0948816E-1,-2.4533145E-1,-1.3145137E-1,-2.3460958E0,8.2877773E-1,-2.4014786E-1,-4.7521513E-5,5.4624885E-2,-2.3208927E-2,-1.6938815E-1,-4.2253718E-2,-1.3284008E-1,-1.7527103E-2,6.7274094E-1,1.8177664E-1,1.0284567E-2,-1.1227097E-1,-6.114813E-1,-8.955721E-2,1.6444225E-2,6.935985E-2,-6.7137726E-2,-4.9926788E-3,-1.3884086E-2,-6.271057E-2,-4.8074596E-2,3.1347305E-2,-4.4378463E-2,7.0502825E-2,2.0358025E-1,-1.1546897E-1,4.1106805E-2,-1.7956136E-2,6.929814E-2,4.3110386E-1,2.1916362E-2,-3.0333608E-1,-3.675089E-1,4.40603E-2,2.766647E-2,-3.7020344E-2,3.671189E-2,3.3603302E-1,-8.607276E-2,2.09915E-2,-1.8848698E-1,-6.731773E-2,-1.2626201E-1,-3.7569174E-1,-8.8120535E-2,-1.607353E-1],"categories":[],"categories_nodes":[],"categories_segments":[],"categories_sizes":[],"default_left":[1,1,1,0,1,1,1,1,1,1,1,1,1,1,1,1,1,1,1,1,1,1,1,1,1,1,1,1,1,1,1,1,1,1,1,1,1,1,1,1,1,1,1,1,1,1,1,1,1,0,0,0,0,0,0,0,0,0,0,0,0,0,0,0,0,0,0,0,0,0,0,0,0,0,0,0,0,0,0,0,0,0,0,0,0,0,0,0,0,0,0,0,0,0,0,0,0],"id":12,"left_children":[1,3,5,-1,7,9,11,13,15,17,19,21,23,25,27,29,31,33,35,37,39,41,43,45,47,49,51,53,55,57,59,61,63,65,67,69,71,73,75,77,79,81,83,85,87,89,91,93,95,-1,-1,-1,-1,-1,-1,-1,-1,-1,-1,-1,-1,-1,-1,-1,-1,-1,-1,-1,-1,-1,-1,-1,-1,-1,-1,-1,-1,-1,-1,-1,-1,-1,-1,-1,-1,-1,-1,-1,-1,-1,-1,-1,-1,-1,-1,-1,-1],"loss_changes":[1.9107145E1,3.2048313E1,1.8017416E1,0E0,1.4529947E1,1.9285007E1,5.909622E0,9.342155E0,2.4128397E1,7.4308014E0,1.5438395E1,5.9327847E-1,1.3363285E0,5.642608E1,1.0619604E1,1.15061386E2,1.0109948E1,5.124134E0,1.5850389E1,3.4087563E1,2.2950205E1,7.6350915E-1,3.1670374E-1,7.475071E-1,7.427778E-1,9.237946E1,8.164312E0,2.228555E0,1.6601582E1,2.9390335E0,8.883743E0,4.090885E0,1.6191315E1,2.0402832E0,1.4306953E0,5.143751E0,1.7123722E1,3.4125835E1,2.1853762E1,1.5937683E1,4.306187E1,1.6196082E0,9.315439E-1,4.9451336E-1,7.372069E-1,1.3230038E0,2.6824255E0,9.7701144E-1,6.773844E-1,0E0,0E0,0E0,0E0,0E0,0E0,0E0,0E0,0E0,0E0,0E0,0E0,0E0,0E0,0E0,0E0,0E0,0E0,0E0,0E0,0E0,0E0,0E0,0E0,0E0,0E0,0E0,0E0,0E0,0E0,0E0,0E0,0E0,0E0,0E0,0E0,0E0,0E0,0E0,0E0,0E0,0E0,0E0,0E0,0E0,0E0,0E0,0E0],"parents":[2147483647,0,0,1,1,2,2,4,4,5,5,6,6,7,7,8,8,9,9,10,10,11,11,12,12,13,13,14,14,15,15,16,16,17,17,18,18,19,19,20,20,21,21,22,22,23,23,24,24,25,25,26,26,27,27,28,28,29,29,30,30,31,31,32,32,33,33,34,34,35,35,36,36,37,37,38,38,39,39,40,40,41,41,42,42,43,43,44,44,45,45,46,46,47,47,48,48],"right_children":[2,4,6,-1,8,10,12,14,16,18,20,22,24,26,28,30,32,34,36,38,40,42,44,46,48,50,52,54,56,58,60,62,64,66,68,70,72,74,76,78,80,82,84,86,88,90,92,94,96,-1,-1,-1,-1,-1,-1,-1,-1,-1,-1,-1,-1,-1,-1,-1,-1,-1,-1,-1,-1,-1,-1,-1,-1,-1,-1,-1,-1,-1,-1,-1,-1,-1,-1,-1,-1,-1,-1,-1,-1,-1,-1,-1,-1,-1,-1,-1,-1],"split_conditions":[2.0195E3,2.5E0,2.25E1,-2.967091E-1,2.25E1,9.5E0,7.5E0,2.5E0,7.5E0,1.5E0,4.5E0,2.5E0,4.5E0,4.5E0,5.5E0,6.5E0,2.95E1,2.25E1,2.25E1,3.5E0,2.75E1,2.0215E3,2.0225E3,5.5E0,1.5E0,1.55E1,2.5E0,3.5E0,7.5E0,2.5E0,5.5E0,1.65E1,8.5E0,5.5E0,5E-1,3.5E0,4.5E0,2.0215E3,2.5E0,9.5E0,2.0225E3,1.5E0,2.5E0,2.0215E3,2.85E1,4.5E0,7.5E0,1.65E1,5.5E0,-7.0382875E-1,2.4863333E-1,-7.204436E-2,-1.4256454E-5,1.6387466E-2,-6.9626784E-3,-5.0816447E-2,-1.2676116E-2,-3.9852027E-2,-5.2581313E-3,2.018223E-1,5.4532994E-2,3.0853704E-3,-3.3681292E-2,-1.834444E-1,-2.6867164E-2,4.933268E-3,2.0807955E-2,-2.0141318E-2,-1.4978037E-3,-4.165226E-3,-1.881317E-2,-1.4422379E-2,9.404192E-3,-1.3313539E-2,2.1150848E-2,6.1074074E-2,-3.4640692E-2,1.2332042E-2,-5.386841E-3,2.0789443E-2,1.2933116E-1,6.5749087E-3,-9.1000825E-2,-1.1025267E-1,1.3218091E-2,8.299941E-3,-1.1106104E-2,1.1013567E-2,1.0080991E-1,-2.582183E-2,6.2974505E-3,-5.6546096E-2,-2.019532E-2,-3.7878603E-2,-1.12707525E-1,-2.6436161E-2,-4.822059E-2],"split_indices":[0,1,3,0,2,3,4,2,1,3,1,1,5,1,1,1,2,4,4,1,2,0,0,1,1,3,5,5,1,5,5,3,1,1,5,3,3,0,2,1,0,1,2,0,2,1,1,2,1,0,0,0,0,0,0,0,0,0,0,0,0,0,0,0,0,0,0,0,0,0,0,0,0,0,0,0,0,0,0,0,0,0,0,0,0,0,0,0,0,0,0,0,0,0,0,0,0],"split_type":[0,0,0,0,0,0,0,0,0,0,0,0,0,0,0,0,0,0,0,0,0,0,0,0,0,0,0,0,0,0,0,0,0,0,0,0,0,0,0,0,0,0,0,0,0,0,0,0,0,0,0,0,0,0,0,0,0,0,0,0,0,0,0,0,0,0,0,0,0,0,0,0,0,0,0,0,0,0,0,0,0,0,0,0,0,0,0,0,0,0,0,0,0,0,0,0,0],"sum_hessian":[7.9563E4,1.0006E4,6.9557E4,3.5E1,9.971E3,6.6675E4,2.882E3,7.114E3,2.857E3,2.9052E4,3.7623E4,7.32E2,2.15E3,6.15E2,6.499E3,1.247E3,1.61E3,5.864E3,2.3188E4,1.3963E4,2.366E4,1.3E2,6.02E2,1.541E3,6.09E2,4E1,5.75E2,1.474E3,5.025E3,9.03E2,3.44E2,1.305E3,3.05E2,2.932E3,2.932E3,1.1594E4,1.1594E4,1.049E4,3.473E3,2.0827E4,2.833E3,6E1,7E1,4.93E2,1.09E2,7.33E2,8.08E2,6.5E1,5.44E2,2.7E1,1.3E1,2.5E2,3.25E2,7.77E2,6.97E2,1.439E3,3.586E3,3.85E2,5.18E2,3.01E2,4.3E1,9.19E2,3.86E2,8E1,2.25E2,1.356E3,1.576E3,4.34E2,2.498E3,2.867E3,8.727E3,4.335E3,7.259E3,4.62E3,5.87E3,2.29E2,3.244E3,1.406E4,6.767E3,2.454E3,3.79E2,3E1,3E1,5E0,6.5E1,2.99E2,1.94E2,1.01E2,8E0,5.9E2,1.43E2,2.8E2,5.28E2,3.5E1,3E1,2.21E2,3.23E2],"tree_param":{"num_deleted":"0","num_feature":"6","num_nodes":"97","size_leaf_vector":"0"}},{"base_weights":[-4.4411714E-3,7.715412E-4,-3.593481E-2,-2.8112093E-3,4.5477606E-2,-1.4337383E-1,-3.262888E-2,-3.222653E-2,3.1627289E-3,1.3998263E-2,1.1672306E-1,-1.9743125E-1,9.029969E-2,-1.9319873E-2,-6.120541E-2,3.0245924E-1,-6.470762E-2,1.5432754E-2,-3.7438713E-2,-1.483281E-2,1.645074E-1,3.603869E-1,7.7904314E-2,-1.17914125E-1,-4.3658733E-1,2.4605238E-1,5.690007E-2,7.017906E-2,-2.6753727E-2,-1.2573539E-1,-1.8135551E-2,-7.005632E-1,3.4185016E-1,-1.23437785E-1,4.0927287E-2,-4.7010505E-3,7.556207E-2,5.329219E-2,-6.649606E-2,6.315985E-2,-1.445491E-1,5.2773103E-2,3.0711627E-1,1.4203663E-1,4.553243E-1,1.270698E-1,1.1061307E-2,-1.8755896E-1,-2.160396E-2,-2.0622961E-1,-5.035007E-1,-1.1089369E-1,1.0240298E-1,9.053025E-3,1.880188E-1,-5.7582337E-2,3.472869E-3,-2.1802818E-2,-1.7301388E-1,1.3181534E-1,-5.7285495E-2,1.0885552E-1,3.9261326E-1,-1.7314006E-1,1.9941978E-2,1.5731865E-1,-9.6432894E-2,-5.267861E-2,4.412982E-3,1.0202677E-1,-1.1069381E-2,1.2826867E-1,-1.17749855E-1,-1.1962842E-1,4.2779595E-2,1.733161E-2,1.0028262E-1,-1.6071168E-1,2.4994405E-1,-9.605486E-2,2.1188895E-1,5.173021E-1,1.5918382E-1,5.549484E-2,2.2689676E-1,5.244198E-1,3.8107908E-1,4.8502322E-2,3.1548733E-1,-8.4646575E-2,3.7645873E-2,-3.301254E-1,-1.2002784E-1,-5.530489E-3,-1.8164736E-1,-5.732782E-1,-3.8229144E-1,8.098897E-2,-1.8385336E-1,1.2964062E-1,-8.716931E-2,6.669098E-2,-8.761519E-2,2.4517624E-1,6.6754925E-3,-3.6515906E-2,-1.3189429E-1,-9.143408E-3,2.883386E-1,-1.1969399E-1,5.684155E-2,-1.2480666E-1,-2.8871313E-1,-1.7707849E-1,3.0123618E-1,-1.256763E-2,-1.1369949E-1],"categories":[],"categories_nodes":[],"categories_segments":[],"categories_sizes":[],"default_left":[1,1,1,1,1,1,1,1,1,1,1,1,1,1,1,1,1,1,1,1,1,1,1,1,1,0,1,1,1,1,1,0,1,1,1,1,1,1,1,1,1,1,1,1,1,1,1,1,1,0,1,1,1,1,1,1,1,1,1,1,1,0,0,0,0,0,0,0,0,0,0,0,0,0,0,0,0,0,0,0,0,0,0,0,0,0,0,0,0,0,0,0,0,0,0,0,0,0,0,0,0,0,0,0,0,0,0,0,0,0,0,0,0,0,0,0,0],"id":13,"left_children":[1,3,5,7,9,11,13,15,17,19,21,23,25,27,29,31,33,35,37,39,41,43,45,47,49,-1,51,53,55,57,59,-1,61,63,65,67,69,71,73,75,77,79,81,83,85,87,89,91,93,-1,95,97,99,101,103,105,107,109,111,113,115,-1,-1,-1,-1,-1,-1,-1,-1,-1,-1,-1,-1,-1,-1,-1,-1,-1,-1,-1,-1,-1,-1,-1,-1,-1,-1,-1,-1,-1,-1,-1,-1,-1,-1,-1,-1,-1,-1,-1,-1,-1,-1,-1,-1,-1,-1,-1,-1,-1,-1,-1,-1,-1,-1,-1,-1],"loss_changes":[1.3061833E1,1.09343405E1,4.008564E0,1.1106292E1,1.1357946E1,4.27474E0,4.1683226E0,1.1600184E2,2.6172003E1,1.5250881E1,1.4651867E1,5.1591787E0,3.1893277E-1,4.979152E0,9.678012E0,3.7536903E1,6.0344723E1,4.8840874E1,3.214652E1,2.9854042E1,8.986674E0,4.350733E0,4.4023294E0,1.3844016E0,9.443159E-1,0E0,4.2365146E-1,4.132863E0,6.437377E0,6.846031E0,1.22770405E1,0E0,1.0708488E1,4.454998E1,5.558786E1,1.3216252E1,2.3203003E1,3.7948883E1,5.3624207E1,3.1337042E0,7.104807E0,7.550875E0,7.6287937E0,4.7210896E-1,5.5939674E-1,1.14129925E1,1.4509233E0,1.1156964E0,2.2537124E-1,0E0,2.2063923E-1,1.8288644E-1,2.3333138E-1,2.1175396E0,2.0299273E0,5.3491516E0,1.2541911E1,3.3710868E0,5.307251E0,2.2713554E1,4.1812305E0,0E0,0E0,0E0,0E0,0E0,0E0,0E0,0E0,0E0,0E0,0E0,0E0,0E0,0E0,0E0,0E0,0E0,0E0,0E0,0E0,0E0,0E0,0E0,0E0,0E0,0E0,0E0,0E0,0E0,0E0,0E0,0E0,0E0,0E0,0E0,0E0,0E0,0E0,0E0,0E0,0E0,0E0,0E0,0E0,0E0,0E0,0E0,0E0,0E0,0E0,0E0,0E0,0E0,0E0,0E0,0E0],"parents":[2147483647,0,0,1,1,2,2,3,3,4,4,5,5,6,6,7,7,8,8,9,9,10,10,11,11,12,12,13,13,14,14,15,15,16,16,17,17,18,18,19,19,20,20,21,21,22,22,23,23,24,24,26,26,27,27,28,28,29,29,30,30,32,32,33,33,34,34,35,35,36,36,37,37,38,38,39,39,40,40,41,41,42,42,43,43,44,44,45,45,46,46,47,47,48,48,50,50,51,51,52,52,53,53,54,54,55,55,56,56,57,57,58,58,59,59,60,60],"right_children":[2,4,6,8,10,12,14,16,18,20,22,24,26,28,30,32,34,36,38,40,42,44,46,48,50,-1,52,54,56,58,60,-1,62,64,66,68,70,72,74,76,78,80,82,84,86,88,90,92,94,-1,96,98,100,102,104,106,108,110,112,114,116,-1,-1,-1,-1,-1,-1,-1,-1,-1,-1,-1,-1,-1,-1,-1,-1,-1,-1,-1,-1,-1,-1,-1,-1,-1,-1,-1,-1,-1,-1,-1,-1,-1,-1,-1,-1,-1,-1,-1,-1,-1,-1,-1,-1,-1,-1,-1,-1,-1,-1,-1,-1,-1,-1,-1,-1],"split_conditions":[5.5E0,1.15E1,1.5E0,5.5E0,2.0215E3,2.0225E3,2.15E1,1.5E0,8.5E0,2.65E1,5.5E0,2.0215E3,5E0,1.5E0,2.55E1,2.0195E3,7.5E0,6.5E0,1.15E1,2.0205E3,2.0205E3,7.5E0,2.05E1,1E1,6.5E0,7.381572E-2,9.5E0,1.55E1,6.5E0,2.0205E3,2.65E1,-2.1016897E-1,1.5E0,2.0225E3,9.5E0,1.5E0,2.55E1,2.0215E3,1.05E1,2.0195E3,2.45E1,1.5E0,2.85E1,3.5E0,2.5E0,1.55E1,2.25E1,2.0195E3,2.15E1,-6.1868887E-2,1.65E1,6.5E0,2.15E1,1.35E1,2.15E1,5.5E0,2.05E1,2.0195E3,2.45E1,2.0205E3,2.0215E3,3.265666E-2,1.17783986E-1,-5.194202E-2,5.9825936E-3,4.71956E-2,-2.8929869E-2,-1.5803585E-2,1.3238947E-3,3.0608032E-2,-3.3208143E-3,3.8480602E-2,-3.5324957E-2,-3.5888527E-2,1.2833879E-2,5.199483E-3,3.0084787E-2,-4.8213504E-2,7.498322E-2,-2.881646E-2,6.356669E-2,1.5519063E-1,4.775515E-2,1.6648453E-2,6.806903E-2,1.5732594E-1,1.1432373E-1,1.4550697E-2,9.46462E-2,-2.5393974E-2,1.1293762E-2,-9.9037625E-2,-3.6008354E-2,-1.6591469E-3,-5.449421E-2,-1.7198347E-1,-1.14687435E-1,2.4296694E-2,-5.515601E-2,3.8892187E-2,-2.6150795E-2,2.0007296E-2,-2.6284559E-2,7.355288E-2,2.0026478E-3,-1.0954772E-2,-3.956829E-2,-2.7430225E-3,8.650158E-2,-3.5908196E-2,1.7052466E-2,-3.7442E-2,-8.661394E-2,-5.312355E-2,9.0370856E-2,-3.7702892E-3,-3.410985E-2],"split_indices":[5,1,2,2,0,0,2,1,1,2,2,0,3,1,2,0,1,1,2,0,0,3,2,1,3,0,3,3,1,0,2,0,2,0,1,1,2,0,1,0,2,5,2,5,2,2,2,0,3,0,3,3,3,2,3,1,2,0,2,0,0,0,0,0,0,0,0,0,0,0,0,0,0,0,0,0,0,0,0,0,0,0,0,0,0,0,0,0,0,0,0,0,0,0,0,0,0,0,0,0,0,0,0,0,0,0,0,0,0,0,0,0,0,0,0,0,0],"split_type":[0,0,0,0,0,0,0,0,0,0,0,0,0,0,0,0,0,0,0,0,0,0,0,0,0,0,0,0,0,0,0,0,0,0,0,0,0,0,0,0,0,0,0,0,0,0,0,0,0,0,0,0,0,0,0,0,0,0,0,0,0,0,0,0,0,0,0,0,0,0,0,0,0,0,0,0,0,0,0,0,0,0,0,0,0,0,0,0,0,0,0,0,0,0,0,0,0,0,0,0,0,0,0,0,0,0,0,0,0,0,0,0,0,0,0,0,0],"sum_hessian":[7.9563E4,6.8265E4,1.1298E4,6.3201E4,5.064E3,3.36E2,1.0962E4,1.0668E4,5.2533E4,3.513E3,1.551E3,2.73E2,6.3E1,7.48E3,3.482E3,9.43E2,9.725E3,4.0342E4,1.2191E4,2.949E3,5.64E2,2.12E2,1.339E3,2.06E2,6.7E1,1E1,5.3E1,5.73E2,6.907E3,1.393E3,2.089E3,3.5E1,9.08E2,6.25E3,3.475E3,3.0223E4,1.0119E4,2.957E3,9.234E3,1.842E3,1.107E3,3.17E2,2.47E2,6.5E1,1.47E2,7.71E2,5.68E2,1.19E2,8.7E1,1.6E1,5.1E1,1.1E1,4.2E1,3.78E2,1.95E2,3.419E3,3.488E3,4.36E2,9.57E2,4.32E2,1.657E3,1.63E2,7.45E2,4.641E3,1.609E3,1.881E3,1.594E3,4.824E3,2.5399E4,7.751E3,2.368E3,2.056E3,9.01E2,6.213E3,3.021E3,8.25E2,1.017E3,1.064E3,4.3E1,1.64E2,1.53E2,1.01E2,1.46E2,3.3E1,3.2E1,7.3E1,7.4E1,5.45E2,2.26E2,1.23E2,4.45E2,3.7E1,8.2E1,8E1,7E0,3E1,2.1E1,3E0,8E0,3.7E1,5E0,2.37E2,1.41E2,1.48E2,4.7E1,2.665E3,7.54E2,3.341E3,1.47E2,1.94E2,2.42E2,6.77E2,2.8E2,1.53E2,2.79E2,9.25E2,7.32E2],"tree_param":{"num_deleted":"0","num_feature":"6","num_nodes":"117","size_leaf_vector":"0"}},{"base_weights":[-3.1071675E-3,-9.201027E-4,-5.4004513E-2,-2.968335E-2,3.2264155E-3,2.9132485E-3,-7.3024616E-2,-5.074663E-2,1.5737614E-2,1.33654E-2,-1.1834596E-2,2.2045199E-2,-2.133912E-2,-1.3193338E-1,-6.644027E-2,-5.044256E-1,-4.8308317E-2,8.353163E-2,-3.6925573E-2,2.0193465E-1,-6.505563E-3,-2.7049085E-1,1.661059E-2,1.4198431E-1,1.0284367E-2,-3.0297953E-1,4.021812E-3,-1.7849508E-1,-2.1296784E-2,-5.718223E-2,-9.7303264E-2,-9.3225494E-2,-3.099587E-2,-4.8670694E-2,4.3128073E-1,-8.512801E-2,3.4629304E-2,3.1250098E-1,-6.483649E-2,-1.4372899E-1,9.183253E-3,-1.6458154E-1,-5.1407516E-1,1.9601415E-1,-3.4430122E-4,2.4139714E-1,-1.18379764E-1,-1.135932E-1,2.362304E-2,-2.1325873E-1,-4.610953E-1,5.5729106E-2,-2.338489E-2,-5.7670597E-2,-2.7942553E-1,-2.2382195E-1,2.5533529E-2,-7.433102E-2,-3.5834473E-2,-3.2280523E-1,-7.580243E-2,-3.0847186E-1,-6.291909E-2,3.394034E-2,-5.0357413E-2,-1.3819778E-2,-1.24517694E-1,4.938171E-1,2.1799752E-1,-3.213821E-2,-2.2881359E-1,8.6755805E-2,-1.2165205E-2,3.7931326E-1,9.111276E-2,2.628296E-1,-1.9780453E-1,-3.7072507E-1,3.2553498E-2,3.6601864E-2,-1.8061908E-2,-6.748086E-2,-3.160405E-1,-7.2054684E-1,-4.744112E-2,-1.1380617E-1,4.417856E-1,-1.0731384E-2,5.349008E-2,2.9656637E-1,1.7760154E-2,1.1037138E-1,-2.4655175E-1,-2.2275537E-1,2.0437232E-1,-3.4732365E-3,4.1309625E-2,-1.06248565E-1,-2.7093816E-1,-6.171704E-1,-7.269008E-2,-3.10024E-2,1.2668286E-1,-3.2398591E-3,-1.9491473E-1,