{"learner":{"attributes":{"best_iteration":"99","best_ntree_limit":"100","scikit_learn":"{\"n_estimators\": 100, \"objective\": \"reg:squarederror\", \"max_depth\": null, \"max_leaves\": null, \"max_bin\": null, \"grow_policy\": null, \"learning_rate\": null, \"verbosity\": null, \"booster\": null, \"tree_method\": null, \"gamma\": null, \"min_child_weight\": null, \"max_delta_step\": null, \"subsample\": null, \"sampling_method\": null, \"colsample_bytree\": null, \"colsample_bylevel\": null, \"colsample_bynode\": null, \"reg_alpha\": null, \"reg_lambda\": null, \"scale_pos_weight\": null, \"base_score\": null, \"missing\": NaN, \"num_parallel_tree\": null, \"random_state\": null, \"n_jobs\": null, \"monotone_constraints\": null, \"interaction_constraints\": null, \"importance_type\": null, \"gpu_id\": null, \"validate_parameters\": null, \"predictor\": null, \"enable_categorical\": false, \"feature_types\": null, \"max_cat_to_onehot\": null, \"max_cat_threshold\": null, \"eval_metric\": null, \"early_stopping_rounds\": null, \"callbacks\": null, \"_estimator_type\": \"regressor\"}"},"feature_names":[],"feature_types":[],"gradient_booster":{"model":{"gbtree_model_param":{"num_parallel_tree":"1","num_trees":"100","size_leaf_vector":"0"},"tree_info":[0,0,0,0,0,0,0,0,0,0,0,0,0,0,0,0,0,0,0,0,0,0,0,0,0,0,0,0,0,0,0,0,0,0,0,0,0,0,0,0,0,0,0,0,0,0,0,0,0,0,0,0,0,0,0,0,0,0,0,0,0,0,0,0,0,0,0,0,0,0,0,0,0,0,0,0,0,0,0,0,0,0,0,0,0,0,0,0,0,0,0,0,0,0,0,0,0,0,0,0],"trees":[{"base_weights":[-3.307394E-1,-1.4399996E0,2.018987E-1,-1.9586103E0,-1.1106886E0,-3.43893E-1,4.8623145E-1,-2.234641E0,-1.8184988E0,-1.5305096E0,-6.911516E-1,-6.480872E-1,-1.3023447E-1,3.136079E-1,7.704373E-1,-2.4374042E0,-2.153383E0,-2.067511E0,-1.7169654E0,-1.7274411E0,-1.4301357E0,-9.593323E-1,-5.7926995E-1,-8.9056814E-1,-5.4888266E-1,-3.638882E-1,-1.2513819E-2,7.242358E-2,5.2934575E-1,6.211552E-1,1.3497889E0,-2.1248777E0,-2.469345E0,-2.164385E0,-1.692791E0,-2.1021757E0,-1.8897326E0,-1.751081E0,-1.5473092E0,-1.920878E0,-1.6455619E0,-1.6522621E0,-1.3371514E0,-1.2367787E0,-9.0317655E-1,-8.003899E-1,-5.343976E-1,-9.651926E-1,-7.769411E-1,-6.601773E-1,-4.7732636E-1,-2.9628038E-1,-4.549931E-1,1.1806013E-1,-1.8366303E-1,-1.5388009E-1,1.6594315E-1,3.1856653E-1,6.1562794E-1,8.662207E-1,4.9515072E-1,1.0542285E0,1.4965074E0,-2.347979E0,-1.627806E0,-1.9535911E0,-2.1796637E0,-2.0377476E0,-2.1461892E0,-1.6290696E0,-1.8371756E0,-1.605916E0,-1.4590622E0,-1.5537986E0,-1.7441863E0,-1.7015203E0,-1.5018861E0,-1.3985747E0,-1.1476381E0,-1.386708E0,-8.4878737E-1,-6.648286E-1,-9.666545E-1,-9.934173E-1,-3.8931397E-1,-1.6541673E-1,-6.261024E-1,-8.409732E-1,-1.032258E0,-7.9900336E-1,-6.5862983E-1,-4.326402E-1,-9.1689676E-1,-4.5134693E-1,-6.0029083E-1,-5.1960754E-1,-2.2198147E-1,-6.5111715E-1,-3.5591614E-1,-1.6551453E-1,2.1095027E-1,-4.2900008E-1,-5.3992756E-2,-1.819097E-1,-1.6045688E-2,1.3306503E-1,3.2900026E-1,1.2023355E-1,3.5844427E-1,3.8788244E-1,6.637569E-1,5.9816235E-1,1.0001127E0,3.0189726E-1,5.736684E-1,9.2202497E-1,1.102489E0,1.3524486E0,1.5417455E0],"categories":[],"categories_nodes":[],"categories_segments":[],"categories_sizes":[],"default_left":[1,1,1,1,1,1,1,1,1,1,1,1,1,1,1,1,1,1,1,1,1,1,1,1,1,1,1,1,1,1,1,1,0,1,0,1,0,1,1,0,1,1,1,1,1,1,1,1,1,1,1,1,1,1,1,1,1,1,1,1,1,1,1,0,0,0,0,0,0,0,0,0,0,0,0,0,0,0,0,0,0,0,0,0,0,0,0,0,0,0,0,0,0,0,0,0,0,0,0,0,0,0,0,0,0,0,0,0,0,0,0,0,0,0,0,0,0,0,0],"id":0,"left_children":[1,3,5,7,9,11,13,15,17,19,21,23,25,27,29,31,33,35,37,39,41,43,45,47,49,51,53,55,57,59,61,63,-1,65,-1,67,-1,69,71,-1,73,75,77,79,81,83,85,87,89,91,93,95,97,99,101,103,105,107,109,111,113,115,117,-1,-1,-1,-1,-1,-1,-1,-1,-1,-1,-1,-1,-1,-1,-1,-1,-1,-1,-1,-1,-1,-1,-1,-1,-1,-1,-1,-1,-1,-1,-1,-1,-1,-1,-1,-1,-1,-1,-1,-1,-1,-1,-1,-1,-1,-1,-1,-1,-1,-1,-1,-1,-1,-1,-1,-1],"loss_changes":[4.7075004E4,4.412086E3,8.353699E3,3.841211E2,2.7837422E3,1.1982693E3,1.7361123E3,5.0359375E1,1.649082E2,1.5372461E2,2.3678003E2,1.8249902E2,2.9793903E2,1.1457192E3,1.1557495E3,4.3164062E0,8.588867E0,7.890625E0,2.4719727E1,3.901709E1,1.0601953E2,3.5138184E1,5.497766E1,1.7964233E1,4.2697388E1,2.2217651E1,1.6101399E2,2.2008696E2,2.1118555E2,3.2797266E2,1.1719629E2,6.8240967E0,0E0,3.334961E0,0E0,1.6992188E-1,0E0,3.8375E1,1.8046875E0,0E0,1.4285645E1,8.8671875E0,4.1452637E1,2.145166E1,2.8694092E1,7.420123E1,1.5707068E2,1.019519E1,1.7706909E0,1.22913574E2,1.0242371E1,3.449759E1,2.9770294E1,1.0769179E2,9.916953E1,1.1745811E1,3.9402527E1,2.6673737E1,9.0128174E1,1.2896802E2,1.0643799E2,4.802246E0,9.828125E0,0E0,0E0,0E0,0E0,0E0,0E0,0E0,0E0,0E0,0E0,0E0,0E0,0E0,0E0,0E0,0E0,0E0,0E0,0E0,0E0,0E0,0E0,0E0,0E0,0E0,0E0,0E0,0E0,0E0,0E0,0E0,0E0,0E0,0E0,0E0,0E0,0E0,0E0,0E0,0E0,0E0,0E0,0E0,0E0,0E0,0E0,0E0,0E0,0E0,0E0,0E0,0E0,0E0,0E0,0E0,0E0],"parents":[2147483647,0,0,1,1,2,2,3,3,4,4,5,5,6,6,7,7,8,8,9,9,10,10,11,11,12,12,13,13,14,14,15,15,16,16,17,17,18,18,19,19,20,20,21,21,22,22,23,23,24,24,25,25,26,26,27,27,28,28,29,29,30,30,31,31,33,33,35,35,37,37,38,38,40,40,41,41,42,42,43,43,44,44,45,45,46,46,47,47,48,48,49,49,50,50,51,51,52,52,53,53,54,54,55,55,56,56,57,57,58,58,59,59,60,60,61,61,62,62],"right_children":[2,4,6,8,10,12,14,16,18,20,22,24,26,28,30,32,34,36,38,40,42,44,46,48,50,52,54,56,58,60,62,64,-1,66,-1,68,-1,70,72,-1,74,76,78,80,82,84,86,88,90,92,94,96,98,100,102,104,106,108,110,112,114,116,118,-1,-1,-1,-1,-1,-1,-1,-1,-1,-1,-1,-1,-1,-1,-1,-1,-1,-1,-1,-1,-1,-1,-1,-1,-1,-1,-1,-1,-1,-1,-1,-1,-1,-1,-1,-1,-1,-1,-1,-1,-1,-1,-1,-1,-1,-1,-1,-1,-1,-1,-1,-1,-1,-1,-1,-1],"split_conditions":[2.0205E3,2.0195E3,2.0215E3,6.5E0,6.5E0,5.5E0,6.5E0,6.5E0,6.5E0,2.5E0,6.5E0,6.5E0,7.5E0,2.0225E3,2.0225E3,3.5E0,3.05E1,1.15E1,1.15E1,6.5E0,6.5E0,7.5E0,7.5E0,3.5E0,2.5E0,9.5E0,9.5E0,6.5E0,6.5E0,8.5E0,7.5E0,5.5E0,-7.4080354E-1,2.5E0,-5.078373E-1,8.5E0,-5.669198E-1,8.5E0,1.85E1,-5.762634E-1,1.5E0,5.5E0,5.5E0,2.25E1,8.5E0,2.15E1,8.5E0,1.5E0,5.5E0,1.5E0,2.05E1,6.5E0,1.05E1,6.5E0,1.05E1,5.5E0,5.5E0,1.5E0,1.5E0,7.5E0,6.5E0,6.5E0,5.5E0,-7.0439374E-1,-4.883418E-1,-5.8607733E-1,-6.5389913E-1,-6.113243E-1,-6.4385676E-1,-4.887209E-1,-5.511527E-1,-4.8177484E-1,-4.377187E-1,-4.6613958E-1,-5.232559E-1,-5.1045614E-1,-4.5056584E-1,-4.1957244E-1,-3.4429145E-1,-4.1601244E-1,-2.5463623E-1,-1.9944859E-1,-2.8999636E-1,-2.9802522E-1,-1.1679419E-1,-4.962502E-2,-1.8783073E-1,-2.5229198E-1,-3.0967742E-1,-2.3970102E-1,-1.9758897E-1,-1.2979206E-1,-2.7506903E-1,-1.3540408E-1,-1.8008725E-1,-1.5588227E-1,-6.6594444E-2,-1.9533515E-1,-1.06774844E-1,-4.965436E-2,6.328508E-2,-1.2870003E-1,-1.6197827E-2,-5.457291E-2,-4.8137065E-3,3.991951E-2,9.8700084E-2,3.6070067E-2,1.0753328E-1,1.1636474E-1,1.9912708E-1,1.7944871E-1,3.000338E-1,9.056918E-2,1.7210053E-1,2.766075E-1,3.307467E-1,4.057346E-1,4.6252367E-1],"split_indices":[0,0,0,1,1,1,1,3,3,1,3,3,3,0,0,2,2,1,1,3,3,1,1,1,1,1,1,3,3,1,3,1,0,2,0,1,0,1,2,0,1,1,1,2,1,2,1,1,3,1,3,1,1,1,1,1,1,1,1,3,3,2,2,0,0,0,0,0,0,0,0,0,0,0,0,0,0,0,0,0,0,0,0,0,0,0,0,0,0,0,0,0,0,0,0,0,0,0,0,0,0,0,0,0,0,0,0,0,0,0,0,0,0,0,0,0,0,0,0],"split_type":[0,0,0,0,0,0,0,0,0,0,0,0,0,0,0,0,0,0,0,0,0,0,0,0,0,0,0,0,0,0,0,0,0,0,0,0,0,0,0,0,0,0,0,0,0,0,0,0,0,0,0,0,0,0,0,0,0,0,0,0,0,0,0,0,0,0,0,0,0,0,0,0,0,0,0,0,0,0,0,0,0,0,0,0,0,0,0,0,0,0,0,0,0,0,0,0,0,0,0,0,0,0,0,0,0,0,0,0,0,0,0,0,0,0,0,0,0,0,0],"sum_hessian":[7.9674E4,2.5846E4,5.3828E4,1.0036E4,1.581E4,1.8437E4,3.5391E4,3.374E3,6.662E3,7.901E3,7.909E3,7.606E3,1.0831E4,2.2019E4,1.3372E4,9.57E2,2.417E3,1.924E3,4.738E3,2.662E3,5.239E3,2.326E3,5.583E3,2.206E3,5.4E3,3.628E3,7.203E3,1.0397E4,1.1622E4,1.0634E4,2.738E3,9.5E1,8.62E2,2.357E3,6E1,1.601E3,3.23E2,3.937E3,8.01E2,7.85E2,1.877E3,1.541E3,3.698E3,3.88E2,1.938E3,9.39E2,4.644E3,1.327E3,8.79E2,2.11E3,3.29E3,2.085E3,1.543E3,4.086E3,3.117E3,3.04E3,7.357E3,3.377E3,8.245E3,3.609E3,7.025E3,9.11E2,1.827E3,6.3E1,3.2E1,1.68E2,2.189E3,6.69E2,9.32E2,1.637E3,2.3E3,4.71E2,3.3E2,9.81E2,8.96E2,1.153E3,3.88E2,2.788E3,9.1E2,2.78E2,1.1E2,4.1E2,1.528E3,6.38E2,3.01E2,9.25E2,3.719E3,4.7E2,8.57E2,7.36E2,1.43E2,1.12E3,9.9E2,2.72E3,5.7E2,5.19E2,1.566E3,5.16E2,1.027E3,1.008E3,3.078E3,1.077E3,2.04E3,2.526E3,5.14E2,6.124E3,1.233E3,5.66E2,2.811E3,1.44E3,6.805E3,1.204E3,2.405E3,2.031E3,4.994E3,2.49E2,6.62E2,4.44E2,1.383E3],"tree_param":{"num_deleted":"0","num_feature":"6","num_nodes":"119","size_leaf_vector":"0"}},{"base_weights":[-2.3167053E-1,-1.0084858E0,1.4133616E-1,-1.3717707E0,-7.778047E-1,-2.4085394E-1,3.404399E-1,-1.5653394E0,-1.2735168E0,-1.0717732E0,-4.8403525E-1,-4.5388708E-1,-9.1224685E-2,2.1954998E-1,5.394719E-1,-1.7261817E0,-1.5134594E0,-1.4373751E0,-1.1918168E0,-1.1712402E0,-9.697659E-1,-6.591531E-1,-3.9462906E-1,-6.084987E-1,-3.7676594E-1,-2.765816E-1,-1.4500861E-2,5.070413E-2,3.7058154E-1,4.348784E-1,9.45391E-1,-1.7722726E0,-1.6202171E0,-1.4942988E0,-1.6582884E0,-1.4635247E0,-1.3057947E0,-1.1596439E0,-1.3246546E0,-1.3035691E0,-1.1039119E0,-1.110391E0,-8.9717156E-1,-8.573329E-1,-6.1991405E-1,-5.484806E-1,-3.6306068E-1,-7.032416E-1,-5.457037E-1,-4.3138784E-1,-2.9705447E-1,-2.2803538E-1,-3.418961E-1,7.3638506E-2,-1.3028586E-1,-9.3645416E-2,1.2329926E-1,2.2303908E-1,4.3097782E-1,6.0648733E-1,3.4664285E-1,7.160384E-1,1.0388166E0,-1.1663312E0,-1.6680126E0,-1.5014362E0,-1.1794295E0,-1.517661E0,-1.409676E0,-1.3402414E0,-1.1831843E0,-1.2067626E0,-1.100691E0,-1.3518844E0,-1.1929313E0,-1.3290185E0,-1.2258728E0,-1.1462014E0,-1.019186E0,-1.1407349E0,-1.0175897E0,-9.4825673E-1,-7.93058E-1,-9.6238786E-1,-5.887251E-1,-4.625909E-1,-6.6044736E-1,-6.974397E-1,-2.7569583E-1,-9.759017E-2,-4.298777E-1,-5.691054E-1,-8.6220104E-1,-5.747767E-1,-4.6100405E-1,-2.92408E-1,-5.0489575E-1,-2.791218E-1,-4.2693573E-1,-3.9229342E-1,-1.740338E-1,-4.0871504E-1,-2.0779641E-1,-1.2021644E-1,1.3752359E-1,-2.2891714E-1,6.47897E-2,-1.2315995E-1,-5.903701E-3,9.999114E-2,2.3892984E-1,8.4227115E-2,2.5094923E-1,2.715985E-1,4.646591E-1,3.9980304E-1,6.919027E-1,2.1137263E-1,4.0160233E-1,8.105618E-1,6.7547977E-1,1.0607688E0,8.646433E-1],"categories":[],"categories_nodes":[],"categories_segments":[],"categories_sizes":[],"default_left":[1,1,1,1,1,1,1,1,1,1,1,1,1,1,1,1,1,1,1,1,1,1,1,1,1,1,1,1,1,1,1,0,1,1,0,1,1,1,1,1,1,1,1,1,1,1,1,1,1,1,1,1,1,1,1,1,1,1,1,1,1,1,1,0,0,0,0,0,0,0,0,0,0,0,0,0,0,0,0,0,0,0,0,0,0,0,0,0,0,0,0,0,0,0,0,0,0,0,0,0,0,0,0,0,0,0,0,0,0,0,0,0,0,0,0,0,0,0,0,0,0,0,0],"id":1,"left_children":[1,3,5,7,9,11,13,15,17,19,21,23,25,27,29,31,33,35,37,39,41,43,45,47,49,51,53,55,57,59,61,-1,63,65,-1,67,69,71,73,75,77,79,81,83,85,87,89,91,93,95,97,99,101,103,105,107,109,111,113,115,117,119,121,-1,-1,-1,-1,-1,-1,-1,-1,-1,-1,-1,-1,-1,-1,-1,-1,-1,-1,-1,-1,-1,-1,-1,-1,-1,-1,-1,-1,-1,-1,-1,-1,-1,-1,-1,-1,-1,-1,-1,-1,-1,-1,-1,-1,-1,-1,-1,-1,-1,-1,-1,-1,-1,-1,-1,-1,-1,-1,-1,-1],"loss_changes":[2.3086555E4,2.1649883E3,4.096225E3,1.8890039E2,1.3649023E3,5.8768823E2,8.514468E2,2.5550781E1,8.748535E1,7.904004E1,1.2358374E2,9.047522E1,1.5404102E2,5.615144E2,5.6735986E2,1.1137695E0,4.6259766E0,5.699707E0,1.7490723E1,3.4163574E1,3.888867E1,2.0247192E1,2.524585E1,1.4668213E1,2.1981445E1,9.976547E0,7.820196E1,1.0897297E2,1.0347656E2,1.6082507E2,5.7945557E1,0E0,3.6732178E0,3.3325195E0,0E0,3.2160645E0,2.319336E-3,8.649414E0,1.4754639E0,1.0244141E0,8.344971E0,2.5732422E0,1.2980713E1,1.1821381E1,1.3940308E1,3.597177E1,7.711804E1,2.093808E1,3.4927673E0,3.0613098E1,4.6974487E0,1.6093216E1,1.2011597E1,5.3901222E1,6.373953E1,9.011276E0,1.8623726E1,1.3066132E1,4.413916E1,6.3454346E1,5.214911E1,2.5041504E0,6.515625E0,0E0,0E0,0E0,0E0,0E0,0E0,0E0,0E0,0E0,0E0,0E0,0E0,0E0,0E0,0E0,0E0,0E0,0E0,0E0,0E0,0E0,0E0,0E0,0E0,0E0,0E0,0E0,0E0,0E0,0E0,0E0,0E0,0E0,0E0,0E0,0E0,0E0,0E0,0E0,0E0,0E0,0E0,0E0,0E0,0E0,0E0,0E0,0E0,0E0,0E0,0E0,0E0,0E0,0E0,0E0,0E0,0E0,0E0,0E0,0E0],"parents":[2147483647,0,0,1,1,2,2,3,3,4,4,5,5,6,6,7,7,8,8,9,9,10,10,11,11,12,12,13,13,14,14,15,15,16,16,17,17,18,18,19,19,20,20,21,21,22,22,23,23,24,24,25,25,26,26,27,27,28,28,29,29,30,30,32,32,33,33,35,35,36,36,37,37,38,38,39,39,40,40,41,41,42,42,43,43,44,44,45,45,46,46,47,47,48,48,49,49,50,50,51,51,52,52,53,53,54,54,55,55,56,56,57,57,58,58,59,59,60,60,61,61,62,62],"right_children":[2,4,6,8,10,12,14,16,18,20,22,24,26,28,30,32,34,36,38,40,42,44,46,48,50,52,54,56,58,60,62,-1,64,66,-1,68,70,72,74,76,78,80,82,84,86,88,90,92,94,96,98,100,102,104,106,108,110,112,114,116,118,120,122,-1,-1,-1,-1,-1,-1,-1,-1,-1,-1,-1,-1,-1,-1,-1,-1,-1,-1,-1,-1,-1,-1,-1,-1,-1,-1,-1,-1,-1,-1,-1,-1,-1,-1,-1,-1,-1,-1,-1,-1,-1,-1,-1,-1,-1,-1,-1,-1,-1,-1,-1,-1,-1,-1,-1,-1,-1,-1,-1,-1],"split_conditions":[2.0205E3,2.0195E3,2.0215E3,6.5E0,6.5E0,5.5E0,6.5E0,5.5E0,7.5E0,3.5E0,7.5E0,7.5E0,6.5E0,2.0225E3,2.0225E3,5.5E0,2.15E1,1.15E1,2.05E1,7.5E0,7.5E0,7.5E0,7.5E0,2.5E0,3.5E0,9.5E0,9.5E0,7.5E0,6.5E0,8.5E0,6.5E0,-5.316818E-1,3.5E0,3.05E1,-4.9748653E-1,1.55E1,5.5E0,1.75E1,1.15E1,5.5E0,2.5E0,5.5E0,5.5E0,2.25E1,8.5E0,2.05E1,8.5E0,1.5E0,5.5E0,1.5E0,2.15E1,6.5E0,1.15E1,6.5E0,1.15E1,5.5E0,5.5E0,1.5E0,1.5E0,6.5E0,6.5E0,1.5E0,2.65E1,-3.4989935E-1,-5.004038E-1,-4.504309E-1,-3.5382888E-1,-4.552983E-1,-4.229028E-1,-4.0207246E-1,-3.549553E-1,-3.6202878E-1,-3.302073E-1,-4.0556532E-1,-3.578794E-1,-3.9870557E-1,-3.6776185E-1,-3.4386042E-1,-3.0575582E-1,-3.422205E-1,-3.0527693E-1,-2.8447703E-1,-2.3791741E-1,-2.8871638E-1,-1.7661753E-1,-1.3877727E-1,-1.9813421E-1,-2.0923191E-1,-8.270875E-2,-2.9277053E-2,-1.2896332E-1,-1.7073162E-1,-2.5866032E-1,-1.7243302E-1,-1.3830122E-1,-8.77224E-2,-1.5146872E-1,-8.373654E-2,-1.2808073E-1,-1.1768803E-1,-5.2210145E-2,-1.2261452E-1,-6.2338926E-2,-3.6064934E-2,4.125708E-2,-6.8675146E-2,1.943691E-2,-3.6947988E-2,-1.7711103E-3,2.9997343E-2,7.167895E-2,2.5268136E-2,7.528477E-2,8.147955E-2,1.3939774E-1,1.19940914E-1,2.0757082E-1,6.3411795E-2,1.204807E-1,2.4316855E-1,2.0264395E-1,3.1823066E-1,2.59393E-1],"split_indices":[0,0,0,1,1,1,1,3,3,1,3,3,3,0,0,1,3,1,3,3,3,1,1,1,1,1,1,3,3,1,3,0,2,2,0,2,3,2,1,3,1,3,1,2,1,2,1,1,3,1,3,1,1,1,1,3,1,1,1,3,3,3,2,0,0,0,0,0,0,0,0,0,0,0,0,0,0,0,0,0,0,0,0,0,0,0,0,0,0,0,0,0,0,0,0,0,0,0,0,0,0,0,0,0,0,0,0,0,0,0,0,0,0,0,0,0,0,0,0,0,0,0,0],"split_type":[0,0,0,0,0,0,0,0,0,0,0,0,0,0,0,0,0,0,0,0,0,0,0,0,0,0,0,0,0,0,0,0,0,0,0,0,0,0,0,0,0,0,0,0,0,0,0,0,0,0,0,0,0,0,0,0,0,0,0,0,0,0,0,0,0,0,0,0,0,0,0,0,0,0,0,0,0,0,0,0,0,0,0,0,0,0,0,0,0,0,0,0,0,0,0,0,0,0,0,0,0,0,0,0,0,0,0,0,0,0,0,0,0,0,0,0,0,0,0,0,0,0,0],"sum_hessian":[7.9674E4,2.5846E4,5.3828E4,1.0036E4,1.581E4,1.8437E4,3.5391E4,3.374E3,6.662E3,7.901E3,7.909E3,7.606E3,1.0831E4,2.2019E4,1.3372E4,8.15E2,2.559E3,2.211E3,4.451E3,3.995E3,3.906E3,2.671E3,5.238E3,2.529E3,5.077E3,3.17E3,7.661E3,1.0397E4,1.1622E4,1.0634E4,2.738E3,5.57E2,2.58E2,2.27E3,2.89E2,1.836E3,3.75E2,3.591E3,8.6E2,1.341E3,2.654E3,1.325E3,2.581E3,4.38E2,2.233E3,8.89E2,4.349E3,1.004E3,1.525E3,3.01E3,2.067E3,1.821E3,1.349E3,4.35E3,3.311E3,3.479E3,6.918E3,3.377E3,8.245E3,3.609E3,7.025E3,7.95E2,1.943E3,2.7E1,2.31E2,2.216E3,5.4E1,9.02E2,9.34E2,2.85E2,9E1,1.985E3,1.606E3,7.05E2,1.55E2,9.98E2,3.43E2,1.762E3,8.92E2,9.9E2,3.35E2,1.726E3,8.55E2,3.13E2,1.25E2,4.6E2,1.773E3,5.74E2,3.15E2,8.75E2,3.474E3,5.47E2,4.57E2,1.131E3,3.94E2,1.043E3,1.967E3,1.819E3,2.48E2,4.49E2,1.372E3,8.99E2,4.5E2,1.078E3,3.272E3,2.199E3,1.112E3,2.603E3,8.76E2,5.759E3,1.159E3,5.66E2,2.811E3,1.44E3,6.805E3,1.057E3,2.552E3,2.031E3,4.994E3,2.33E2,5.62E2,1.721E3,2.22E2],"tree_param":{"num_deleted":"0","num_feature":"6","num_nodes":"123","size_leaf_vector":"0"}},{"base_weights":[-1.6228588E-1,-7.0631194E-1,9.8941416E-2,-9.608148E-1,-5.4470605E-1,-1.6868399E-1,2.3836215E-1,-1.0965327E0,-8.919256E-1,-7.5056845E-1,-3.38983E-1,-3.1787753E-1,-6.389411E-2,1.5370244E-1,3.777451E-1,-1.1965082E0,-1.0474706E0,-1.0069017E0,-8.345987E-1,-8.012981E-1,-6.4834034E-1,-4.617074E-1,-2.7632627E-1,-4.392367E-1,-2.6822793E-1,-1.818054E-1,-4.487666E-3,3.5498947E-2,2.5943473E-1,3.0446297E-1,6.6214734E-1,-9.059843E-1,-1.2062963E0,-1.0807508E0,-9.731861E-1,-1.0392209E0,-9.536912E-1,-7.66956E-1,-8.703209E-1,-9.082657E-1,-7.572167E-1,-7.4487054E-1,-5.970605E-1,-6.01193E-1,-4.3409064E-1,-2.4591324E-1,-4.1060057E-1,-5.115917E-1,-3.9150247E-1,-3.3897E-1,-2.2276917E-1,-2.04739E-1,-1.1493193E-1,6.0468778E-2,-8.962958E-2,-6.556291E-2,8.632418E-2,1.6297644E-1,3.0741292E-1,4.2463186E-1,2.4267617E-1,5.250366E-1,7.451195E-1,-1.2365464E0,-1.1369843E0,-1.1027848E0,-7.9957354E-1,-9.2511004E-1,-1.683135E0,-1.2042568E0,-1.0080019E0,-8.835505E-1,-9.906725E-1,-8.658588E-1,-6.670623E-1,-9.196425E-1,-7.273115E-1,-9.51795E-1,-8.61436E-1,-8.072792E-1,-7.0642644E-1,-7.9485774E-1,-7.111314E-1,-5.6362045E-1,-7.410449E-1,-6.7978376E-1,-4.1918287E-1,-3.2411465E-1,-4.6242484E-1,-2.6971385E-1,-1.3262579E-1,-3.684344E-1,-4.9698246E-1,-4.1884777E-1,-6.184501E-1,-4.5800743E-1,-3.7259015E-1,-2.0961799E-1,-4.849485E-1,-3.151725E-1,-2.0435543E-1,-1.6707061E-1,-2.560157E-1,-1.3458009E-1,4.720745E-3,-2.0805726E-2,1.4348197E-1,-2.3180799E-1,-1.4490954E-2,-8.50811E-2,3.038306E-2,1.4438044E-1,3.0578215E-2,1.4157653E-1,2.6240566E-1,2.8196582E-1,4.4495177E-1,3.062332E-1,5.3937346E-1,1.3284327E-1,2.7847427E-1,4.318345E-1,5.600019E-1,8.0612504E-1,6.714726E-1],"categories":[],"categories_nodes":[],"categories_segments":[],"categories_sizes":[],"default_left":[1,1,1,1,1,1,1,1,1,1,1,1,1,1,1,1,1,1,1,1,1,1,1,1,1,1,1,1,1,1,1,0,1,1,1,1,1,1,1,1,1,1,1,1,1,1,1,1,1,1,1,1,1,1,1,1,1,1,1,1,1,1,1,0,0,0,0,0,0,0,0,0,0,0,0,0,0,0,0,0,0,0,0,0,0,0,0,0,0,0,0,0,0,0,0,0,0,0,0,0,0,0,0,0,0,0,0,0,0,0,0,0,0,0,0,0,0,0,0,0,0,0,0,0,0],"id":2,"left_children":[1,3,5,7,9,11,13,15,17,19,21,23,25,27,29,31,33,35,37,39,41,43,45,47,49,51,53,55,57,59,61,-1,63,65,67,69,71,73,75,77,79,81,83,85,87,89,91,93,95,97,99,101,103,105,107,109,111,113,115,117,119,121,123,-1,-1,-1,-1,-1,-1,-1,-1,-1,-1,-1,-1,-1,-1,-1,-1,-1,-1,-1,-1,-1,-1,-1,-1,-1,-1,-1,-1,-1,-1,-1,-1,-1,-1,-1,-1,-1,-1,-1,-1,-1,-1,-1,-1,-1,-1,-1,-1,-1,-1,-1,-1,-1,-1,-1,-1,-1,-1,-1,-1,-1,-1],"loss_changes":[1.1323041E4,1.062542E3,2.0085361E3,9.286328E1,6.6935156E2,2.8823895E2,4.1757202E2,1.5301025E1,4.307666E1,4.045996E1,6.0696472E1,4.571765E1,7.587399E1,2.7519513E2,2.7851294E2,2.0466309E0,4.5651855E0,2.8129883E0,1.0089844E1,2.419458E1,1.2554199E1,1.0031921E1,2.1293518E1,7.4222717E0,1.7293274E1,5.5420837E0,3.984726E1,5.34149E1,5.373987E1,7.886029E1,3.0768677E1,0E0,8.269043E-1,8.783081E0,2.2778687E1,5.8189697E0,1.3242798E0,1.4706482E1,1.982837E1,2.309082E0,8.9470215E0,9.644165E-1,7.8638306E0,5.994629E0,6.811432E0,1.1488251E1,3.335434E0,8.40271E0,1.5072021E0,3.9759537E1,5.5351715E0,5.1742325E0,2.1846714E0,2.7577383E1,3.3306515E1,6.519554E0,2.2388252E1,8.182449E0,2.703778E1,4.8877625E1,2.7587921E1,3.1343384E0,7.114502E0,0E0,0E0,0E0,0E0,0E0,0E0,0E0,0E0,0E0,0E0,0E0,0E0,0E0,0E0,0E0,0E0,0E0,0E0,0E0,0E0,0E0,0E0,0E0,0E0,0E0,0E0,0E0,0E0,0E0,0E0,0E0,0E0,0E0,0E0,0E0,0E0,0E0,0E0,0E0,0E0,0E0,0E0,0E0,0E0,0E0,0E0,0E0,0E0,0E0,0E0,0E0,0E0,0E0,0E0,0E0,0E0,0E0,0E0,0E0,0E0,0E0,0E0],"parents":[2147483647,0,0,1,1,2,2,3,3,4,4,5,5,6,6,7,7,8,8,9,9,10,10,11,11,12,12,13,13,14,14,15,15,16,16,17,17,18,18,19,19,20,20,21,21,22,22,23,23,24,24,25,25,26,26,27,27,28,28,29,29,30,30,32,32,33,33,34,34,35,35,36,36,37,37,38,38,39,39,40,40,41,41,42,42,43,43,44,44,45,45,46,46,47,47,48,48,49,49,50,50,51,51,52,52,53,53,54,54,55,55,56,56,57,57,58,58,59,59,60,60,61,61,62,62],"right_children":[2,4,6,8,10,12,14,16,18,20,22,24,26,28,30,32,34,36,38,40,42,44,46,48,50,52,54,56,58,60,62,-1,64,66,68,70,72,74,76,78,80,82,84,86,88,90,92,94,96,98,100,102,104,106,108,110,112,114,116,118,120,122,124,-1,-1,-1,-1,-1,-1,-1,-1,-1,-1,-1,-1,-1,-1,-1,-1,-1,-1,-1,-1,-1,-1,-1,-1,-1,-1,-1,-1,-1,-1,-1,-1,-1,-1,-1,-1,-1,-1,-1,-1,-1,-1,-1,-1,-1,-1,-1,-1,-1,-1,-1,-1,-1,-1,-1,-1,-1,-1,-1,-1,-1,-1],"split_conditions":[2.0205E3,2.0195E3,2.0215E3,6.5E0,6.5E0,5.5E0,6.5E0,7.5E0,7.5E0,4.5E0,7.5E0,6.5E0,7.5E0,2.0225E3,2.0225E3,1.5E0,5.5E0,1.95E1,8.5E0,6.5E0,7.5E0,7.5E0,2.05E1,2.5E0,2.5E0,5.5E0,9.5E0,7.5E0,7.5E0,8.5E0,8.5E0,-2.717953E-1,5.5E0,2.95E1,2.85E1,7.5E0,8.5E0,7.5E0,1.15E1,2.5E0,2.5E0,1.25E1,2.05E1,2.15E1,8.5E0,1.15E1,2.25E1,1.5E0,7.5E0,1.5E0,5.5E0,9.5E0,1.15E1,7.5E0,1.05E1,5.5E0,3.5E0,2.55E1,5.5E0,7.5E0,5.5E0,6.5E0,1.65E1,-3.7096393E-1,-3.4109533E-1,-3.3083543E-1,-2.3987207E-1,-2.7753302E-1,-5.049405E-1,-3.6127704E-1,-3.024006E-1,-2.6506516E-1,-2.9720178E-1,-2.5975764E-1,-2.0011869E-1,-2.7589276E-1,-2.1819346E-1,-2.855385E-1,-2.584308E-1,-2.4218377E-1,-2.1192794E-1,-2.3845734E-1,-2.1333943E-1,-1.6908614E-1,-2.2231348E-1,-2.0393513E-1,-1.2575486E-1,-9.72344E-2,-1.3872746E-1,-8.0914155E-2,-3.978774E-2,-1.10530324E-1,-1.4909475E-1,-1.2565434E-1,-1.8553504E-1,-1.3740224E-1,-1.1177705E-1,-6.2885396E-2,-1.4548455E-1,-9.455175E-2,-6.1306633E-2,-5.0121184E-2,-7.680471E-2,-4.037403E-2,1.4162236E-3,-6.241718E-3,4.3044593E-2,-6.95424E-2,-4.347286E-3,-2.5524331E-2,9.114918E-3,4.3314133E-2,9.173465E-3,4.247296E-2,7.87217E-2,8.458975E-2,1.3348554E-1,9.1869965E-2,1.6181204E-1,3.9852984E-2,8.354229E-2,1.2955035E-1,1.6800058E-1,2.4183752E-1,2.014418E-1],"split_indices":[0,0,0,1,1,1,1,3,3,1,3,3,3,0,0,2,1,2,1,3,3,1,3,1,1,3,1,3,3,1,3,0,1,2,2,1,1,1,1,1,1,2,3,2,1,1,3,1,2,1,2,1,1,1,1,1,1,2,1,1,3,2,3,0,0,0,0,0,0,0,0,0,0,0,0,0,0,0,0,0,0,0,0,0,0,0,0,0,0,0,0,0,0,0,0,0,0,0,0,0,0,0,0,0,0,0,0,0,0,0,0,0,0,0,0,0,0,0,0,0,0,0,0,0,0],"split_type":[0,0,0,0,0,0,0,0,0,0,0,0,0,0,0,0,0,0,0,0,0,0,0,0,0,0,0,0,0,0,0,0,0,0,0,0,0,0,0,0,0,0,0,0,0,0,0,0,0,0,0,0,0,0,0,0,0,0,0,0,0,0,0,0,0,0,0,0,0,0,0,0,0,0,0,0,0,0,0,0,0,0,0,0,0,0,0,0,0,0,0,0,0,0,0,0,0,0,0,0,0,0,0,0,0,0,0,0,0,0,0,0,0,0,0,0,0,0,0,0,0,0,0,0,0],"sum_hessian":[7.9674E4,2.5846E4,5.3828E4,1.0036E4,1.581E4,1.8437E4,3.5391E4,3.374E3,6.662E3,7.901E3,7.909E3,7.606E3,1.0831E4,2.2019E4,1.3372E4,1.103E3,2.271E3,2.211E3,4.451E3,5.276E3,2.625E3,2.671E3,5.238E3,2.206E3,5.4E3,3.628E3,7.203E3,1.0397E4,1.1622E4,1.0634E4,2.738E3,3.9E1,1.064E3,1.559E3,7.12E2,1.364E3,8.47E2,1.546E3,2.905E3,1.534E3,3.742E3,9.06E2,1.719E3,4.38E2,2.233E3,4.273E3,9.65E2,8.73E2,1.333E3,2.11E3,3.29E3,2.7E3,9.28E2,4.086E3,3.117E3,3.479E3,6.918E3,3.862E3,7.76E3,3.609E3,7.025E3,1.035E3,1.703E3,7.29E2,3.35E2,1.443E3,1.16E2,6.69E2,4.3E1,2.11E2,1.153E3,3.01E2,5.46E2,7.73E2,7.73E2,2.156E3,7.49E2,7.85E2,7.49E2,1.877E3,1.865E3,3.56E2,5.5E2,1.399E3,3.2E2,3.04E2,1.34E2,4.6E2,1.773E3,3.53E3,7.43E2,6.52E2,3.13E2,4.7E2,4.03E2,2.9E2,1.043E3,1.12E3,9.9E2,5.44E2,2.746E3,1.559E3,1.141E3,7.97E2,1.31E2,2.065E3,2.021E3,1.077E3,2.04E3,2.891E3,5.88E2,3.388E3,3.53E3,3.18E3,6.82E2,6.551E3,1.209E3,1.778E3,1.831E3,1.728E3,5.297E3,2.86E2,7.49E2,9.26E2,7.77E2],"tree_param":{"num_deleted":"0","num_feature":"6","num_nodes":"125","size_leaf_vector":"0"}},{"base_weights":[-1.13687195E-1,-4.9470097E-1,6.926579E-2,-6.7302036E-1,-3.814705E-1,-1.1813994E-1,1.6689569E-1,-7.682653E-1,-6.2467504E-1,-5.256309E-1,-2.3740768E-1,-2.2263582E-1,-4.4744603E-2,9.027862E-2,2.4998774E-1,-8.384468E-1,-7.338249E-1,-7.25169E-1,-5.907832E-1,-5.610978E-1,-4.5415932E-1,-3.5036576E-1,-1.9930126E-1,-3.013966E-1,-1.8335117E-1,-1.3636632E-1,-6.8201446E-3,7.2167227E-3,1.638555E-1,1.9891281E-1,3.8750345E-1,-7.1693414E-1,-8.506346E-1,-7.112855E-1,-8.3326215E-1,-6.7108774E-1,-7.5385606E-1,-5.759677E-1,-7.064366E-1,-6.3144034E-1,-5.25717E-1,-5.404336E-1,-4.2373437E-1,-4.457819E-1,-3.3117518E-1,-3.014648E-1,-1.7853734E-1,-3.316196E-1,-2.5550887E-1,-1.6686179E-1,-3.027418E-1,-2.2630838E-1,-1.21447034E-1,1.8647784E-2,-1.2484775E-1,6.0240563E-2,-6.841044E-2,7.3634215E-2,1.9318058E-1,1.0824741E-1,2.4406238E-1,2.749206E-1,4.637736E-1,-8.148101E-1,-4.8282382E-1,-8.359093E-1,-9.247547E-1,-5.724457E-1,-7.213074E-1,-6.875426E-1,-8.4326154E-1,-9.028651E-1,-6.617942E-1,-7.7211463E-1,-6.5756345E-1,-6.005446E-1,-5.141971E-1,-6.522036E-1,-7.5910944E-1,-6.6294277E-1,-5.9774095E-1,-5.0706106E-1,-6.6207516E-1,-5.769959E-1,-5.0184566E-1,-4.9875754E-1,-3.8658768E-1,-4.7708738E-1,-2.0610732E-1,-2.3344395E-1,-3.5750148E-1,-3.650737E-1,2.9042099E-2,-3.7933995E-3,-2.220006E-1,-2.8208002E-1,-3.5912326E-1,-2.7766404E-1,-2.2022182E-1,-2.1496922E-1,-1.3608243E-1,-3.8061205E-1,-2.5188988E-1,-3.4185508E-1,-1.8325546E-1,-7.3161334E-2,-1.7046541E-1,6.828364E-2,-4.6550516E-2,-8.9627445E-2,-1.9730759E-1,-2.5484908E-2,1.0624477E-1,-1.3554175E-1,-4.6032865E-2,1.648586E-1,5.456137E-2,1.053556E-1,2.1604271E-1,4.3743588E-2,1.3429353E-1,2.980018E-1,2.0310555E-1,1.9074784E-1,7.187425E-1,3.5486284E-1,5.178561E-1],"categories":[],"categories_nodes":[],"categories_segments":[],"categories_sizes":[],"default_left":[1,1,1,1,1,1,1,1,1,1,1,1,1,1,1,1,1,1,1,1,1,1,1,1,1,1,1,1,1,1,1,1,1,1,1,1,1,1,1,1,1,1,1,1,1,1,1,1,1,1,1,1,1,1,1,1,1,1,1,1,1,1,1,0,0,0,0,0,0,0,0,0,0,0,0,0,0,0,0,0,0,0,0,0,0,0,0,0,0,0,0,0,0,0,0,0,0,0,0,0,0,0,0,0,0,0,0,0,0,0,0,0,0,0,0,0,0,0,0,0,0,0,0,0,0,0,0],"id":3,"left_children":[1,3,5,7,9,11,13,15,17,19,21,23,25,27,29,31,33,35,37,39,41,43,45,47,49,51,53,55,57,59,61,63,65,67,69,71,73,75,77,79,81,83,85,87,89,91,93,95,97,99,101,103,105,107,109,111,113,115,117,119,121,123,125,-1,-1,-1,-1,-1,-1,-1,-1,-1,-1,-1,-1,-1,-1,-1,-1,-1,-1,-1,-1,-1,-1,-1,-1,-1,-1,-1,-1,-1,-1,-1,-1,-1,-1,-1,-1,-1,-1,-1,-1,-1,-1,-1,-1,-1,-1,-1,-1,-1,-1,-1,-1,-1,-1,-1,-1,-1,-1,-1,-1,-1,-1,-1,-1],"loss_changes":[5.553988E3,5.216245E2,9.8489685E2,4.5737305E1,3.2824048E2,1.4140048E2,2.2529242E2,7.5424805E0,2.226538E1,1.9775879E1,3.397824E1,2.3481506E1,3.7637062E1,1.1254089E2,1.1916968E2,1.0251465E0,4.4993896E0,2.0942993E0,8.1397705E0,1.2801392E1,6.6640015E0,3.50354E0,1.2497986E1,3.424057E0,9.946411E0,4.2275887E0,2.3033676E1,3.4695E1,2.5821472E1,5.0659363E1,3.934558E1,2.0583687E0,3.1622314E-1,2.173767E0,2.3468018E-2,6.7337036E-1,1.4034424E0,6.411865E0,1.110321E0,1.4731445E0,8.611084E0,6.712494E-1,5.2304077E0,2.3852005E0,4.1978455E0,2.0991737E1,3.7366257E1,1.9724426E0,7.276764E-1,6.5806656E0,2.3394318E0,2.175932E0,6.430195E0,2.0400778E1,3.4531136E0,2.0060528E1,5.3507347E0,4.161566E0,1.4773224E1,6.912674E0,1.8198425E1,6.931088E1,1.5949402E1,0E0,0E0,0E0,0E0,0E0,0E0,0E0,0E0,0E0,0E0,0E0,0E0,0E0,0E0,0E0,0E0,0E0,0E0,0E0,0E0,0E0,0E0,0E0,0E0,0E0,0E0,0E0,0E0,0E0,0E0,0E0,0E0,0E0,0E0,0E0,0E0,0E0,0E0,0E0,0E0,0E0,0E0,0E0,0E0,0E0,0E0,0E0,0E0,0E0,0E0,0E0,0E0,0E0,0E0,0E0,0E0,0E0,0E0,0E0,0E0,0E0,0E0,0E0,0E0],"parents":[2147483647,0,0,1,1,2,2,3,3,4,4,5,5,6,6,7,7,8,8,9,9,10,10,11,11,12,12,13,13,14,14,15,15,16,16,17,17,18,18,19,19,20,20,21,21,22,22,23,23,24,24,25,25,26,26,27,27,28,28,29,29,30,30,31,31,32,32,33,33,34,34,35,35,36,36,37,37,38,38,39,39,40,40,41,41,42,42,43,43,44,44,45,45,46,46,47,47,48,48,49,49,50,50,51,51,52,52,53,53,54,54,55,55,56,56,57,57,58,58,59,59,60,60,61,61,62,62],"right_children":[2,4,6,8,10,12,14,16,18,20,22,24,26,28,30,32,34,36,38,40,42,44,46,48,50,52,54,56,58,60,62,64,66,68,70,72,74,76,78,80,82,84,86,88,90,92,94,96,98,100,102,104,106,108,110,112,114,116,118,120,122,124,126,-1,-1,-1,-1,-1,-1,-1,-1,-1,-1,-1,-1,-1,-1,-1,-1,-1,-1,-1,-1,-1,-1,-1,-1,-1,-1,-1,-1,-1,-1,-1,-1,-1,-1,-1,-1,-1,-1,-1,-1,-1,-1,-1,-1,-1,-1,-1,-1,-1,-1,-1,-1,-1,-1,-1,-1,-1,-1,-1,-1,-1,-1,-1,-1],"split_conditions":[2.0205E3,2.0195E3,2.0215E3,6.5E0,6.5E0,5.5E0,5.5E0,7.5E0,5.5E0,4.5E0,5.5E0,7.5E0,6.5E0,2.0225E3,2.0225E3,3.5E0,2.05E1,1.5E0,2.15E1,7.5E0,5.5E0,7.5E0,7.5E0,3.5E0,2.15E1,6.5E0,2.05E1,3.5E0,5.5E0,7.5E0,6.5E0,5.5E0,2.75E1,2.5E0,2.5E0,1.5E0,1.15E1,2.25E1,2.25E1,2.5E0,2.15E1,5.5E0,1.05E1,2.75E1,8.5E0,2.65E1,8.5E0,1.5E0,4.5E0,2.5E0,2.5E0,8.5E0,9.5E0,9.5E0,2.25E1,1.5E0,5.5E0,5E-1,1.5E0,7.5E0,8.5E0,2.55E1,7.5E0,-2.4444304E-1,-1.4484715E-1,-2.507728E-1,-2.7742642E-1,-1.717337E-1,-2.1639223E-1,-2.062628E-1,-2.5297847E-1,-2.7085954E-1,-1.9853826E-1,-2.316344E-1,-1.9726904E-1,-1.8016338E-1,-1.5425915E-1,-1.956611E-1,-2.2773284E-1,-1.9888283E-1,-1.7932229E-1,-1.5211833E-1,-1.9862255E-1,-1.7309877E-1,-1.505537E-1,-1.4962727E-1,-1.1597631E-1,-1.4312622E-1,-6.1832197E-2,-7.0033185E-2,-1.07250445E-1,-1.0952212E-1,8.71263E-3,-1.13802E-3,-6.660018E-2,-8.462401E-2,-1.0773698E-1,-8.329921E-2,-6.606655E-2,-6.4490765E-2,-4.082473E-2,-1.1418362E-1,-7.556697E-2,-1.0255653E-1,-5.4976642E-2,-2.19484E-2,-5.1139627E-2,2.0485092E-2,-1.3965155E-2,-2.6888235E-2,-5.9192277E-2,-7.645473E-3,3.1873435E-2,-4.0662527E-2,-1.380986E-2,4.945758E-2,1.6368411E-2,3.160668E-2,6.481282E-2,1.3123077E-2,4.028806E-2,8.9400545E-2,6.0931668E-2,5.7224356E-2,2.1562275E-1,1.0645886E-1,1.5535684E-1],"split_indices":[0,0,0,1,1,1,1,3,3,1,3,3,3,0,0,2,3,3,3,3,3,1,1,1,3,1,3,1,3,3,1,1,2,2,2,2,1,2,3,1,3,1,2,2,1,2,1,1,3,1,1,2,1,1,3,1,3,3,1,1,1,2,3,0,0,0,0,0,0,0,0,0,0,0,0,0,0,0,0,0,0,0,0,0,0,0,0,0,0,0,0,0,0,0,0,0,0,0,0,0,0,0,0,0,0,0,0,0,0,0,0,0,0,0,0,0,0,0,0,0,0,0,0,0,0,0,0],"split_type":[0,0,0,0,0,0,0,0,0,0,0,0,0,0,0,0,0,0,0,0,0,0,0,0,0,0,0,0,0,0,0,0,0,0,0,0,0,0,0,0,0,0,0,0,0,0,0,0,0,0,0,0,0,0,0,0,0,0,0,0,0,0,0,0,0,0,0,0,0,0,0,0,0,0,0,0,0,0,0,0,0,0,0,0,0,0,0,0,0,0,0,0,0,0,0,0,0,0,0,0,0,0,0,0,0,0,0,0,0,0,0,0,0,0,0,0,0,0,0,0,0,0,0,0,0,0,0],"sum_hessian":[7.9674E4,2.5846E4,5.3828E4,1.0036E4,1.581E4,1.8437E4,3.5391E4,3.374E3,6.662E3,7.901E3,7.909E3,7.606E3,1.0831E4,1.8414E4,1.6977E4,1.103E3,2.271E3,1.675E3,4.987E3,5.276E3,2.625E3,1.993E3,5.916E3,2.529E3,5.077E3,3.17E3,7.661E3,8.65E3,9.764E3,1.2381E4,4.596E3,1.06E2,9.97E2,1.858E3,4.13E2,5.89E2,1.086E3,4.426E3,5.61E2,1.76E3,3.516E3,6.8E2,1.945E3,3.3E2,1.663E3,9.97E2,4.919E3,1.521E3,1.008E3,4.463E3,6.14E2,4.49E2,2.721E3,6.302E3,1.359E3,5.085E3,3.565E3,2.396E3,7.368E3,4.117E3,8.264E3,1.858E3,2.738E3,7.3E1,3.3E1,8.42E2,1.55E2,1.29E2,1.729E3,3.1E1,3.82E2,1.9E1,5.7E2,9.07E2,1.79E2,3.16E3,1.266E3,2.83E2,2.78E2,9E2,8.6E2,3.097E3,4.19E2,3.42E2,3.38E2,6.4E2,1.305E3,2.91E2,3.9E1,3.55E2,1.308E3,8.36E2,1.61E2,9.8E2,3.939E3,5.47E2,9.74E2,6.15E2,3.93E2,1.739E3,2.724E3,2.4E2,3.74E2,1.2E2,3.29E2,1.372E3,1.349E3,3.578E3,2.724E3,9.16E2,4.43E2,1.776E3,3.309E3,8.9E2,2.675E3,4.13E2,1.983E3,1.523E3,5.845E3,1.185E3,2.932E3,3.564E3,4.7E3,1.563E3,2.95E2,9.11E2,1.827E3],"tree_param":{"num_deleted":"0","num_feature":"6","num_nodes":"127","size_leaf_vector":"0"}},{"base_weights":[-7.964839E-2,-3.4649533E-1,4.8484623E-2,-4.7145507E-1,-2.6714757E-1,-8.274932E-2,1.1685157E-1,-5.600231E-1,-4.4481558E-1,-3.6810845E-1,-1.6625501E-1,-1.4789656E-1,-1.8790418E-2,7.29587E-2,1.891169E-1,-5.735725E-1,-3.8328952E-1,-5.024255E-1,-4.111363E-1,-4.23569E-1,-3.398528E-1,-2.3805669E-1,-1.3630359E-1,-2.1789801E-1,-1.24877185E-1,5.9982564E-2,-5.849854E-2,1.2341538E-2,1.2718087E-1,2.702356E-1,1.1579912E-1,-6.450298E-1,-5.551241E-1,-3.3902314E-1,-5.164664E-1,-5.2459484E-1,-4.4482785E-1,-3.8504314E-1,-4.8038307E-1,-3.6277932E-1,-4.9096993E-1,-4.0746838E-1,-3.1695727E-1,-1.6070192E-1,-2.510757E-1,-1.5648127E-1,-4.1701343E-2,-2.7531555E-1,-1.8946248E-1,-1.1730147E-1,-2.5664008E-1,-1.792142E-2,1.4048827E-1,-9.167854E-2,3.972027E-2,-2.8297314E-2,6.379052E-2,6.0043544E-2,1.491977E-1,1.8776058E-1,3.199899E-1,6.2418018E-2,1.4218684E-1,-1.0297825E0,-6.3073695E-1,-5.423284E-1,-6.266397E-1,-5.022545E-1,-2.4559858E-1,-3.1628147E-1,-5.726519E-1,-4.931094E-1,-5.720109E-1,-4.7690606E-1,-3.9262375E-1,-3.6270896E-1,-4.3951422E-1,-4.955967E-1,-3.963385E-1,-2.3788606E-1,-5.3318495E-1,-5.1666224E-1,-3.4078526E-1,-4.2625475E-1,-3.5173604E-1,-2.98941E-1,-4.1143203E-1,-2.3397398E-1,-1.446885E-1,-2.652268E-1,-1.7722088E-1,-1.0354028E-1,-2.3546386E-1,-1.2912427E-1,2.2133838E-2,-2.2255717E-1,-3.3937868E-1,-2.4619564E-1,-1.7300941E-1,-1.5785868E-1,-9.777629E-2,-2.9934964E-1,-2.0918287E-1,8.7159075E-2,-2.5950375E-1,4.143058E-2,2.0066859E-1,-2.4094852E-2,-1.309497E-1,-9.746484E-3,2.9710385E-1,1.4385341E-2,-1.120166E-1,-1.0803771E-1,1.0125842E-1,-2.2736603E-2,7.6789275E-2,1.2982465E-1,2.265273E-1,1.3578892E-1,2.5560403E-1,3.718823E-1,2.587019E-1,1.2939914E-1,5.2587572E-2,1.1223201E-1,2.2919413E-1],"categories":[],"categories_nodes":[],"categories_segments":[],"categories_sizes":[],"default_left":[1,1,1,1,1,1,1,1,1,1,1,1,1,1,1,1,1,1,1,1,1,1,1,1,1,1,1,1,1,1,1,1,1,1,1,1,1,1,1,1,1,1,1,1,1,1,1,1,1,1,1,1,1,1,1,1,1,1,1,1,1,1,1,0,0,0,0,0,0,0,0,0,0,0,0,0,0,0,0,0,0,0,0,0,0,0,0,0,0,0,0,0,0,0,0,0,0,0,0,0,0,0,0,0,0,0,0,0,0,0,0,0,0,0,0,0,0,0,0,0,0,0,0,0,0,0,0],"id":4,"left_children":[1,3,5,7,9,11,13,15,17,19,21,23,25,27,29,31,33,35,37,39,41,43,45,47,49,51,53,55,57,59,61,63,65,67,69,71,73,75,77,79,81,83,85,87,89,91,93,95,97,99,101,103,105,107,109,111,113,115,117,119,121,123,125,-1,-1,-1,-1,-1,-1,-1,-1,-1,-1,-1,-1,-1,-1,-1,-1,-1,-1,-1,-1,-1,-1,-1,-1,-1,-1,-1,-1,-1,-1,-1,-1,-1,-1,-1,-1,-1,-1,-1,-1,-1,-1,-1,-1,-1,-1,-1,-1,-1,-1,-1,-1,-1,-1,-1,-1,-1,-1,-1,-1,-1,-1,-1,-1],"loss_changes":[2.7242568E3,2.5615405E2,4.8296686E2,2.3432129E1,1.609928E2,7.682367E1,1.12247284E2,5.328491E0,1.477417E1,1.2239136E1,1.69785E1,1.4691223E1,2.9108871E1,7.237364E1,7.9503876E1,2.4761963E0,8.153095E-1,3.3981934E0,8.628906E0,1.073291E1,7.982849E0,2.303131E0,1.0652512E1,3.6361084E0,6.833496E0,1.9563997E1,2.016646E1,2.1742235E1,1.7171585E1,2.5988861E1,9.887993E0,1.74263E0,1.2305298E0,1.843874E0,2.6877975E-1,2.7753906E0,1.1474304E0,4.1569824E0,1.5054321E0,2.97538E1,4.685791E0,1.2342072E0,6.547455E0,3.6273384E-1,2.0327988E0,1.9218506E1,5.488646E0,2.4458466E0,1.3706322E0,5.135002E0,6.9340515E-1,4.0284164E1,9.136356E0,1.2272015E1,1.9902903E1,2.0762842E1,2.955511E1,3.982952E0,1.3082062E1,8.395805E0,1.249173E1,1.5247602E0,1.222644E1,0E0,0E0,0E0,0E0,0E0,0E0,0E0,0E0,0E0,0E0,0E0,0E0,0E0,0E0,0E0,0E0,0E0,0E0,0E0,0E0,0E0,0E0,0E0,0E0,0E0,0E0,0E0,0E0,0E0,0E0,0E0,0E0,0E0,0E0,0E0,0E0,0E0,0E0,0E0,0E0,0E0,0E0,0E0,0E0,0E0,0E0,0E0,0E0,0E0,0E0,0E0,0E0,0E0,0E0,0E0,0E0,0E0,0E0,0E0,0E0,0E0,0E0,0E0,0E0],"parents":[2147483647,0,0,1,1,2,2,3,3,4,4,5,5,6,6,7,7,8,8,9,9,10,10,11,11,12,12,13,13,14,14,15,15,16,16,17,17,18,18,19,19,20,20,21,21,22,22,23,23,24,24,25,25,26,26,27,27,28,28,29,29,30,30,31,31,32,32,33,33,34,34,35,35,36,36,37,37,38,38,39,39,40,40,41,41,42,42,43,43,44,44,45,45,46,46,47,47,48,48,49,49,50,50,51,51,52,52,53,53,54,54,55,55,56,56,57,57,58,58,59,59,60,60,61,61,62,62],"right_children":[2,4,6,8,10,12,14,16,18,20,22,24,26,28,30,32,34,36,38,40,42,44,46,48,50,52,54,56,58,60,62,64,66,68,70,72,74,76,78,80,82,84,86,88,90,92,94,96,98,100,102,104,106,108,110,112,114,116,118,120,122,124,126,-1,-1,-1,-1,-1,-1,-1,-1,-1,-1,-1,-1,-1,-1,-1,-1,-1,-1,-1,-1,-1,-1,-1,-1,-1,-1,-1,-1,-1,-1,-1,-1,-1,-1,-1,-1,-1,-1,-1,-1,-1,-1,-1,-1,-1,-1,-1,-1,-1,-1,-1,-1,-1,-1,-1,-1,-1,-1,-1,-1,-1,-1,-1,-1],"split_conditions":[2.0205E3,2.0195E3,2.0215E3,5.5E0,6.5E0,6.5E0,6.5E0,2.95E1,8.5E0,2.5E0,6.5E0,5.5E0,8.5E0,2.0225E3,8.5E0,4.5E0,5.5E0,1.05E1,1.95E1,1.5E0,5.5E0,5E-1,1.15E1,2.5E0,2.25E1,7.5E0,1.15E1,1.75E1,5.5E0,8.5E0,7.5E0,3.5E0,2.05E1,8.5E0,7E0,8.5E0,1.95E1,4.5E0,1.15E1,1.85E1,2.55E1,5.5E0,2.05E1,7.5E0,1.15E1,9.5E0,1.35E1,1.5E0,7.5E0,2.5E0,3.5E0,2.25E1,8.5E0,1.15E1,2.65E1,4.5E0,1.5E0,1.5E0,2.45E1,2.0225E3,1.65E1,5E-1,1.15E1,-3.0893478E-1,-1.892211E-1,-1.6269854E-1,-1.8799193E-1,-1.5067635E-1,-7.367958E-2,-9.488445E-2,-1.7179558E-1,-1.4793283E-1,-1.7160326E-1,-1.4307183E-1,-1.1778713E-1,-1.0881269E-1,-1.3185427E-1,-1.4867902E-1,-1.1890155E-1,-7.136582E-2,-1.5995549E-1,-1.5499867E-1,-1.02235585E-1,-1.2787643E-1,-1.05520815E-1,-8.9682296E-2,-1.2342961E-1,-7.0192195E-2,-4.3406554E-2,-7.956804E-2,-5.3166267E-2,-3.1062085E-2,-7.063916E-2,-3.8737282E-2,6.6401516E-3,-6.6767156E-2,-1.0181361E-1,-7.385869E-2,-5.1902827E-2,-4.7357608E-2,-2.9332887E-2,-8.9804895E-2,-6.275486E-2,2.6147723E-2,-7.785113E-2,1.2429175E-2,6.020058E-2,-7.228456E-3,-3.9284915E-2,-2.9239454E-3,8.913116E-2,4.3156026E-3,-3.3604983E-2,-3.2411315E-2,3.0377528E-2,-6.8209814E-3,2.3036784E-2,3.8947396E-2,6.795819E-2,4.0736675E-2,7.668121E-2,1.1156469E-1,7.761057E-2,3.881974E-2,1.5776273E-2,3.3669602E-2,6.875824E-2],"split_indices":[0,0,0,1,1,1,1,2,3,1,3,3,1,0,1,3,5,1,3,1,3,3,1,1,3,1,1,2,3,3,3,1,3,3,3,1,2,5,1,2,2,1,3,1,1,1,2,1,2,1,1,2,3,2,2,1,1,1,2,0,3,3,1,0,0,0,0,0,0,0,0,0,0,0,0,0,0,0,0,0,0,0,0,0,0,0,0,0,0,0,0,0,0,0,0,0,0,0,0,0,0,0,0,0,0,0,0,0,0,0,0,0,0,0,0,0,0,0,0,0,0,0,0,0,0,0,0],"split_type":[0,0,0,0,0,0,0,0,0,0,0,0,0,0,0,0,0,0,0,0,0,0,0,0,0,0,0,0,0,0,0,0,0,0,0,0,0,0,0,0,0,0,0,0,0,0,0,0,0,0,0,0,0,0,0,0,0,0,0,0,0,0,0,0,0,0,0,0,0,0,0,0,0,0,0,0,0,0,0,0,0,0,0,0,0,0,0,0,0,0,0,0,0,0,0,0,0,0,0,0,0,0,0,0,0,0,0,0,0,0,0,0,0,0,0,0,0,0,0,0,0,0,0,0,0,0,0],"sum_hessian":[7.9674E4,2.5846E4,5.3828E4,1.0036E4,1.581E4,1.8437E4,3.5391E4,2.316E3,7.72E3,7.901E3,7.909E3,9.133E3,9.304E3,2.2019E4,1.3372E4,2.149E3,1.67E2,2.843E3,4.877E3,2.662E3,5.239E3,2.326E3,5.583E3,2.258E3,6.875E3,3.118E3,6.186E3,1.0397E4,1.1622E4,6.347E3,7.025E3,4.34E2,1.715E3,1.28E2,3.9E1,2.047E3,7.96E2,3.547E3,1.33E3,1.403E3,1.259E3,1.321E3,3.918E3,3.37E2,1.989E3,4.601E3,9.82E2,7.45E2,1.513E3,6.503E3,3.72E2,1.585E3,1.533E3,4.624E3,1.562E3,5.809E3,4.588E3,2.871E3,8.751E3,2.39E3,3.957E3,2.325E3,4.7E3,1.3E1,4.21E2,1.462E3,2.53E2,4.5E1,8.3E1,1E1,2.9E1,1.237E3,8.1E2,4.88E2,3.08E2,2.521E3,1.026E3,1.122E3,2.08E2,8.11E2,5.92E2,1.073E3,1.86E2,9.83E2,3.38E2,3.294E3,6.24E2,5.8E1,2.79E2,1.667E3,3.22E2,2.756E3,1.845E3,4.14E2,5.68E2,4.11E2,3.34E2,3.37E2,1.176E3,2.111E3,4.392E3,1.93E2,1.79E2,1.105E3,4.8E2,5.8E2,9.53E2,1.7E3,2.924E3,1.311E3,2.51E2,3.848E3,1.961E3,8.21E2,3.767E3,4.83E2,2.388E3,7E3,1.751E3,1.355E3,1.035E3,2.14E3,1.817E3,2.96E2,2.029E3,3.498E3,1.202E3],"tree_param":{"num_deleted":"0","num_feature":"6","num_nodes":"127","size_leaf_vector":"0"}},{"base_weights":[-5.57997E-2,-2.4269156E-1,3.3940956E-2,-3.3026052E-1,-1.8708648E-1,-5.7949632E-2,8.181179E-2,-3.7113294E-1,-2.970561E-1,-2.4832495E-1,-1.0120511E-1,-1.0358491E-1,-1.3146778E-2,4.0436026E-2,1.2668474E-1,-2.2303534E-1,-3.819739E-1,-1.9530022E-1,-3.2470983E-1,-2.7251628E-1,-1.8739279E-1,-1.2730818E-3,-1.2662584E-1,-1.4072603E-1,-8.10587E-2,-6.892057E-2,2.0523518E-2,-5.486797E-4,7.674102E-2,9.843908E-2,2.0273675E-1,-4.6470433E-1,2.322051E-2,-4.3216836E-1,-3.4205434E-1,-1.6995808E-1,-4.0363905E-1,-3.763314E-1,-2.7350554E-1,-3.0785587E-1,-2.5098303E-1,-2.858399E-1,-1.3632634E-1,-1.0383085E-1,6.318621E-2,-1.5238808E-1,-5.2937206E-2,-1.7617433E-1,-1.2327055E-1,-6.638131E-2,-1.4092878E-1,7.346499E-3,-7.828519E-2,9.274387E-2,-1.562931E-2,-7.990668E-2,2.5904072E-2,9.449412E-2,9.592735E-3,4.297173E-2,1.16721064E-1,1.319888E-1,2.3245122E-1,-3.6021912E-1,-5.262553E-1,-3.5807106E-1,1.9405018E-1,-4.0003243E-1,-5.262794E-1,-3.797328E-1,-2.259341E-1,-2.747497E-1,-9.543592E-2,-3.3368036E-1,-4.4011286E-1,-3.238961E-1,-4.2727506E-1,-3.0689567E-1,-2.2669406E-1,-3.3544523E-1,-2.8868952E-1,-2.386285E-1,-3.3654734E-1,-2.7468985E-1,-3.9767382E-1,-1.6319466E-1,-7.620523E-3,-5.9664752E-3,-1.321966E-1,1.4539948E-1,-2.8042808E-2,-9.580168E-2,-1.7996247E-1,-1.1295389E-1,-7.953043E-3,-1.2778404E-1,-2.3255494E-1,-1.8873304E-1,-1.1054662E-1,3.5588231E-3,-8.0887675E-2,-1.2120218E-1,-1.8005705E-1,6.465489E-2,-4.6255045E-2,-9.843824E-2,-4.5293972E-2,7.313821E-2,3.3440328E-1,-4.102218E-2,5.8937788E-2,-3.839497E-3,-9.394327E-2,7.062134E-2,-3.7839416E-2,1.769079E-2,1.2144003E-1,-5.840585E-3,1.542412E-1,1.07202254E-1,9.837114E-3,9.508528E-2,1.6390872E-1,2.4234764E-1,1.1443676E-1,2.0923977E-1,3.408795E-1],"categories":[],"categories_nodes":[],"categories_segments":[],"categories_sizes":[],"default_left":[1,1,1,1,1,1,1,1,1,1,1,1,1,1,1,1,1,1,1,1,1,1,1,1,1,1,1,1,1,1,1,1,1,1,1,1,1,1,1,1,1,1,1,1,1,1,1,1,1,1,1,1,1,1,1,1,1,1,1,1,1,1,1,0,0,0,0,0,0,0,0,0,0,0,0,0,0,0,0,0,0,0,0,0,0,0,0,0,0,0,0,0,0,0,0,0,0,0,0,0,0,0,0,0,0,0,0,0,0,0,0,0,0,0,0,0,0,0,0,0,0,0,0,0,0,0,0],"id":5,"left_children":[1,3,5,7,9,11,13,15,17,19,21,23,25,27,29,31,33,35,37,39,41,43,45,47,49,51,53,55,57,59,61,63,65,67,69,71,73,75,77,79,81,83,85,87,89,91,93,95,97,99,101,103,105,107,109,111,113,115,117,119,121,123,125,-1,-1,-1,-1,-1,-1,-1,-1,-1,-1,-1,-1,-1,-1,-1,-1,-1,-1,-1,-1,-1,-1,-1,-1,-1,-1,-1,-1,-1,-1,-1,-1,-1,-1,-1,-1,-1,-1,-1,-1,-1,-1,-1,-1,-1,-1,-1,-1,-1,-1,-1,-1,-1,-1,-1,-1,-1,-1,-1,-1,-1,-1,-1,-1],"loss_changes":[1.3363011E3,1.2579443E2,2.3679202E2,1.3511475E1,8.3128784E1,3.7696796E1,6.570552E1,7.131592E0,1.553421E1,1.3552795E1,1.672293E1,7.6305466E0,1.7475458E1,2.740063E1,3.645117E1,1.8400124E1,8.241882E0,6.1984596E0,1.1413696E1,4.948181E0,1.3162834E1,8.838593E0,9.954651E0,2.111168E0,4.988899E0,2.5024624E0,1.5152908E1,1.8162575E1,1.1639858E1,1.2550987E1,9.633301E0,8.13694E-1,1.0100413E1,5.3875427E0,1.0139099E1,8.251633E0,1.7975426E-1,5.6502075E0,3.3550568E0,1.2230225E0,4.263336E0,1.0080338E0,5.9847374E0,1.4316258E0,6.1617727E0,6.049347E0,3.67353E0,3.0668755E0,1.9057274E0,4.636904E0,8.4189415E-1,1.1825687E0,2.0699482E0,9.148106E0,7.32637E0,2.309123E0,1.8499146E1,1.5980873E1,4.5617065E0,6.534813E0,9.491432E0,2.6104908E0,8.072983E0,0E0,0E0,0E0,0E0,0E0,0E0,0E0,0E0,0E0,0E0,0E0,0E0,0E0,0E0,0E0,0E0,0E0,0E0,0E0,0E0,0E0,0E0,0E0,0E0,0E0,0E0,0E0,0E0,0E0,0E0,0E0,0E0,0E0,0E0,0E0,0E0,0E0,0E0,0E0,0E0,0E0,0E0,0E0,0E0,0E0,0E0,0E0,0E0,0E0,0E0,0E0,0E0,0E0,0E0,0E0,0E0,0E0,0E0,0E0,0E0,0E0,0E0,0E0,0E0],"parents":[2147483647,0,0,1,1,2,2,3,3,4,4,5,5,6,6,7,7,8,8,9,9,10,10,11,11,12,12,13,13,14,14,15,15,16,16,17,17,18,18,19,19,20,20,21,21,22,22,23,23,24,24,25,25,26,26,27,27,28,28,29,29,30,30,31,31,32,32,33,33,34,34,35,35,36,36,37,37,38,38,39,39,40,40,41,41,42,42,43,43,44,44,45,45,46,46,47,47,48,48,49,49,50,50,51,51,52,52,53,53,54,54,55,55,56,56,57,57,58,58,59,59,60,60,61,61,62,62],"right_children":[2,4,6,8,10,12,14,16,18,20,22,24,26,28,30,32,34,36,38,40,42,44,46,48,50,52,54,56,58,60,62,64,66,68,70,72,74,76,78,80,82,84,86,88,90,92,94,96,98,100,102,104,106,108,110,112,114,116,118,120,122,124,126,-1,-1,-1,-1,-1,-1,-1,-1,-1,-1,-1,-1,-1,-1,-1,-1,-1,-1,-1,-1,-1,-1,-1,-1,-1,-1,-1,-1,-1,-1,-1,-1,-1,-1,-1,-1,-1,-1,-1,-1,-1,-1,-1,-1,-1,-1,-1,-1,-1,-1,-1,-1,-1,-1,-1,-1,-1,-1,-1,-1,-1,-1,-1,-1],"split_conditions":[2.0205E3,2.0195E3,2.0215E3,7.5E0,7.5E0,6.5E0,5.5E0,2.5E0,8.5E0,5.5E0,8.5E0,8.5E0,8.5E0,2.0225E3,2.0225E3,5.5E0,1.55E1,2.85E1,1.05E1,8.5E0,1.05E1,8.5E0,1.15E1,2.5E0,2.05E1,5E-1,8.5E0,5.5E0,4.5E0,5.5E0,6.5E0,9.5E0,7.5E0,6.5E0,6.5E0,1.25E1,2.95E1,9.5E0,1.85E1,2.5E0,2.15E1,2.15E1,2.75E1,1.5E0,1.65E1,9.5E0,1.35E1,1.5E0,5.5E0,1.5E0,2.25E1,9.5E0,5.5E0,2.95E1,1.15E1,5E-1,3.5E0,1.5E0,2.85E1,1.5E0,2.15E1,5E-1,2.45E1,-1.0806574E-1,-1.578766E-1,-1.0742132E-1,5.8215056E-2,-1.20009735E-1,-1.5788382E-1,-1.1391984E-1,-6.7780234E-2,-8.242491E-2,-2.8630776E-2,-1.00104116E-1,-1.3203387E-1,-9.716884E-2,-1.2818253E-1,-9.20687E-2,-6.800822E-2,-1.0063357E-1,-8.660686E-2,-7.158855E-2,-1.0096421E-1,-8.240696E-2,-1.19302146E-1,-4.89584E-2,-2.286157E-3,-1.7899426E-3,-3.9658982E-2,4.3619845E-2,-8.412843E-3,-2.8740505E-2,-5.3988744E-2,-3.388617E-2,-2.385913E-3,-3.8335215E-2,-6.9766484E-2,-5.6619916E-2,-3.3163987E-2,1.067647E-3,-2.4266304E-2,-3.6360655E-2,-5.4017115E-2,1.9396467E-2,-1.3876514E-2,-2.9531473E-2,-1.3588192E-2,2.1941463E-2,1.0032099E-1,-1.2306655E-2,1.7681338E-2,-1.1518492E-3,-2.8182982E-2,2.1186404E-2,-1.1351826E-2,5.3072376E-3,3.643201E-2,-1.7521756E-3,4.6272364E-2,3.2160677E-2,2.9511345E-3,2.8525585E-2,4.9172617E-2,7.270429E-2,3.433103E-2,6.277193E-2,1.0226385E-1],"split_indices":[0,0,0,1,1,1,1,2,1,1,1,3,3,0,0,1,2,2,1,3,2,3,1,1,3,3,1,3,1,3,3,3,3,1,1,2,2,1,2,1,3,3,2,3,3,1,2,1,2,1,3,1,3,2,1,3,1,1,2,3,2,3,2,0,0,0,0,0,0,0,0,0,0,0,0,0,0,0,0,0,0,0,0,0,0,0,0,0,0,0,0,0,0,0,0,0,0,0,0,0,0,0,0,0,0,0,0,0,0,0,0,0,0,0,0,0,0,0,0,0,0,0,0,0,0,0,0],"split_type":[0,0,0,0,0,0,0,0,0,0,0,0,0,0,0,0,0,0,0,0,0,0,0,0,0,0,0,0,0,0,0,0,0,0,0,0,0,0,0,0,0,0,0,0,0,0,0,0,0,0,0,0,0,0,0,0,0,0,0,0,0,0,0,0,0,0,0,0,0,0,0,0,0,0,0,0,0,0,0,0,0,0,0,0,0,0,0,0,0,0,0,0,0,0,0,0,0,0,0,0,0,0,0,0,0,0,0,0,0,0,0,0,0,0,0,0,0,0,0,0,0,0,0,0,0,0,0],"sum_hessian":[7.9674E4,2.5846E4,5.3828E4,1.0036E4,1.581E4,1.8437E4,3.5391E4,4.494E3,5.542E3,9.228E3,6.582E3,9.133E3,9.304E3,1.8414E4,1.6977E4,3.08E2,4.186E3,1.186E3,4.356E3,6.603E3,2.625E3,1.335E3,5.247E3,3.446E3,5.687E3,3.502E3,5.802E3,8.65E3,9.764E3,1.2381E4,4.596E3,1.55E2,1.53E2,1.85E3,2.336E3,1.059E3,1.27E2,2.166E3,2.19E3,2.495E3,4.108E3,8.95E2,1.73E3,5.15E2,8.2E2,3.887E3,1.36E3,1.134E3,2.312E3,4.569E3,1.118E3,3.83E2,3.119E3,1.935E3,3.867E3,2.162E3,6.488E3,7.722E3,2.042E3,3.07E3,9.311E3,1.361E3,3.235E3,6E1,9.5E1,4.7E1,1.06E2,1.383E3,4.67E2,1.762E3,5.74E2,4.39E2,6.2E2,4.7E1,8E1,1.071E3,1.095E3,1.275E3,9.15E2,1.016E3,1.479E3,3.593E3,5.15E2,8.17E2,7.8E1,1.431E3,2.99E2,1.16E2,3.99E2,4.31E2,3.89E2,1.275E3,2.612E3,5.82E2,7.78E2,6.12E2,5.22E2,3.74E2,1.938E3,7.85E2,3.784E3,7.46E2,3.72E2,1.85E2,1.98E2,1.935E3,1.184E3,1.791E3,1.44E2,2.885E3,9.82E2,3.37E2,1.825E3,3.813E3,2.675E3,2.006E3,5.716E3,1.846E3,1.96E2,1.044E3,2.026E3,6.386E3,2.925E3,1.85E2,1.176E3,2.667E3,5.68E2],"tree_param":{"num_deleted":"0","num_feature":"6","num_nodes":"127","size_leaf_vector":"0"}},{"base_weights":[-3.9085034E-2,-1.699708E-1,2.3762938E-2,-2.3133212E-1,-1.310072E-1,-4.0576752E-2,5.7281006E-2,-2.8147385E-1,-2.1475145E-1,-1.7389384E-1,-7.08626E-2,-8.9587726E-2,-1.672785E-2,3.3454064E-2,9.65102E-2,-3.1229183E-1,-2.5762522E-1,-2.2468466E-1,-1.3517211E-1,-1.9081587E-1,-1.3127127E-1,-8.958286E-4,-8.866076E-2,-4.1490782E-2,-1.0678292E-1,-5.4310493E-2,6.035017E-3,-2.4640808E-4,5.896877E-2,1.4614807E-1,5.1648576E-2,-4.3642846E-1,-3.071077E-1,-1.8721543E-1,-2.7737975E-1,-2.1889697E-1,-3.199568E-1,-1.14414334E-1,-2.2545359E-1,-2.26209E-1,-1.78982E-1,-2.0031306E-1,-9.545803E-2,-1.00586414E-1,3.682308E-2,-1.4383681E-1,-7.030693E-2,9.830255E-2,-1.43293E-1,-1.7862234E-1,-7.39353E-2,-6.323649E-2,1.1993676E-2,2.6828341E-2,-7.670005E-2,2.6603216E-2,-5.359908E-2,-5.3911533E-2,8.322204E-2,5.6892682E-2,1.6732861E-1,3.585481E-2,9.7931564E-2,-1.7576328E-1,-1.2269142E0,-1.7297808E-2,-3.1538725E-1,-1.11281924E-1,-2.2687002E-1,-2.947424E-1,-2.2699314E-1,-2.0946904E-1,-2.764827E-1,-3.480481E-1,-2.8783658E-1,-1.4625539E-1,-6.921197E-2,-2.028872E-1,-2.7500606E-1,-1.6619456E-1,-2.3771852E-1,-1.7389448E-1,-2.728262E-1,-1.8416387E-1,-2.6138282E-1,-1.6085675E-1,-5.588819E-2,-1.9204015E-1,-5.5929013E-2,-4.2423252E-2,8.42841E-2,-1.07805274E-1,-1.6158524E-1,-4.8910066E-2,-1.4676687E-1,-2.2804838E-2,1.3847664E-1,-5.332804E-2,-2.0388149E-1,-2.017891E-1,-9.3828164E-2,-1.0647951E-1,-5.802366E-2,-2.5374291E-2,-7.4115574E-2,-1.1086655E-2,1.6016336E-1,3.9236553E-2,-4.897973E-2,-5.527698E-2,-1.20361924E-1,-1.6018638E-2,4.7132686E-2,-1.0776293E-1,-4.8422352E-3,-8.803474E-2,1.51521545E-2,1.7419146E-1,6.3805155E-2,1.1320571E-1,-2.5141941E-2,1.8887582E-1,6.904245E-2,5.8210563E-2,-1.1057978E-2,1.3210246E-1,3.6930628E-2],"categories":[],"categories_nodes":[],"categories_segments":[],"categories_sizes":[],"default_left":[1,1,1,1,1,1,1,1,1,1,1,1,1,1,1,1,1,1,1,1,1,1,1,1,1,1,1,1,1,1,1,1,1,1,1,1,1,1,1,1,1,1,1,1,1,1,1,1,1,1,1,1,1,1,1,1,1,1,1,1,1,1,1,0,0,0,0,0,0,0,0,0,0,0,0,0,0,0,0,0,0,0,0,0,0,0,0,0,0,0,0,0,0,0,0,0,0,0,0,0,0,0,0,0,0,0,0,0,0,0,0,0,0,0,0,0,0,0,0,0,0,0,0,0,0,0,0],"id":6,"left_children":[1,3,5,7,9,11,13,15,17,19,21,23,25,27,29,31,33,35,37,39,41,43,45,47,49,51,53,55,57,59,61,63,65,67,69,71,73,75,77,79,81,83,85,87,89,91,93,95,97,99,101,103,105,107,109,111,113,115,117,119,121,123,125,-1,-1,-1,-1,-1,-1,-1,-1,-1,-1,-1,-1,-1,-1,-1,-1,-1,-1,-1,-1,-1,-1,-1,-1,-1,-1,-1,-1,-1,-1,-1,-1,-1,-1,-1,-1,-1,-1,-1,-1,-1,-1,-1,-1,-1,-1,-1,-1,-1,-1,-1,-1,-1,-1,-1,-1,-1,-1,-1,-1,-1,-1,-1,-1],"loss_changes":[6.5540295E2,6.1766296E1,1.1608684E2,8.284119E0,4.077057E1,2.1549902E1,3.3078087E1,1.750351E0,5.9353333E0,6.6314697E0,8.1975975E0,4.9867363E0,1.0611809E1,1.893408E1,2.977192E1,5.6227875E-1,1.9092484E0,3.6287842E0,1.5484009E0,2.7254944E0,6.4739494E0,5.0273576E0,5.304497E0,2.2656038E1,1.0475899E1,2.7699327E0,1.3293381E1,1.359441E1,3.431354E1,1.1991241E1,5.132372E0,8.23249E0,2.4948273E0,9.142208E-1,8.9455414E-1,3.3771057E0,2.4449539E-1,9.75791E-1,1.1864662E-1,1.1008987E0,2.3177795E0,8.355255E-1,4.470522E0,1.4881191E0,3.6518545E0,8.196926E-1,6.438673E0,3.267827E0,5.0093517E0,2.7194443E0,1.5742455E0,1.6968212E0,1.9031874E0,5.8103905E0,1.4450436E0,5.524656E0,8.389485E0,5.226081E0,1.821048E1,5.63416E0,1.0851227E1,5.4962034E0,3.7200432E0,0E0,0E0,0E0,0E0,0E0,0E0,0E0,0E0,0E0,0E0,0E0,0E0,0E0,0E0,0E0,0E0,0E0,0E0,0E0,0E0,0E0,0E0,0E0,0E0,0E0,0E0,0E0,0E0,0E0,0E0,0E0,0E0,0E0,0E0,0E0,0E0,0E0,0E0,0E0,0E0,0E0,0E0,0E0,0E0,0E0,0E0,0E0,0E0,0E0,0E0,0E0,0E0,0E0,0E0,0E0,0E0,0E0,0E0,0E0,0E0,0E0,0E0,0E0,0E0],"parents":[2147483647,0,0,1,1,2,2,3,3,4,4,5,5,6,6,7,7,8,8,9,9,10,10,11,11,12,12,13,13,14,14,15,15,16,16,17,17,18,18,19,19,20,20,21,21,22,22,23,23,24,24,25,25,26,26,27,27,28,28,29,29,30,30,31,31,32,32,33,33,34,34,35,35,36,36,37,37,38,38,39,39,40,40,41,41,42,42,43,43,44,44,45,45,46,46,47,47,48,48,49,49,50,50,51,51,52,52,53,53,54,54,55,55,56,56,57,57,58,58,59,59,60,60,61,61,62,62],"right_children":[2,4,6,8,10,12,14,16,18,20,22,24,26,28,30,32,34,36,38,40,42,44,46,48,50,52,54,56,58,60,62,64,66,68,70,72,74,76,78,80,82,84,86,88,90,92,94,96,98,100,102,104,106,108,110,112,114,116,118,120,122,124,126,-1,-1,-1,-1,-1,-1,-1,-1,-1,-1,-1,-1,-1,-1,-1,-1,-1,-1,-1,-1,-1,-1,-1,-1,-1,-1,-1,-1,-1,-1,-1,-1,-1,-1,-1,-1,-1,-1,-1,-1,-1,-1,-1,-1,-1,-1,-1,-1,-1,-1,-1,-1,-1,-1,-1,-1,-1,-1,-1,-1,-1,-1,-1,-1],"split_conditions":[2.0205E3,2.0195E3,2.0215E3,5.5E0,7.5E0,4.5E0,6.5E0,7.5E0,1.15E1,5.5E0,8.5E0,1.5E0,8.5E0,1.35E1,8.5E0,1.5E0,8.5E0,2.25E1,2.05E1,5.5E0,1.05E1,9.5E0,5.5E0,1.35E1,2.5E0,2.75E1,2.05E1,4.5E0,1.5E0,5.5E0,1.15E1,6.5E0,2.5E0,1.5E0,1.15E1,5.5E0,7.5E0,1.45E1,2.25E1,5E-1,2.25E1,4.5E0,8.5E0,2.5E0,8.5E0,1.5E0,1.95E1,5.5E0,2.05E1,2.25E1,7.5E0,1.5E0,1.15E1,5.5E0,2.25E1,7.5E0,2.0225E3,1.55E1,2.5E0,3.5E0,2.65E1,1.05E1,2.05E1,-5.2728985E-2,-3.6807427E-1,-5.1893424E-3,-9.461618E-2,-3.338458E-2,-6.806101E-2,-8.842272E-2,-6.809795E-2,-6.2840715E-2,-8.294481E-2,-1.0441443E-1,-8.635098E-2,-4.387662E-2,-2.0763591E-2,-6.0866166E-2,-8.250182E-2,-4.985837E-2,-7.131556E-2,-5.2168347E-2,-8.184786E-2,-5.5249162E-2,-7.841485E-2,-4.8257027E-2,-1.6766459E-2,-5.7612047E-2,-1.6778704E-2,-1.2726977E-2,2.5285231E-2,-3.2341585E-2,-4.8475575E-2,-1.4673021E-2,-4.4030063E-2,-6.8414514E-3,4.1542992E-2,-1.5998414E-2,-6.116445E-2,-6.053673E-2,-2.814845E-2,-3.1943854E-2,-1.7407099E-2,-7.6122875E-3,-2.2234673E-2,-3.3259967E-3,4.804901E-2,1.1770966E-2,-1.469392E-2,-1.6583094E-2,-3.610858E-2,-4.805592E-3,1.4139806E-2,-3.232888E-2,-1.4526707E-3,-2.6410423E-2,4.5456467E-3,5.225744E-2,1.9141547E-2,3.3961713E-2,-7.5425827E-3,5.666275E-2,2.0712737E-2,1.746317E-2,-3.3173934E-3,3.963074E-2,1.1079188E-2],"split_indices":[0,0,0,3,1,1,1,1,1,1,1,1,3,2,1,2,1,3,3,3,2,2,3,2,1,2,3,1,1,2,1,1,2,3,1,5,1,3,3,3,3,5,3,5,3,3,3,3,2,2,3,3,1,5,3,3,0,3,1,5,2,1,2,0,0,0,0,0,0,0,0,0,0,0,0,0,0,0,0,0,0,0,0,0,0,0,0,0,0,0,0,0,0,0,0,0,0,0,0,0,0,0,0,0,0,0,0,0,0,0,0,0,0,0,0,0,0,0,0,0,0,0,0,0,0,0,0],"split_type":[0,0,0,0,0,0,0,0,0,0,0,0,0,0,0,0,0,0,0,0,0,0,0,0,0,0,0,0,0,0,0,0,0,0,0,0,0,0,0,0,0,0,0,0,0,0,0,0,0,0,0,0,0,0,0,0,0,0,0,0,0,0,0,0,0,0,0,0,0,0,0,0,0,0,0,0,0,0,0,0,0,0,0,0,0,0,0,0,0,0,0,0,0,0,0,0,0,0,0,0,0,0,0,0,0,0,0,0,0,0,0,0,0,0,0,0,0,0,0,0,0,0,0,0,0,0,0],"sum_hessian":[7.9674E4,2.5846E4,5.3828E4,1.0036E4,1.581E4,1.8437E4,3.5391E4,2.49E3,7.546E3,9.228E3,6.582E3,6.034E3,1.2403E4,2.2019E4,1.3372E4,1.081E3,1.409E3,6.707E3,8.39E2,6.603E3,2.625E3,1.335E3,5.247E3,1.59E3,4.444E3,4.678E3,7.725E3,9.488E3,1.2531E4,6.347E3,7.025E3,4E1,1.041E3,3.11E2,1.098E3,6.326E3,3.81E2,6.84E2,1.55E2,1.65E3,4.953E3,8.95E2,1.73E3,3.66E2,9.69E2,1.308E3,3.939E3,6.7E2,9.2E2,1.393E3,3.051E3,4.123E3,5.55E2,6.174E3,1.551E3,6.312E3,3.176E3,2.216E3,1.0315E4,1.218E3,5.129E3,5.239E3,1.786E3,3.1E1,9E0,2.9E1,1.012E3,1.08E2,2.03E2,8.13E2,2.85E2,5.44E3,8.86E2,1.98E2,1.83E2,4E2,2.84E2,1.1E2,4.5E1,2.68E2,1.382E3,4.701E3,2.52E2,7.11E2,1.84E2,6.51E2,1.079E3,1.19E2,2.47E2,3.63E2,6.06E2,4.34E2,8.74E2,3.079E3,8.6E2,1.67E2,5.03E2,3.71E2,5.49E2,1.093E3,3E2,1E3,2.051E3,9.21E2,3.202E3,4.81E2,7.4E1,5.306E3,8.68E2,1.042E3,5.09E2,2.052E3,4.26E3,1.504E3,1.672E3,1.483E3,7.33E2,1.813E3,8.502E3,7.22E2,4.96E2,4.206E3,9.23E2,3.548E3,1.691E3,1.144E3,6.42E2],"tree_param":{"num_deleted":"0","num_feature":"6","num_nodes":"127","size_leaf_vector":"0"}},{"base_weights":[-2.7384702E-2,-1.190561E-1,1.663354E-2,-1.6206431E-1,-9.174647E-2,-2.8415725E-2,4.010217E-2,-1.9122913E-1,-1.44991E-1,-1.2177486E-1,-4.963441E-2,-5.3005222E-2,-4.275058E-3,4.6745217E-3,5.7779033E-2,-2.1380933E-1,-1.7331259E-1,-1.8082254E-1,-1.2674646E-1,-1.4654219E-1,-1.0284249E-1,-6.733662E-4,-6.208912E-2,-8.613105E-2,-4.4413965E-2,3.061135E-2,-3.9040793E-2,6.716762E-2,-4.19209E-3,7.331235E-2,-9.232766E-3,-3.1289986E-1,-2.0996405E-1,-1.3797739E-1,-1.8340732E-1,-1.8524519E-1,-1.0198077E-2,-8.504522E-2,-1.4869548E-1,-1.11633755E-1,-1.6538712E-1,-1.1757553E-1,-6.390608E-2,-5.506763E-2,3.3514347E-2,-8.00242E-2,-1.080795E-2,-4.4730846E-2,-1.15834735E-1,-3.316882E-2,-7.231927E-2,1.1853628E-1,-2.5515143E-2,-1.22342214E-1,4.2517474E-3,3.5973232E-2,9.988445E-2,-2.549368E-2,1.878358E-2,8.961238E-2,3.294357E-2,1.6877728E-2,-5.977479E-2,-9.5548116E-2,-8.4426606E-1,3.6873218E-2,-2.1774223E-1,-1.0875136E-1,-2.1222928E-1,-2.783409E-1,-1.7678834E-1,-1.1450086E-1,-1.9659038E-1,-2.1249615E-1,1.9246422E-1,3.0778018E-1,-9.783677E-2,-1.6842657E-1,-9.195372E-2,-3.430827E-2,-2.518046E-1,-2.0175347E-1,-1.3091414E-1,-1.0859889E-1,-1.6474228E-1,-9.3028925E-2,1.6920809E-2,-1.1498513E-1,-2.973124E-2,9.192731E-2,-3.1275176E-2,-4.0151093E-2,-9.946471E-2,-5.264313E-2,2.0515181E-2,-1.6758801E-2,-7.028007E-2,-1.4000818E-1,-1.043226E-1,-8.451256E-2,-2.4646472E-2,-6.809432E-2,-3.3271456E-1,4.609407E-2,2.5784576E-1,3.2117862E-2,-1.4772737E-1,-2.5741982E-1,-1.0823566E-1,-4.4925217E-2,1.1683239E-1,-5.8195405E-3,7.000701E-2,1.3972434E-1,4.3477178E-2,-5.4670837E-2,1.1300724E-3,4.08062E-3,5.713012E-2,6.300185E-2,1.184217E-1,9.825915E-3,7.0503704E-2,-3.0991703E-3,4.6990983E-2,-2.393394E-2,-9.502059E-2],"categories":[],"categories_nodes":[],"categories_segments":[],"categories_sizes":[],"default_left":[1,1,1,1,1,1,1,1,1,1,1,1,1,1,1,1,1,1,1,1,1,1,1,1,1,1,1,1,1,1,1,1,1,1,1,1,1,1,1,1,1,1,1,1,1,1,1,1,1,1,1,1,1,1,1,1,1,1,1,1,1,1,1,0,0,0,0,0,0,0,0,0,0,0,0,0,0,0,0,0,0,0,0,0,0,0,0,0,0,0,0,0,0,0,0,0,0,0,0,0,0,0,0,0,0,0,0,0,0,0,0,0,0,0,0,0,0,0,0,0,0,0,0,0,0,0,0],"id":7,"left_children":[1,3,5,7,9,11,13,15,17,19,21,23,25,27,29,31,33,35,37,39,41,43,45,47,49,51,53,55,57,59,61,63,65,67,69,71,73,75,77,79,81,83,85,87,89,91,93,95,97,99,101,103,105,107,109,111,113,115,117,119,121,123,125,-1,-1,-1,-1,-1,-1,-1,-1,-1,-1,-1,-1,-1,-1,-1,-1,-1,-1,-1,-1,-1,-1,-1,-1,-1,-1,-1,-1,-1,-1,-1,-1,-1,-1,-1,-1,-1,-1,-1,-1,-1,-1,-1,-1,-1,-1,-1,-1,-1,-1,-1,-1,-1,-1,-1,-1,-1,-1,-1,-1,-1,-1,-1,-1],"loss_changes":[3.2150763E2,3.0343414E1,5.6911552E1,4.9701233E0,1.9987885E1,1.0944696E1,2.216396E1,1.461029E0,4.118454E0,4.3124237E0,4.014242E0,2.595644E0,1.1286779E1,6.528712E0,2.4577736E1,5.5690765E-1,7.130623E-1,1.6092072E0,3.8325424E0,2.6103058E0,2.9949837E0,2.486292E0,4.8258877E0,2.3067265E0,2.2742157E0,2.2925718E1,1.6809626E1,1.4905391E0,5.050786E0,1.2609825E1,5.8656545E0,6.7334404E0,3.0338593E0,9.8384094E-1,9.605751E-1,1.6477203E0,2.2957983E0,7.321165E0,3.0644646E0,1.5209007E1,3.2243118E0,1.5893326E0,3.3888497E0,7.799176E-1,3.1099887E0,3.0098019E0,1.7845466E0,5.612625E-1,2.8984165E-1,2.2614617E0,2.2689686E0,1.8254433E1,1.9979992E1,3.009472E0,1.6990843E1,1.068604E0,1.5984678E0,4.159855E0,2.799072E0,1.0460121E1,4.787995E0,1.7633455E0,1.9102707E0,0E0,0E0,0E0,0E0,0E0,0E0,0E0,0E0,0E0,0E0,0E0,0E0,0E0,0E0,0E0,0E0,0E0,0E0,0E0,0E0,0E0,0E0,0E0,0E0,0E0,0E0,0E0,0E0,0E0,0E0,0E0,0E0,0E0,0E0,0E0,0E0,0E0,0E0,0E0,0E0,0E0,0E0,0E0,0E0,0E0,0E0,0E0,0E0,0E0,0E0,0E0,0E0,0E0,0E0,0E0,0E0,0E0,0E0,0E0,0E0,0E0,0E0,0E0,0E0],"parents":[2147483647,0,0,1,1,2,2,3,3,4,4,5,5,6,6,7,7,8,8,9,9,10,10,11,11,12,12,13,13,14,14,15,15,16,16,17,17,18,18,19,19,20,20,21,21,22,22,23,23,24,24,25,25,26,26,27,27,28,28,29,29,30,30,31,31,32,32,33,33,34,34,35,35,36,36,37,37,38,38,39,39,40,40,41,41,42,42,43,43,44,44,45,45,46,46,47,47,48,48,49,49,50,50,51,51,52,52,53,53,54,54,55,55,56,56,57,57,58,58,59,59,60,60,61,61,62,62],"right_children":[2,4,6,8,10,12,14,16,18,20,22,24,26,28,30,32,34,36,38,40,42,44,46,48,50,52,54,56,58,60,62,64,66,68,70,72,74,76,78,80,82,84,86,88,90,92,94,96,98,100,102,104,106,108,110,112,114,116,118,120,122,124,126,-1,-1,-1,-1,-1,-1,-1,-1,-1,-1,-1,-1,-1,-1,-1,-1,-1,-1,-1,-1,-1,-1,-1,-1,-1,-1,-1,-1,-1,-1,-1,-1,-1,-1,-1,-1,-1,-1,-1,-1,-1,-1,-1,-1,-1,-1,-1,-1,-1,-1,-1,-1,-1,-1,-1,-1,-1,-1,-1,-1,-1,-1,-1,-1],"split_conditions":[2.0205E3,2.0195E3,2.0215E3,8.5E0,7.5E0,6.5E0,7.5E0,7.5E0,6.5E0,3.5E0,8.5E0,4.5E0,9.5E0,5E-1,2.05E1,1.5E0,8.5E0,3.05E1,8.5E0,1.5E0,2.25E1,8.5E0,1.15E1,1.5E0,4.5E0,1.25E1,1.05E1,5.5E0,5.5E0,4.5E0,2.25E1,6.5E0,2.5E0,4.5E0,2.5E0,1.05E1,4E0,1.5E0,1.15E1,2.05E1,2.5E0,1.95E1,6.5E0,9.5E0,1.65E1,9.5E0,1.35E1,5E-1,2.5E0,4.5E0,3.05E1,8.5E0,8.5E0,3.5E0,2.15E1,2.0225E3,8.5E0,2.0225E3,2.0225E3,5.5E0,1.55E1,2.0225E3,2.25E1,-2.8664436E-2,-2.5327983E-1,1.10619655E-2,-6.5322675E-2,-3.2625407E-2,-6.366879E-2,-8.350228E-2,-5.3036507E-2,-3.4350257E-2,-5.8977116E-2,-6.3748844E-2,5.773927E-2,9.2334054E-2,-2.9351031E-2,-5.0527975E-2,-2.7586116E-2,-1.0292482E-2,-7.554138E-2,-6.0526043E-2,-3.927424E-2,-3.2579668E-2,-4.9422685E-2,-2.790868E-2,5.0762426E-3,-3.449554E-2,-8.919372E-3,2.7578196E-2,-9.382553E-3,-1.20453285E-2,-2.9839413E-2,-1.579294E-2,6.1545544E-3,-5.0276406E-3,-2.1084022E-2,-4.2002454E-2,-3.1296782E-2,-2.5353769E-2,-7.3939417E-3,-2.0428296E-2,-9.981437E-2,1.3828222E-2,7.735373E-2,9.635359E-3,-4.4318214E-2,-7.722595E-2,-3.24707E-2,-1.3477566E-2,3.5049718E-2,-1.7458622E-3,2.1002105E-2,4.1917305E-2,1.3043154E-2,-1.6401252E-2,3.3902173E-4,1.224186E-3,1.7139036E-2,1.8900555E-2,3.5526514E-2,2.9477747E-3,2.1151112E-2,-9.2975114E-4,1.4097296E-2,-7.1801823E-3,-2.8506178E-2],"split_indices":[0,0,0,3,1,1,3,1,1,1,1,3,1,3,3,2,1,2,1,1,2,3,1,3,5,2,1,1,1,5,3,1,2,5,2,3,1,2,1,2,1,3,1,2,3,1,2,3,1,2,2,1,1,2,2,0,1,0,0,1,3,0,4,0,0,0,0,0,0,0,0,0,0,0,0,0,0,0,0,0,0,0,0,0,0,0,0,0,0,0,0,0,0,0,0,0,0,0,0,0,0,0,0,0,0,0,0,0,0,0,0,0,0,0,0,0,0,0,0,0,0,0,0,0,0,0,0],"split_type":[0,0,0,0,0,0,0,0,0,0,0,0,0,0,0,0,0,0,0,0,0,0,0,0,0,0,0,0,0,0,0,0,0,0,0,0,0,0,0,0,0,0,0,0,0,0,0,0,0,0,0,0,0,0,0,0,0,0,0,0,0,0,0,0,0,0,0,0,0,0,0,0,0,0,0,0,0,0,0,0,0,0,0,0,0,0,0,0,0,0,0,0,0,0,0,0,0,0,0,0,0,0,0,0,0,0,0,0,0,0,0,0,0,0,0,0,0,0,0,0,0,0,0,0,0,0,0],"sum_hessian":[7.9674E4,2.5846E4,5.3828E4,1.0036E4,1.581E4,1.8437E4,3.5391E4,3.702E3,6.334E3,9.228E3,6.582E3,9.133E3,9.304E3,1.1781E4,2.361E4,1.633E3,2.069E3,2.134E3,4.2E3,3.995E3,5.233E3,1.335E3,5.247E3,1.879E3,7.254E3,4.644E3,4.66E3,1.463E3,1.0318E4,1.9167E4,4.443E3,5.8E1,1.575E3,4.63E2,1.606E3,2.08E3,5.4E1,1.45E3,2.75E3,1.403E3,2.592E3,3.795E3,1.438E3,5.15E2,8.2E2,3.887E3,1.36E3,7.86E2,1.093E3,5.172E3,2.082E3,1.809E3,2.835E3,1.593E3,3.067E3,7.5E2,7.13E2,5.354E3,4.964E3,1.3653E4,5.514E3,2.93E3,1.513E3,4.2E1,1.6E1,4.8E1,1.527E3,3.34E2,1.29E2,1.02E2,1.504E3,2.89E2,1.791E3,2.7E1,2.7E1,4.5E1,1.405E3,2.039E3,7.11E2,9.05E2,4.98E2,1.259E3,1.333E3,3.191E3,6.04E2,1.057E3,3.81E2,1.52E2,3.63E2,4.31E2,3.89E2,1.275E3,2.612E3,5.82E2,7.78E2,3.76E2,4.1E2,3.49E2,7.44E2,7.35E2,4.437E3,2.05E3,3.2E1,1.191E3,6.18E2,1.927E3,9.08E2,1.49E2,1.444E3,2.135E3,9.32E2,3.37E2,4.13E2,4.17E2,2.96E2,2.554E3,2.8E3,3.589E3,1.375E3,7.099E3,6.554E3,3.414E3,2.1E3,1.762E3,1.168E3,7.51E2,7.62E2],"tree_param":{"num_deleted":"0","num_feature":"6","num_nodes":"127","size_leaf_vector":"0"}},{"base_weights":[-1.9184383E-2,-8.337993E-2,1.1640664E-2,-1.13513134E-1,-6.424576E-2,-2.2219776E-3,4.9739193E-2,-1.328796E-1,-9.778775E-2,-9.39122E-2,-4.296194E-2,-2.1957E-2,2.5035251E-2,3.5473697E-2,1.1025694E-1,-1.5119982E-1,-9.5568955E-2,-4.141948E-2,-1.1312201E-1,-1.1405331E-1,-8.165468E-2,-3.5639197E-2,-1.2478229E-1,-7.230499E-2,-1.2056249E-2,1.12405054E-1,2.7809057E-3,2.7323777E-2,1.04946084E-1,1.2502472E-1,-2.036172E-4,-4.9791373E-2,-1.627281E-1,-1.36715E-1,3.0836498E-2,-2.3765732E-2,-1.87291E-1,-1.3901645E-1,-8.745959E-2,-7.8253865E-2,-1.1832441E-1,-3.0687174E-2,-8.970488E-2,-7.32679E-2,-9.369791E-3,-9.521949E-2,-1.5520401E-1,-3.1997256E-2,-1.2587073E-1,-4.7370244E-2,-2.9227854E-4,7.038711E-2,1.758498E-1,-1.0011731E-2,4.0458955E-2,4.1511912E-2,-1.2370404E-3,5.6350995E-2,3.8540462E-1,5.413444E-2,1.5872625E-1,4.337884E-2,-2.963196E-2,-2.2751136E-1,1.3055998E-1,-1.4101467E-1,-2.2743626E-1,-1.1208701E-1,-2.662816E-1,-5.769791E-2,7.7752955E-2,-9.913333E-2,2.967309E-2,-1.56609E-1,-2.6751152E-1,-3.0914968E-1,-1.2747176E-1,-1.01872824E-1,-2.2471134E-2,-6.0931355E-2,-9.5508985E-2,-1.3459074E-1,-1.0184908E-1,-6.381879E-2,-9.662885E-3,-1.2371782E-1,-7.390271E-2,-1.00983545E-1,-6.2247973E-2,8.3754305E-3,-5.5423725E-2,-1.0514888E-1,-3.725416E-2,-1.2601472E-1,-1.8264546E-1,-6.1573E-2,-2.1983355E-3,-1.4264162E-1,-6.013369E-2,-1.4020383E-2,-6.4266734E-2,7.488683E-3,-6.2491033E-2,3.4249466E-2,1.00656554E-1,2.161146E-1,1.2040621E-1,-3.2386187E-2,9.738628E-3,-1.0127749E-2,5.6838654E-2,2.7386606E-2,8.3637394E-2,-2.2932962E-2,4.259208E-2,-1.8465152E-2,9.172166E-2,2.5809732E-1,4.5010763E-1,1.0416309E-1,1.9105459E-2,1.04627125E-1,1.9134833E-1,6.6096134E-2,-2.6087558E-2,-6.158297E-2,-1.841001E-2],"categories":[],"categories_nodes":[],"categories_segments":[],"categories_sizes":[],"default_left":[1,1,1,1,1,1,1,1,1,1,1,1,1,1,1,1,1,1,1,1,1,1,1,1,1,1,1,1,1,1,1,1,1,1,1,1,1,1,1,1,1,1,1,1,1,1,1,1,1,1,1,1,1,1,1,1,1,1,1,1,1,1,1,0,0,0,0,0,0,0,0,0,0,0,0,0,0,0,0,0,0,0,0,0,0,0,0,0,0,0,0,0,0,0,0,0,0,0,0,0,0,0,0,0,0,0,0,0,0,0,0,0,0,0,0,0,0,0,0,0,0,0,0,0,0,0,0],"id":8,"left_children":[1,3,5,7,9,11,13,15,17,19,21,23,25,27,29,31,33,35,37,39,41,43,45,47,49,51,53,55,57,59,61,63,65,67,69,71,73,75,77,79,81,83,85,87,89,91,93,95,97,99,101,103,105,107,109,111,113,115,117,119,121,123,125,-1,-1,-1,-1,-1,-1,-1,-1,-1,-1,-1,-1,-1,-1,-1,-1,-1,-1,-1,-1,-1,-1,-1,-1,-1,-1,-1,-1,-1,-1,-1,-1,-1,-1,-1,-1,-1,-1,-1,-1,-1,-1,-1,-1,-1,-1,-1,-1,-1,-1,-1,-1,-1,-1,-1,-1,-1,-1,-1,-1,-1,-1,-1,-1],"loss_changes":[1.576643E2,1.4895416E1,2.8429695E1,3.0437317E0,9.979271E0,2.1231794E1,1.2394165E1,3.0580597E0,4.7864876E0,1.6210823E0,5.51252E0,1.1411395E1,3.222936E1,6.5780106E0,4.4680443E0,3.5142899E0,7.7174244E0,3.0522861E0,2.8831291E0,3.7238693E-1,1.6831627E0,8.354965E0,6.651306E-1,8.118557E0,7.9484615E0,8.958103E0,6.36861E0,4.2160096E0,1.6605549E1,5.7634964E0,4.1683468E-1,9.933785E0,3.7685547E0,3.540844E0,1.5205944E0,4.2721505E0,2.731552E-1,4.216873E0,2.0500069E0,7.45852E-2,5.8337975E-1,3.9085495E-1,1.897829E0,1.0550632E0,4.069488E0,2.1824932E-1,2.7415276E-1,1.8929508E0,1.7719116E0,2.6931715E0,6.9468336E0,2.2127266E0,2.9654274E0,4.3592515E0,2.7755399E0,4.1338024E0,3.2854307E0,2.7564886E0,1.3665161E0,1.3649228E0,2.8690033E0,2.0845386E-1,6.842545E-2,0E0,0E0,0E0,0E0,0E0,0E0,0E0,0E0,0E0,0E0,0E0,0E0,0E0,0E0,0E0,0E0,0E0,0E0,0E0,0E0,0E0,0E0,0E0,0E0,0E0,0E0,0E0,0E0,0E0,0E0,0E0,0E0,0E0,0E0,0E0,0E0,0E0,0E0,0E0,0E0,0E0,0E0,0E0,0E0,0E0,0E0,0E0,0E0,0E0,0E0,0E0,0E0,0E0,0E0,0E0,0E0,0E0,0E0,0E0,0E0,0E0,0E0,0E0,0E0],"parents":[2147483647,0,0,1,1,2,2,3,3,4,4,5,5,6,6,7,7,8,8,9,9,10,10,11,11,12,12,13,13,14,14,15,15,16,16,17,17,18,18,19,19,20,20,21,21,22,22,23,23,24,24,25,25,26,26,27,27,28,28,29,29,30,30,31,31,32,32,33,33,34,34,35,35,36,36,37,37,38,38,39,39,40,40,41,41,42,42,43,43,44,44,45,45,46,46,47,47,48,48,49,49,50,50,51,51,52,52,53,53,54,54,55,55,56,56,57,57,58,58,59,59,60,60,61,61,62,62],"right_children":[2,4,6,8,10,12,14,16,18,20,22,24,26,28,30,32,34,36,38,40,42,44,46,48,50,52,54,56,58,60,62,64,66,68,70,72,74,76,78,80,82,84,86,88,90,92,94,96,98,100,102,104,106,108,110,112,114,116,118,120,122,124,126,-1,-1,-1,-1,-1,-1,-1,-1,-1,-1,-1,-1,-1,-1,-1,-1,-1,-1,-1,-1,-1,-1,-1,-1,-1,-1,-1,-1,-1,-1,-1,-1,-1,-1,-1,-1,-1,-1,-1,-1,-1,-1,-1,-1,-1,-1,-1,-1,-1,-1,-1,-1,-1,-1,-1,-1,-1,-1,-1,-1,-1,-1,-1,-1],"split_conditions":[2.0205E3,2.0195E3,2.0225E3,7.5E0,5.5E0,7.5E0,6.5E0,2.15E1,8.5E0,8.5E0,2.15E1,5.5E0,8.5E0,2.75E1,2.65E1,2.5E0,6.5E0,2.85E1,1.05E1,5E-1,1.05E1,8.5E0,2.25E1,4.5E0,5.5E0,1.95E1,1.15E1,4.5E0,5.5E0,6.5E0,3.5E0,5.5E0,6.5E0,5.5E0,8.5E0,1.25E1,1.65E1,2.5E0,2.55E1,2.25E1,4.5E0,2.5E0,1.45E1,7.5E0,4.5E0,1.15E1,2.25E1,2.5E0,4.5E0,1.5E0,2.15E1,2.0215E3,2.65E1,2.0215E3,5.5E0,3.5E0,1.85E1,2.5E0,7.5E0,2.5E0,8.5E0,1.75E1,5.5E0,-6.825341E-2,3.9167996E-2,-4.23044E-2,-6.823088E-2,-3.3626106E-2,-7.9884484E-2,-1.7309373E-2,2.3325887E-2,-2.974E-2,8.901928E-3,-4.6982702E-2,-8.025346E-2,-9.274491E-2,-3.8241528E-2,-3.0561848E-2,-6.7413403E-3,-1.8279407E-2,-2.8652696E-2,-4.0377226E-2,-3.0554725E-2,-1.9145638E-2,-2.8988656E-3,-3.7115347E-2,-2.2170814E-2,-3.0295065E-2,-1.8674392E-2,2.5126291E-3,-1.6627118E-2,-3.1544667E-2,-1.1176248E-2,-3.7804417E-2,-5.4793637E-2,-1.84719E-2,-6.5950066E-4,-4.2792488E-2,-1.8040108E-2,-4.2061154E-3,-1.928002E-2,2.246605E-3,-1.8747311E-2,1.02748405E-2,3.0196967E-2,6.483438E-2,3.6121864E-2,-9.715857E-3,2.9215885E-3,-3.0383249E-3,1.7051596E-2,8.2159825E-3,2.509122E-2,-6.879889E-3,1.2777624E-2,-5.539546E-3,2.75165E-2,7.74292E-2,1.350323E-1,3.1248927E-2,5.7316376E-3,3.1388137E-2,5.74045E-2,1.9828841E-2,-7.826268E-3,-1.8474892E-2,-5.523003E-3],"split_indices":[0,0,0,1,1,1,1,2,1,3,3,2,1,2,2,2,1,2,1,3,3,3,3,1,3,2,1,1,1,2,5,1,1,5,3,2,3,2,2,4,3,1,3,1,5,1,4,1,2,3,3,0,2,0,3,1,2,1,3,5,3,3,3,0,0,0,0,0,0,0,0,0,0,0,0,0,0,0,0,0,0,0,0,0,0,0,0,0,0,0,0,0,0,0,0,0,0,0,0,0,0,0,0,0,0,0,0,0,0,0,0,0,0,0,0,0,0,0,0,0,0,0,0,0,0,0,0],"split_type":[0,0,0,0,0,0,0,0,0,0,0,0,0,0,0,0,0,0,0,0,0,0,0,0,0,0,0,0,0,0,0,0,0,0,0,0,0,0,0,0,0,0,0,0,0,0,0,0,0,0,0,0,0,0,0,0,0,0,0,0,0,0,0,0,0,0,0,0,0,0,0,0,0,0,0,0,0,0,0,0,0,0,0,0,0,0,0,0,0,0,0,0,0,0,0,0,0,0,0,0,0,0,0,0,0,0,0,0,0,0,0,0,0,0,0,0,0,0,0,0,0,0,0,0,0,0,0],"sum_hessian":[7.9674E4,2.5846E4,5.3828E4,1.0036E4,1.581E4,3.9468E4,1.436E4,4.494E3,5.542E3,6.603E3,9.207E3,2.2893E4,1.6575E4,1.1622E4,2.738E3,3.012E3,1.482E3,1.186E3,4.356E3,2.495E3,4.108E3,8.452E3,7.55E2,3.761E3,1.9132E4,3.364E3,1.3211E4,1.0403E4,1.219E3,2.415E3,3.23E2,3.08E2,2.704E3,1.118E3,3.64E2,1.059E3,1.27E2,2.166E3,2.19E3,2.68E2,2.227E3,5.61E2,3.547E3,3.474E3,4.978E3,3.85E2,3.7E2,2.147E3,1.614E3,4.78E3,1.4352E4,2.025E3,1.339E3,9.863E3,3.348E3,6.95E3,3.453E3,1.04E3,1.79E2,7.79E2,1.636E3,1.3E2,1.93E2,1.55E2,1.53E2,2.027E3,6.77E2,9.41E2,1.77E2,1.26E2,2.38E2,4.39E2,6.2E2,9.4E1,3.3E1,1.36E2,2.03E3,1.792E3,3.98E2,1.36E2,1.32E2,1.117E3,1.11E3,2.17E2,3.44E2,1.123E3,2.424E3,9.86E2,2.488E3,3.594E3,1.384E3,3.28E2,5.7E1,1.82E2,1.88E2,1.077E3,1.07E3,1.285E3,3.29E2,1.608E3,3.172E3,1.2757E4,1.595E3,9.24E2,1.101E3,7.74E2,5.65E2,4.624E3,5.239E3,8.19E2,2.529E3,5.206E3,1.744E3,2.31E3,1.143E3,3.34E2,7.06E2,6.2E1,1.17E2,3.2E2,4.59E2,6.17E2,1.019E3,9.8E1,3.2E1,4.9E1,1.44E2],"tree_param":{"num_deleted":"0","num_feature":"6","num_nodes":"127","size_leaf_vector":"0"}},{"base_weights":[-1.3435908E-2,-5.8403138E-2,8.156197E-3,-7.951535E-2,-4.4997174E-2,-1.699318E-2,2.1257916E-2,-1.0153103E-1,-6.864796E-2,-6.0603157E-2,-2.3111617E-2,-4.2049516E-2,-4.8009837E-3,-7.4635246E-3,3.0741334E-2,-5.125357E-2,-1.0864886E-1,-5.387267E-2,-1.0083596E-1,-6.581146E-2,-1.9926537E-2,1.1932063E-2,-3.2028392E-2,-5.096131E-3,-5.5266794E-2,-1.2382325E-2,5.1338095E-2,2.7363952E-2,-2.5090896E-2,3.9258532E-2,-1.17442375E-2,-1.1255309E-1,-4.307425E-2,-1.2216067E-1,-8.998819E-2,-4.131093E-2,-8.548522E-2,-9.0377E-2,-1.4194575E-1,-6.303116E-2,-1.3369364E-1,-1.3332674E-1,2.620908E-3,-4.8484348E-2,3.477834E-2,-5.9168067E-2,-5.681516E-3,1.0307473E-1,-7.300187E-2,-1.0227856E-1,-3.3776075E-2,-4.3716608E-3,-6.1890833E-2,9.0892255E-2,6.026026E-3,1.2764696E-2,5.0905265E-2,-3.5688136E-2,6.5659587E-3,4.640385E-2,-3.0236891E-3,5.608886E-3,-4.5330934E-2,-1.322813E-1,8.356579E-2,-9.3105264E-2,-3.4492347E-2,-1.5689544E-1,-1.1640716E-1,-8.459732E-2,-1.789224E-1,-7.089827E-2,-2.6390659E-2,6.951956E-2,-9.684062E-2,-9.940158E-2,-6.494566E-2,-1.2897709E-1,-1.7294976E-1,-8.078549E-2,-5.1521532E-2,-1.0060716E-1,-1.4518408E-1,-1.5678522E-1,-7.028399E-2,-1.9297246E-2,9.579018E-2,-1.1753505E-1,-1.4877218E-2,5.3381562E-2,-4.4448204E-2,-1.0702593E-2,-1.1795648E-1,-4.8405726E-2,1.5925178E-2,3.2317977E-2,1.3872074E-1,-3.0261507E-2,-1.5098351E-1,1.1045165E-2,-1.2741612E-1,-6.858314E-2,-2.3233416E-2,1.284796E-2,-3.2243896E-2,-3.706809E-2,-1.8392856E-1,3.575261E-2,1.2399303E-1,-2.1577981E-1,6.76276E-2,-8.51055E-3,3.1795327E-2,8.741881E-2,1.685955E-2,-4.4895772E-2,-1.01317745E-2,-3.61977E-3,3.4921642E-2,3.394729E-2,6.4599216E-2,-1.9748399E-2,3.093444E-2,-5.586829E-3,2.3848351E-2,-6.6357665E-2,-1.029295E-2],"categories":[],"categories_nodes":[],"categories_segments":[],"categories_sizes":[],"default_left":[1,1,1,1,1,1,1,1,1,1,1,1,1,1,1,1,1,1,1,1,1,1,1,1,1,1,1,1,1,1,1,1,1,1,1,1,1,1,1,1,1,1,1,1,1,1,1,1,1,1,1,1,1,1,1,1,1,1,1,1,1,1,1,0,0,0,0,0,0,0,0,0,0,0,0,0,0,0,0,0,0,0,0,0,0,0,0,0,0,0,0,0,0,0,0,0,0,0,0,0,0,0,0,0,0,0,0,0,0,0,0,0,0,0,0,0,0,0,0,0,0,0,0,0,0,0,0],"id":9,"left_children":[1,3,5,7,9,11,13,15,17,19,21,23,25,27,29,31,33,35,37,39,41,43,45,47,49,51,53,55,57,59,61,63,65,67,69,71,73,75,77,79,81,83,85,87,89,91,93,95,97,99,101,103,105,107,109,111,113,115,117,119,121,123,125,-1,-1,-1,-1,-1,-1,-1,-1,-1,-1,-1,-1,-1,-1,-1,-1,-1,-1,-1,-1,-1,-1,-1,-1,-1,-1,-1,-1,-1,-1,-1,-1,-1,-1,-1,-1,-1,-1,-1,-1,-1,-1,-1,-1,-1,-1,-1,-1,-1,-1,-1,-1,-1,-1,-1,-1,-1,-1,-1,-1,-1,-1,-1,-1],"loss_changes":[7.735989E1,7.3118896E0,1.773702E1,2.3944206E0,5.398777E0,5.6324544E0,9.64021E0,1.1807594E0,3.1919403E0,1.9539108E0,2.0574162E0,2.9473515E0,5.2798963E0,5.39456E0,9.628416E0,2.0222521E-1,7.2096634E-1,1.8271389E0,8.9611626E-1,1.5355988E0,2.6825216E0,1.8457539E0,3.7522225E0,1.1694092E1,4.487404E0,4.3341274E0,2.644859E0,1.0142541E0,1.9573975E0,6.696327E0,2.5903692E0,1.9676977E-1,1.539349E-1,3.1768036E-1,5.712099E-1,1.4553599E0,2.3125172E0,3.8095188E-1,1.4938164E-1,1.6021996E0,1.0743046E-1,2.463069E-1,1.7907267E0,8.499101E-1,1.4320257E0,7.363943E0,2.4599862E0,1.5441456E0,3.2550693E0,3.9724693E0,1.118365E0,4.5157776E0,4.6037927E0,1.4337974E0,9.428805E0,7.3877406E-1,1.4032629E0,1.028101E0,4.2296374E-1,4.295124E0,1.8208582E0,5.9865475E-1,1.1147323E0,0E0,0E0,0E0,0E0,0E0,0E0,0E0,0E0,0E0,0E0,0E0,0E0,0E0,0E0,0E0,0E0,0E0,0E0,0E0,0E0,0E0,0E0,0E0,0E0,0E0,0E0,0E0,0E0,0E0,0E0,0E0,0E0,0E0,0E0,0E0,0E0,0E0,0E0,0E0,0E0,0E0,0E0,0E0,0E0,0E0,0E0,0E0,0E0,0E0,0E0,0E0,0E0,0E0,0E0,0E0,0E0,0E0,0E0,0E0,0E0,0E0,0E0,0E0,0E0],"parents":[2147483647,0,0,1,1,2,2,3,3,4,4,5,5,6,6,7,7,8,8,9,9,10,10,11,11,12,12,13,13,14,14,15,15,16,16,17,17,18,18,19,19,20,20,21,21,22,22,23,23,24,24,25,25,26,26,27,27,28,28,29,29,30,30,31,31,32,32,33,33,34,34,35,35,36,36,37,37,38,38,39,39,40,40,41,41,42,42,43,43,44,44,45,45,46,46,47,47,48,48,49,49,50,50,51,51,52,52,53,53,54,54,55,55,56,56,57,57,58,58,59,59,60,60,61,61,62,62],"right_children":[2,4,6,8,10,12,14,16,18,20,22,24,26,28,30,32,34,36,38,40,42,44,46,48,50,52,54,56,58,60,62,64,66,68,70,72,74,76,78,80,82,84,86,88,90,92,94,96,98,100,102,104,106,108,110,112,114,116,118,120,122,124,126,-1,-1,-1,-1,-1,-1,-1,-1,-1,-1,-1,-1,-1,-1,-1,-1,-1,-1,-1,-1,-1,-1,-1,-1,-1,-1,-1,-1,-1,-1,-1,-1,-1,-1,-1,-1,-1,-1,-1,-1,-1,-1,-1,-1,-1,-1,-1,-1,-1,-1,-1,-1,-1,-1,-1,-1,-1,-1,-1,-1,-1,-1,-1,-1],"split_conditions":[2.0205E3,2.0195E3,2.0215E3,7.5E0,7.5E0,4.5E0,5.5E0,5E-1,1.85E1,2.75E1,8.5E0,1.5E0,2.75E1,1.5E0,2.05E1,4.5E0,4.5E0,4.5E0,2.25E1,2.25E1,1.5E0,9.5E0,1.05E1,1.25E1,2.5E0,5.5E0,8.5E0,6.5E0,4.5E0,5.5E0,2.25E1,2.9E1,5E-1,5E-1,2.95E1,6.5E0,2.5E0,2.35E1,4.5E0,8.5E0,7.5E0,1.65E1,6.5E0,2.5E0,2.75E1,1.75E1,1.05E1,7.5E0,2.45E1,5.5E0,7.5E0,9.5E0,2.35E1,8.5E0,9.5E0,2.0225E3,8.5E0,7.5E0,3.75E1,2.0225E3,1.55E1,6.5E0,6.5E0,-3.9684393E-2,2.5069738E-2,-2.793158E-2,-1.0347704E-2,-4.7068637E-2,-3.492215E-2,-2.5379198E-2,-5.367672E-2,-2.1269482E-2,-7.917198E-3,2.0855868E-2,-2.9052187E-2,-2.9820474E-2,-1.9483699E-2,-3.869313E-2,-5.188493E-2,-2.4235649E-2,-1.545646E-2,-3.0182147E-2,-4.3555226E-2,-4.7035567E-2,-2.1085197E-2,-5.7891738E-3,2.8737055E-2,-3.5260517E-2,-4.4631655E-3,1.601447E-2,-1.33344615E-2,-3.210778E-3,-3.5386946E-2,-1.4521718E-2,4.7775535E-3,9.695394E-3,4.1616224E-2,-9.078452E-3,-4.5295056E-2,3.3135498E-3,-3.822484E-2,-2.0574942E-2,-6.970025E-3,3.8543881E-3,-9.673169E-3,-1.1120427E-2,-5.517857E-2,1.0725783E-2,3.719791E-2,-6.4733945E-2,2.0288281E-2,-2.553165E-3,9.538598E-3,2.6225643E-2,5.0578653E-3,-1.3468732E-2,-3.0395326E-3,-1.0859311E-3,1.0476493E-2,1.0184187E-2,1.9379765E-2,-5.92452E-3,9.280332E-3,-1.6760487E-3,7.1545057E-3,-1.99073E-2,-3.0878852E-3],"split_indices":[0,0,0,3,1,1,3,3,3,2,1,1,2,3,3,1,3,5,3,3,1,2,1,2,1,5,1,1,3,5,3,2,5,5,2,1,2,2,5,3,4,3,1,5,2,2,2,3,2,2,2,1,2,3,1,0,1,1,4,0,3,1,1,0,0,0,0,0,0,0,0,0,0,0,0,0,0,0,0,0,0,0,0,0,0,0,0,0,0,0,0,0,0,0,0,0,0,0,0,0,0,0,0,0,0,0,0,0,0,0,0,0,0,0,0,0,0,0,0,0,0,0,0,0,0,0,0],"split_type":[0,0,0,0,0,0,0,0,0,0,0,0,0,0,0,0,0,0,0,0,0,0,0,0,0,0,0,0,0,0,0,0,0,0,0,0,0,0,0,0,0,0,0,0,0,0,0,0,0,0,0,0,0,0,0,0,0,0,0,0,0,0,0,0,0,0,0,0,0,0,0,0,0,0,0,0,0,0,0,0,0,0,0,0,0,0,0,0,0,0,0,0,0,0,0,0,0,0,0,0,0,0,0,0,0,0,0,0,0,0,0,0,0,0,0,0,0,0,0,0,0,0,0,0,0,0,0],"sum_hessian":[7.9674E4,2.5846E4,5.3828E4,1.0036E4,1.581E4,1.8437E4,3.5391E4,3.314E3,6.722E3,9.228E3,6.582E3,6.034E3,1.2403E4,8.785E3,2.6606E4,4.12E2,2.902E3,4.609E3,2.113E3,8.18E3,1.048E3,1.335E3,5.247E3,1.59E3,4.444E3,1.0928E4,1.475E3,2.952E3,5.833E3,2.2163E4,4.443E3,4.7E1,3.65E2,1.68E3,1.222E3,3.3E3,1.309E3,1.687E3,4.26E2,7.86E3,3.2E2,1.73E2,8.75E2,3.66E2,9.69E2,2.584E3,2.663E3,6.13E2,9.77E2,1.393E3,3.051E3,9.407E3,1.521E3,7.87E2,6.88E2,1.823E3,1.129E3,4.37E3,1.463E3,1.8959E4,3.204E3,2.93E3,1.513E3,4.3E1,4E0,5.2E1,3.13E2,2.35E2,1.445E3,1.154E3,6.8E1,1.105E3,2.195E3,8.9E1,1.22E3,1.243E3,4.44E2,3.04E2,1.22E2,3.089E3,4.771E3,8.5E1,2.35E2,1.25E2,4.8E1,7.09E2,1.66E2,1.19E2,2.47E2,7.85E2,1.84E2,1.417E3,1.167E3,8.94E2,1.769E3,2.06E2,4.07E2,6.32E2,3.45E2,2.53E2,1.14E3,7.08E2,2.343E3,5.815E3,3.592E3,1.265E3,2.56E2,2.96E2,4.91E2,1.49E2,5.39E2,8.61E2,9.62E2,5.44E2,5.85E2,3.212E3,1.158E3,1.077E3,3.86E2,1.1256E4,7.703E3,2.147E3,1.057E3,1.816E3,1.114E3,9.45E2,5.68E2],"tree_param":{"num_deleted":"0","num_feature":"6","num_nodes":"127","size_leaf_vector":"0"}},{"base_weights":[-9.414208E-3,-4.0906787E-2,5.707716E-3,-3.328419E-2,-6.0067046E-2,-1.1902502E-2,1.4881865E-2,-6.3819915E-2,-2.5185289E-2,-6.510269E-2,-3.7921563E-2,-2.3980731E-2,4.8693167E-3,1.4967538E-3,2.9399002E-2,-3.619787E-2,-8.275153E-2,-1.7262373E-2,-6.798507E-2,-6.1931323E-2,-1.181263E-1,-1.4804172E-2,-6.018609E-2,-1.7772622E-2,-6.2242508E-2,3.9134298E-2,-1.762708E-2,1.2794744E-2,-4.122013E-2,1.826645E-2,6.0106207E-2,-5.6456864E-2,-2.274618E-2,-1.032279E-1,-7.772606E-2,-3.650164E-2,-5.2396767E-3,-5.144946E-2,-8.4203035E-2,-2.1584129E-2,-6.571214E-2,-2.1338748E-2,-2.1421488E-1,-1.1826404E-1,-9.0963235E-3,-5.4634254E-2,-1.1501351E-1,-5.8338873E-2,-1.2987268E-2,-4.1084003E-2,-1.3114679E-1,1.4532617E-1,-1.9611653E-2,-6.843184E-2,8.774616E-3,1.555719E-4,3.80003E-2,-1.24501266E-1,-3.547951E-2,-2.5773492E-2,3.014048E-2,1.8186672E-1,2.723656E-2,-4.64726E-1,-5.1115047E-2,-1.4462078E-2,-4.6525076E-2,-2.646482E-1,-9.588944E-2,-9.1067165E-2,-7.3129356E-2,-6.308247E-2,-2.8202029E-2,-3.6360785E-2,5.402589E-3,-5.628607E-2,-1.0151318E-2,-7.238989E-2,-1.08942695E-1,1.0446199E-1,-7.288736E-2,-8.99313E-2,-5.689597E-2,3.494386E-2,-8.147936E-2,-6.930143E-1,-8.849492E-2,-7.999131E-2,-1.2664147E-1,-1.913359E-2,3.663052E-2,-7.0336886E-2,-9.669592E-3,-1.03651874E-1,-1.4446062E-1,2.7698448E-2,-9.024805E-2,-3.7705466E-2,-3.578287E-3,-5.043265E-2,1.8127736E-2,-3.6354333E-2,-6.093853E-1,7.143525E-2,2.1385944E-1,-1.21212736E-1,3.693797E-2,-2.5874874E-2,-1.0846918E-1,-4.192961E-2,5.8394372E-2,1.2161772E-2,-2.5756298E-2,6.556673E-2,-7.499008E-3,-5.5981014E-2,-1.4559498E-1,-9.025487E-3,-5.1729348E-2,-6.283332E-2,3.899261E-2,1.6975703E-2,7.684988E-2,1.2151435E-1,2.4426757E-1,4.7507275E-2,-1.7511388E-2],"categories":[],"categories_nodes":[],"categories_segments":[],"categories_sizes":[],"default_left":[1,1,1,1,1,1,1,1,1,1,1,1,1,1,1,1,1,1,1,1,1,1,1,1,1,1,1,1,1,1,1,1,1,1,1,1,1,1,1,1,1,1,1,1,1,1,1,1,1,1,1,1,1,1,1,1,1,1,1,1,1,1,1,0,0,0,0,0,0,0,0,0,0,0,0,0,0,0,0,0,0,0,0,0,0,0,0,0,0,0,0,0,0,0,0,0,0,0,0,0,0,0,0,0,0,0,0,0,0,0,0,0,0,0,0,0,0,0,0,0,0,0,0,0,0,0,0],"id":10,"left_children":[1,3,5,7,9,11,13,15,17,19,21,23,25,27,29,31,33,35,37,39,41,43,45,47,49,51,53,55,57,59,61,63,65,67,69,71,73,75,77,79,81,83,85,87,89,91,93,95,97,99,101,103,105,107,109,111,113,115,117,119,121,123,125,-1,-1,-1,-1,-1,-1,-1,-1,-1,-1,-1,-1,-1,-1,-1,-1,-1,-1,-1,-1,-1,-1,-1,-1,-1,-1,-1,-1,-1,-1,-1,-1,-1,-1,-1,-1,-1,-1,-1,-1,-1,-1,-1,-1,-1,-1,-1,-1,-1,-1,-1,-1,-1,-1,-1,-1,-1,-1,-1,-1,-1,-1,-1,-1],"loss_changes":[3.794373E1,3.772976E0,8.696724E0,4.571821E0,8.177376E-1,3.7351737E0,6.8770995E0,2.023881E0,4.955777E0,1.0001125E0,7.016716E-1,2.545013E0,5.9515643E0,8.887881E0,5.802823E0,4.287486E-1,2.2855282E-1,2.853222E0,6.079092E-1,8.612251E-1,3.1295896E0,3.9517212E-1,2.0526934E-1,1.7898409E0,2.1756473E0,1.9092176E1,6.2525477E0,4.6397543E0,1.8371687E0,6.51755E0,1.8073095E1,1.348031E0,1.8646467E-1,5.0768185E-1,1.067915E-1,1.044797E0,2.5149913E0,2.2573757E-1,3.284979E-1,3.1503687E0,1.0987835E0,5.748904E-1,1.0111567E1,1.0917187E-3,2.9306638E-1,4.4625807E-1,6.1041117E-3,2.6737545E0,1.919058E0,6.3528204E-1,1.588987E1,5.504469E0,1.1328865E1,2.7131581E0,7.7213264E0,3.0183241E0,6.101182E0,3.502953E-1,1.5492268E0,6.355834E0,6.0347376E0,3.5857162E0,3.2281976E0,0E0,0E0,0E0,0E0,0E0,0E0,0E0,0E0,0E0,0E0,0E0,0E0,0E0,0E0,0E0,0E0,0E0,0E0,0E0,0E0,0E0,0E0,0E0,0E0,0E0,0E0,0E0,0E0,0E0,0E0,0E0,0E0,0E0,0E0,0E0,0E0,0E0,0E0,0E0,0E0,0E0,0E0,0E0,0E0,0E0,0E0,0E0,0E0,0E0,0E0,0E0,0E0,0E0,0E0,0E0,0E0,0E0,0E0,0E0,0E0,0E0,0E0,0E0,0E0],"parents":[2147483647,0,0,1,1,2,2,3,3,4,4,5,5,6,6,7,7,8,8,9,9,10,10,11,11,12,12,13,13,14,14,15,15,16,16,17,17,18,18,19,19,20,20,21,21,22,22,23,23,24,24,25,25,26,26,27,27,28,28,29,29,30,30,31,31,32,32,33,33,34,34,35,35,36,36,37,37,38,38,39,39,40,40,41,41,42,42,43,43,44,44,45,45,46,46,47,47,48,48,49,49,50,50,51,51,52,52,53,53,54,54,55,55,56,56,57,57,58,58,59,59,60,60,61,61,62,62],"right_children":[2,4,6,8,10,12,14,16,18,20,22,24,26,28,30,32,34,36,38,40,42,44,46,48,50,52,54,56,58,60,62,64,66,68,70,72,74,76,78,80,82,84,86,88,90,92,94,96,98,100,102,104,106,108,110,112,114,116,118,120,122,124,126,-1,-1,-1,-1,-1,-1,-1,-1,-1,-1,-1,-1,-1,-1,-1,-1,-1,-1,-1,-1,-1,-1,-1,-1,-1,-1,-1,-1,-1,-1,-1,-1,-1,-1,-1,-1,-1,-1,-1,-1,-1,-1,-1,-1,-1,-1,-1,-1,-1,-1,-1,-1,-1,-1,-1,-1,-1,-1,-1,-1,-1,-1,-1,-1],"split_conditions":[2.0205E3,4.5E0,2.0215E3,4.5E0,1.05E1,7.5E0,5.5E0,1.5E0,2.05E1,2.95E1,5.5E0,5.5E0,9.5E0,4.5E0,2.25E1,2.0195E3,5E-1,2.0195E3,2.25E1,3.5E0,5.5E0,3.5E0,2.15E1,3.5E0,2.45E1,1.15E1,1.05E1,1.55E1,2.5E0,6.5E0,6.5E0,3.5E0,9.5E0,1.5E0,4.5E0,5.5E0,3.5E0,1.15E1,2.25E1,2.0195E3,1.05E1,2.0195E3,7E0,7.5E0,2.7E1,1.55E1,3.75E1,2.5E0,2.5E0,6.5E0,6.5E0,8.5E0,1.85E1,1.55E1,1.55E1,1.05E1,2.05E1,6.5E0,1.35E1,1.45E1,2.0225E3,2.65E1,4.5E0,-1.3941781E-1,-1.5334515E-2,-4.3386235E-3,-1.3957524E-2,-7.939446E-2,-2.8766833E-2,-2.732015E-2,-2.1938808E-2,-1.8924743E-2,-8.460609E-3,-1.0908236E-2,1.6207768E-3,-1.6885823E-2,-3.0453957E-3,-2.171697E-2,-3.268281E-2,3.13386E-2,-2.186621E-2,-2.6979392E-2,-1.7068792E-2,1.0483159E-2,-2.444381E-2,-2.0790431E-1,-2.6548477E-2,-2.3997394E-2,-3.799244E-2,-5.7400772E-3,1.0989156E-2,-2.1101067E-2,-2.9008775E-3,-3.1095563E-2,-4.3338187E-2,8.309535E-3,-2.7074415E-2,-1.131164E-2,-1.0734862E-3,-1.5129795E-2,5.438321E-3,-1.09063005E-2,-1.828156E-1,2.1430576E-2,6.4157836E-2,-3.636382E-2,1.1081392E-2,-7.7624624E-3,-3.2540757E-2,-1.2578883E-2,1.7518312E-2,3.6485316E-3,-7.7268896E-3,1.967002E-2,-2.2497026E-3,-1.6794305E-2,-4.3678496E-2,-2.7076462E-3,-1.5518805E-2,-1.8849995E-2,1.1697783E-2,5.092711E-3,2.3054965E-2,3.6454305E-2,7.3280275E-2,1.4252183E-2,-5.2534165E-3],"split_indices":[0,5,0,3,1,1,1,3,3,2,5,5,1,1,2,0,5,0,4,2,1,2,3,2,2,2,1,3,2,1,1,1,1,2,1,1,1,1,3,0,2,0,1,3,2,3,4,1,1,1,1,1,2,2,2,3,3,3,2,2,0,2,5,0,0,0,0,0,0,0,0,0,0,0,0,0,0,0,0,0,0,0,0,0,0,0,0,0,0,0,0,0,0,0,0,0,0,0,0,0,0,0,0,0,0,0,0,0,0,0,0,0,0,0,0,0,0,0,0,0,0,0,0,0,0,0,0],"split_type":[0,0,0,0,0,0,0,0,0,0,0,0,0,0,0,0,0,0,0,0,0,0,0,0,0,0,0,0,0,0,0,0,0,0,0,0,0,0,0,0,0,0,0,0,0,0,0,0,0,0,0,0,0,0,0,0,0,0,0,0,0,0,0,0,0,0,0,0,0,0,0,0,0,0,0,0,0,0,0,0,0,0,0,0,0,0,0,0,0,0,0,0,0,0,0,0,0,0,0,0,0,0,0,0,0,0,0,0,0,0,0,0,0,0,0,0,0,0,0,0,0,0,0,0,0,0,0],"sum_hessian":[7.9674E4,2.5846E4,5.3828E4,1.8492E4,7.354E3,1.8437E4,3.5391E4,3.875E3,1.4617E4,5.99E3,1.364E3,1.0718E4,7.719E3,1.8414E4,1.6977E4,1.577E3,2.298E3,1.2335E4,2.282E3,5.654E3,3.36E2,6.7E2,6.94E2,9.223E3,1.495E3,3.059E3,4.66E3,1.4563E4,3.851E3,1.2461E4,4.516E3,6.28E2,9.49E2,4.49E2,1.849E3,4.743E3,7.592E3,1.132E3,1.15E3,4.85E2,5.169E3,1.68E2,1.68E2,3.4E1,6.36E2,6.32E2,6.2E1,9.72E2,8.251E3,1.145E3,3.5E2,1.089E3,1.97E3,1.593E3,3.067E3,9.7E3,4.863E3,2.47E2,3.604E3,2.646E3,9.815E3,9.59E2,3.557E3,7E0,6.21E2,7.05E2,2.44E2,1.8E1,4.31E2,4.69E2,1.38E3,1.127E3,3.616E3,1.934E3,5.658E3,1.013E3,1.19E2,7.81E2,3.69E2,1.4E2,3.45E2,1.377E3,3.792E3,8.7E1,8.1E1,3.4E1,1.34E2,8E0,2.6E1,5.22E2,1.14E2,4.68E2,1.64E2,4.8E1,1.4E1,2.63E2,7.09E2,2.274E3,5.977E3,9.89E2,1.56E2,2.93E2,5.7E1,5.25E2,5.64E2,7.04E2,1.266E3,7.73E2,8.2E2,1.517E3,1.55E3,6.629E3,3.071E3,3.028E3,1.835E3,5.9E1,1.88E2,1.372E3,2.232E3,1.683E3,9.63E2,7.658E3,2.157E3,4.89E2,4.7E2,2.448E3,1.109E3],"tree_param":{"num_deleted":"0","num_feature":"6","num_nodes":"127","size_leaf_vector":"0"}},{"base_weights":[-6.6026845E-3,-2.866878E-2,3.992886E-3,-4.1674603E-2,-2.0890528E-2,-1.213092E-2,1.369142E-2,-8.453842E-3,-4.577557E-2,2.5640985E-2,-2.8298063E-2,2.5193283E-2,-1.6740808E-2,6.6681474E-2,5.6114476E-3,-2.9476859E-2,2.2034326E-3,-5.7230208E-2,-3.4154855E-2,6.229579E-3,4.452968E-2,-7.0044905E-2,-2.0755738E-2,4.711384E-2,4.625589E-3,-3.0276205E-2,-3.4996315E-3,8.090116E-2,3.1202698E-2,1.0018614E-2,-4.6486635E-2,-1.4923828E-2,-4.300524E-2,2.1571342E-2,-2.1556593E-2,-3.290368E-2,-6.53939E-2,-5.6435246E-2,-1.0889428E-2,-1.465443E-2,2.7254915E-2,1.9035954E-2,5.774972E-2,-5.4470643E-2,-1.0970622E-1,-4.8649083E-3,-4.880424E-2,1.5724981E-2,5.222086E-2,-3.3026733E-2,1.0979261E-2,-1.3442765E-2,-4.7315978E-2,-2.904024E-2,2.2069832E-2,5.9966903E-2,1.02467135E-1,1.0259405E-2,5.1229447E-2,-4.107566E-3,2.3271557E-2,-2.0852808E-2,-7.1369365E-2,-2.3143535E-2,8.451524E-3,-1.2048251E-2,-4.9895898E-2,1.7696744E-3,3.7024837E-2,-4.1770864E-2,1.8135702E-2,-5.1649142E-2,-2.6946794E-2,-7.563797E-2,-5.5065148E-2,-6.741751E-2,-4.937349E-2,-1.8451521E-2,2.324825E-2,-7.326008E-3,-6.254018E-2,5.0208834E-3,5.214102E-2,3.0106226E-2,-8.661622E-3,7.765624E-2,3.1605344E-2,-8.10832E-2,-1.2636114E-2,-1.6411206E-1,-8.396079E-2,-1.709759E-2,9.276917E-3,-4.1203447E-2,-7.213975E-2,1.0580153E-2,4.4120748E-2,4.1789506E-2,6.674331E-2,-3.958748E-2,3.822959E-3,-2.2342624E-4,2.0832913E-2,-4.7043845E-2,-7.949642E-3,-6.3557506E-2,-3.9107304E-2,-4.4080146E-2,-1.4243154E-2,3.1327624E-2,-9.038318E-4,4.2937174E-2,7.7305615E-2,1.1092433E-1,6.4019166E-2,-9.281379E-3,3.0337876E-2,3.565861E-2,6.4273216E-2,-4.154358E-2,1.4853501E-2,3.3936013E-2,-8.146227E-3,-3.4772597E-2,1.4605248E-2,-8.4151015E-2,-3.6757477E-2],"categories":[],"categories_nodes":[],"categories_segments":[],"categories_sizes":[],"default_left":[1,1,1,1,1,1,1,1,1,1,1,1,1,1,1,1,1,1,1,1,1,1,1,1,1,1,1,1,1,1,1,1,1,1,1,1,1,1,1,1,1,1,1,1,1,1,1,1,1,1,1,1,1,1,1,1,1,1,1,1,1,1,1,0,0,0,0,0,0,0,0,0,0,0,0,0,0,0,0,0,0,0,0,0,0,0,0,0,0,0,0,0,0,0,0,0,0,0,0,0,0,0,0,0,0,0,0,0,0,0,0,0,0,0,0,0,0,0,0,0,0,0,0,0,0,0,0],"id":11,"left_children":[1,3,5,7,9,11,13,15,17,19,21,23,25,27,29,31,33,35,37,39,41,43,45,47,49,51,53,55,57,59,61,63,65,67,69,71,73,75,77,79,81,83,85,87,89,91,93,95,97,99,101,103,105,107,109,111,113,115,117,119,121,123,125,-1,-1,-1,-1,-1,-1,-1,-1,-1,-1,-1,-1,-1,-1,-1,-1,-1,-1,-1,-1,-1,-1,-1,-1,-1,-1,-1,-1,-1,-1,-1,-1,-1,-1,-1,-1,-1,-1,-1,-1,-1,-1,-1,-1,-1,-1,-1,-1,-1,-1,-1,-1,-1,-1,-1,-1,-1,-1,-1,-1,-1,-1,-1,-1],"loss_changes":[1.8628359E1,2.6138763E0,8.417798E0,1.3173027E0,5.57633E0,3.4791398E0,1.4390878E1,2.384521E-1,1.1439972E0,8.144325E-1,4.3925323E0,1.0020334E0,3.2252202E0,2.2409763E0,6.697124E0,6.984085E-2,3.258137E-1,8.585558E-1,2.2159047E0,4.8208478E-1,3.7839437E-1,1.3128042E0,5.268548E0,1.7166543E-1,2.7499923E-1,2.5519342E0,5.942178E0,1.4268131E0,5.3382313E-1,5.0346403E0,1.4495969E0,3.362771E-2,3.886196E-2,1.1927639E-1,2.5590512E-1,1.20434284E-1,3.3907795E-1,1.6604948E-1,5.4074174E-1,1.9290257E-1,3.0240333E-1,1.1861597E-1,3.831942E-1,1.7079272E0,8.2804346E-1,1.3057326E0,7.552767E-1,2.1739077E-2,1.3733792E-1,4.028377E-2,1.08515434E-1,8.261522E-1,5.870619E-1,1.0124054E0,9.6710896E-1,4.7295713E-1,5.008011E-1,2.451074E-1,1.2992775E-1,9.241142E0,4.6491437E0,5.5429196E-1,5.0743294E-1,0E0,0E0,0E0,0E0,0E0,0E0,0E0,0E0,0E0,0E0,0E0,0E0,0E0,0E0,0E0,0E0,0E0,0E0,0E0,0E0,0E0,0E0,0E0,0E0,0E0,0E0,0E0,0E0,0E0,0E0,0E0,0E0,0E0,0E0,0E0,0E0,0E0,0E0,0E0,0E0,0E0,0E0,0E0,0E0,0E0,0E0,0E0,0E0,0E0,0E0,0E0,0E0,0E0,0E0,0E0,0E0,0E0,0E0,0E0,0E0,0E0,0E0,0E0,0E0],"parents":[2147483647,0,0,1,1,2,2,3,3,4,4,5,5,6,6,7,7,8,8,9,9,10,10,11,11,12,12,13,13,14,14,15,15,16,16,17,17,18,18,19,19,20,20,21,21,22,22,23,23,24,24,25,25,26,26,27,27,28,28,29,29,30,30,31,31,32,32,33,33,34,34,35,35,36,36,37,37,38,38,39,39,40,40,41,41,42,42,43,43,44,44,45,45,46,46,47,47,48,48,49,49,50,50,51,51,52,52,53,53,54,54,55,55,56,56,57,57,58,58,59,59,60,60,61,61,62,62],"right_children":[2,4,6,8,10,12,14,16,18,20,22,24,26,28,30,32,34,36,38,40,42,44,46,48,50,52,54,56,58,60,62,64,66,68,70,72,74,76,78,80,82,84,86,88,90,92,94,96,98,100,102,104,106,108,110,112,114,116,118,120,122,124,126,-1,-1,-1,-1,-1,-1,-1,-1,-1,-1,-1,-1,-1,-1,-1,-1,-1,-1,-1,-1,-1,-1,-1,-1,-1,-1,-1,-1,-1,-1,-1,-1,-1,-1,-1,-1,-1,-1,-1,-1,-1,-1,-1,-1,-1,-1,-1,-1,-1,-1,-1,-1,-1,-1,-1,-1,-1,-1,-1,-1,-1,-1,-1,-1],"split_conditions":[2.0205E3,8.5E0,8.5E0,5E-1,1.05E1,5E-1,1.05E1,5.5E0,2.25E1,9.5E0,1.25E1,2.25E1,4.5E0,4.5E0,2.25E1,2.25E1,9.5E0,2.5E0,4.5E0,2.25E1,5.5E0,9.5E0,1.95E1,5E-1,5E-1,2.5E0,2.25E1,9.5E0,9.5E0,5.5E0,2.25E1,4.5E0,1.5E0,2.0195E3,1.15E1,4.5E0,7.5E0,2.0195E3,1.05E1,5.5E0,7.5E0,4.5E0,9.5E0,6.5E0,1.05E1,7.5E0,2.25E1,2.65E1,6.5E0,2.65E1,5.5E0,5E-1,2.0215E3,7.5E0,4.5E0,2.25E1,9.5E0,2.25E1,1.45E1,1.45E1,1.95E1,2.0225E3,2.0225E3,-6.943061E-3,2.5354573E-3,-3.6144755E-3,-1.496877E-2,5.3090235E-4,1.1107451E-2,-1.253126E-2,5.440711E-3,-1.5494743E-2,-8.084038E-3,-2.2691391E-2,-1.6519545E-2,-2.0225253E-2,-1.4812048E-2,-5.5354564E-3,6.974475E-3,-2.1978025E-3,-1.8762056E-2,1.5062651E-3,1.5642306E-2,9.031869E-3,-2.5984868E-3,2.3296872E-2,9.481603E-3,-2.4324961E-2,-3.7908342E-3,-4.923362E-2,-2.5188237E-2,-5.1292772E-3,2.7830752E-3,-1.2361035E-2,-2.1641925E-2,3.174046E-3,1.3236225E-2,1.2536853E-2,2.0022992E-2,-1.1876244E-2,1.1468878E-3,-6.7027875E-5,6.2498744E-3,-1.4113154E-2,-2.3848927E-3,-1.9067252E-2,-1.1732192E-2,-1.3224044E-2,-4.272946E-3,9.398287E-3,-2.7114956E-4,1.2881153E-2,2.3191685E-2,3.3277303E-2,1.920575E-2,-2.7844138E-3,9.101363E-3,1.0697583E-2,1.9281965E-2,-1.2463075E-2,4.45605E-3,1.0180804E-2,-2.4438682E-3,-1.043178E-2,4.3815747E-3,-2.5245305E-2,-1.1027243E-2],"split_indices":[0,3,3,3,3,3,3,1,4,3,3,4,3,5,3,4,1,3,3,4,1,1,3,5,5,3,4,3,3,1,4,5,1,0,1,1,4,0,1,5,1,5,1,1,1,1,3,2,1,2,1,5,0,4,5,4,1,4,2,3,3,0,0,0,0,0,0,0,0,0,0,0,0,0,0,0,0,0,0,0,0,0,0,0,0,0,0,0,0,0,0,0,0,0,0,0,0,0,0,0,0,0,0,0,0,0,0,0,0,0,0,0,0,0,0,0,0,0,0,0,0,0,0,0,0,0,0],"split_type":[0,0,0,0,0,0,0,0,0,0,0,0,0,0,0,0,0,0,0,0,0,0,0,0,0,0,0,0,0,0,0,0,0,0,0,0,0,0,0,0,0,0,0,0,0,0,0,0,0,0,0,0,0,0,0,0,0,0,0,0,0,0,0,0,0,0,0,0,0,0,0,0,0,0,0,0,0,0,0,0,0,0,0,0,0,0,0,0,0,0,0,0,0,0,0,0,0,0,0,0,0,0,0,0,0,0,0,0,0,0,0,0,0,0,0,0,0,0,0,0,0,0,0,0,0,0,0],"sum_hessian":[7.9674E4,2.5846E4,5.3828E4,9.671E3,1.6175E4,2.0217E4,3.3611E4,1.063E3,8.608E3,2.221E3,1.3954E4,2.222E3,1.7995E4,4.446E3,2.9165E4,3.57E2,7.06E2,4.333E3,4.275E3,1.096E3,1.125E3,2.134E3,1.182E4,1.075E3,1.147E3,8.898E3,9.097E3,3.173E3,1.273E3,2.6891E4,2.274E3,1.73E2,1.84E2,3.89E2,3.17E2,1.09E3,3.243E3,2.183E3,2.092E3,5.5E2,5.46E2,3.85E2,7.4E2,1.534E3,6E2,7.546E3,4.274E3,1.51E2,9.24E2,1.65E2,9.82E2,4.477E3,4.421E3,4.551E3,4.546E3,1.612E3,1.561E3,6.23E2,6.5E2,1.3017E4,1.3874E4,1.121E3,1.153E3,1.28E2,4.5E1,3.4E1,1.5E2,1.71E2,2.18E2,2.1E2,1.07E2,2.61E2,8.29E2,1.625E3,1.618E3,8.51E2,1.332E3,1.713E3,3.79E2,4.78E2,7.2E1,2.89E2,2.57E2,2.75E2,1.1E2,4.19E2,3.21E2,9.37E2,5.97E2,1.91E2,4.09E2,4.046E3,3.5E3,3.226E3,1.048E3,1.29E2,2.2E1,5.4E2,3.84E2,1.4E2,2.5E1,4.6E2,5.22E2,6.28E2,3.849E3,1.482E3,2.939E3,2.256E3,2.295E3,3.24E3,1.306E3,8.15E2,7.97E2,1.278E3,2.83E2,3.16E2,3.07E2,2.98E2,3.52E2,4.376E3,8.641E3,1.0358E4,3.516E3,8.05E2,3.16E2,8.41E2,3.12E2],"tree_param":{"num_deleted":"0","num_feature":"6","num_nodes":"127","size_leaf_vector":"0"}},{"base_weights":[-4.623727E-3,-1.5578446E-2,9.083422E-3,-3.217385E-2,-1.0714406E-2,-1.3063566E-2,1.4699663E-2,-3.5306558E-2,-7.325854E-3,-7.8598345E-3,-4.282247E-2,7.337818E-2,-2.300866E-2,-3.0785162E-2,2.0197563E-2,-2.737629E-2,-6.005672E-2,3.856943E-2,-2.6919499E-2,-2.1302577E-2,1.5090274E-3,-3.44705E-2,-6.6632755E-2,-1.8742664E-2,1.527839E-1,-1.20346375E-1,-1.0773441E-2,2.6123328E-2,-7.388387E-2,7.020508E-2,1.432974E-2,-3.959182E-2,-3.0467138E-3,-2.0918056E-1,-4.94702E-2,-1.6844645E-2,4.6948493E-2,-8.195961E-2,5.5828583E-3,4.9329493E-3,-2.4517475E-2,-1.4689779E-2,1.3080105E-2,-3.0641947E-2,-5.798491E-2,-5.706194E-2,-7.7125445E-2,-1.4977204E-2,-1.2135851E-1,9.364207E-2,1.7837274E-1,-2.0477472E-1,-4.5352414E-2,-2.7848275E-2,1.880412E-2,7.881828E-2,-2.0134991E-2,-1.0017828E-1,-1.0807658E-2,-1.9128654E-2,1.02741815E-1,-4.5005282E-4,4.0012714E-2,-5.348795E-2,-1.1332458E-2,2.7255863E-2,-4.174663E-2,-3.3120215E-1,-9.092796E-2,-6.85024E-2,-2.9756388E-2,7.34611E-2,-2.7446697E-2,1.202064E-2,5.8909815E-2,-4.7893964E-2,-1.0101343E-1,-9.052591E-5,7.823621E-2,2.904137E-2,-2.6293492E-3,-3.002196E-2,-8.100254E-3,2.204829E-2,-2.426158E-2,2.2840455E-2,-1.1815322E-2,-2.226861E-2,-3.8695663E-2,-3.251337E-2,-7.979571E-2,-8.22898E-2,-5.1157016E-2,-6.299736E-2,-9.048549E-2,-2.7350334E-2,2.3701884E-2,-6.787051E-2,-1.3961868E-1,1.0229265E-1,4.7165826E-2,1.9092475E-1,9.2133395E-2,-2.3985207E-1,-1.1802463E-1,-1.7343539E-1,-1.8946279E-2,-3.187895E-2,-7.233326E-3,5.166097E-2,-1.2655156E-2,1.04479454E-1,4.7282516E-3,3.3233255E-2,-5.453906E-2,-8.2102895E-2,-1.7163172E-1,1.3147363E-2,-8.334211E-2,-8.148432E-2,3.6925707E-2,1.8433414E-1,3.3484764E-2,-3.490535E-2,1.4338176E-2,3.559626E-2,1.4878592E-1],"categories":[],"categories_nodes":[],"categories_segments":[],"categories_sizes":[],"default_left":[1,1,1,1,1,1,1,1,1,1,1,1,1,1,1,1,1,1,1,1,1,1,1,1,1,1,1,1,1,1,1,1,1,1,1,1,1,1,1,1,1,1,1,1,1,1,1,1,1,1,1,1,1,1,1,1,1,1,1,1,1,1,1,0,0,0,0,0,0,0,0,0,0,0,0,0,0,0,0,0,0,0,0,0,0,0,0,0,0,0,0,0,0,0,0,0,0,0,0,0,0,0,0,0,0,0,0,0,0,0,0,0,0,0,0,0,0,0,0,0,0,0,0,0,0,0,0],"id":12,"left_children":[1,3,5,7,9,11,13,15,17,19,21,23,25,27,29,31,33,35,37,39,41,43,45,47,49,51,53,55,57,59,61,63,65,67,69,71,73,75,77,79,81,83,85,87,89,91,93,95,97,99,101,103,105,107,109,111,113,115,117,119,121,123,125,-1,-1,-1,-1,-1,-1,-1,-1,-1,-1,-1,-1,-1,-1,-1,-1,-1,-1,-1,-1,-1,-1,-1,-1,-1,-1,-1,-1,-1,-1,-1,-1,-1,-1,-1,-1,-1,-1,-1,-1,-1,-1,-1,-1,-1,-1,-1,-1,-1,-1,-1,-1,-1,-1,-1,-1,-1,-1,-1,-1,-1,-1,-1,-1],"loss_changes":[1.1963978E1,3.5742903E0,4.4023495E0,7.8103733E-1,3.1386566E0,6.1569343E0,7.0608764E0,1.7477579E0,1.0127013E0,3.9613237E0,5.5372334E-1,5.4085913E0,7.6469727E0,7.4703474E0,7.390334E0,2.0065646E0,3.4028053E0,1.5726596E-1,1.411926E0,1.0896826E0,3.4745364E0,1.8475723E-1,6.8406105E-2,1.3071617E-1,5.841055E-1,4.5304823E0,2.8822355E0,3.2021296E0,2.873188E0,7.6899986E0,8.557852E0,1.7645607E0,2.6491108E0,2.0332842E0,7.5585985E-1,4.5100436E-2,1.2170231E-1,1.8534267E-1,2.0486568E-1,2.5732294E-1,1.0397167E0,2.7166765E0,2.6276999E0,1.19445086E-1,1.5796083E-1,5.284524E-2,5.90415E-2,1.5953729E-1,2.244413E-3,4.422486E-2,2.811718E-1,9.971695E-1,1.2853231E0,3.0039692E-1,2.159954E0,1.1668656E0,1.287072E0,1.5654716E0,8.889911E-1,2.4741907E0,1.0950811E1,7.2924247E0,3.9507294E0,0E0,0E0,0E0,0E0,0E0,0E0,0E0,0E0,0E0,0E0,0E0,0E0,0E0,0E0,0E0,0E0,0E0,0E0,0E0,0E0,0E0,0E0,0E0,0E0,0E0,0E0,0E0,0E0,0E0,0E0,0E0,0E0,0E0,0E0,0E0,0E0,0E0,0E0,0E0,0E0,0E0,0E0,0E0,0E0,0E0,0E0,0E0,0E0,0E0,0E0,0E0,0E0,0E0,0E0,0E0,0E0,0E0,0E0,0E0,0E0,0E0,0E0,0E0,0E0],"parents":[2147483647,0,0,1,1,2,2,3,3,4,4,5,5,6,6,7,7,8,8,9,9,10,10,11,11,12,12,13,13,14,14,15,15,16,16,17,17,18,18,19,19,20,20,21,21,22,22,23,23,24,24,25,25,26,26,27,27,28,28,29,29,30,30,31,31,32,32,33,33,34,34,35,35,36,36,37,37,38,38,39,39,40,40,41,41,42,42,43,43,44,44,45,45,46,46,47,47,48,48,49,49,50,50,51,51,52,52,53,53,54,54,55,55,56,56,57,57,58,58,59,59,60,60,61,61,62,62],"right_children":[2,4,6,8,10,12,14,16,18,20,22,24,26,28,30,32,34,36,38,40,42,44,46,48,50,52,54,56,58,60,62,64,66,68,70,72,74,76,78,80,82,84,86,88,90,92,94,96,98,100,102,104,106,108,110,112,114,116,118,120,122,124,126,-1,-1,-1,-1,-1,-1,-1,-1,-1,-1,-1,-1,-1,-1,-1,-1,-1,-1,-1,-1,-1,-1,-1,-1,-1,-1,-1,-1,-1,-1,-1,-1,-1,-1,-1,-1,-1,-1,-1,-1,-1,-1,-1,-1,-1,-1,-1,-1,-1,-1,-1,-1,-1,-1,-1,-1,-1,-1,-1,-1,-1,-1,-1,-1],"split_conditions":[2.0215E3,2.0195E3,6.5E0,1.15E1,2.15E1,1.5E0,1.5E0,9.5E0,9.5E0,8.5E0,3.75E1,2.0225E3,2.5E0,1.75E1,2.5E0,7.5E0,2.5E0,1.5E0,1.75E1,5E-1,5.5E0,5.5E0,2.25E1,2.25E1,7.5E0,2.0225E3,7.5E0,2.0225E3,2.75E1,1.25E1,2.0225E3,2.15E1,3.5E0,1.05E1,1.05E1,1.5E0,5.5E0,1.25E1,3.05E1,7.5E0,3.75E1,1.5E0,4.5E0,2.25E1,6.5E0,2.5E0,6.5E0,1.65E1,7.5E0,5.5E0,2.15E1,1.65E1,1.5E0,5.5E0,3.5E0,1.45E1,1.5E0,4.5E0,3.05E1,2.0225E3,2.0225E3,5.5E0,7.5E0,-1.6046386E-2,-3.3997374E-3,8.176759E-3,-1.252399E-2,-9.936065E-2,-2.7278388E-2,-2.055072E-2,-8.926917E-3,2.2038331E-2,-8.234009E-3,3.606192E-3,1.7672945E-2,-1.43681895E-2,-3.030403E-2,-2.7157774E-5,2.3470864E-2,8.712412E-3,-7.888048E-4,-9.006589E-3,-2.4300765E-3,6.6144876E-3,-7.2784745E-3,6.852137E-3,-3.5445967E-3,-6.680583E-3,-1.1608699E-2,-9.754011E-3,-2.3938714E-2,-2.4686942E-2,-1.5347105E-2,-1.889921E-2,-2.7145648E-2,-8.205101E-3,7.1105654E-3,-2.0361155E-2,-4.1885607E-2,3.0687796E-2,1.4149749E-2,5.7277426E-2,2.764002E-2,-7.195562E-2,-3.540739E-2,-5.203062E-2,-5.683884E-3,-9.563684E-3,-2.169998E-3,1.5498292E-2,-3.796547E-3,3.1343836E-2,1.4184755E-3,9.969977E-3,-1.6361719E-2,-2.4630869E-2,-5.148952E-2,3.9442093E-3,-2.5002634E-2,-2.4445297E-2,1.1077712E-2,5.5300247E-2,1.004543E-2,-1.0471606E-2,4.301453E-3,1.0678878E-2,4.4635776E-2],"split_indices":[0,0,2,1,3,1,1,1,2,3,4,0,1,2,1,1,2,2,2,3,1,5,3,3,3,0,1,0,2,2,0,2,5,1,1,3,3,2,2,4,4,1,5,3,1,1,1,3,4,2,3,3,2,2,2,2,5,5,2,0,0,1,1,0,0,0,0,0,0,0,0,0,0,0,0,0,0,0,0,0,0,0,0,0,0,0,0,0,0,0,0,0,0,0,0,0,0,0,0,0,0,0,0,0,0,0,0,0,0,0,0,0,0,0,0,0,0,0,0,0,0,0,0,0,0,0,0],"split_type":[0,0,0,0,0,0,0,0,0,0,0,0,0,0,0,0,0,0,0,0,0,0,0,0,0,0,0,0,0,0,0,0,0,0,0,0,0,0,0,0,0,0,0,0,0,0,0,0,0,0,0,0,0,0,0,0,0,0,0,0,0,0,0,0,0,0,0,0,0,0,0,0,0,0,0,0,0,0,0,0,0,0,0,0,0,0,0,0,0,0,0,0,0,0,0,0,0,0,0,0,0,0,0,0,0,0,0,0,0,0,0,0,0,0,0,0,0,0,0,0,0,0,0,0,0,0,0],"sum_hessian":[7.9674E4,4.4283E4,3.5391E4,1.0036E4,3.4247E4,7.159E3,2.8232E4,8.912E3,1.124E3,3.1452E4,2.795E3,7.38E2,6.421E3,3.044E3,2.5188E4,6.751E3,2.161E3,3.36E2,7.88E2,1.2917E4,1.8535E4,2.071E3,7.24E2,3.42E2,3.96E2,7.16E2,5.705E3,1.312E3,1.732E3,2.644E3,2.2544E4,4.494E3,2.257E3,1.42E2,2.019E3,4.4E1,2.92E2,2.92E2,4.96E2,1.41E3,1.1507E4,7.723E3,1.0812E4,1.783E3,2.88E2,3.82E2,3.42E2,3.31E2,1.1E1,1.21E2,2.75E2,3.36E2,3.8E2,3.617E3,2.088E3,6.13E2,6.99E2,1.222E3,5.1E2,7.06E2,1.938E3,1.431E4,8.234E3,3.012E3,1.482E3,1.266E3,9.91E2,6.9E1,7.3E1,1.026E3,9.93E2,4E0,4E1,7.5E1,2.17E2,1.06E2,1.86E2,4.61E2,3.5E1,3.36E2,1.074E3,8.617E3,2.89E3,1.596E3,6.127E3,7.767E3,3.045E3,8.76E2,9.07E2,1.34E2,1.54E2,7E1,3.12E2,1.69E2,1.73E2,2.51E2,8E1,4E0,7E0,1.01E2,2E1,2.39E2,3.6E1,2.38E2,9.8E1,6.4E1,3.16E2,3.025E3,5.92E2,1.021E3,1.067E3,4.55E2,1.58E2,2.74E2,4.25E2,9.77E2,2.45E2,3.84E2,1.26E2,3.34E2,3.72E2,8.89E2,1.049E3,4.297E3,1.0013E4,7.914E3,3.2E2],"tree_param":{"num_deleted":"0","num_feature":"6","num_nodes":"127","size_leaf_vector":"0"}},{"base_weights":[-3.2412924E-3,-1.0911799E-2,6.3564684E-3,-7.880279E-3,-2.9438006E-2,-4.6258513E-3,1.2943686E-2,-2.295428E-2,-3.9276727E-3,-2.6841598E-2,-8.193032E-2,-2.2952856E-2,-1.6010943E-5,4.7894012E-2,7.601482E-3,-5.664143E-3,-3.4933984E-2,1.3077533E-3,-2.3842016E-2,-3.0283827E-2,1.4194271E-2,-2.2336859E-1,-3.3983216E-2,3.2977222E-3,-3.0346481E-2,2.9616777E-2,-4.437807E-3,6.296807E-4,5.3722616E-2,1.2946946E-2,-1.0139856E-2,-3.1624958E-2,-1.156685E-4,-5.6220304E-2,-3.0710343E-2,-5.7582385E-3,1.5416516E-2,-1.0701803E-2,-3.678353E-2,1.15966275E-2,-3.3506416E-2,-1.3953166E-2,2.6176166E-2,4.52328E-3,-4.774345E-1,-1.8834847E-1,2.426414E-3,2.982107E-2,-5.470844E-3,-7.905385E-2,-2.6980396E-2,1.1010888E-2,7.51946E-2,1.7110266E-2,-7.1472027E-3,5.6434963E-2,-7.554709E-2,8.504027E-3,6.507194E-2,-2.0993098E-3,2.3065612E-2,-2.4243158E-3,-3.3284295E-2,-1.4524266E-1,-2.5927711E-2,2.0107454E-2,-6.299297E-3,-1.3329057E-1,-5.2048694E-2,-3.1682234E-2,1.54916E-2,5.9491987E-3,-2.3678808E-2,7.754833E-3,5.0173555E-2,-1.3656973E-2,1.5900617E-2,-4.104444E-2,-1.8022226E-2,3.36742E-2,-1.7318492E-1,-9.32288E-2,-2.9368898E-2,4.1997258E-2,-4.723442E-2,-5.096993E-3,4.620416E-2,1.373193E-1,-4.431937E-2,-1.5904658E-2,3.5613567E-2,4.130143E-2,1.9283045E-2,6.2881564E-3,-1.6737359E-2,1.1733623E-2,-1.5507808E-1,-1.6851356E-2,-5.1868267E-2,3.978359E-2,-1.5096292E-2,4.7945936E-4,1.4109673E-1,3.3760235E-2,1.2462894E-3,-1.659521E-2,2.1766243E-3,8.149594E-2,1.9575179E-2,-1.02809295E-1,-1.938036E-2,-9.0763666E-2,2.2975555E-2,4.8396267E-2,9.216671E-2,7.686184E-3,-5.8349594E-2,1.958869E-2,8.782902E-2,1.8007558E-2,-7.4360096E-3,-2.2176113E-2,-5.4766096E-2],"categories":[],"categories_nodes":[],"categories_segments":[],"categories_sizes":[],"default_left":[1,1,1,1,1,1,1,1,1,1,1,1,1,1,1,1,1,1,1,1,1,1,1,1,1,1,1,1,1,1,1,1,1,1,1,1,1,1,1,1,1,1,1,1,0,0,1,1,1,1,1,1,1,1,1,1,1,1,1,1,1,1,1,0,0,0,0,0,0,0,0,0,0,0,0,0,0,0,0,0,0,0,0,0,0,0,0,0,0,0,0,0,0,0,0,0,0,0,0,0,0,0,0,0,0,0,0,0,0,0,0,0,0,0,0,0,0,0,0,0,0,0,0],"id":13,"left_children":[1,3,5,7,9,11,13,15,17,19,21,23,25,27,29,31,33,35,37,39,41,43,45,47,49,51,53,55,57,59,61,63,65,67,69,71,73,75,77,79,81,83,85,87,-1,-1,89,91,93,95,97,99,101,103,105,107,109,111,113,115,117,119,121,-1,-1,-1,-1,-1,-1,-1,-1,-1,-1,-1,-1,-1,-1,-1,-1,-1,-1,-1,-1,-1,-1,-1,-1,-1,-1,-1,-1,-1,-1,-1,-1,-1,-1,-1,-1,-1,-1,-1,-1,-1,-1,-1,-1,-1,-1,-1,-1,-1,-1,-1,-1,-1,-1,-1,-1,-1,-1,-1,-1],"loss_changes":[5.865718E0,2.4868712E0,2.560421E0,2.2674658E0,8.46488E-1,1.1211098E0,4.1302605E0,1.6373777E0,3.143785E0,8.3877754E-1,1.9794049E0,5.1773E-1,1.389575E0,8.079648E-1,1.8201228E0,4.662633E-1,4.1813326E-1,2.3804443E0,1.0670373E0,7.394481E-1,1.5550467E-1,4.2867265E0,1.236941E0,1.3668275E-1,3.390535E-1,1.16689E0,5.3887373E-1,1.377358E0,1.3394122E0,2.245402E0,7.9349256E-1,3.6519992E-1,3.3376613E-1,2.4126577E-1,1.7556858E-1,3.3381217E0,2.1214685E0,2.4518058E-1,2.5203133E-1,1.6050068E0,1.2537775E0,2.5895357E-1,2.025429E-1,2.6553026E-1,0E0,0E0,1.0946216E-1,1.6866684E-2,5.8662716E-2,9.2669415E-1,4.901979E-1,7.3600006E-1,1.9645629E0,2.722808E-1,7.22211E-1,1.7114455E-1,2.0778584E-1,7.5627685E-1,9.384947E-1,3.265089E0,1.9838934E0,3.4152982E-1,2.6389647E-1,0E0,0E0,0E0,0E0,0E0,0E0,0E0,0E0,0E0,0E0,0E0,0E0,0E0,0E0,0E0,0E0,0E0,0E0,0E0,0E0,0E0,0E0,0E0,0E0,0E0,0E0,0E0,0E0,0E0,0E0,0E0,0E0,0E0,0E0,0E0,0E0,0E0,0E0,0E0,0E0,0E0,0E0,0E0,0E0,0E0,0E0,0E0,0E0,0E0,0E0,0E0,0E0,0E0,0E0,0E0,0E0,0E0,0E0,0E0,0E0],"parents":[2147483647,0,0,1,1,2,2,3,3,4,4,5,5,6,6,7,7,8,8,9,9,10,10,11,11,12,12,13,13,14,14,15,15,16,16,17,17,18,18,19,19,20,20,21,21,22,22,23,23,24,24,25,25,26,26,27,27,28,28,29,29,30,30,31,31,32,32,33,33,34,34,35,35,36,36,37,37,38,38,39,39,40,40,41,41,42,42,43,43,46,46,47,47,48,48,49,49,50,50,51,51,52,52,53,53,54,54,55,55,56,56,57,57,58,58,59,59,60,60,61,61,62,62],"right_children":[2,4,6,8,10,12,14,16,18,20,22,24,26,28,30,32,34,36,38,40,42,44,46,48,50,52,54,56,58,60,62,64,66,68,70,72,74,76,78,80,82,84,86,88,-1,-1,90,92,94,96,98,100,102,104,106,108,110,112,114,116,118,120,122,-1,-1,-1,-1,-1,-1,-1,-1,-1,-1,-1,-1,-1,-1,-1,-1,-1,-1,-1,-1,-1,-1,-1,-1,-1,-1,-1,-1,-1,-1,-1,-1,-1,-1,-1,-1,-1,-1,-1,-1,-1,-1,-1,-1,-1,-1,-1,-1,-1,-1,-1,-1,-1,-1,-1,-1,-1,-1,-1,-1],"split_conditions":[2.0215E3,5.5E0,8.5E0,4.5E0,2.95E1,2.5E0,1.05E1,1.5E0,1.95E1,2.75E1,2.0195E3,1.5E0,3.5E0,1.5E0,2.05E1,5E-1,5E-1,1.45E1,2.25E1,1.5E0,3.5E0,4.5E0,3E0,7.5E0,2.5E0,2.25E1,5E-1,1.85E1,6.5E0,1.45E1,3.75E1,1.5E0,7.5E0,1.5E0,3.05E1,1.05E1,1.05E1,1.15E1,1.05E1,2.5E1,2.5E0,2.5E0,2.0195E3,7E0,-1.4323035E-1,-5.6504544E-2,1.45E1,5E-1,5E-1,1.5E0,4.5E0,2.0225E3,2.0225E3,2.25E1,4.5E0,3.5E0,2.75E1,2.5E0,2.0225E3,9.5E0,1.15E1,2.5E0,2.25E1,-4.35728E-2,-7.7783135E-3,6.0322364E-3,-1.8897891E-3,-3.9987173E-2,-1.5614609E-2,-9.50467E-3,4.6474803E-3,1.7847597E-3,-7.1036424E-3,2.32645E-3,1.5052067E-2,-4.097092E-3,4.7701853E-3,-1.2313332E-2,-5.406668E-3,1.010226E-2,-5.1955476E-2,-2.7968641E-2,-8.81067E-3,1.2599178E-2,-1.4170326E-2,-1.5290979E-3,1.3861249E-2,4.119579E-2,-1.3295812E-2,-4.7713974E-3,1.068407E-2,1.2390429E-2,5.784914E-3,1.886447E-3,-5.021208E-3,3.520087E-3,-4.6523426E-2,-5.055407E-3,-1.5560481E-2,1.1935078E-2,-4.5288876E-3,1.4383781E-4,4.232902E-2,1.0128071E-2,3.738868E-4,-4.9785636E-3,6.529873E-4,2.4448784E-2,5.8725537E-3,-3.084279E-2,-5.8141085E-3,-2.72291E-2,6.8926667E-3,1.451888E-2,2.7650014E-2,2.3058553E-3,-1.7504878E-2,5.8766073E-3,2.6348708E-2,5.4022674E-3,-2.230803E-3,-6.6528344E-3,-1.642983E-2],"split_indices":[0,5,3,3,2,1,3,3,3,2,0,3,1,1,3,5,5,3,4,1,1,1,1,4,2,2,3,2,2,3,4,2,4,2,2,3,1,1,1,2,1,1,0,3,0,0,3,3,3,1,5,0,0,4,3,5,2,1,0,1,1,1,3,0,0,0,0,0,0,0,0,0,0,0,0,0,0,0,0,0,0,0,0,0,0,0,0,0,0,0,0,0,0,0,0,0,0,0,0,0,0,0,0,0,0,0,0,0,0,0,0,0,0,0,0,0,0,0,0,0,0,0,0],"split_type":[0,0,0,0,0,0,0,0,0,0,0,0,0,0,0,0,0,0,0,0,0,0,0,0,0,0,0,0,0,0,0,0,0,0,0,0,0,0,0,0,0,0,0,0,0,0,0,0,0,0,0,0,0,0,0,0,0,0,0,0,0,0,0,0,0,0,0,0,0,0,0,0,0,0,0,0,0,0,0,0,0,0,0,0,0,0,0,0,0,0,0,0,0,0,0,0,0,0,0,0,0,0,0,0,0,0,0,0,0,0,0,0,0,0,0,0,0,0,0,0,0,0,0],"sum_hessian":[7.9674E4,4.4283E4,3.5391E4,3.8057E4,6.226E3,1.3269E4,2.2122E4,7.905E3,3.0152E4,5.934E3,2.92E2,2.666E3,