{"learner":{"attributes":{"best_iteration":"99","best_ntree_limit":"100","scikit_learn":"{\"n_estimators\": 100, \"objective\": \"reg:squarederror\", \"max_depth\": null, \"max_leaves\": null, \"max_bin\": null, \"grow_policy\": null, \"learning_rate\": null, \"verbosity\": null, \"booster\": null, \"tree_method\": null, \"gamma\": null, \"min_child_weight\": null, \"max_delta_step\": null, \"subsample\": null, \"sampling_method\": null, \"colsample_bytree\": null, \"colsample_bylevel\": null, \"colsample_bynode\": null, \"reg_alpha\": null, \"reg_lambda\": null, \"scale_pos_weight\": null, \"base_score\": null, \"missing\": NaN, \"num_parallel_tree\": null, \"random_state\": null, \"n_jobs\": null, \"monotone_constraints\": null, \"interaction_constraints\": null, \"importance_type\": null, \"gpu_id\": null, \"validate_parameters\": null, \"predictor\": null, \"enable_categorical\": false, \"feature_types\": null, \"max_cat_to_onehot\": null, \"max_cat_threshold\": null, \"eval_metric\": null, \"early_stopping_rounds\": null, \"callbacks\": null, \"_estimator_type\": \"regressor\"}"},"feature_names":[],"feature_types":[],"gradient_booster":{"model":{"gbtree_model_param":{"num_parallel_tree":"1","num_trees":"100","size_leaf_vector":"0"},"tree_info":[0,0,0,0,0,0,0,0,0,0,0,0,0,0,0,0,0,0,0,0,0,0,0,0,0,0,0,0,0,0,0,0,0,0,0,0,0,0,0,0,0,0,0,0,0,0,0,0,0,0,0,0,0,0,0,0,0,0,0,0,0,0,0,0,0,0,0,0,0,0,0,0,0,0,0,0,0,0,0,0,0,0,0,0,0,0,0,0,0,0,0,0,0,0,0,0,0,0,0,0],"trees":[{"base_weights":[-4.5436305E-1,-1.1550531E0,-1.04823805E-1,-1.4864136E0,-8.876291E-1,-5.562768E-1,2.603623E-1,-1.9139454E0,-1.3446813E0,-5.0185597E-1,-1.2332722E0,-1.1436763E0,-3.57992E-1,8.311251E-1,-2.3998417E-1,-2.3508387E0,-1.7237394E0,-1.4120442E0,-8.729579E-1,-9.4698673E-1,-2.4333969E-1,-1.3034768E0,-7.598338E-1,-1.61762E0,-9.406415E-1,-3.3173308E-1,-7.6127213E-1,2.1840729E-1,1.1903985E0,-3.9405113E-1,2.0315534E-1,-1.9900243E0,-2.7716246E0,-1.7853314E0,-1.3071183E0,-1.0990688E0,-1.462726E0,-9.7846776E-1,-7.6025397E-1,-1.352366E0,-7.733073E-1,-5.780018E-1,3.21908E-1,-1.3794662E0,-1.077872E0,-8.9218014E-1,-3.893958E-1,-1.111291E0,-2.207384E0,-1.4439238E0,-9.104668E-1,-4.8390278E-1,-2.6805478E-1,-9.776734E-1,-6.7006725E-1,-3.430338E-1,4.751902E-1,7.703257E-1,1.9125682E0,3.1566743E-2,-6.019087E-1,-2.0288953E-1,2.9977518E-1,-1.5799123E0,-2.6488183E0,-2.9740806E0,-2.5127814E0,-2.2183433E0,-1.7555178E0,-1.477732E0,-1.2601304E0,-1.2403233E0,-1.0431575E0,-1.5081618E0,-1.238729E0,-9.185665E-1,-1.1093627E0,-6.9612956E-1,-9.011482E-1,-1.4072754E0,-9.95386E-1,-8.45616E-1,-2.4223475E-1,-2.934204E-1,-6.725302E-1,7.4921024E-1,1.7586112E-1,-1.093589E0,-1.523773E0,-7.460798E-1,-1.1301908E0,-6.6517174E-1,-1.0066674E0,-6.8612725E-1,-3.206986E-1,-5.266653E-1,-2.066341E0,-2.4859872E0,-1.8435388E0,-1.9296262E0,-1.2421148E0,-8.672738E-1,-1.2113855E0,2.1862212E-1,-6.6077685E-1,-4.6290952E-1,-2.1675906E-1,-4.2436773E-1,-1.1126558E0,-5.923377E-1,-7.8367066E-1,-5.745908E-1,-1.5388902E-1,3.5308823E-1,1.2594382E0,5.612074E-1,1.1069651E0,2.049932E0,1.3485651E0,-3.041158E-1,2.842196E-1,-7.703007E-1,-4.7844508E-1,-3.0910495E-1,-6.0212173E-2,1.87747E-1,4.827629E-1],"categories":[],"categories_nodes":[],"categories_segments":[],"categories_sizes":[],"default_left":[1,1,1,1,1,1,1,1,1,1,1,1,1,1,1,1,1,1,1,1,1,1,1,1,1,1,1,1,1,1,1,1,1,1,1,1,1,1,1,1,1,1,1,1,1,1,1,1,1,1,1,1,1,1,1,1,1,1,1,1,1,1,1,0,0,0,0,0,0,0,0,0,0,0,0,0,0,0,0,0,0,0,0,0,0,0,0,0,0,0,0,0,0,0,0,0,0,0,0,0,0,0,0,0,0,0,0,0,0,0,0,0,0,0,0,0,0,0,0,0,0,0,0,0,0,0,0],"id":0,"left_children":[1,3,5,7,9,11,13,15,17,19,21,23,25,27,29,31,33,35,37,39,41,43,45,47,49,51,53,55,57,59,61,63,65,67,69,71,73,75,77,79,81,83,85,87,89,91,93,95,97,99,101,103,105,107,109,111,113,115,117,119,121,123,125,-1,-1,-1,-1,-1,-1,-1,-1,-1,-1,-1,-1,-1,-1,-1,-1,-1,-1,-1,-1,-1,-1,-1,-1,-1,-1,-1,-1,-1,-1,-1,-1,-1,-1,-1,-1,-1,-1,-1,-1,-1,-1,-1,-1,-1,-1,-1,-1,-1,-1,-1,-1,-1,-1,-1,-1,-1,-1,-1,-1,-1,-1,-1,-1],"loss_changes":[1.9104275E4,2.2991797E3,8.58018E3,6.9990625E2,1.9153408E3,2.710252E3,8.216597E3,2.3560742E2,2.7554102E2,7.8134924E2,2.5088379E2,5.636201E2,1.840188E2,2.95833E3,1.0468442E3,1.26876465E2,4.93208E1,1.19262695E2,1.2229675E1,1.7461743E2,8.1322577E2,1.1162695E2,4.7747192E1,5.231084E2,6.1162354E1,1.5819373E2,2.0325134E1,7.1653613E2,2.568626E3,1.00651807E3,1.5526257E2,1.2361011E2,1.3488281E1,1.871045E1,2.4624634E-1,7.125122E0,6.484473E1,3.3718262E0,4.1791687E0,1.3241577E1,6.695874E1,7.2435425E1,9.9655685E1,2.0179785E2,2.8094116E1,1.8094849E1,5.07996E0,5.287827E2,7.7728516E1,2.0245605E1,4.9431885E1,5.989459E2,1.15054504E2,2.2904724E1,6.1674194E0,6.823616E1,3.2609088E2,3.765681E2,2.3856543E2,3.167713E2,1.5855249E2,1.151399E1,6.542667E1,0E0,0E0,0E0,0E0,0E0,0E0,0E0,0E0,0E0,0E0,0E0,0E0,0E0,0E0,0E0,0E0,0E0,0E0,0E0,0E0,0E0,0E0,0E0,0E0,0E0,0E0,0E0,0E0,0E0,0E0,0E0,0E0,0E0,0E0,0E0,0E0,0E0,0E0,0E0,0E0,0E0,0E0,0E0,0E0,0E0,0E0,0E0,0E0,0E0,0E0,0E0,0E0,0E0,0E0,0E0,0E0,0E0,0E0,0E0,0E0,0E0,0E0,0E0,0E0],"parents":[2147483647,0,0,1,1,2,2,3,3,4,4,5,5,6,6,7,7,8,8,9,9,10,10,11,11,12,12,13,13,14,14,15,15,16,16,17,17,18,18,19,19,20,20,21,21,22,22,23,23,24,24,25,25,26,26,27,27,28,28,29,29,30,30,31,31,32,32,33,33,34,34,35,35,36,36,37,37,38,38,39,39,40,40,41,41,42,42,43,43,44,44,45,45,46,46,47,47,48,48,49,49,50,50,51,51,52,52,53,53,54,54,55,55,56,56,57,57,58,58,59,59,60,60,61,61,62,62],"right_children":[2,4,6,8,10,12,14,16,18,20,22,24,26,28,30,32,34,36,38,40,42,44,46,48,50,52,54,56,58,60,62,64,66,68,70,72,74,76,78,80,82,84,86,88,90,92,94,96,98,100,102,104,106,108,110,112,114,116,118,120,122,124,126,-1,-1,-1,-1,-1,-1,-1,-1,-1,-1,-1,-1,-1,-1,-1,-1,-1,-1,-1,-1,-1,-1,-1,-1,-1,-1,-1,-1,-1,-1,-1,-1,-1,-1,-1,-1,-1,-1,-1,-1,-1,-1,-1,-1,-1,-1,-1,-1,-1,-1,-1,-1,-1,-1,-1,-1,-1,-1,-1,-1,-1,-1,-1,-1],"split_conditions":[7.5E0,5.5E0,5.5E0,2.0205E3,8.5E0,2.0205E3,8.5E0,2.5E0,6.5E0,6.5E0,6.5E0,2.5E0,2.25E1,6.5E0,1.15E1,1.5E0,6.5E0,5E-1,2.25E1,2.0205E3,2.0215E3,1.15E1,1.15E1,1.5E0,2.5E0,2.0215E3,2.0215E3,2.0205E3,2.0215E3,9.5E0,2.0195E3,1.95E1,1.65E1,2.5E0,6.5E0,2.0215E3,5.5E0,4.5E0,4.5E0,6.5E0,2.65E1,1.5E0,1.5E0,9.5E0,5E-1,9.5E0,2.0195E3,1.95E1,1.65E1,2.0195E3,2.15E1,1.5E0,1.5E0,1.5E0,3.5E0,2.0195E3,2.65E1,2.0205E3,2.35E1,2.0205E3,2.0205E3,1.75E1,2.0215E3,-4.7397372E-1,-7.946455E-1,-8.922242E-1,-7.538344E-1,-6.65503E-1,-5.266554E-1,-4.433196E-1,-3.7803915E-1,-3.7209702E-1,-3.1294724E-1,-4.5244855E-1,-3.7161872E-1,-2.7556998E-1,-3.3280882E-1,-2.0883888E-1,-2.7034447E-1,-4.2218265E-1,-2.986158E-1,-2.5368482E-1,-7.267043E-2,-8.802612E-2,-2.0175906E-1,2.2476308E-1,5.275834E-2,-3.280767E-1,-4.571319E-1,-2.2382395E-1,-3.3905727E-1,-1.9955154E-1,-3.0200022E-1,-2.0583819E-1,-9.620958E-2,-1.5799959E-1,-6.199023E-1,-7.457962E-1,-5.5306166E-1,-5.788879E-1,-3.7263444E-1,-2.6018214E-1,-3.6341566E-1,6.558664E-2,-1.9823307E-1,-1.3887286E-1,-6.502772E-2,-1.2731032E-1,-3.3379674E-1,-1.7770132E-1,-2.3510121E-1,-1.7237724E-1,-4.6166707E-2,1.0592648E-1,3.7783146E-1,1.6836223E-1,3.3208954E-1,6.149796E-1,4.0456954E-1,-9.123474E-2,8.526588E-2,-2.3109022E-1,-1.4353353E-1,-9.273149E-2,-1.8063653E-2,5.6324102E-2,1.4482887E-1],"split_indices":[3,1,1,0,1,0,1,1,3,1,3,1,3,1,1,1,3,3,4,0,0,1,1,1,2,0,0,0,0,1,0,2,2,2,2,0,3,5,5,3,2,3,3,1,3,1,0,2,2,0,3,1,1,1,1,0,2,0,2,0,0,2,0,0,0,0,0,0,0,0,0,0,0,0,0,0,0,0,0,0,0,0,0,0,0,0,0,0,0,0,0,0,0,0,0,0,0,0,0,0,0,0,0,0,0,0,0,0,0,0,0,0,0,0,0,0,0,0,0,0,0,0,0,0,0,0,0],"split_type":[0,0,0,0,0,0,0,0,0,0,0,0,0,0,0,0,0,0,0,0,0,0,0,0,0,0,0,0,0,0,0,0,0,0,0,0,0,0,0,0,0,0,0,0,0,0,0,0,0,0,0,0,0,0,0,0,0,0,0,0,0,0,0,0,0,0,0,0,0,0,0,0,0,0,0,0,0,0,0,0,0,0,0,0,0,0,0,0,0,0,0,0,0,0,0,0,0,0,0,0,0,0,0,0,0,0,0,0,0,0,0,0,0,0,0,0,0,0,0,0,0,0,0,0,0,0,0],"sum_hessian":[7.8002E4,2.596E4,5.2042E4,1.1592E4,1.4368E4,2.3272E4,2.877E4,2.883E3,8.709E3,6.791E3,7.577E3,5.872E3,1.74E4,1.3439E4,1.5331E4,8.71E2,2.012E3,7.619E3,1.09E3,2.494E3,4.297E3,6.597E3,9.8E2,1.759E3,4.113E3,1.6338E4,1.062E3,4.968E3,8.471E3,1.1376E4,3.955E3,4.72E2,3.99E2,1.75E3,2.62E2,1.065E3,6.554E3,5.59E2,5.31E2,7.46E2,1.748E3,2.699E3,1.598E3,4.931E3,1.666E3,7.21E2,2.59E2,9.48E2,8.11E2,2.3E2,3.883E3,4.818E3,1.152E4,3.12E2,7.5E2,1.559E3,3.409E3,5.357E3,3.114E3,3.733E3,7.643E3,7.6E2,3.195E3,2.93E2,1.79E2,2.18E2,1.81E2,1.08E2,1.642E3,5E1,2.12E2,2.96E2,7.69E2,5.444E3,1.11E3,3.89E2,1.7E2,3.69E2,1.62E2,6.44E2,1.02E2,1.538E3,2.1E2,6.74E2,2.025E3,4.06E2,1.192E3,1.657E3,3.274E3,2.29E2,1.437E3,2.44E2,4.77E2,4.7E1,2.12E2,5.89E2,3.59E2,4.56E2,3.55E2,6.5E1,1.65E2,3.399E3,4.84E2,9.69E2,3.849E3,2.399E3,9.121E3,6.2E1,2.5E2,4.49E2,3.01E2,7E2,8.59E2,2.951E3,4.58E2,3.306E3,2.051E3,2.502E3,6.12E2,1.603E3,2.13E3,3.231E3,4.412E3,4.35E2,3.25E2,1.983E3,1.212E3],"tree_param":{"num_deleted":"0","num_feature":"6","num_nodes":"127","size_leaf_vector":"0"}},{"base_weights":[-3.1823492E-1,-8.089507E-1,-7.344137E-2,-1.0411385E0,-6.2156385E-1,-3.8960266E-1,1.8230557E-1,-1.3414706E0,-9.41575E-1,-3.5145518E-1,-8.6357445E-1,-8.0119514E-1,-2.5066397E-1,5.819204E-1,-1.6800785E-1,-1.6489296E0,-1.2076179E0,-9.886289E-1,-6.1206734E-1,-6.633104E-1,-1.7034064E-1,-9.4741404E-1,-6.177334E-1,-1.1335139E0,-6.5883195E-1,-1.9668931E-1,-3.8558817E-1,1.5293849E-1,8.3345824E-1,-2.7586925E-1,1.4223157E-1,-3.7770433E0,-1.609803E0,-1.2793598E0,-9.980935E-1,-8.349154E-1,-1.0490113E0,-7.419054E-1,-5.567361E-1,-8.612394E-1,-4.6067742E-1,-4.047086E-1,2.2550915E-1,-7.5986284E-1,-1.0396506E0,-6.927855E-1,-3.993514E-1,-7.787234E-1,-1.5467685E0,-8.512135E-1,-6.117729E-1,-1.766871E-1,-5.027641E-1,-3.5985532E-1,-6.6429013E-1,-1.085144E-1,4.330729E-1,5.3932136E-1,1.339125E0,2.2095125E-2,-4.2138508E-1,-1.4216825E-1,2.0990555E-1,-1.3148366E0,-1.9442524E0,-1.0747987E0,-1.3195407E0,-1.379113E0,-9.693249E-1,-9.4373846E-1,-7.8951263E-1,-1.0950686E0,-8.6744475E-1,-8.447406E-2,-9.1688913E-1,-8.394898E-1,-4.8224413E-1,-1.077021E0,-7.8264856E-1,-5.219148E-1,1.7670955E-1,-5.7295406E-1,-2.4853489E-1,3.2430413E-1,-2.4511121E-1,-9.2781955E-1,-6.3784254E-1,-1.178859E0,-9.33646E-1,-8.6093616E-1,-5.753735E-1,-5.3546923E-1,-2.7373877E-1,-3.291312E-1,-1.4194993E0,-1.7583959E0,-1.3027532E0,-7.351929E-1,-9.799882E-1,-6.8413967E-1,-5.0124115E-1,-2.9172483E-1,-1.2882517E-1,-6.640603E-1,-4.33516E-1,-4.7085685E-1,-3.1336594E-1,-8.17659E-1,-1.9785692E-1,-4.0245947E-1,1.6748108E-3,2.9637286E-1,1.1237643E0,3.2145363E-1,7.5821036E-1,5.357925E-1,1.3958286E0,3.4554863E-1,-1.729582E-1,-3.8241145E-1,-6.979279E-1,-1.13247916E-1,-6.6062623E-1,2.4631932E-1,-3.090364E-1],"categories":[],"categories_nodes":[],"categories_segments":[],"categories_sizes":[],"default_left":[1,1,1,1,1,1,1,1,1,1,1,1,1,1,1,1,1,1,1,1,1,1,1,1,1,1,1,1,1,1,1,0,1,1,1,1,1,1,1,1,1,1,1,1,1,1,1,1,1,1,1,1,1,1,1,1,1,1,1,1,1,1,1,0,0,0,0,0,0,0,0,0,0,0,0,0,0,0,0,0,0,0,0,0,0,0,0,0,0,0,0,0,0,0,0,0,0,0,0,0,0,0,0,0,0,0,0,0,0,0,0,0,0,0,0,0,0,0,0,0,0,0,0,0,0],"id":1,"left_children":[1,3,5,7,9,11,13,15,17,19,21,23,25,27,29,31,33,35,37,39,41,43,45,47,49,51,53,55,57,59,61,-1,63,65,67,69,71,73,75,77,79,81,83,85,87,89,91,93,95,97,99,101,103,105,107,109,111,113,115,117,119,121,123,-1,-1,-1,-1,-1,-1,-1,-1,-1,-1,-1,-1,-1,-1,-1,-1,-1,-1,-1,-1,-1,-1,-1,-1,-1,-1,-1,-1,-1,-1,-1,-1,-1,-1,-1,-1,-1,-1,-1,-1,-1,-1,-1,-1,-1,-1,-1,-1,-1,-1,-1,-1,-1,-1,-1,-1,-1,-1,-1,-1,-1,-1],"loss_changes":[9.369979E3,1.1288887E3,4.208126E3,3.4539258E2,9.3898584E2,1.3306921E3,4.0277622E3,1.16697754E2,1.3444043E2,3.835094E2,1.5560693E2,2.7710474E2,1.2664673E2,1.4501187E3,5.130918E2,6.652734E1,2.8981934E1,6.984961E1,7.4248047E0,9.9670044E1,3.988361E2,9.693262E1,3.135608E1,2.5684448E2,3.672461E1,7.60159E1,3.5411987E1,3.6398627E2,1.2593628E3,4.9329932E2,7.616887E1,0E0,8.2086426E1,1.0878174E1,4.3411865E0,9.897461E0,4.476758E1,3.70804E1,1.5792496E1,2.0541687E1,4.82966E1,7.080151E1,7.442488E1,3.7650146E1,5.4739014E1,2.7835693E1,8.334091E0,2.729281E2,3.9641113E1,1.1321594E1,2.6125244E1,6.421661E1,8.223251E0,2.3347656E1,2.981195E1,8.327428E1,2.2617459E2,2.5527307E2,1.41146E2,2.3564037E2,8.211914E1,1.1335607E1,6.0469772E1,0E0,0E0,0E0,0E0,0E0,0E0,0E0,0E0,0E0,0E0,0E0,0E0,0E0,0E0,0E0,0E0,0E0,0E0,0E0,0E0,0E0,0E0,0E0,0E0,0E0,0E0,0E0,0E0,0E0,0E0,0E0,0E0,0E0,0E0,0E0,0E0,0E0,0E0,0E0,0E0,0E0,0E0,0E0,0E0,0E0,0E0,0E0,0E0,0E0,0E0,0E0,0E0,0E0,0E0,0E0,0E0,0E0,0E0,0E0,0E0,0E0,0E0],"parents":[2147483647,0,0,1,1,2,2,3,3,4,4,5,5,6,6,7,7,8,8,9,9,10,10,11,11,12,12,13,13,14,14,15,15,16,16,17,17,18,18,19,19,20,20,21,21,22,22,23,23,24,24,25,25,26,26,27,27,28,28,29,29,30,30,32,32,33,33,34,34,35,35,36,36,37,37,38,38,39,39,40,40,41,41,42,42,43,43,44,44,45,45,46,46,47,47,48,48,49,49,50,50,51,51,52,52,53,53,54,54,55,55,56,56,57,57,58,58,59,59,60,60,61,61,62,62],"right_children":[2,4,6,8,10,12,14,16,18,20,22,24,26,28,30,32,34,36,38,40,42,44,46,48,50,52,54,56,58,60,62,-1,64,66,68,70,72,74,76,78,80,82,84,86,88,90,92,94,96,98,100,102,104,106,108,110,112,114,116,118,120,122,124,-1,-1,-1,-1,-1,-1,-1,-1,-1,-1,-1,-1,-1,-1,-1,-1,-1,-1,-1,-1,-1,-1,-1,-1,-1,-1,-1,-1,-1,-1,-1,-1,-1,-1,-1,-1,-1,-1,-1,-1,-1,-1,-1,-1,-1,-1,-1,-1,-1,-1,-1,-1,-1,-1,-1,-1,-1,-1,-1,-1,-1,-1],"split_conditions":[7.5E0,5.5E0,5.5E0,2.0205E3,8.5E0,2.0205E3,8.5E0,2.5E0,6.5E0,6.5E0,5.5E0,2.5E0,4.5E0,6.5E0,1.15E1,2.0195E3,5.5E0,1.5E0,2.0215E3,2.0215E3,2.0215E3,1.5E0,1.15E1,1.5E0,6.5E0,2.25E1,2.85E1,2.0215E3,2.0215E3,9.5E0,2.0195E3,-1.133113E0,1.5E0,5E-1,2.5E0,2.0215E3,5.5E0,1.5E0,1.5E0,2.0195E3,2.75E1,7.5E0,2.45E1,2.0205E3,2.0205E3,2.0205E3,6.5E0,1.85E1,1.55E1,3.5E0,4.5E0,2.0215E3,2.0215E3,2.0215E3,4.5E0,2.0195E3,2.55E1,7.5E0,8.5E0,1.15E1,2.15E1,2.25E1,2.25E1,-3.94451E-1,-5.8327574E-1,-3.224396E-1,-3.9586225E-1,-4.137339E-1,-2.9079747E-1,-2.8312156E-1,-2.368538E-1,-3.285206E-1,-2.6023343E-1,-2.5342219E-2,-2.7506676E-1,-2.5184697E-1,-1.4467324E-1,-3.2310632E-1,-2.3479457E-1,-1.5657444E-1,5.3012867E-2,-1.7188622E-1,-7.456047E-2,9.7291246E-2,-7.353336E-2,-2.7834588E-1,-1.9135277E-1,-3.5365772E-1,-2.8009382E-1,-2.5828087E-1,-1.7261204E-1,-1.6064078E-1,-8.212163E-2,-9.873936E-2,-4.258498E-1,-5.275188E-1,-3.90826E-1,-2.2055788E-1,-2.9399648E-1,-2.052419E-1,-1.5037236E-1,-8.7517455E-2,-3.8647555E-2,-1.992181E-1,-1.300548E-1,-1.4125706E-1,-9.400979E-2,-2.4529772E-1,-5.9357077E-2,-1.2073784E-1,5.0244323E-4,8.891186E-2,3.371293E-1,9.643609E-2,2.2746311E-1,1.6073777E-1,4.187486E-1,1.0366459E-1,-5.188746E-2,-1.1472344E-1,-2.0937838E-1,-3.3974376E-2,-1.9818787E-1,7.38958E-2,-9.271093E-2],"split_indices":[3,1,1,0,1,0,1,1,3,1,3,1,5,1,1,0,3,3,0,0,0,3,1,1,2,3,2,0,0,1,0,0,1,3,2,0,3,1,1,0,2,1,2,0,0,0,3,2,2,5,1,0,0,0,1,0,2,1,3,2,3,3,3,0,0,0,0,0,0,0,0,0,0,0,0,0,0,0,0,0,0,0,0,0,0,0,0,0,0,0,0,0,0,0,0,0,0,0,0,0,0,0,0,0,0,0,0,0,0,0,0,0,0,0,0,0,0,0,0,0,0,0,0,0,0],"split_type":[0,0,0,0,0,0,0,0,0,0,0,0,0,0,0,0,0,0,0,0,0,0,0,0,0,0,0,0,0,0,0,0,0,0,0,0,0,0,0,0,0,0,0,0,0,0,0,0,0,0,0,0,0,0,0,0,0,0,0,0,0,0,0,0,0,0,0,0,0,0,0,0,0,0,0,0,0,0,0,0,0,0,0,0,0,0,0,0,0,0,0,0,0,0,0,0,0,0,0,0,0,0,0,0,0,0,0,0,0,0,0,0,0,0,0,0,0,0,0,0,0,0,0,0,0],"sum_hessian":[7.8002E4,2.596E4,5.2042E4,1.1592E4,1.4368E4,2.3272E4,2.877E4,2.883E3,8.709E3,6.791E3,7.577E3,5.872E3,1.74E4,1.3439E4,1.5331E4,8.71E2,2.012E3,7.619E3,1.09E3,2.494E3,4.297E3,5.648E3,1.929E3,1.759E3,4.113E3,1.243E4,4.97E3,4.968E3,8.471E3,1.1376E4,3.955E3,1.4E1,8.57E2,1.495E3,5.17E2,2.153E3,5.466E3,3.22E2,7.68E2,1.26E3,1.234E3,2.699E3,1.598E3,1.865E3,3.783E3,1.434E3,4.95E2,9.48E2,8.11E2,8.05E2,3.308E3,1.1669E4,7.61E2,4.552E3,4.18E2,2.57E3,2.398E3,5.357E3,3.114E3,3.733E3,7.643E3,7.6E2,3.195E3,4.58E2,3.99E2,2.5E2,1.245E3,3.3E1,4.84E2,6.28E2,1.525E3,4.356E3,1.11E3,6.8E1,2.54E2,1.58E2,6.1E2,3.33E2,9.27E2,1.126E3,1.08E2,1.298E3,1.401E3,1.321E3,2.77E2,7.82E2,1.083E3,1.631E3,2.152E3,5.87E2,8.47E2,2.36E2,2.59E2,5.58E2,3.9E2,4.31E2,3.8E2,4.27E2,3.78E2,1.996E3,1.312E3,3.427E3,8.242E3,2.26E2,5.35E2,1.341E3,3.211E3,3.14E2,1.04E2,7E2,1.87E3,2.003E3,3.95E2,2.686E3,2.671E3,2.06E2,2.908E3,1.404E3,2.329E3,6.701E3,9.42E2,7.21E2,3.9E1,2.986E3,2.09E2],"tree_param":{"num_deleted":"0","num_feature":"6","num_nodes":"125","size_leaf_vector":"0"}},{"base_weights":[-2.2290064E-1,-6.028806E-1,-6.740502E-2,-7.6353633E-1,-4.727032E-1,-2.85684E-1,1.0885253E-1,-9.7915506E-1,-6.9218576E-1,-2.8458482E-1,-6.4136213E-1,-5.677654E-1,-1.9049217E-1,3.8341805E-1,-1.320891E-1,-1.2057124E0,-8.792263E-1,-5.205118E-1,-7.199984E-1,-5.2739334E-1,-1.5119122E-1,-8.3260614E-1,-5.9432334E-1,-7.9429317E-1,-4.71144E-1,-3.7741056E-1,-1.6570763E-1,7.671212E-2,5.5718845E-1,-2.0650946E-1,8.154545E-2,-2.7055964E0,-1.176303E0,-1.042162E0,-8.3879375E-1,-4.3956655E-1,-5.9651005E-1,-8.116378E-1,-6.6137356E-1,-7.090274E-1,-2.0997217E-1,-4.2392373E-1,2.7390067E-2,-8.789419E-1,-7.0024186E-1,-4.3380553E-1,-6.4897895E-1,-4.008866E0,-7.5548965E-1,-4.52132E-1,-7.64375E-1,-3.4023732E-1,-5.9213245E-1,-1.4158441E-1,-3.2514727E-1,-1.4835095E-1,5.1162916E-1,2.2159208E-1,7.799826E-1,-1.62736E-3,-3.0684373E-1,5.5872933E-3,2.5532055E-1,-9.7775406E-1,-1.4020467E0,-1.3357757E0,-9.5104295E-1,-8.955261E-1,-7.560188E-1,-4.758177E-1,-3.8108033E-1,-7.296799E-1,-5.7145715E-1,-7.360371E-1,-8.982925E-1,-7.450276E-1,-5.156276E-1,-8.1458646E-1,-4.318017E-1,-1.4107013E-1,-7.821555E-1,-2.8105082E-2,-4.8809716E-1,5.2284706E-1,-5.5450164E-2,-7.51723E-1,-9.382633E-1,-5.775278E-1,-7.464693E-1,-1.298107E-1,-5.9356546E-1,-7.5768816E-1,-4.3320253E-1,-4.6735534E-1,-1.0835738E0,-7.6804703E-1,-4.3321687E-1,-6.2626153E-1,-7.9756534E-1,-4.2594093E-1,-2.5209588E-1,-8.8710624E-1,-5.796752E-1,-1.1544531E-1,-2.969544E-1,-4.3826658E-1,-2.782408E-1,-2.4622011E-1,3.7280518E-1,6.1143506E-1,-3.8782227E-1,-1.3130147E-3,4.1302755E-1,9.2235E-1,4.520004E-1,-2.3299745E-1,1.7025407E-1,-4.2346683E-1,-2.2100534E-1,-6.928256E-2,2.5770766E-1,-6.3665174E-2,2.979647E-1],"categories":[],"categories_nodes":[],"categories_segments":[],"categories_sizes":[],"default_left":[1,1,1,1,1,1,1,1,1,1,1,1,1,1,1,1,1,1,1,1,1,1,1,1,1,1,1,1,1,1,1,0,1,1,1,1,1,1,1,1,1,1,1,1,1,1,1,0,1,1,1,1,1,1,1,1,1,1,1,1,1,1,1,0,0,0,0,0,0,0,0,0,0,0,0,0,0,0,0,0,0,0,0,0,0,0,0,0,0,0,0,0,0,0,0,0,0,0,0,0,0,0,0,0,0,0,0,0,0,0,0,0,0,0,0,0,0,0,0,0,0,0,0],"id":2,"left_children":[1,3,5,7,9,11,13,15,17,19,21,23,25,27,29,31,33,35,37,39,41,43,45,47,49,51,53,55,57,59,61,-1,63,65,67,69,71,73,75,77,79,81,83,85,87,89,91,-1,93,95,97,99,101,103,105,107,109,111,113,115,117,119,121,-1,-1,-1,-1,-1,-1,-1,-1,-1,-1,-1,-1,-1,-1,-1,-1,-1,-1,-1,-1,-1,-1,-1,-1,-1,-1,-1,-1,-1,-1,-1,-1,-1,-1,-1,-1,-1,-1,-1,-1,-1,-1,-1,-1,-1,-1,-1,-1,-1,-1,-1,-1,-1,-1,-1,-1,-1,-1,-1,-1],"loss_changes":[4.6087837E3,4.7335645E2,2.1296445E3,1.552749E2,3.9689136E2,6.6391113E2,2.0260253E3,5.5946533E1,3.600879E1,1.9159897E2,5.8860107E1,1.3618164E2,8.5600464E1,7.6284204E2,2.5935742E2,3.0694336E1,1.0661377E1,6.2955017E0,3.467871E1,1.2081024E2,1.861131E2,7.357605E0,4.620752E1,2.2948071E2,2.405017E1,1.707138E1,6.27547E1,5.0691806E2,6.829907E2,2.486944E2,5.563504E1,0E0,3.2469116E1,7.932892E0,5.9349365E0,9.211731E-1,1.407959E0,1.6063965E1,4.8421387E1,3.8685913E1,3.0049484E1,3.839267E1,9.48401E1,6.5321655E0,1.5089874E0,6.543877E1,9.234985E1,0E0,1.7371655E2,2.4238892E1,7.1528625E-1,1.384494E1,6.54274E-1,5.757022E1,1.1259491E1,1.7417224E2,1.5877188E2,1.5562514E2,2.5597949E2,1.5823767E2,8.1203674E1,5.540067E1,1.745784E1,0E0,0E0,0E0,0E0,0E0,0E0,0E0,0E0,0E0,0E0,0E0,0E0,0E0,0E0,0E0,0E0,0E0,0E0,0E0,0E0,0E0,0E0,0E0,0E0,0E0,0E0,0E0,0E0,0E0,0E0,0E0,0E0,0E0,0E0,0E0,0E0,0E0,0E0,0E0,0E0,0E0,0E0,0E0,0E0,0E0,0E0,0E0,0E0,0E0,0E0,0E0,0E0,0E0,0E0,0E0,0E0,0E0,0E0,0E0,0E0],"parents":[2147483647,0,0,1,1,2,2,3,3,4,4,5,5,6,6,7,7,8,8,9,9,10,10,11,11,12,12,13,13,14,14,15,15,16,16,17,17,18,18,19,19,20,20,21,21,22,22,23,23,24,24,25,25,26,26,27,27,28,28,29,29,30,30,32,32,33,33,34,34,35,35,36,36,37,37,38,38,39,39,40,40,41,41,42,42,43,43,44,44,45,45,46,46,48,48,49,49,50,50,51,51,52,52,53,53,54,54,55,55,56,56,57,57,58,58,59,59,60,60,61,61,62,62],"right_children":[2,4,6,8,10,12,14,16,18,20,22,24,26,28,30,32,34,36,38,40,42,44,46,48,50,52,54,56,58,60,62,-1,64,66,68,70,72,74,76,78,80,82,84,86,88,90,92,-1,94,96,98,100,102,104,106,108,110,112,114,116,118,120,122,-1,-1,-1,-1,-1,-1,-1,-1,-1,-1,-1,-1,-1,-1,-1,-1,-1,-1,-1,-1,-1,-1,-1,-1,-1,-1,-1,-1,-1,-1,-1,-1,-1,-1,-1,-1,-1,-1,-1,-1,-1,-1,-1,-1,-1,-1,-1,-1,-1,-1,-1,-1,-1,-1,-1,-1,-1,-1,-1,-1],"split_conditions":[6.5E0,5.5E0,5.5E0,2.0205E3,8.5E0,2.0205E3,8.5E0,2.5E0,5E-1,2.0205E3,2.0195E3,2.5E0,8.5E0,2.0205E3,1.15E1,2.0195E3,6.5E0,2.25E1,2.5E0,7.5E0,6.5E0,1.15E1,9.5E0,2.0195E3,2.25E1,5.5E0,2.15E1,7.5E0,6.5E0,9.5E0,2.0215E3,-8.1167895E-1,1.5E0,1.5E0,4.5E0,2.0225E3,5E-1,1.5E0,2.0225E3,2.25E1,2.85E1,5E-1,5E-1,9.5E0,1.5E0,1.05E1,1.15E1,-1.2026598E0,1.5E0,2.5E0,7.5E0,2.25E1,1.5E0,5.5E0,2.0215E3,2.65E1,2.85E1,1.45E1,4.5E0,2.0205E3,2.0205E3,2.45E1,8.5E0,-2.9332623E-1,-4.2061403E-1,-4.0073273E-1,-2.853129E-1,-2.6865783E-1,-2.2680566E-1,-1.4274532E-1,-1.143241E-1,-2.1890397E-1,-1.7143714E-1,-2.2081113E-1,-2.6948777E-1,-2.2350828E-1,-1.546883E-1,-2.4437594E-1,-1.2954052E-1,-4.232104E-2,-2.3464666E-1,-8.431525E-3,-1.4642915E-1,1.5685412E-1,-1.663505E-2,-2.255169E-1,-2.81479E-1,-1.7325835E-1,-2.239408E-1,-3.8943212E-2,-1.7806965E-1,-2.2730646E-1,-1.2996076E-1,-1.402066E-1,-3.2507217E-1,-2.3041412E-1,-1.2996507E-1,-1.8787847E-1,-2.3926961E-1,-1.2778229E-1,-7.5628765E-2,-2.6613188E-1,-1.7390257E-1,-3.4633595E-2,-8.9086324E-2,-1.3147998E-1,-8.3472244E-2,-7.386604E-2,1.1184156E-1,1.8343052E-1,-1.1634669E-1,-3.9390443E-4,1.23908274E-1,2.76705E-1,1.3560013E-1,-6.989924E-2,5.1076222E-2,-1.2704006E-1,-6.630161E-2,-2.078477E-2,7.73123E-2,-1.9099552E-2,8.938941E-2],"split_indices":[3,1,1,0,1,0,1,1,3,0,0,1,3,0,1,0,2,4,1,1,1,1,1,0,3,5,3,1,1,1,0,0,1,5,1,0,5,1,0,2,2,3,3,1,3,2,1,0,1,2,4,4,2,5,0,2,2,2,5,0,0,2,3,0,0,0,0,0,0,0,0,0,0,0,0,0,0,0,0,0,0,0,0,0,0,0,0,0,0,0,0,0,0,0,0,0,0,0,0,0,0,0,0,0,0,0,0,0,0,0,0,0,0,0,0,0,0,0,0,0,0,0,0],"split_type":[0,0,0,0,0,0,0,0,0,0,0,0,0,0,0,0,0,0,0,0,0,0,0,0,0,0,0,0,0,0,0,0,0,0,0,0,0,0,0,0,0,0,0,0,0,0,0,0,0,0,0,0,0,0,0,0,0,0,0,0,0,0,0,0,0,0,0,0,0,0,0,0,0,0,0,0,0,0,0,0,0,0,0,0,0,0,0,0,0,0,0,0,0,0,0,0,0,0,0,0,0,0,0,0,0,0,0,0,0,0,0,0,0,0,0,0,0,0,0,0,0,0,0],"sum_hessian":[7.8002E4,2.265E4,5.5352E4,1.0136E4,1.2514E4,2.4728E4,3.0624E4,2.517E3,7.619E3,5.917E3,6.597E3,6.238E3,1.849E4,1.4313E4,1.6311E4,7.67E2,1.75E3,1.065E3,6.554E3,2.097E3,3.82E3,1.299E3,5.298E3,1.863E3,4.375E3,2.163E3,1.6327E4,5.177E3,9.136E3,1.2097E4,4.214E3,1.3E1,7.54E2,3.43E2,1.407E3,5.19E2,5.46E2,2.552E3,4.002E3,1.333E3,7.64E2,1.511E3,2.309E3,9.58E2,3.41E2,1.348E3,3.95E3,2.1E1,1.842E3,4.111E3,2.64E2,1.846E3,3.17E2,1.4183E4,2.144E3,3.412E3,1.765E3,3.646E3,5.49E3,3.977E3,8.12E3,2.933E3,1.281E3,4.04E2,3.5E2,7.8E1,2.65E2,8.29E2,5.78E2,3.16E2,2.03E2,8.2E1,4.64E2,1.368E3,1.184E3,2.54E3,1.462E3,9.64E2,3.69E2,6.83E2,8.1E1,2.11E2,1.3E3,3.3E2,1.979E3,3.09E2,6.49E2,9.7E1,2.44E2,4.65E2,8.83E2,2.625E3,1.325E3,9.82E2,8.6E2,2.3E2,3.881E3,5.5E1,2.09E2,9.34E2,9.12E2,1E1,3.07E2,1.2142E4,2.041E3,6.26E2,1.518E3,2.873E3,5.39E2,1.589E3,1.76E2,1.685E3,1.961E3,3.827E3,1.663E3,1.695E3,2.282E3,3.441E3,4.679E3,2.262E3,6.71E2,1.51E2,1.13E3],"tree_param":{"num_deleted":"0","num_feature":"6","num_nodes":"123","size_leaf_vector":"0"}},{"base_weights":[-1.5614901E-1,-3.8715872E-1,-1.791489E-2,-4.8882154E-1,-3.0541018E-1,-1.834793E-1,1.1632618E-1,-6.483738E-1,-4.3606046E-1,-1.8635274E-1,-4.1236827E-1,-3.8281974E-1,-1.1601607E-1,3.2547122E-1,-6.644934E-2,-7.608553E-1,-5.559615E-1,-4.8472896E-1,-2.6448473E-1,-3.0063772E-1,-2.6610047E-2,-4.7077897E-1,-2.9761508E-1,-5.4596406E-1,-3.13331E-1,-1.555275E-1,-4.8813716E-2,4.7748607E-1,9.186214E-2,-2.3055011E-2,-3.467674E-1,-2.0061867E0,-7.4648994E-1,-8.687464E-1,-5.344125E-1,-3.9850685E-1,-5.1861185E-1,-2.2147186E-1,-3.6633667E-1,-4.417948E-1,-2.3518366E-1,-2.2083916E-1,1.23300076E-1,-2.5479874E-1,-5.1328945E-1,-2.3353258E-1,-4.5446777E-1,-2.9083366E0,-5.16643E-1,-2.791723E-1,-4.496938E-1,2.7595717E-1,-2.657768E-1,-6.2224376E-1,1.0346323E-1,2.2758321E-1,6.243575E-1,-6.70156E-2,3.2089826E-1,-2.220679E-1,2.5152542E-2,-2.2159104E-1,-4.7593537E-1,-6.594189E-1,-8.596161E-1,-2.9086363E0,-5.744744E-1,-5.877951E-1,-4.2850116E-1,-3.4868094E-1,-4.4505605E-1,-5.510675E-1,-3.90864E-1,-4.5252633E-1,-1.95169E-1,-3.4325695E-1,-5.2389264E-1,-5.68516E-1,-3.9297667E-1,-3.0022245E-2,-2.932714E-1,-3.516881E-1,-1.964403E-2,-3.1733426E-1,1.8213987E-1,-7.4580275E-2,-3.1078985E-1,-5.930272E-1,-4.5349538E-1,-3.3306366E-1,-1.3190623E-1,-5.221249E-1,-3.8322693E-1,-3.1447682E-1,-7.487992E-1,-2.360664E-1,-3.8475412E-1,-4.0370643E-1,-5.366743E-1,6.8603116E-1,-2.8565535E-1,-5.667006E-1,-2.0364723E-1,3.1754026E-1,-8.861968E-1,3.919655E-1,1.3599428E-2,3.4260845E-1,-7.583714E-2,4.6124226E-1,9.03367E-1,4.917479E-3,-4.459456E-1,9.153994E-2,4.9916327E-1,-5.59351E-1,-1.8670553E-1,8.504681E-2,-1.3025957E-1,-4.3580043E-1,-1.7092596E-1,-5.439409E-1,-2.828438E-1],"categories":[],"categories_nodes":[],"categories_segments":[],"categories_sizes":[],"default_left":[1,1,1,1,1,1,1,1,1,1,1,1,1,1,1,1,1,1,1,1,1,1,1,1,1,1,1,1,1,1,1,0,1,1,1,1,1,1,1,1,1,1,1,1,1,1,1,0,1,1,1,1,1,1,1,1,1,1,1,1,1,1,1,0,0,0,0,0,0,0,0,0,0,0,0,0,0,0,0,0,0,0,0,0,0,0,0,0,0,0,0,0,0,0,0,0,0,0,0,0,0,0,0,0,0,0,0,0,0,0,0,0,0,0,0,0,0,0,0,0,0,0,0],"id":3,"left_children":[1,3,5,7,9,11,13,15,17,19,21,23,25,27,29,31,33,35,37,39,41,43,45,47,49,51,53,55,57,59,61,-1,63,65,67,69,71,73,75,77,79,81,83,85,87,89,91,-1,93,95,97,99,101,103,105,107,109,111,113,115,117,119,121,-1,-1,-1,-1,-1,-1,-1,-1,-1,-1,-1,-1,-1,-1,-1,-1,-1,-1,-1,-1,-1,-1,-1,-1,-1,-1,-1,-1,-1,-1,-1,-1,-1,-1,-1,-1,-1,-1,-1,-1,-1,-1,-1,-1,-1,-1,-1,-1,-1,-1,-1,-1,-1,-1,-1,-1,-1,-1,-1,-1],"loss_changes":[2.490896E3,2.4254248E2,1.0846722E3,1.09270996E2,2.0607654E2,2.9382465E2,1.0302665E3,3.3172607E1,8.156287E1,1.3988916E2,5.701477E1,6.2464172E1,4.3347534E1,4.4630713E2,1.7494989E2,2.4531921E1,1.1519775E1,2.205481E1,9.399246E0,4.116809E1,9.311398E1,5.1734985E1,2.8832169E1,1.1271936E2,1.793341E1,4.8919727E2,5.280895E2,2.793192E2,1.803641E2,1.195075E2,3.1067932E1,0E0,1.3617126E1,6.6160995E1,9.167419E0,4.8406982E0,2.245166E1,9.17363E0,2.151062E0,8.524017E0,3.638681E1,3.6665443E1,4.6855743E1,9.371201E0,2.223059E1,2.0651306E1,3.819748E0,0E0,7.626715E1,1.403154E1,2.8833466E0,4.8221942E2,1.5300702E2,3.1506808E2,1.2389461E2,9.844679E1,2.17807E2,7.9785194E1,8.295404E1,2.8866554E1,9.335467E1,1.0572247E1,1.2294601E1,0E0,0E0,0E0,0E0,0E0,0E0,0E0,0E0,0E0,0E0,0E0,0E0,0E0,0E0,0E0,0E0,0E0,0E0,0E0,0E0,0E0,0E0,0E0,0E0,0E0,0E0,0E0,0E0,0E0,0E0,0E0,0E0,0E0,0E0,0E0,0E0,0E0,0E0,0E0,0E0,0E0,0E0,0E0,0E0,0E0,0E0,0E0,0E0,0E0,0E0,0E0,0E0,0E0,0E0,0E0,0E0,0E0,0E0,0E0,0E0],"parents":[2147483647,0,0,1,1,2,2,3,3,4,4,5,5,6,6,7,7,8,8,9,9,10,10,11,11,12,12,13,13,14,14,15,15,16,16,17,17,18,18,19,19,20,20,21,21,22,22,23,23,24,24,25,25,26,26,27,27,28,28,29,29,30,30,32,32,33,33,34,34,35,35,36,36,37,37,38,38,39,39,40,40,41,41,42,42,43,43,44,44,45,45,46,46,48,48,49,49,50,50,51,51,52,52,53,53,54,54,55,55,56,56,57,57,58,58,59,59,60,60,61,61,62,62],"right_children":[2,4,6,8,10,12,14,16,18,20,22,24,26,28,30,32,34,36,38,40,42,44,46,48,50,52,54,56,58,60,62,-1,64,66,68,70,72,74,76,78,80,82,84,86,88,90,92,-1,94,96,98,100,102,104,106,108,110,112,114,116,118,120,122,-1,-1,-1,-1,-1,-1,-1,-1,-1,-1,-1,-1,-1,-1,-1,-1,-1,-1,-1,-1,-1,-1,-1,-1,-1,-1,-1,-1,-1,-1,-1,-1,-1,-1,-1,-1,-1,-1,-1,-1,-1,-1,-1,-1,-1,-1,-1,-1,-1,-1,-1,-1,-1,-1,-1,-1,-1,-1,-1,-1],"split_conditions":[8.5E0,5.5E0,5.5E0,2.0205E3,8.5E0,2.0205E3,8.5E0,3.5E0,6.5E0,2.0215E3,5.5E0,2.5E0,2.0225E3,1.75E1,2.15E1,2.0195E3,2.5E0,1.5E0,4.5E0,6.5E0,6.5E0,5E-1,4.5E0,2.0195E3,2.05E1,1.5E0,1.5E0,6.5E0,2.0215E3,2.0195E3,2.25E1,-6.0185605E-1,1.75E1,1.5E0,5.5E0,2.25E1,5.5E0,3.5E0,2.75E1,8.5E0,1.5E0,1.85E1,3.5E0,9.5E0,2.0205E3,2.25E1,2.25E1,-8.72501E-1,1.5E0,4.5E0,2.25E1,1.85E1,5.5E0,7.5E0,2.5E0,4.5E0,2.0215E3,2.25E1,6.5E0,3.5E0,4.5E0,2.0195E3,1.15E1,-1.9782567E-1,-2.5788483E-1,-8.7259096E-1,-1.7234233E-1,-1.7633852E-1,-1.2855035E-1,-1.0460429E-1,-1.3351682E-1,-1.6532025E-1,-1.1725921E-1,-1.3575791E-1,-5.8550704E-2,-1.0297709E-1,-1.5716779E-1,-1.7055482E-1,-1.17893E-1,-9.0066735E-3,-8.798142E-2,-1.0550643E-1,-5.893209E-3,-9.5200285E-2,5.4641966E-2,-2.2374082E-2,-9.323696E-2,-1.7790815E-1,-1.3604861E-1,-9.99191E-2,-3.957187E-2,-1.5663747E-1,-1.14968084E-1,-9.434305E-2,-2.2463977E-1,-7.081992E-2,-1.1542624E-1,-1.2111194E-1,-1.6100231E-1,2.0580935E-1,-8.569661E-2,-1.7001018E-1,-6.109417E-2,9.526208E-2,-2.6585904E-1,1.1758966E-1,4.0798285E-3,1.0278254E-1,-2.2751143E-2,1.3837269E-1,2.710101E-1,1.4752438E-3,-1.3378368E-1,2.7461983E-2,1.4974898E-1,-1.6780531E-1,-5.6011662E-2,2.5514046E-2,-3.9077874E-2,-1.3074014E-1,-5.127779E-2,-1.6318227E-1,-8.485314E-2],"split_indices":[3,1,1,0,1,0,1,1,3,0,3,1,0,3,3,0,2,3,5,1,1,3,5,0,3,1,1,1,0,0,3,0,2,5,3,4,3,2,2,2,3,2,2,1,0,4,4,0,1,5,3,2,2,2,1,5,0,3,1,2,5,0,1,0,0,0,0,0,0,0,0,0,0,0,0,0,0,0,0,0,0,0,0,0,0,0,0,0,0,0,0,0,0,0,0,0,0,0,0,0,0,0,0,0,0,0,0,0,0,0,0,0,0,0,0,0,0,0,0,0,0,0,0],"split_type":[0,0,0,0,0,0,0,0,0,0,0,0,0,0,0,0,0,0,0,0,0,0,0,0,0,0,0,0,0,0,0,0,0,0,0,0,0,0,0,0,0,0,0,0,0,0,0,0,0,0,0,0,0,0,0,0,0,0,0,0,0,0,0,0,0,0,0,0,0,0,0,0,0,0,0,0,0,0,0,0,0,0,0,0,0,0,0,0,0,0,0,0,0,0,0,0,0,0,0,0,0,0,0,0,0,0,0,0,0,0,0,0,0,0,0,0,0,0,0,0,0,0,0],"sum_hessian":[7.8002E4,2.9201E4,4.8801E4,1.3013E4,1.6188E4,2.1851E4,2.695E4,3.231E3,9.782E3,7.662E3,8.526E3,5.524E3,1.6327E4,1.2568E4,1.4382E4,1.454E3,1.777E3,7.619E3,2.163E3,4.466E3,3.196E3,5.648E3,2.878E3,1.648E3,3.876E3,1.0281E4,6.046E3,7.613E3,4.955E3,1.2455E4,1.927E3,1.5E1,1.439E3,1.12E2,1.665E3,2.153E3,5.466E3,1.523E3,6.4E2,1.413E3,3.053E3,1.392E3,1.804E3,9.3E2,4.718E3,2.045E3,8.33E2,1.9E1,1.629E3,3.102E3,7.74E2,2.092E3,8.189E3,1.268E3,4.778E3,2.819E3,4.794E3,2.926E3,2.029E3,2.428E3,1.0027E4,9.8E2,9.47E2,8.17E2,6.22E2,1.3E1,9.9E1,1.104E3,5.61E2,1.044E3,1.109E3,4.356E3,1.11E3,1.54E2,1.369E3,5.61E2,7.9E1,3.9E2,1.023E3,6.74E2,2.379E3,8.43E2,5.49E2,2.12E2,1.592E3,2.21E2,7.09E2,2.018E3,2.7E3,1.032E3,1.013E3,4.24E2,4.09E2,8.72E2,7.57E2,2.205E3,8.97E2,5.1E2,2.64E2,1.209E3,8.83E2,1.4E3,6.789E3,2.78E2,9.9E2,1.134E3,3.644E3,2.044E3,7.75E2,3.027E3,1.767E3,2.46E3,4.66E2,8.88E2,1.141E3,2.29E2,2.199E3,7.238E3,2.789E3,1.86E2,7.94E2,6.99E2,2.48E2],"tree_param":{"num_deleted":"0","num_feature":"6","num_nodes":"123","size_leaf_vector":"0"}},{"base_weights":[-1.0939037E-1,-2.7117413E-1,-1.2580434E-2,-3.6359882E-1,-2.2616439E-1,-1.2851878E-1,8.14234E-2,-5.3332555E-1,-3.3309612E-1,-3.05342E-1,-1.4757419E-1,-2.6827425E-1,-8.122104E-2,2.2787239E-1,-4.656094E-2,-1.4419467E0,-5.228594E-1,-3.5093978E-1,-1.9415338E-1,-3.393786E-1,-1.853493E-1,-6.9672726E-2,-2.7892637E-1,-3.828974E-1,-2.1945252E-1,-5.0665814E-2,-1.5764739E-1,3.1847894E-1,5.1807454E-3,-9.7964846E-2,1.0150652E-1,-4.0594098E-1,-5.8731955E-1,-3.1856707E-1,-4.477367E-1,-3.2180986E-1,-8.6414136E-2,-4.182997E-1,-3.0619144E-1,-2.193984E-1,-8.3799094E-2,1.1779569E-1,-1.2343218E-1,-3.4366566E-1,-1.5346831E-1,-2.0794609E0,-3.6184576E-1,-6.55527E-2,-2.4274428E-1,6.1292797E-2,-7.849428E-2,-1.4566036E-1,-4.2440966E-1,4.6839854E-1,1.4334998E-1,-3.446239E-1,7.8748584E-2,5.7196748E-2,-1.73576E-1,1.3559353E-1,-1.16893835E-1,-1.707563E-2,-8.7651163E-1,-7.2696644E-1,-4.5204052E-1,-3.7873664E-1,-2.0473543E-1,-6.9663745E-1,-4.0894797E-1,-3.3711797E-1,-1.4247678E-1,-2.1062735E-1,3.425497E-2,4.7981437E-2,-5.49278E-1,-5.079102E-1,-2.527679E-1,-2.8459114E-1,-1.7794779E-1,-5.7428326E-2,-2.2989388E-1,-1.4220881E-2,1.8064232E-1,-2.3720309E-1,-7.096477E-2,-3.924818E-1,-2.4722748E-1,-2.6292974E-1,-5.4736774E-2,-2.1257086E-1,-5.54973E-1,-4.7700596E-1,-4.8693717E-2,-3.3231506E-1,-2.1560955E-1,-1.09198734E-1,9.4692685E-2,-2.2972365E-1,-6.113043E-2,-1.7349581E-1,-1.638597E-2,-5.403964E-1,2.2533731E-1,2.597818E-1,5.9528065E-1,-4.4355374E-2,2.4884881E-1,-6.308842E-1,-9.692127E-2,-1.5910715E-1,1.5226723E-1,3.4026444E-1,-6.730204E-2,-2.3899005E-1,-1.0630253E-1,9.412969E-2,3.3398604E-1,-2.0849563E-1,-8.924216E-3],"categories":[],"categories_nodes":[],"categories_segments":[],"categories_sizes":[],"default_left":[1,1,1,1,1,1,1,1,1,1,1,1,1,1,1,0,1,1,1,1,1,1,1,1,1,1,1,1,1,1,1,1,1,1,1,1,1,1,1,1,1,1,1,1,1,0,1,1,1,1,1,1,1,1,1,1,1,1,1,1,1,0,0,0,0,0,0,0,0,0,0,0,0,0,0,0,0,0,0,0,0,0,0,0,0,0,0,0,0,0,0,0,0,0,0,0,0,0,0,0,0,0,0,0,0,0,0,0,0,0,0,0,0,0,0,0,0,0,0],"id":4,"left_children":[1,3,5,7,9,11,13,15,17,19,21,23,25,27,29,-1,31,33,35,37,39,41,43,45,47,49,51,53,55,57,59,61,63,65,67,69,71,73,75,77,79,81,83,85,87,-1,89,91,93,95,97,99,101,103,105,107,109,111,113,115,117,-1,-1,-1,-1,-1,-1,-1,-1,-1,-1,-1,-1,-1,-1,-1,-1,-1,-1,-1,-1,-1,-1,-1,-1,-1,-1,-1,-1,-1,-1,-1,-1,-1,-1,-1,-1,-1,-1,-1,-1,-1,-1,-1,-1,-1,-1,-1,-1,-1,-1,-1,-1,-1,-1,-1,-1,-1,-1],"loss_changes":[1.2217012E3,1.2139844E2,5.3188635E2,4.932605E1,1.2217261E2,1.4442249E2,5.0515793E2,1.3082794E1,2.003363E1,3.9892273E1,1.0086304E2,3.0834442E1,3.812155E1,2.5360718E2,1.0948248E2,0E0,1.0614258E1,2.2369019E1,1.2694283E1,1.9829956E1,7.464058E0,6.2398598E1,2.9755249E1,5.814232E1,1.3881577E1,3.6351826E1,1.4848999E1,2.3449738E2,9.359732E1,1.2527193E2,2.7613045E1,9.4224174E1,1.7164734E1,3.681909E1,1.7073944E1,1.1132088E0,7.546529E0,1.376232E2,5.772003E1,4.3270493E0,2.086482E0,1.145215E1,2.8701302E1,1.1295715E1,1.3505531E1,0E0,4.6873398E1,3.5214176E0,8.111771E0,1.3238426E1,2.4522583E1,1.6060463E1,1.5194183E1,1.2724414E2,8.163774E1,4.475235E1,5.257216E1,1.2333319E2,3.1566727E1,2.6349716E1,4.953136E0,0E0,0E0,0E0,0E0,0E0,0E0,0E0,0E0,0E0,0E0,0E0,0E0,0E0,0E0,0E0,0E0,0E0,0E0,0E0,0E0,0E0,0E0,0E0,0E0,0E0,0E0,0E0,0E0,0E0,0E0,0E0,0E0,0E0,0E0,0E0,0E0,0E0,0E0,0E0,0E0,0E0,0E0,0E0,0E0,0E0,0E0,0E0,0E0,0E0,0E0,0E0,0E0,0E0,0E0,0E0,0E0,0E0,0E0],"parents":[2147483647,0,0,1,1,2,2,3,3,4,4,5,5,6,6,7,7,8,8,9,9,10,10,11,11,12,12,13,13,14,14,16,16,17,17,18,18,19,19,20,20,21,21,22,22,23,23,24,24,25,25,26,26,27,27,28,28,29,29,30,30,31,31,32,32,33,33,34,34,35,35,36,36,37,37,38,38,39,39,40,40,41,41,42,42,43,43,44,44,46,46,47,47,48,48,49,49,50,50,51,51,52,52,53,53,54,54,55,55,56,56,57,57,58,58,59,59,60,60],"right_children":[2,4,6,8,10,12,14,16,18,20,22,24,26,28,30,-1,32,34,36,38,40,42,44,46,48,50,52,54,56,58,60,62,64,66,68,70,72,74,76,78,80,82,84,86,88,-1,90,92,94,96,98,100,102,104,106,108,110,112,114,116,118,-1,-1,-1,-1,-1,-1,-1,-1,-1,-1,-1,-1,-1,-1,-1,-1,-1,-1,-1,-1,-1,-1,-1,-1,-1,-1,-1,-1,-1,-1,-1,-1,-1,-1,-1,-1,-1,-1,-1,-1,-1,-1,-1,-1,-1,-1,-1,-1,-1,-1,-1,-1,-1,-1,-1,-1,-1,-1],"split_conditions":[8.5E0,2.0205E3,5.5E0,3.5E0,5.5E0,2.0205E3,8.5E0,2.0195E3,1.15E1,6.5E0,9.5E0,2.5E0,4.5E0,4.5E0,1.15E1,-4.3258405E-1,1.5E0,9.5E0,2.0195E3,2.0215E3,3.75E1,1.5E0,1.15E1,2.0195E3,1.05E1,1.15E1,2.95E1,1.65E1,2.0195E3,9.5E0,5.5E0,1.75E1,2.5E0,7.5E0,4.5E0,7.5E0,1.45E1,1.5E0,1.5E0,2.5E0,5.5E0,6.5E0,6.5E0,5.5E0,2.0215E3,-6.238383E-1,1.75E1,2.5E0,7.5E0,5.5E0,3.5E0,2.45E1,4.5E0,6.5E0,2.0205E3,1.45E1,7.5E0,9.5E0,1.05E1,2.65E1,1.65E1,-5.122689E-3,-2.629535E-1,-2.1808994E-1,-1.3561216E-1,-1.13621E-1,-6.142063E-2,-2.0899124E-1,-1.226844E-1,-1.01135395E-1,-4.2743035E-2,-6.318821E-2,1.0276491E-2,1.4394431E-2,-1.6478342E-1,-1.5237306E-1,-7.583037E-2,-8.537734E-2,-5.3384338E-2,-1.7228499E-2,-6.896817E-2,-4.2662644E-3,5.41927E-2,-7.116093E-2,-2.128943E-2,-1.1774454E-1,-7.416824E-2,-7.8878924E-2,-1.6421033E-2,-6.377126E-2,-1.6649191E-1,-1.431018E-1,-1.4608116E-2,-9.969452E-2,-6.468287E-2,-3.275962E-2,2.8407807E-2,-6.8917096E-2,-1.833913E-2,-5.2048746E-2,-4.9157916E-3,-1.6211893E-1,6.76012E-2,7.793455E-2,1.785842E-1,-1.3306613E-2,7.4654646E-2,-1.8926527E-1,-2.9076383E-2,-4.773215E-2,4.5680173E-2,1.0207934E-1,-2.0190613E-2,-7.169702E-2,-3.189076E-2,2.8238907E-2,1.0019582E-1,-6.254869E-2,-2.6772649E-3],"split_indices":[3,0,1,1,1,0,1,0,1,3,1,1,5,5,1,0,1,1,0,0,4,3,1,0,3,3,2,3,0,1,5,2,1,1,2,3,2,1,1,1,5,1,1,3,0,0,2,2,2,2,2,2,1,1,0,2,2,2,1,2,2,0,0,0,0,0,0,0,0,0,0,0,0,0,0,0,0,0,0,0,0,0,0,0,0,0,0,0,0,0,0,0,0,0,0,0,0,0,0,0,0,0,0,0,0,0,0,0,0,0,0,0,0,0,0,0,0,0,0],"split_type":[0,0,0,0,0,0,0,0,0,0,0,0,0,0,0,0,0,0,0,0,0,0,0,0,0,0,0,0,0,0,0,0,0,0,0,0,0,0,0,0,0,0,0,0,0,0,0,0,0,0,0,0,0,0,0,0,0,0,0,0,0,0,0,0,0,0,0,0,0,0,0,0,0,0,0,0,0,0,0,0,0,0,0,0,0,0,0,0,0,0,0,0,0,0,0,0,0,0,0,0,0,0,0,0,0,0,0,0,0,0,0,0,0,0,0,0,0,0,0],"sum_hessian":[7.8002E4,2.9201E4,4.8801E4,9.561E3,1.964E4,2.1851E4,2.695E4,1.454E3,8.107E3,9.782E3,9.858E3,5.524E3,1.6327E4,1.2568E4,1.4382E4,1.5E1,1.439E3,7.183E3,9.24E2,7.619E3,2.163E3,6.189E3,3.669E3,1.648E3,3.876E3,1.1665E4,4.662E3,8.933E3,3.635E3,1.0676E4,3.706E3,5.14E2,9.25E2,5.386E3,1.797E3,4.22E2,5.02E2,2.252E3,5.367E3,1.619E3,5.44E2,1.379E3,4.81E3,2.419E3,1.25E3,1.9E1,1.629E3,5.1E2,3.366E3,2.322E3,9.343E3,4.463E3,1.99E2,4.812E3,4.121E3,6.31E2,3.004E3,3.498E3,7.178E3,3.206E3,5E2,2.82E2,2.32E2,4.53E2,4.72E2,3.522E3,1.864E3,2.4E2,1.557E3,3.88E2,3.4E1,2.47E2,2.55E2,4.94E2,1.758E3,1.122E3,4.245E3,6.27E2,9.92E2,4.62E2,8.2E1,4.45E2,9.34E2,1.517E3,3.293E3,1.604E3,8.15E2,5.92E2,6.58E2,9.2E2,7.09E2,1.9E1,4.91E2,7.8E2,2.586E3,3.8E2,1.942E3,9.61E2,8.382E3,3.672E3,7.91E2,1.69E2,3E1,1.821E3,2.991E3,1.483E3,2.638E3,2.92E2,3.39E2,7.09E2,2.295E3,1.068E3,2.43E3,3.638E3,3.54E3,2.653E3,5.53E2,2.7E2,2.3E2],"tree_param":{"num_deleted":"0","num_feature":"6","num_nodes":"119","size_leaf_vector":"0"}},{"base_weights":[-7.662417E-2,-2.018468E-1,-1.4156963E-2,-5.738271E-2,-2.2201724E-1,-9.130496E-2,4.8248913E-2,-1.538144E-1,2.091494E-2,-2.5713298E-1,-1.3589148E-1,-1.5595233E-1,-3.333035E-2,2.1636559E-2,4.0085515E-1,-1.2542614E-1,-2.3134801E-1,1.602223E-1,-1.02853164E-1,-1.9457522E-1,-2.9944026E-1,-2.0608574E-1,-6.473527E-2,-3.1447405E-1,-7.490678E-2,4.021592E-2,-1.4248176E-1,4.299782E-2,-3.1022885E-1,2.5169036E-1,6.529064E-1,-2.6652206E-2,-1.5292469E-1,-3.753386E-1,-2.143014E-1,6.1883986E-2,2.9144305E-1,-1.9623394E-1,-3.367099E-2,-2.5691E-1,-1.4356405E-1,-4.0886614E-1,-2.782917E-1,-3.3863285E-1,-1.7931971E-1,-2.1402402E-1,-3.6133785E-2,6.8252206E-2,-7.490601E-1,-1.5376493E-1,2.7490618E-2,-1.3704956E-1,1.3511282E-1,-2.851845E-1,-1.1942832E-2,-1.3047421E-1,8.483901E-2,-2.1878754E-1,-4.0072504E-1,1.9559689E-1,7.420822E-1,7.6660186E-1,1.1969831E-1,2.551238E-1,-5.0701535E-1,-2.3499973E-1,5.0476506E-2,1.0744376E-3,-4.4380993E-1,-3.3525813E-1,-1.925161E-1,-1.3714983E-2,1.8881398E-1,1.3689284E-1,4.0441185E-1,-2.4119917E-1,-6.766624E-2,9.627936E-2,-7.21981E-2,-3.2270977E-1,-1.9606332E-1,-5.0398674E-2,-2.2828707E-1,-5.267082E-1,-3.170739E-1,-2.9791436E-1,-1.5499894E-1,-3.0752438E-1,-5.9599704E-1,-2.0549968E-1,-1.589323E-2,-1.1663923E-1,-3.2649636E-1,-6.2045824E-2,1.2885763E-1,4.7182295E-1,-2.270773E-1,-4.214605E-1,-1.0336758E0,-1.2305271E-1,-2.2993422E-1,-1.8941513E-1,6.0698994E-2,2.1495187E-1,-5.611538E-1,-7.0309825E-2,2.791093E-1,-4.3565875E-1,-2.5544846E-1,-6.755162E-2,4.3628642E-1,-1.9424643E-1,9.360078E-3,1.6090356E-1,-1.4805864E-2,-4.0860492E-1,-1.8761034E-1,-5.5771005E-1,-3.657617E-1,3.295626E-1,-3.0343094E-1,8.9801025E-1,5.266303E-1,4.205342E-1,9.48874E-1,2.2760777E-1,-9.6382596E-2],"categories":[],"categories_nodes":[],"categories_segments":[],"categories_sizes":[],"default_left":[1,1,1,1,1,1,1,1,1,1,1,1,1,1,1,1,1,1,1,1,1,1,1,1,1,1,1,1,1,1,1,1,1,1,1,1,1,1,1,1,1,1,1,1,1,1,1,1,1,1,1,1,1,1,1,1,1,1,1,1,1,1,1,0,0,0,0,0,0,0,0,0,0,0,0,0,0,0,0,0,0,0,0,0,0,0,0,0,0,0,0,0,0,0,0,0,0,0,0,0,0,0,0,0,0,0,0,0,0,0,0,0,0,0,0,0,0,0,0,0,0,0,0,0,0,0,0],"id":5,"left_children":[1,3,5,7,9,11,13,15,17,19,21,23,25,27,29,31,33,35,37,39,41,43,45,47,49,51,53,55,57,59,61,63,65,67,69,71,73,75,77,79,81,83,85,87,89,91,93,95,97,99,101,103,105,107,109,111,113,115,117,119,121,123,125,-1,-1,-1,-1,-1,-1,-1,-1,-1,-1,-1,-1,-1,-1,-1,-1,-1,-1,-1,-1,-1,-1,-1,-1,-1,-1,-1,-1,-1,-1,-1,-1,-1,-1,-1,-1,-1,-1,-1,-1,-1,-1,-1,-1,-1,-1,-1,-1,-1,-1,-1,-1,-1,-1,-1,-1,-1,-1,-1,-1,-1,-1,-1,-1],"loss_changes":[6.101605E2,7.563513E1,2.505648E2,2.4028511E1,6.886035E1,8.721985E1,2.6996924E2,3.1096725E0,3.0310339E1,4.276709E1,3.2952057E1,1.4133725E2,9.8513374E1,1.8966702E2,7.5744385E1,2.8370056E0,8.547478E-1,1.0653591E1,6.0079174E0,2.073021E1,2.2220642E1,1.172493E1,1.3993205E1,6.191221E2,5.8805428E1,1.2335702E2,9.20202E1,1.8245511E2,1.3301422E1,3.478972E1,4.5375732E1,3.1125605E1,1.3667686E1,1.0056429E0,8.392906E-1,4.5509877E0,6.125252E0,2.2729845E0,2.690495E0,1.1699585E1,2.8356842E1,1.6718292E1,1.9528625E1,4.2761726E0,1.1831062E1,5.7341995E0,1.1777798E1,2.3609613E2,1.620816E2,9.595711E0,2.2838081E1,3.8184314E2,1.4129434E2,1.0448563E1,6.436215E1,4.356401E1,1.5350125E2,4.6991463E0,4.2528534E0,7.637884E1,3.894432E0,3.8583466E1,3.1231215E0,0E0,0E0,0E0,0E0,0E0,0E0,0E0,0E0,0E0,0E0,0E0,0E0,0E0,0E0,0E0,0E0,0E0,0E0,0E0,0E0,0E0,0E0,0E0,0E0,0E0,0E0,0E0,0E0,0E0,0E0,0E0,0E0,0E0,0E0,0E0,0E0,0E0,0E0,0E0,0E0,0E0,0E0,0E0,0E0,0E0,0E0,0E0,0E0,0E0,0E0,0E0,0E0,0E0,0E0,0E0,0E0,0E0,0E0,0E0,0E0,0E0,0E0,0E0,0E0],"parents":[2147483647,0,0,1,1,2,2,3,3,4,4,5,5,6,6,7,7,8,8,9,9,10,10,11,11,12,12,13,13,14,14,15,15,16,16,17,17,18,18,19,19,20,20,21,21,22,22,23,23,24,24,25,25,26,26,27,27,28,28,29,29,30,30,31,31,32,32,33,33,34,34,35,35,36,36,37,37,38,38,39,39,40,40,41,41,42,42,43,43,44,44,45,45,46,46,47,47,48,48,49,49,50,50,51,51,52,52,53,53,54,54,55,55,56,56,57,57,58,58,59,59,60,60,61,61,62,62],"right_children":[2,4,6,8,10,12,14,16,18,20,22,24,26,28,30,32,34,36,38,40,42,44,46,48,50,52,54,56,58,60,62,64,66,68,70,72,74,76,78,80,82,84,86,88,90,92,94,96,98,100,102,104,106,108,110,112,114,116,118,120,122,124,126,-1,-1,-1,-1,-1,-1,-1,-1,-1,-1,-1,-1,-1,-1,-1,-1,-1,-1,-1,-1,-1,-1,-1,-1,-1,-1,-1,-1,-1,-1,-1,-1,-1,-1,-1,-1,-1,-1,-1,-1,-1,-1,-1,-1,-1,-1,-1,-1,-1,-1,-1,-1,-1,-1,-1,-1,-1,-1,-1,-1,-1,-1,-1,-1],"split_conditions":[7.5E0,5E-1,5.5E0,5.5E0,5.5E0,2.0215E3,2.0225E3,3.75E1,8.5E0,2.5E0,2.25E1,2.5E0,3.5E0,2.25E1,6.5E0,1.5E0,3.5E0,2.0215E3,2.0205E3,5.5E0,2.5E0,2.5E0,2.5E0,1.5E0,2.0205E3,1.5E0,2.0225E3,2.0195E3,2.25E1,2.75E1,5.5E0,1.85E1,2.0225E3,1.5E0,5E-1,7.5E0,6.5E0,1.15E1,7.5E0,2.0215E3,8.5E0,2.0215E3,2.0225E3,2.65E1,2.0225E3,1.5E0,2.0225E3,1.35E1,2.0205E3,4.5E0,4.5E0,1.75E1,1.25E1,5.5E0,2.75E1,2.15E1,9.5E0,6.5E0,2.0195E3,2.15E1,1.65E1,6.5E0,1.25E1,7.653714E-2,-1.5210462E-1,-7.049992E-2,1.5142952E-2,3.223313E-4,-1.3314298E-1,-1.00577444E-1,-5.7754833E-2,-4.114495E-3,5.6644198E-2,4.1067854E-2,1.2132356E-1,-7.2359756E-2,-2.0299872E-2,2.888381E-2,-2.165943E-2,-9.681293E-2,-5.8819E-2,-1.5119603E-2,-6.8486124E-2,-1.5801246E-1,-9.512218E-2,-8.937431E-2,-4.6499684E-2,-9.225732E-2,-1.7879912E-1,-6.1649907E-2,-4.7679693E-3,-3.499177E-2,-9.7948916E-2,-1.8613748E-2,3.865729E-2,1.4154689E-1,-6.812319E-2,-1.2643816E-1,-3.1010276E-1,-3.6915813E-2,-6.898027E-2,-5.682454E-2,1.82097E-2,6.4485565E-2,-1.6834615E-1,-2.1092948E-2,8.373279E-2,-1.3069764E-1,-7.663454E-2,-2.0265486E-2,1.3088593E-1,-5.827393E-2,2.8080235E-3,4.827107E-2,-4.441759E-3,-1.2258148E-1,-5.6283105E-2,-1.6731302E-1,-1.09728515E-1,9.886879E-2,-9.102929E-2,2.694031E-1,1.5798908E-1,1.2616026E-1,2.8466222E-1,6.8282336E-2,-2.891478E-2],"split_indices":[3,3,1,1,3,0,0,4,1,3,4,1,1,3,1,1,2,0,0,1,1,1,1,1,0,1,0,0,4,2,5,2,0,1,5,1,1,1,2,0,1,0,0,2,0,1,0,2,0,5,2,2,2,2,2,2,1,1,0,2,3,2,2,0,0,0,0,0,0,0,0,0,0,0,0,0,0,0,0,0,0,0,0,0,0,0,0,0,0,0,0,0,0,0,0,0,0,0,0,0,0,0,0,0,0,0,0,0,0,0,0,0,0,0,0,0,0,0,0,0,0,0,0,0,0,0,0],"split_type":[0,0,0,0,0,0,0,0,0,0,0,0,0,0,0,0,0,0,0,0,0,0,0,0,0,0,0,0,0,0,0,0,0,0,0,0,0,0,0,0,0,0,0,0,0,0,0,0,0,0,0,0,0,0,0,0,0,0,0,0,0,0,0,0,0,0,0,0,0,0,0,0,0,0,0,0,0,0,0,0,0,0,0,0,0,0,0,0,0,0,0,0,0,0,0,0,0,0,0,0,0,0,0,0,0,0,0,0,0,0,0,0,0,0,0,0,0,0,0,0,0,0,0,0,0,0,0],"sum_hessian":[7.8002E4,2.596E4,5.2042E4,3.181E3,2.2779E4,2.3272E4,2.877E4,1.425E3,1.756E3,1.618E4,6.599E3,1.1002E4,1.227E4,2.6752E4,2.018E3,1.045E3,3.8E2,8.26E2,9.3E2,6.53E3,9.65E3,3.321E3,3.278E3,3.721E3,7.281E3,7.331E3,4.939E3,2.5135E4,1.617E3,1.269E3,7.49E2,2.28E2,8.17E2,3.8E1,3.42E2,4.73E2,3.53E2,3.95E2,5.35E2,2.937E3,3.593E3,1.56E3,8.09E3,5.56E2,2.765E3,5.26E2,2.752E3,1.979E3,1.742E3,4.113E3,3.168E3,2.556E3,4.775E3,2.359E3,2.58E3,4.884E3,2.0251E4,8.06E2,8.11E2,1.14E3,1.29E2,6.17E2,1.32E2,1.44E2,8.4E1,5.82E2,2.35E2,6E0,3.2E1,5E1,2.92E2,2.97E2,1.76E2,1.5E2,2.03E2,2.92E2,1.03E2,1.22E2,4.13E2,1.409E3,1.528E3,1.712E3,1.881E3,6.81E2,8.79E2,6.978E3,1.112E3,4.98E2,5.8E1,2.383E3,3.82E2,2.83E2,2.43E2,2.379E3,3.73E2,8.36E2,1.143E3,8.11E2,9.31E2,2.933E3,1.18E3,4.2E2,2.748E3,1.397E3,1.159E3,1.968E3,2.807E3,3.87E2,1.972E3,2.296E3,2.84E2,3.354E3,1.53E3,1.1484E4,8.767E3,1.12E2,6.94E2,1.45E2,6.66E2,8.99E2,2.41E2,7.3E1,5.6E1,2.14E2,4.03E2,8.8E1,4.4E1],"tree_param":{"num_deleted":"0","num_feature":"6","num_nodes":"127","size_leaf_vector":"0"}},{"base_weights":[-5.3657416E-2,-1.3615024E-1,-4.2945025E-3,-1.9241834E-1,-1.08749814E-1,1.9939443E-2,-1.628275E-1,-7.976597E-2,-2.0615675E-1,-1.445135E-1,-5.5545654E-2,4.5177095E-2,-1.3289046E-1,-9.8936394E-2,-2.285915E-1,1.3586652E-2,-1.0991229E-1,-2.4252594E-1,-1.460767E-1,-2.366036E-1,-1.2180789E-1,5.3649984E-2,-1.2177142E-1,-3.038434E-2,1.0626411E-1,-2.0834833E-1,-9.567282E-2,-1.8361337E-1,-5.741709E-2,-1.4971805E-1,-3.0285567E-1,-1.6269146E-1,4.144252E-2,-1.6547371E-1,-7.087821E-2,-2.9144022E-1,-1.8992478E-1,-1.0059226E-1,-2.5982684E-1,2.5382796E-1,-3.3665204E-1,-2.3034458E-1,-9.830016E-2,1.0796545E-1,-1.6081843E-1,-7.5995184E-2,-1.6192336E-1,-1.0693823E-1,-4.5276424E-3,1.7649335E-1,2.7703126E-3,-2.3882957E-1,4.313391E-2,-2.421597E-1,-8.413411E-2,-2.0273304E-1,-2.6021326E-2,-9.449445E-2,-4.2518154E-3,-2.553468E-1,-9.650231E-2,-2.5234765E-1,-3.5190347E-1,-2.1077219E-1,2.626272E-1,8.8683516E-2,-3.8171217E-2,-5.1304406E-1,-1.384552E-1,-1.2199555E-1,-3.9735604E-3,-3.6197743E-1,-2.5132313E-1,-1.7648876E-2,-2.3607813E-1,-1.6867524E-1,-3.1105937E-2,-3.442689E-1,-2.2942808E-1,3.3133173E-1,1.2554629E-1,-6.189896E-1,-2.6969546E-1,6.605585E-2,-7.1436733E-1,-1.7391019E-1,3.0770345E-2,-2.0316379E-1,1.7804606E-1,-2.82293E-1,-7.160113E-2,1.5726298E-1,-1.5334372E-1,-2.2188634E-1,1.6664442E-2,-1.424251E-1,-1.5198795E-2,-2.0246275E-1,2.6860484E-3,3.4494955E-2,2.624687E-1,-6.723455E-2,1.3830096E-1,-2.220986E-1,-4.0663645E-1,2.402351E-1,-5.3675186E-2,1.7210986E-2,-2.740259E-1,-1.0692331E-1,-1.405751E-2,-1.5875125E-1,-2.9893634E-1,-1.2849113E-1,6.8604484E-2,-8.514547E-3,-1.7645347E-1,1.9239071E-1,-5.7675343E-2,-4.7629187E-1,-2.2753465E-1,-7.449021E-2,-2.2732794E-1,-2.9188865E-1,-2.0189095E-1,-3.9185008E-1,-3.026279E-1],"categories":[],"categories_nodes":[],"categories_segments":[],"categories_sizes":[],"default_left":[1,1,1,1,1,1,1,1,1,1,1,1,1,1,1,1,1,1,1,1,1,1,1,1,1,1,1,1,1,1,1,1,1,1,1,1,1,1,1,1,1,1,1,1,1,1,1,1,1,1,1,1,1,1,1,1,1,1,1,1,1,1,1,0,0,0,0,0,0,0,0,0,0,0,0,0,0,0,0,0,0,0,0,0,0,0,0,0,0,0,0,0,0,0,0,0,0,0,0,0,0,0,0,0,0,0,0,0,0,0,0,0,0,0,0,0,0,0,0,0,0,0,0,0,0,0,0],"id":6,"left_children":[1,3,5,7,9,11,13,15,17,19,21,23,25,27,29,31,33,35,37,39,41,43,45,47,49,51,53,55,57,59,61,63,65,67,69,71,73,75,77,79,81,83,85,87,89,91,93,95,97,99,101,103,105,107,109,111,113,115,117,119,121,123,125,-1,-1,-1,-1,-1,-1,-1,-1,-1,-1,-1,-1,-1,-1,-1,-1,-1,-1,-1,-1,-1,-1,-1,-1,-1,-1,-1,-1,-1,-1,-1,-1,-1,-1,-1,-1,-1,-1,-1,-1,-1,-1,-1,-1,-1,-1,-1,-1,-1,-1,-1,-1,-1,-1,-1,-1,-1,-1,-1,-1,-1,-1,-1,-1],"loss_changes":[3.1763434E2,4.500177E1,1.874947E2,1.4782318E1,3.7364426E1,1.632834E2,2.7166794E1,2.931116E0,1.8585693E1,2.4529526E1,5.7114197E1,1.6770988E2,1.6830246E1,1.1535107E1,1.8628296E1,1.2588893E0,1.6951084E0,1.3599274E1,1.6612999E1,1.14018814E2,2.4022232E1,3.4754536E1,9.023323E0,3.2151405E1,1.4602676E2,1.5195641E1,6.7745094E0,3.248886E0,4.3461556E0,8.676838E0,3.9764557E0,7.710916E-1,8.3457327E-1,2.9715958E0,1.5863895E0,7.6851807E0,2.0350677E1,1.0870947E1,2.277462E0,3.8756733E0,3.6299576E1,2.4063727E2,7.561825E1,5.193E1,6.51488E0,4.1503086E1,2.8038963E1,1.3348831E1,1.7338835E1,1.4611285E2,7.7078735E1,4.8706512E0,4.1153507E0,2.426405E0,5.952078E0,4.0271835E0,1.1529771E0,9.152328E0,9.539437E0,3.0747147E0,2.9520855E0,1.5610962E0,1.5151825E0,0E0,0E0,0E0,0E0,0E0,0E0,0E0,0E0,0E0,0E0,0E0,0E0,0E0,0E0,0E0,0E0,0E0,0E0,0E0,0E0,0E0,0E0,0E0,0E0,0E0,0E0,0E0,0E0,0E0,0E0,0E0,0E0,0E0,0E0,0E0,0E0,0E0,0E0,0E0,0E0,0E0,0E0,0E0,0E0,0E0,0E0,0E0,0E0,0E0,0E0,0E0,0E0,0E0,0E0,0E0,0E0,0E0,0E0,0E0,0E0,0E0,0E0,0E0,0E0],"parents":[2147483647,0,0,1,1,2,2,3,3,4,4,5,5,6,6,7,7,8,8,9,9,10,10,11,11,12,12,13,13,14,14,15,15,16,16,17,17,18,18,19,19,20,20,21,21,22,22,23,23,24,24,25,25,26,26,27,27,28,28,29,29,30,30,31,31,32,32,33,33,34,34,35,35,36,36,37,37,38,38,39,39,40,40,41,41,42,42,43,43,44,44,45,45,46,46,47,47,48,48,49,49,50,50,51,51,52,52,53,53,54,54,55,55,56,56,57,57,58,58,59,59,60,60,61,61,62,62],"right_children":[2,4,6,8,10,12,14,16,18,20,22,24,26,28,30,32,34,36,38,40,42,44,46,48,50,52,54,56,58,60,62,64,66,68,70,72,74,76,78,80,82,84,86,88,90,92,94,96,98,100,102,104,106,108,110,112,114,116,118,120,122,124,126,-1,-1,-1,-1,-1,-1,-1,-1,-1,-1,-1,-1,-1,-1,-1,-1,-1,-1,-1,-1,-1,-1,-1,-1,-1,-1,-1,-1,-1,-1,-1,-1,-1,-1,-1,-1,-1,-1,-1,-1,-1,-1,-1,-1,-1,-1,-1,-1,-1,-1,-1,-1,-1,-1,-1,-1,-1,-1,-1,-1,-1,-1,-1,-1],"split_conditions":[8.5E0,2.0205E3,2.15E1,5E-1,6.5E0,5.5E0,2.25E1,7.5E0,5.5E0,6.5E0,8.5E0,5.5E0,2.0205E3,2.0205E3,2.25E1,5E-1,2.0195E3,7.5E0,4.5E0,1.5E0,1.5E0,2.45E1,2.0215E3,2.0205E3,9.5E0,2.75E1,9.5E0,1.15E1,6.5E0,2.0205E3,3.75E1,2.85E1,8.5E0,2.5E0,7.5E0,1.15E1,8.5E0,2.25E1,7.5E0,2.0225E3,2.5E0,2.0225E3,2.0225E3,4.5E0,2.5E0,9.5E0,1.15E1,4.5E0,1.5E0,2.0205E3,1.15E1,2.55E1,2.85E1,1.5E0,2.0225E3,8.5E0,2.0195E3,3.5E0,7.5E0,2.5E0,5.5E0,6.5E0,6.5E0,-6.323166E-2,7.878817E-2,2.6605057E-2,-1.1451365E-2,-1.5391323E-1,-4.1536562E-2,-3.6598668E-2,-1.1920682E-3,-1.0859323E-1,-7.539694E-2,-5.294663E-3,-7.082344E-2,-5.0602574E-2,-9.331781E-3,-1.0328067E-1,-6.882843E-2,9.939952E-2,3.766389E-2,-1.8569688E-1,-8.090864E-2,1.9816756E-2,-2.1431021E-1,-5.217306E-2,9.231104E-3,-6.094914E-2,5.341382E-2,-8.46879E-2,-2.148034E-2,4.7178898E-2,-4.600312E-2,-6.65659E-2,4.9993326E-3,-4.2727534E-2,-4.559639E-3,-6.0738828E-2,8.058146E-4,1.0348487E-2,7.874061E-2,-2.0170366E-2,4.1490287E-2,-6.662958E-2,-1.2199094E-1,7.207053E-2,-1.6102556E-2,5.163296E-3,-8.220777E-2,-3.2076996E-2,-4.217253E-3,-4.7625378E-2,-8.96809E-2,-3.854734E-2,2.0581346E-2,-2.554364E-3,-5.2936044E-2,5.7717215E-2,-1.7302604E-2,-1.4288756E-1,-6.82604E-2,-2.2347065E-2,-6.819838E-2,-8.75666E-2,-6.0567286E-2,-1.1755503E-1,-9.078837E-2],"split_indices":[3,0,3,3,1,5,3,4,3,2,1,1,0,0,4,5,0,1,5,1,1,2,0,0,1,2,3,1,1,0,4,2,1,2,1,2,1,4,4,0,1,0,0,2,5,1,1,1,2,0,1,2,2,1,0,1,0,1,1,1,5,1,1,0,0,0,0,0,0,0,0,0,0,0,0,0,0,0,0,0,0,0,0,0,0,0,0,0,0,0,0,0,0,0,0,0,0,0,0,0,0,0,0,0,0,0,0,0,0,0,0,0,0,0,0,0,0,0,0,0,0,0,0,0,0,0,0],"split_type":[0,0,0,0,0,0,0,0,0,0,0,0,0,0,0,0,0,0,0,0,0,0,0,0,0,0,0,0,0,0,0,0,0,0,0,0,0,0,0,0,0,0,0,0,0,0,0,0,0,0,0,0,0,0,0,0,0,0,0,0,0,0,0,0,0,0,0,0,0,0,0,0,0,0,0,0,0,0,0,0,0,0,0,0,0,0,0,0,0,0,0,0,0,0,0,0,0,0,0,0,0,0,0,0,0,0,0,0,0,0,0,0,0,0,0,0,0,0,0,0,0,0,0,0,0,0,0],"sum_hessian":[7.8002E4,2.9201E4,4.8801E4,9.561E3,1.964E4,4.2331E4,6.47E3,1.04E3,8.521E3,1.1744E4,7.896E3,3.6332E4,5.999E3,3.283E3,3.187E3,2.54E2,7.86E2,5.306E3,3.215E3,2.321E3,9.423E3,2.981E3,4.915E3,1.6242E4,2.009E4,1.98E3,4.019E3,1.079E3,2.204E3,1.547E3,1.64E3,3.4E1,2.2E2,3.23E2,4.63E2,2.747E3,2.559E3,2.298E3,9.17E2,3.93E2,1.928E3,1.676E3,7.747E3,2.379E3,6.02E2,2.298E3,2.617E3,4.1E3,1.2142E4,1.1968E4,8.122E3,1.766E3,2.14E2,2.92E2,3.727E3,9.62E2,1.17E2,1.298E3,9.06E2,5.17E2,1.03E3,8.11E2,8.29E2,3.1E1,3E0,1.38E2,8.2E1,2.2E1,3.01E2,2.62E2,2.01E2,9.93E2,1.754E3,5.41E2,2.018E3,1.16E3,1.138E3,2.4E2,6.77E2,2.44E2,1.49E2,3.68E2,1.56E3,1.04E3,6.36E2,4.885E3,2.862E3,4.37E2,1.942E3,2.54E2,3.48E2,5.72E2,1.726E3,1.959E3,6.58E2,2.956E3,1.144E3,4.26E2,1.1716E4,4.514E3,7.454E3,5.356E3,2.766E3,1.608E3,1.58E2,7E1,1.44E2,3.2E1,2.6E2,2.812E3,9.15E2,6.62E2,3E2,5.6E1,6.1E1,6.34E2,6.64E2,1.93E2,7.13E2,5.6E1,4.61E2,8.83E2,1.47E2,4.52E2,3.59E2,4.54E2,3.75E2],"tree_param":{"num_deleted":"0","num_feature":"6","num_nodes":"127","size_leaf_vector":"0"}},{"base_weights":[-3.7589766E-2,-1.0817213E-1,-8.706078E-3,-3.992861E-2,-1.3535081E-1,2.2659047E-2,-8.737178E-2,-1.588502E-1,-1.9622944E-2,-2.212976E-1,-1.214286E-1,-2.5711212E-2,8.0249086E-2,-1.429951E-1,-5.9749637E-2,-3.48805E-1,-1.455175E-1,3.1028092E-2,-6.910464E-2,-2.4840927E-1,-1.1656503E-1,-2.0443651E-1,-1.0521789E-1,-7.735517E-2,2.1862375E-2,2.1856505E-1,5.9536207E-3,-2.0445101E-1,-1.1333126E-1,-1.4662734E-1,-4.071219E-2,-4.1099172E-2,-3.6967736E-1,-7.365915E-2,-1.6817866E-1,-3.598022E-2,8.222925E-2,-1.1877999E-1,-4.2043228E-2,-3.7928814E-1,-2.3929158E-1,-1.5085845E-1,-1.7539505E-2,-3.1352836E-1,-1.1675961E-1,-1.3246171E-1,-6.51773E-2,-1.9046825E-1,-3.47444E-2,-1.06760375E-1,5.318362E-2,-1.16369195E-1,2.39437E-1,3.867566E-2,-1.00038186E-1,1.7864335E-1,-2.2098209E-1,-1.6824861E-1,-7.855288E-2,-9.488072E-2,-2.0056027E-1,-8.27184E-2,1.9641075E-2,-4.2911977E-1,-2.7642632E-1,-9.725936E-2,1.356544E-1,8.119284E-4,-1.7501314E-1,-8.94841E-2,-2.2381695E-2,6.104118E-2,3.5540628E-1,-1.7548494E-1,-6.897741E-2,-1.8968002E-3,-9.562122E-2,-8.5209936E-2,-4.0047893E-1,-2.5121495E-1,-1.7673472E-1,-2.129216E-1,-1.2024309E-1,-4.584458E-2,1.0505798E-1,-6.974969E-2,-6.034902E-1,-2.3476641E-1,1.3398631E-2,-8.257808E-2,-1.5789014E-1,-8.927952E-2,8.57143E-3,8.1024714E-2,-4.9945572E-1,1.0593768E-2,-1.000673E-1,3.5475057E-1,-2.0834635E-1,-1.9085868E-1,1.022193E-1,-5.0142163E-1,4.294607E-1,7.274289E-2,2.7707258E-1,1.3525086E-2,1.112279E-1,-2.0302683E-1,1.1092665E-3,2.5048453E-1,-1.3174456E-1,-2.4807966E-1,2.4916744E-2,-1.5496865E-1,-7.9872906E-1,3.36848E-2,-1.3698111E-1,-2.3953608E-1,-6.532941E-2,-9.952131E-2,-2.4085605E-1,-1.6640419E-1,-5.6792386E-2,7.099694E-2,-1.3491239E-1],"categories":[],"categories_nodes":[],"categories_segments":[],"categories_sizes":[],"default_left":[1,1,1,1,1,1,1,1,1,1,1,1,1,1,1,1,1,1,1,1,1,1,1,1,1,1,1,1,1,1,1,0,1,1,1,1,1,1,1,1,1,1,1,1,1,1,1,1,1,1,1,1,1,1,1,1,1,1,1,1,1,1,1,0,0,0,0,0,0,0,0,0,0,0,0,0,0,0,0,0,0,0,0,0,0,0,0,0,0,0,0,0,0,0,0,0,0,0,0,0,0,0,0,0,0,0,0,0,0,0,0,0,0,0,0,0,0,0,0,0,0,0,0,0,0],"id":7,"left_children":[1,3,5,7,9,11,13,15,17,19,21,23,25,27,29,31,33,35,37,39,41,43,45,47,49,51,53,55,57,59,61,-1,63,65,67,69,71,73,75,77,79,81,83,85,87,89,91,93,95,97,99,101,103,105,107,109,111,113,115,117,119,121,123,-1,-1,-1,-1,-1,-1,-1,-1,-1,-1,-1,-1,-1,-1,-1,-1,-1,-1,-1,-1,-1,-1,-1,-1,-1,-1,-1,-1,-1,-1,-1,-1,-1,-1,-1,-1,-1,-1,-1,-1,-1,-1,-1,-1,-1,-1,-1,-1,-1,-1,-1,-1,-1,-1,-1,-1,-1,-1,-1,-1,-1,-1],"loss_changes":[1.5902216E2,4.2006927E1,1.3657773E2,1.5579471E1,1.9356354E1,1.1024397E2,2.4234886E1,2.332428E0,1.3819372E1,6.379738E0,1.8740448E1,5.2849354E1,1.856494E2,9.520325E0,1.743472E1,3.7658215E-1,1.422226E0,9.35217E0,3.744216E0,2.0476532E0,1.579855E0,2.1742523E1,1.2718414E1,4.970516E1,4.5114185E1,4.416037E1,4.076989E1,1.0824509E1,6.7345924E0,5.2696266E0,2.1933746E1,0E0,1.9733477E-1,1.0653802E0,7.728119E-1,8.57262E-1,8.920912E0,2.763939E0,3.8866127E0,6.8252754E-1,1.2072067E0,6.3182735E-1,4.247022E-1,7.163401E1,1.941763E1,8.792633E0,8.401268E0,2.3677216E2,2.2192482E1,1.0288842E2,1.0778036E2,7.8189575E1,3.7264008E1,1.6388222E1,2.888668E1,1.6162024E0,1.0887291E1,1.1338516E1,1.420236E1,4.12659E0,3.7502556E0,1.1057884E1,2.819467E1,0E0,0E0,0E0,0E0,0E0,0E0,0E0,0E0,0E0,0E0,0E0,0E0,0E0,0E0,0E0,0E0,0E0,0E0,0E0,0E0,0E0,0E0,0E0,0E0,0E0,0E0,0E0,0E0,0E0,0E0,0E0,0E0,0E0,0E0,0E0,0E0,0E0,0E0,0E0,0E0,0E0,0E0,0E0,0E0,0E0,0E0,0E0,0E0,0E0,0E0,0E0,0E0,0E0,0E0,0E0,0E0,0E0,0E0,0E0,0E0,0E0,0E0],"parents":[2147483647,0,0,1,1,2,2,3,3,4,4,5,5,6,6,7,7,8,8,9,9,10,10,11,11,12,12,13,13,14,14,15,15,16,16,17,17,18,18,19,19,20,20,21,21,22,22,23,23,24,24,25,25,26,26,27,27,28,28,29,29,30,30,32,32,33,33,34,34,35,35,36,36,37,37,38,38,39,39,40,40,41,41,42,42,43,43,44,44,45,45,46,46,47,47,48,48,49,49,50,50,51,51,52,52,53,53,54,54,55,55,56,56,57,57,58,58,59,59,60,60,61,61,62,62],"right_children":[2,4,6,8,10,12,14,16,18,20,22,24,26,28,30,32,34,36,38,40,42,44,46,48,50,52,54,56,58,60,62,-1,64,66,68,70,72,74,76,78,80,82,84,86,88,90,92,94,96,98,100,102,104,106,108,110,112,114,116,118,120,122,124,-1,-1,-1,-1,-1,-1,-1,-1,-1,-1,-1,-1,-1,-1,-1,-1,-1,-1,-1,-1,-1,-1,-1,-1,-1,-1,-1,-1,-1,-1,-1,-1,-1,-1,-1,-1,-1,-1,-1,-1,-1,-1,-1,-1,-1,-1,-1,-1,-1,-1,-1,-1,-1,-1,-1,-1,-1,-1,-1,-1,-1,-1],"split_conditions":[6.5E0,1.5E0,4.5E0,5E-1,5E-1,6.5E0,2.0205E3,2.5E0,2.25E1,5.5E0,2.5E0,2.0215E3,8.5E0,1.05E1,9.5E0,1.5E0,7.5E0,5.5E0,4.5E0,2.5E0,3.75E1,2.0215E3,4.5E0,2.5E0,6.5E0,2.5E0,1.95E1,1.5E0,2.0195E3,5.5E0,6.5E0,-1.2329753E-2,7.5E0,2.85E1,3.5E0,6.5E0,2.0225E3,2.0215E3,8.5E0,1.5E0,2.65E1,2.0205E3,2.0225E3,1.5E0,1.5E0,2.5E0,3.75E1,1.5E0,1.65E1,1.5E0,1.5E0,7.5E0,9.5E0,1.15E1,1.05E1,2.15E1,1.15E1,3.05E1,1.75E1,5.5E0,3.5E0,7.5E0,2.35E1,-1.2873593E-1,-8.29279E-2,-2.917781E-2,4.0696323E-2,2.4357853E-4,-5.2503943E-2,-2.6845232E-2,-6.714509E-3,1.8312356E-2,1.0662189E-1,-5.2645486E-2,-2.0693224E-2,-5.690401E-4,-2.8686367E-2,-2.5562981E-2,-1.2014368E-1,-7.5364485E-2,-5.3020418E-2,-6.387649E-2,-3.607293E-2,-1.3753375E-2,3.1517394E-2,-2.0924907E-2,-1.8104705E-1,-7.042993E-2,4.019589E-3,-2.4773424E-2,-4.7367044E-2,-2.6783856E-2,2.5714291E-3,2.4307415E-2,-1.4983672E-1,3.1781306E-3,-3.0020192E-2,1.0642517E-1,-6.250391E-2,-5.7257604E-2,3.066579E-2,-1.5042649E-1,1.2883821E-1,2.1822866E-2,8.312178E-2,4.057526E-3,3.336837E-2,-6.0908053E-2,3.3277998E-4,7.5145364E-2,-3.952337E-2,-7.44239E-2,7.4750236E-3,-4.6490595E-2,-2.3961873E-1,1.010544E-2,-4.1094337E-2,-7.186083E-2,-1.9598823E-2,-2.9856393E-2,-7.225682E-2,-4.992126E-2,-1.7037716E-2,2.1299083E-2,-4.047372E-2],"split_indices":[3,3,5,5,5,1,0,2,4,3,1,0,1,2,3,1,4,1,1,2,4,0,3,1,2,2,3,1,0,5,1,0,1,2,2,2,0,0,1,1,2,0,0,1,1,3,4,1,3,1,1,1,3,1,1,3,1,2,2,2,1,2,2,0,0,0,0,0,0,0,0,0,0,0,0,0,0,0,0,0,0,0,0,0,0,0,0,0,0,0,0,0,0,0,0,0,0,0,0,0,0,0,0,0,0,0,0,0,0,0,0,0,0,0,0,0,0,0,0,0,0,0,0,0,0],"split_type":[0,0,0,0,0,0,0,0,0,0,0,0,0,0,0,0,0,0,0,0,0,0,0,0,0,0,0,0,0,0,0,0,0,0,0,0,0,0,0,0,0,0,0,0,0,0,0,0,0,0,0,0,0,0,0,0,0,0,0,0,0,0,0,0,0,0,0,0,0,0,0,0,0,0,0,0,0,0,0,0,0,0,0,0,0,0,0,0,0,0,0,0,0,0,0,0,0,0,0,0,0,0,0,0,0,0,0,0,0,0,0,0,0,0,0,0,0,0,0,0,0,0,0,0,0],"sum_hessian":[7.8002E4,2.265E4,5.5352E4,6.452E3,1.6198E4,3.9574E4,1.5778E4,9.4E2,5.512E3,2.256E3,1.3942E4,2.1509E4,1.8065E4,5.234E3,1.0544E4,6E1,8.8E2,2.724E3,2.788E3,1.791E3,4.65E2,2.276E3,1.1666E4,1.0313E4,1.1196E4,6.312E3,1.1753E4,1.702E3,3.532E3,1.894E3,8.65E3,4E0,5.6E1,2.12E2,6.68E2,1.18E3,1.544E3,9.82E2,1.806E3,1.14E2,1.677E3,3.45E2,1.2E2,1.013E3,1.263E3,6.941E3,4.725E3,2.821E3,7.492E3,2.192E3,9.004E3,3.7E2,5.942E3,8.981E3,2.772E3,7E1,1.632E3,1.368E3,2.164E3,9.68E2,9.26E2,5.1E3,3.55E3,3.2E1,2.4E1,1.91E2,2.1E1,2.6E1,6.42E2,2.38E2,9.42E2,1.434E3,1.1E2,4.58E2,5.24E2,1.033E3,7.73E2,8E0,1.06E2,1.406E3,2.71E2,1.12E2,2.33E2,9.8E1,2.2E1,5.51E2,4.62E2,6.62E2,6.01E2,2.345E3,4.596E3,3.561E3,1.164E3,1.502E3,1.319E3,4.423E3,3.069E3,3.95E2,1.797E3,1.506E3,7.498E3,2.17E2,1.53E2,1.095E3,4.847E3,6.67E3,2.311E3,1.373E3,1.399E3,5.7E1,1.3E1,1.47E3,1.62E2,1.341E3,2.7E1,7.41E2,1.423E3,1.63E2,8.05E2,2.65E2,6.61E2,1.205E3,3.895E3,2.665E3,8.85E2],"tree_param":{"num_deleted":"0","num_feature":"6","num_nodes":"125","size_leaf_vector":"0"}},{"base_weights":[-2.6334627E-2,-6.8078116E-2,-1.3557398E-3,-1.4199431E-1,-5.7225306E-2,1.94607E-2,-8.539051E-2,-3.9490646E-1,-1.2452896E-1,-8.6812414E-2,-2.9998528E-2,-1.6012538E-2,6.15847E-2,-3.9772537E-2,-1.2963685E-1,-1.3579051E0,-2.6193994E-1,-1.5531833E-1,-3.9840233E-2,-9.5124505E-2,-1.9073885E-2,-4.1953955E-2,9.2801176E-2,-8.945078E-2,-1.1201617E-3,1.6415296E-1,4.962955E-3,-9.6206695E-2,-1.2619971E-2,-9.372515E-2,-2.0129374E-1,-8.6416423E-1,-1.8251873E0,-3.7702864E-1,-1.6428569E-1,-6.954111E-2,-1.6617952E-1,1.08279094E-1,-1.4669646E-1,-1.2274739E-1,-7.3797606E-2,3.5583018E-3,-1.5717323E-1,-2.6463294E-2,-1.365216E-1,1.4863813E-1,-1.6652331E-1,2.359966E-1,-1.4987677E-1,-3.4387264E-2,5.7532158E-2,1.005176E-1,2.7365428E-1,2.2886863E-2,-1.0612135E-1,-1.1646707E-1,7.930964E-2,7.520003E-2,-3.453604E-2,1.3962992E-3,-1.1277782E-1,-1.8631221E-1,-2.96712E-1,-1.1006935E-1,-4.2452037E-1,-1.3187469E-2,-2.7684873E-1,8.4064715E-2,-8.693051E-2,-1.7829579E-1,-8.258914E-2,-8.259092E-2,5.576111E-1,-2.1716423E-1,-3.734572E-2,3.254963E-2,-1.6540639E-1,-3.722811E-2,-1.283175E-1,-4.419754E-2,4.959375E-2,-3.7905365E-1,-1.3714232E-1,-1.12255946E-1,-1.0002557E-2,-1.11691706E-1,-3.333967E-1,3.0477215E-2,2.1275023E-1,-2.882561E-1,3.2437283E-1,-1.5888891E0,2.924866E-1,-2.1770686E-1,4.1868497E-2,-8.953612E-2,1.2215401E-2,1.35595985E-2,2.5745812E-1,-9.658519E-4,2.0271015E-1,3.4471408E-1,-1.2939261E-1,1.19740546E-1,3.6934568E-3,-1.4231475E-1,5.116588E-3,-7.8984804E-2,-2.0138802E-1,-7.42266E-2,1.8137713E-1,1.8911809E-1,1.4409421E-2,-7.996815E-2,1.0537104E-2,-1.3031791E-1,1.0521859E-1,-1.2964508E-1,-4.117555E-3,-2.3512222E-1,-1.6147764E-1,-3.3423814E-1,-2.2902457E-1],"categories":[],"categories_nodes":[],"categories_segments":[],"categories_sizes":[],"default_left":[1,1,1,1,1,1,1,1,1,1,1,1,1,1,1,1,1,1,1,1,1,1,1,1,1,1,1,1,1,1,1,0,0,1,1,1,1,1,1,1,1,1,1,1,1,1,1,1,1,1,1,1,1,1,1,1,1,1,1,1,1,1,1,0,0,0,0,0,0,0,0,0,0,0,0,0,0,0,0,0,0,0,0,0,0,0,0,0,0,0,0,0,0,0,0,0,0,0,0,0,0,0,0,0,0,0,0,0,0,0,0,0,0,0,0,0,0,0,0,0,0,0,0],"id":8,"left_children":[1,3,5,7,9,11,13,15,17,19,21,23,25,27,29,31,33,35,37,39,41,43,45,47,49,51,53,55,57,59,61,-1,-1,63,65,67,69,71,73,75,77,79,81,83,85,87,89,91,93,95,97,99,101,103,105,107,109,111,113,115,117,119,121,-1,-1,-1,-1,-1,-1,-1,-1,-1,-1,-1,-1,-1,-1,-1,-1,-1,-1,-1,-1,-1,-1,-1,-1,-1,-1,-1,-1,-1,-1,-1,-1,-1,-1,-1,-1,-1,-1,-1,-1,-1,-1,-1,-1,-1,-1,-1,-1,-1,-1,-1,-1,-1,-1,-1,-1,-1,-1,-1,-1],"loss_changes":[8.13341E1,2.3417679E1,8.537123E1,1.6462318E1,2.0511024E1,5.844805E1,1.9551392E1,3.050354E1,9.114891E0,6.8690643E0,1.9475609E1,2.3222887E1,1.0384477E2,7.3110747E0,1.2636726E1,5.1135178E0,2.3319464E0,2.3781128E0,1.4798745E1,6.3939896E0,4.1730886E0,1.7702818E1,1.7067585E1,7.04378E1,3.4450287E1,4.4289963E1,2.2943476E1,5.52108E0,6.205806E0,5.940935E0,2.2905502E0,0E0,0E0,1.1830721E0,1.9862933E0,7.8193057E-1,2.2904167E0,3.3665543E1,4.1760864E0,3.1367249E1,1.222897E1,2.526026E0,7.8357553E-1,1.4667504E1,8.27791E0,7.334219E0,1.258296E1,5.8297012E1,3.928752E1,2.8955658E1,5.6172638E1,4.1732517E1,6.697728E1,1.8444078E1,6.44648E0,4.4085026E0,2.5365033E0,4.4570704E0,5.284084E0,7.507541E0,5.0048447E0,1.684536E0,4.8480225E-1,0E0,0E0,0E0,0E0,0E0,0E0,0E0,0E0,0E0,0E0,0E0,0E0,0E0,0E0,0E0,0E0,0E0,0E0,0E0,0E0,0E0,0E0,0E0,0E0,0E0,0E0,0E0,0E0,0E0,0E0,0E0,0E0,0E0,0E0,0E0,0E0,0E0,0E0,0E0,0E0,0E0,0E0,0E0,0E0,0E0,0E0,0E0,0E0,0E0,0E0,0E0,0E0,0E0,0E0,0E0,0E0,0E0,0E0,0E0,0E0],"parents":[2147483647,0,0,1,1,2,2,3,3,4,4,5,5,6,6,7,7,8,8,9,9,10,10,11,11,12,12,13,13,14,14,15,15,16,16,17,17,18,18,19,19,20,20,21,21,22,22,23,23,24,24,25,25,26,26,27,27,28,28,29,29,30,30,33,33,34,34,35,35,36,36,37,37,38,38,39,39,40,40,41,41,42,42,43,43,44,44,45,45,46,46,47,47,48,48,49,49,50,50,51,51,52,52,53,53,54,54,55,55,56,56,57,57,58,58,59,59,60,60,61,61,62,62],"right_children":[2,4,6,8,10,12,14,16,18,20,22,24,26,28,30,32,34,36,38,40,42,44,46,48,50,52,54,56,58,60,62,-1,-1,64,66,68,70,72,74,76,78,80,82,84,86,88,90,92,94,96,98,100,102,104,106,108,110,112,114,116,118,120,122,-1,-1,-1,-1,-1,-1,-1,-1,-1,-1,-1,-1,-1,-1,-1,-1,-1,-1,-1,-1,-1,-1,-1,-1,-1,-1,-1,-1,-1,-1,-1,-1,-1,-1,-1,-1,-1,-1,-1,-1,-1,-1,-1,-1,-1,-1,-1,-1,-1,-1,-1,-1,-1,-1,-1,-1,-1,-1,-1,-1],"split_conditions":[8.5E0,2.0195E3,2.05E1,2.5E0,5.5E0,6.5E0,2.25E1,4.5E0,2.35E1,7.5E0,2.0225E3,5.5E0,8.5E0,2.0205E3,2.25E1,2.5E0,2.5E0,4.5E0,7.5E0,2.0215E3,5.5E0,5.5E0,2.15E1,1.5E0,4.5E0,2.0215E3,5.5E0,1.15E1,2.5E0,2.5E0,5.5E0,-2.5924927E-1,-5.475562E-1,6E0,4.5E0,4.5E0,1.15E1,6.5E0,1.05E1,1.5E0,3.5E0,2.25E1,2.5E0,5E-1,7.5E0,7.5E0,2.85E1,2.0195E3,2.0225E3,2.0215E3,2.65E1,7.5E0,2.55E1,1.05E1,1.15E1,8.5E0,2.0195E3,2.15E1,6.5E0,2.0215E3,2.0225E3,2.0205E3,7.5E0,-3.3020806E-2,-1.2735611E-1,-3.956241E-3,-8.3054624E-2,2.5219416E-2,-2.6079156E-2,-5.348874E-2,-2.4776744E-2,-2.4777278E-2,1.6728334E-1,-6.514927E-2,-1.1203716E-2,9.764889E-3,-4.962192E-2,-1.1168433E-2,-3.8495254E-2,-1.3259263E-2,1.4878126E-2,-1.137161E-1,-4.1142695E-2,-3.3676784E-2,-3.0007672E-3,-3.3507515E-2,-1.00019015E-1,9.143164E-3,6.382507E-2,-8.647683E-2,9.7311854E-2,-4.7666675E-1,8.774599E-2,-6.531206E-2,1.2560549E-2,-2.6860839E-2,3.6646205E-3,4.0678796E-3,7.723744E-2,-2.8975558E-4,6.0813047E-2,1.0341423E-1,-3.8817786E-2,3.5922166E-2,1.1080371E-3,-4.2694427E-2,1.5349764E-3,-2.3695443E-2,-6.0416408E-2,-2.2267982E-2,5.441314E-2,5.673543E-2,4.3228264E-3,-2.3990445E-2,3.1611312E-3,-3.9095376E-2,3.1565577E-2,-3.8893525E-2,-1.2352666E-3,-7.0536666E-2,-4.8443295E-2,-1.0027145E-1,-6.870738E-2],"split_indices":[3,0,3,2,1,1,4,1,2,3,0,2,1,0,3,1,5,1,1,0,5,5,2,1,1,0,5,1,1,1,5,0,0,1,5,2,1,1,1,1,1,4,2,5,3,2,2,0,0,0,2,1,2,3,1,1,0,3,1,0,0,0,1,0,0,0,0,0,0,0,0,0,0,0,0,0,0,0,0,0,0,0,0,0,0,0,0,0,0,0,0,0,0,0,0,0,0,0,0,0,0,0,0,0,0,0,0,0,0,0,0,0,0,0,0,0,0,0,0,0,0,0,0],"split_type":[0,0,0,0,0,0,0,0,0,0,0,0,0,0,0,0,0,0,0,0,0,0,0,0,0,0,0,0,0,0,0,0,0,0,0,0,0,0,0,0,0,0,0,0,0,0,0,0,0,0,0,0,0,0,0,0,0,0,0,0,0,0,0,0,0,0,0,0,0,0,0,0,0,0,0,0,0,0,0,0,0,0,0,0,0,0,0,0,0,0,0,0,0,0,0,0,0,0,0,0,0,0,0,0,0,0,0,0,0,0,0,0,0,0,0,0,0,0,0,0,0,0,0],"sum_hessian":[7.8002E4,2.9201E4,4.8801E4,3.737E3,2.5464E4,3.9113E4,9.688E3,2.4E2,3.497E3,1.2202E4,1.3262E4,2.1233E4,1.788E4,4.771E3,4.917E3,2.8E1,2.12E2,2.564E3,9.33E2,1.0868E4,1.334E3,1.2086E4,1.176E3,3.579E3,1.7654E4,6.359E3,1.1521E4,1.549E3,3.222E3,3.277E3,1.64E3,1.5E1,1.3E1,9.6E1,1.16E2,2.89E2,2.275E3,3.91E2,5.42E2,4.733E3,6.135E3,1.147E3,1.87E2,1.0386E4,1.7E3,9.68E2,2.08E2,5.6E2,3.019E3,1.1265E4,6.389E3,4.023E3,2.336E3,9.921E3,1.6E3,1.389E3,1.6E2,6.43E2,2.579E3,5.47E2,2.73E3,1.42E3,2.2E2,1.5E1,8.1E1,5E1,6.6E1,2.9E1,2.6E2,1.986E3,2.89E2,2.75E2,1.16E2,3.29E2,2.13E2,1.02E3,3.713E3,3.673E3,2.462E3,5.63E2,5.84E2,1.4E1,1.73E2,1.671E3,8.715E3,1.511E3,1.89E2,3.41E2,6.27E2,1.67E2,4.1E1,1.6E1,5.44E2,2.23E3,7.89E2,5.159E3,6.106E3,5.238E3,1.151E3,2.019E3,2.004E3,1.986E3,3.5E2,1.64E3,8.281E3,1.207E3,3.93E2,9.65E2,4.24E2,6.4E1,9.6E1,2.23E2,4.2E2,1.284E3,1.295E3,2.41E2,3.06E2,2.363E3,3.67E2,4.76E2,9.44E2,1.39E2,8.1E1],"tree_param":{"num_deleted":"0","num_feature":"6","num_nodes":"123","size_leaf_vector":"0"}},{"base_weights":[-1.845996E-2,-7.323709E-3,-8.575745E-2,-5.514472E-2,8.44765E-3,-9.7172804E-2,-2.8745446E-2,-2.6947549E-3,-8.1454866E-2,-7.021397E-2,1.9849457E-2,6.285343E-2,-1.1021559E-1,-2.3651464E-1,1.5717482E-2,6.0237646E-2,-2.2818109E-2,-1.4406501E-1,-6.933365E-2,-1.411523E-1,8.619209E-3,-8.060803E-3,5.7467025E-2,1.9446073E-1,-4.6120456E-1,-2.7579144E-1,-9.817121E-2,-2.8814109E-2,-5.339004E-1,3.4505326E-2,-4.0652823E-1,-3.1036723E-2,7.8912914E-2,-9.744805E-2,-7.5691924E-3,-1.8000825E-1,-1.2894872E-1,-1.3204356E-1,-5.7228476E-2,-2.424709E-1,-5.9541877E-2,1.1719858E-1,-7.7758804E-2,-1.856163E-3,-1.1466931E-1,1.3757615E-1,1.2993408E-2,2.8281754E-1,-3.44745E-2,-5.534043E-1,-2.9941624E-1,-5.419669E-1,1.14072235E-2,-2.9593888E-1,-9.115781E-2,1.6475837E-1,-1.2168626E-1,-1.087362E0,1.9273639E-2,-6.790497E-4,2.7256495E-1,-3.3415276E-1,-4.7512865E-1,2.4072215E-2,-7.872469E-2,3.1320613E-2,1.14913814E-1,-2.119303E-1,-8.9601785E-2,1.3597011E-2,-4.9515553E-2,2.8907813E-2,-1.981222E-1,3.9602432E-4,-1.4338385E-1,-1.0494112E-1,-3.417511E-1,-4.0661227E-2,-1.0340298E-1,-1.21897005E-1,-6.090772E-1,5.1584188E-2,-1.3176537E-1,-4.4399403E-2,5.464817E-1,-2.9884102E-2,-2.9038692E-1,-5.3080596E-2,8.465715E-3,-2.4705784E-2,-1.4486426E-1,1.7965418E-1,-2.9734802E-3,-1.0239801E-2,7.899826E-2,4.467469E-2,3.6047915E-1,-2.2938365E-1,6.804559E-2,-6.317844E-1,-4.5668596E-1,-3.8814092E-1,-1.3361353E-1,-4.0307578E-1,-1.3408998E0,-2.6020828E-1,4.0101722E-1,-2.0290732E-1,-5.8323574E-1,-9.989275E-2,-1.167861E-2,1.8473943E-1,-2.1481503E-2,-1.795781E-1,2.4722112E-2,-8.498135E-1,-1.1511323E0,-7.762704E-2,3.1454197E-1,-3.243855E-2,5.889843E-2,1.9233182E-1,4.3645468E-1],"categories":[],"categories_nodes":[],"categories_segments":[],"categories_sizes":[],"default_left":[1,1,1,1,1,1,1,1,1,1,1,1,1,1,1,1,1,1,1,1,1,1,1,1,1,1,1,1,1,1,1,1,1,1,1,1,1,1,1,1,1,1,1,1,1,1,1,1,1,1,1,1,1,1,1,1,1,1,1,1,1,0,0,0,0,0,0,0,0,0,0,0,0,0,0,0,0,0,0,0,0,0,0,0,0,0,0,0,0,0,0,0,0,0,0,0,0,0,0,0,0,0,0,0,0,0,0,0,0,0,0,0,0,0,0,0,0,0,0,0,0,0,0],"id":9,"left_children":[1,3,5,7,9,11,13,15,17,19,21,23,25,27,29,31,33,35,37,39,41,43,45,47,49,51,53,55,57,59,61,63,65,67,69,71,73,75,77,79,81,83,85,87,89,91,93,95,97,99,101,103,105,107,109,111,113,115,117,119,121,-1,-1,-1,-1,-1,-1,-1,-1,-1,-1,-1,-1,-1,-1,-1,-1,-1,-1,-1,-1,-1,-1,-1,-1,-1,-1,-1,-1,-1,-1,-1,-1,-1,-1,-1,-1,-1,-1,-1,-1,-1,-1,-1,-1,-1,-1,-1,-1,-1,-1,-1,-1,-1,-1,-1,-1,-1,-1,-1,-1,-1,-1],"loss_changes":[5.8458076E1,5.0478477E1,7.2049484E0,2.2905842E1,4.5142494E1,1.9265427E1,1.708483E1,7.0248904E0,8.379013E0,3.563531E1,4.6154774E1,4.809271E1,1.6987938E1,2.012072E1,1.2104052E1,2.293395E0,4.782385E0,9.504318E-1,7.0241203E0,2.7718628E1,2.8323923E1,1.669324E1,6.670699E1,1.1276737E1,1.9226627E0,4.419153E1,1.1006798E1,3.4897046E0,4.1046482E1,1.2229115E1,1.639595E-1,6.0371464E-1,1.9085164E0,6.2146807E-1,3.1001408E0,2.0038338E0,2.361948E0,8.478146E0,5.9366665E0,6.605367E1,1.4926968E1,9.284306E1,1.711325E1,1.2610715E1,3.7668457E0,3.9530052E1,1.8465736E1,7.418705E0,3.1328166E0,3.785801E-1,7.2781086E-1,3.2748924E1,2.9629276E1,7.1515827E0,5.33342E0,2.3840857E-1,1.1147755E0,3.6705017E-2,1.9700127E0,2.4106188E0,2.3881397E0,0E0,0E0,0E0,0E0,0E0,0E0,0E0,0E0,0E0,0E0,0E0,0E0,0E0,0E0,0E0,0E0,0E0,0E0,0E0,0E0,0E0,0E0,0E0,0E0,0E0,0E0,0E0,0E0,0E0,0E0,0E0,0E0,0E0,0E0,0E0,0E0,0E0,0E0,0E0,0E0,0E0,0E0,0E0,0E0,0E0,0E0,0E0,0E0,0E0,0E0,0E0,0E0,0E0,0E0,0E0,0E0,0E0,0E0,0E0,0E0,0E0,0E0],"parents":[2147483647,0,0,1,1,2,2,3,3,4,4,5,5,6,6,7,7,8,8,9,9,10,10,11,11,12,12,13,13,14,14,15,15,16,16,17,17,18,18,19,19,20,20,21,21,22,22,23,23,24,24,25,25,26,26,27,27,28,28,29,29,30,30,31,31,32,32,33,33,34,34,35,35,36,36,37,37,38,38,39,39,40,40,41,41,42,42,43,43,44,44,45,45,46,46,47,47,48,48,49,49,50,50,51,51,52,52,53,53,54,54,55,55,56,56,57,57,58,58,59,59,60,60],"right_children":[2,4,6,8,10,12,14,16,18,20,22,24,26,28,30,32,34,36,38,40,42,44,46,48,50,52,54,56,58,60,62,64,66,68,70,72,74,76,78,80,82,84,86,88,90,92,94,96,98,100,102,104,106,108,110,112,114,116,118,120,122,-1,-1,-1,-1,-1,-1,-1,-1,-1,-1,-1,-1,-1,-1,-1,-1,-1,-1,-1,-1,-1,-1,-1,-1,-1,-1,-1,-1,-1,-1,-1,-1,-1,-1,-1,-1,-1,-1,-1,-1,-1,-1,-1,-1,-1,-1,-1,-1,-1,-1,-1,-1,-1,-1,-1,-1,-1,-1,-1,-1,-1,-1],"split_conditions":[5.5E0,5.5E0,2.0225E3,1.5E0,2.0195E3,1.5E0,1.5E0,7.5E0,5E-1,1.65E1,6.5E0,2.5E1,2.5E0,1.85E1,2.9E1,5E-1,5E-1,9.5E0,2.5E0,7.5E0,7.5E0,2.25E1,8.5E0,1.8E1,1.55E1,1.5E1,1.5E0,4.5E0,2.55E1,2.55E1,1.05E1,5E-1,5.5E0,2.5E0,3.75E1,1.5E0,1.15E1,2.65E1,9.5E0,6.5E0,9.5E0,6.5E0,2.85E1,5.5E0,7.5E0,2.35E1,1.15E1,2.0205E3,7.5E0,8.5E0,2.0215E3,1.35E1,2.0215E3,2.0215E3,1.15E1,2.15E1,1.65E1,5.5E0,1.75E1,5.5E0,4E0,-1.0024583E-1,-1.425386E-1,7.221665E-3,-2.3617407E-2,9.396184E-3,3.4474146E-2,-6.35791E-2,-2.6880536E-2,4.0791035E-3,-1.4854667E-2,8.6723445E-3,-5.9436664E-2,1.188073E-4,-4.3015156E-2,-3.148234E-2,-1.0252533E-1,-1.2198369E-2,-3.1020895E-2,-3.6569104E-2,-1.8272316E-1,1.5475257E-2,-3.952961E-2,-1.3319821E-2,1.6394453E-1,-8.965231E-3,-8.711608E-2,-1.592418E-2,2.5397146E-3,-7.4117356E-3,-4.345928E-2,5.3896256E-2,-8.920441E-4,-3.0719405E-3,2.369948E-2,1.3402408E-2,1.0814375E-1,-6.88151E-2,2.0413676E-2,-1.8953532E-1,-1.3700579E-1,-1.1644228E-1,-4.008406E-2,-1.2092274E-1,-4.0226996E-1,-7.806249E-2,1.2030517E-1,-6.08722E-2,-1.7497073E-1,-2.9967826E-2,-3.5035831E-3,5.542183E-2,-6.444451E-3,-5.387343E-2,7.416634E-3,-2.5494406E-1,-3.4533972E-1,-2.3288112E-2,9.4362594E-2,-9.731566E-3,1.766953E-2,5.769955E-2,1.3093641E-1],"split_indices":[5,3,0,3,0,1,1,4,5,2,1,2,1,2,2,5,5,2,1,1,1,3,1,2,3,2,2,2,2,2,3,3,1,2,4,1,2,2,1,1,1,1,2,2,4,2,1,0,3,3,0,2,0,0,1,3,3,3,3,1,1,0,0,0,0,0,0,0,0,0,0,0,0,0,0,0,0,0,0,0,0,0,0,0,0,0,0,0,0,0,0,0,0,0,0,0,0,0,0,0,0,0,0,0,0,0,0,0,0,0,0,0,0,0,0,0,0,0,0,0,0,0,0],"split_type":[0,0,0,0,0,0,0,0,0,0,0,0,0,0,0,0,0,0,0,0,0,0,0,0,0,0,0,0,0,0,0,0,0,0,0,0,0,0,0,0,0,0,0,0,0,0,0,0,0,0,0,0,0,0,0,0,0,0,0,0,0,0,0,0,0,0,0,0,0,0,0,0,0,0,0,0,0,0,0,0,0,0,0,0,0,0,0,0,0,0,0,0,0,0,0,0,0,0,0,0,0,0,0,0,0,0,0,0,0,0,0,0,0,0,0,0,0,0,0,0,0,0,0],"sum_hessian":[7.8002E4,6.6928E4,1.1074E4,1.6598E4,5.033E4,9.226E3,1.848E3,5.545E3,1.1053E4,6.371E3,4.3959E4,6.95E2,8.531E3,3.25E2,1.523E3,1.343E3,4.202E3,1.791E3,9.262E3,3.353E3,3.018E3,2.5236E4,1.8723E4,5.56E2,1.39E2,5.77E2,7.954E3,1.92E2,1.33E2,1.459E3,6.4E1,2.28E2,1.115E3,7.12E2,3.49E3,5.27E2,1.264E3,1.497E3,7.765E3,1.495E3,1.858E3,1.337E3,1.681E3,2.3849E4,1.387E3,6.683E3,1.204E4,4.01E2,1.55E2,8.7E1,5.2E1,2.99E2,2.78E2,2.71E2,7.683E3,6.2E1,1.3E2,6.6E1,6.7E1,1.272E3,1.87E2,3.4E1,3E1,1.06E2,1.22E2,4.81E2,6.34E2,4.4E1,6.68E2,2.32E3,1.17E3,4.2E1,4.85E2,1.27E2,1.137E3,1.327E3,1.7E2,5.716E3,2.049E3,1.126E3,3.69E2,7.32E2,1.126E3,9.72E2,3.65E2,1.373E3,3.08E2,3.999E3,1.985E4,3.49E2,1.038E3,5.143E3,1.54E3,8.906E3,3.134E3,9.9E1,3.02E2,5.3E1,1.02E2,4.5E1,4.2E1,3.3E1,1.9E1,2.56E2,4.3E1,1.64E2,1.14E2,2.06E2,6.5E1,6.922E3,7.61E2,5.6E1,6E0,9.3E1,3.7E1,1.7E1,4.9E1,5.1E1,1.6E1,8.3E2,4.42E2,1.27E2,6E1],"tree_param":{"num_deleted":"0","num_feature":"6","num_nodes":"123","size_leaf_vector":"0"}},{"base_weights":[-1.2950909E-2,-4.3923777E-2,2.3193904E-3,-7.839089E-2,-5.95801E-3,-1.6428564E-2,3.0259809E-2,-5.9910998E-2,-1.6209742E-1,1.7029518E-1,-5.179156E-2,-5.9897523E-2,-5.588024E-3,1.3652213E-1,1.506082E-3,-3.5641525E-2,-9.587693E-2,-3.7488204E-1,2.039399E-1,-4.5328017E-2,3.5553312E-1,-1.2520036E-1,2.048991E-2,2.1047166E-1,-1.1431366E-1,-3.0922836E-2,4.4063594E-2,-1.9016814E-1,2.1534361E-1,6.2055625E-2,-2.3899559E-2,1.17427036E-1,-5.7778843E-2,-4.2327565E-1,-4.619246E-2,-4.1943425E-1,-1.2112356E-1,4.9926004E-1,-4.970017E-2,1.5854511E-2,-5.961063E-1,4.5150304E-1,-1.13439016E-1,-5.3607956E-2,-2.1636015E-1,-4.787637E-2,1.09590866E-1,2.8393117E-1,8.618094E-2,-1.9263831E-1,2.0985777E-2,-5.0449627E-3,-1.2978116E-1,-1.4314691E-2,2.0805517E-1,5.5489074E-2,-3.211099E-1,4.1229433E-1,-5.020334E-3,1.431871E-1,-5.9548788E-2,-6.850809E-2,2.152161E-3,-9.4621736E-1,1.6375679E-1,-2.4130216E-1,-2.9817551E-2,-6.965602E-2,-5.7453454E-1,1.6175507E-2,-2.4820587E-1,-3.1527346E-1,-4.814706E-1,-3.8786444E-1,-5.8384288E-2,3.2038382E-1,6.3094366E-1,5.9905857E-2,-5.799643E-1,3.6712977E-1,-2.463688E-2,-3.347133E-1,-7.8617996E-1,2.4114604E-1,6.0093737E-1,1.9210078E-1,-3.0149183E-1,1.0518617E-1,-2.1496531E-1,-3.1283584E-1,-1.260137E-1,-1.150353E-1,1.722078E-2,3.0610984E-2,1.7718253E-1,2.3674554E-1,5.019543E-1,1.4496069E-1,-1.9935368E-1,-4.7494838E-1,-1.23508915E-1,-1.705491E-1,1.4539902E-1,-8.861144E-2,2.9323054E-2,-3.046334E-1,-5.527742E-2,7.3805206E-2,-5.1606063E-2,1.4917661E-1,3.1319824E-1,-8.674881E-2,2.4290636E-1,-3.9430064E-1,-1.714631E-1,2.3980275E-1,6.0673076E-1,-1.9456199E-1,7.936781E-2,3.1487694E-1,-9.235632E-3,-1.6176464E-1,2.9885923E-2,-1.6431181E-1,1.3716109E-2,6.84528E-2,-5.627105E-2],"categories":[],"categories_nodes":[],"categories_segments":[],"categories_sizes":[],"default_left":[1,1,1,1,1,1,1,1,1,1,1,1,1,1,1,1,1,1,1,1,1,1,1,1,1,1,1,1,1,1,1,1,1,1,1,1,1,1,1,1,1,1,1,1,1,1,1,1,1,1,1,1,1,1,1,1,1,1,1,1,1,1,1,0,0,0,0,0,0,0,0,0,0,0,0,0,0,0,0,0,0,0,0,0,0,0,0,0,0,0,0,0,0,0,0,0,0,0,0,0,0,0,0,0,0,0,0,0,0,0,0,0,0,0,0,0,0,0,0,0,0,0,0,0,0,0,0],"id":10,"left_children":[1,3,5,7,9,11,13,15,17,19,21,23,25,27,29,31,33,35,37,39,41,43,45,47,49,51,53,55,57,59,61,63,65,67,69,71,73,75,77,79,81,83,85,87,89,91,93,95,97,99,101,103,105,107,109,111,113,115,117,119,121,123,125,-1,-1,-1,-1,-1,-1,-1,-1,-1,-1,-1,-1,-1,-1,-1,-1,-1,-1,-1,-1,-1,-1,-1,-1,-1,-1,-1,-1,-1,-1,-1,-1,-1,-1,-1,-1,-1,-1,-1,-1,-1,-1,-1,-1,-1,-1,-1,-1,-1,-1,-1,-1,-1,-1,-1,-1,-1,-1,-1,-1,-1,-1,-1,-1],"loss_changes":[3.6892788E1,3.370569E1,2.7368292E1,2.0874817E1,9.903273E1,1.4733521E1,6.410287E1,9.6514435E0,1.9019888E2,1.0106837E2,5.162557E1,9.184444E1,3.1483185E1,1.15092896E2,2.540343E1,2.2391396E1,7.246457E1,1.7404892E1,6.728952E1,3.943612E1,6.1306046E1,3.1491096E1,2.9871878E1,9.525867E0,5.5067513E1,4.239455E1,8.095689E1,2.7970755E1,1.5624509E2,4.816421E1,1.3519195E1,4.130239E1,2.9612106E1,3.1357498E1,4.8762783E1,8.332504E0,3.8599043E0,9.573212E0,2.8164892E1,1.5000745E1,5.549877E0,3.5376144E1,1.33880825E1,6.933174E1,1.8465157E1,1.2133878E1,1.1359991E1,6.6400948E0,6.574523E0,6.416825E1,4.544377E1,3.77265E1,4.4770496E1,2.0499287E1,1.3696564E1,8.098397E0,6.1426086E0,6.361148E1,2.7207058E1,7.6627014E1,1.7867607E1,3.3788353E1,2.845468E1,0E0,0E0,0E0,0E0,0E0,0E0,0E0,0E0,0E0,0E0,0E0,0E0,0E0,0E0,0E0,0E0,0E0,0E0,0E0,0E0,0E0,0E0,0E0,0E0,0E0,0E0,0E0,0E0,0E0,0E0,0E0,0E0,0E0,0E0,0E0,0E0,0E0,0E0,0E0,0E0,0E0,0E0,0E0,0E0,0E0,0E0,0E0,0E0,0E0,0E0,0E0,0E0,0E0,0E0,0E0,0E0,0E0,0E0,0E0,0E0,0E0,0E0,0E0,0E0],"parents":[2147483647,0,0,1,1,2,2,3,3,4,4,5,5,6,6,7,7,8,8,9,9,10,10,11,11,12,12,13,13,14,14,15,15,16,16,17,17,18,18,19,19,20,20,21,21,22,22,23,23,24,24,25,25,26,26,27,27,28,28,29,29,30,30,31,31,32,32,33,33,34,34,35,35,36,36,37,37,38,38,39,39,40,40,41,41,42,42,43,43,44,44,45,45,46,46,47,47,48,48,49,49,50,50,51,51,52,52,53,53,54,54,55,55,56,56,57,57,58,58,59,59,60,60,61,61,62,62],"right_children":[2,4,6,8,10,12,14,16,18,20,22,24,26,28,30,32,34,36,38,40,42,44,46,48,50,52,54,56,58,60,62,64,66,68,70,72,74,76,78,80,82,84,86,88,90,92,94,96,98,100,102,104,106,108,110,112,114,116,118,120,122,124,126,-1,-1,-1,-1,-1,-1,-1,-1,-1,-1,-1,-1,-1,-1,-1,-1,-1,-1,-1,-1,-1,-1,-1,-1,-1,-1,-1,-1,-1,-1,-1,-1,-1,-1,-1,-1,-1,-1,-1,-1,-1,-1,-1,-1,-1,-1,-1,-1,-1,-1,-1,-1,-1,-1,-1,-1,-1,-1,-1,-1,-1,-1,-1,-1],"split_conditions":[2.0205E3,7.5E0,6.5E0,6.5E0,8.5E0,6.5E0,7.5E0,1.85E1,2.05E1,2.0195E3,1.05E1,1.5E0,4.5E0,5.5E0,9.5E0,1.5E0,1.5E0,1.75E1,2.0195E3,2.85E1,2.65E1,1.75E1,1.75E1,3.5E0,2.0225E3,2.55E1,2.45E1,1.5E0,1.65E1,1.05E1,1.75E1,2.0195E3,2.5E0,2.25E1,5.5E0,8.5E0,1.5E0,9.5E0,4.5E0,3.5E0,8.5E0,1.15E1,3.5E0,9.5E0,9.5E0,1.15E1,2.0195E3,5.5E0,4.5E0,2.5E0,2.5E0,2.0215E3,1.5E0,2.0215E3,2.0225E3,2.0225E3,2.0225E3,1.15E1,1.5E0,2.0215E3,2.0215E3,2.0215E3,2.0215E3,-2.838652E-1,4.912704E-2,-7.239065E-2,-8.945266E-3,-2.0896807E-2,-1.7236036E-1,4.852652E-3,-7.4461766E-2,-9.458204E-2,-1.4444119E-1,-1.1635934E-1,-1.7515287E-2,9.611515E-2,1.892831E-1,1.7971758E-2,-1.739893E-1,1.1013894E-1,-7.391064E-3,-1.00414E-1,-2.35854E-1,7.234382E-2,1.8028122E-1,5.7630237E-2,-9.044755E-2,3.1555854E-2,-6.4489596E-2,-9.3850754E-2,-3.780411E-2,-3.4510594E-2,5.1662344E-3,9.183296E-3,5.315476E-2,7.1023665E-2,1.505863E-1,4.348821E-2,-5.9806105E-2,-1.4248452E-1,-3.7052676E-2,-5.116473E-2,4.3619707E-2,-2.6583433E-2,8.796916E-3,-9.139003E-2,-1.6583227E-2,2.2141563E-2,-1.5481819E-2,4.4752985E-2,9.395947E-2,-2.6024643E-2,7.287191E-2,-1.1829019E-1,-5.143893E-2,7.1940824E-2,1.8201923E-1,-5.8368597E-2,2.3810344E-2,9.446309E-2,-2.7706895E-3,-4.8529394E-2,8.965777E-3,-4.9293544E-2,4.1148327E-3,2.053584E-2,-1.6881315E-2],"split_indices":[0,1,1,1,1,2,1,2,2,0,1,1,1,2,2,1,1,2,0,2,2,2,2,5,0,2,2,5,2,1,2,0,1,2,1,3,5,3,5,2,3,2,5,1,1,1,0,2,2,1,5,0,1,0,0,0,0,2,5,0,0,0,0,0,0,0,0,0,0,0,0,0,0,0,0,0,0,0,0,0,0,0,0,0,0,0,0,0,0,0,0,0,0,0,0,0,0,0,0,0,0,0,0,0,0,0,0,0,0,0,0,0,0,0,0,0,0,0,0,0,0,0,0,0,0,0,0],"split_type":[0,0,0,0,0,0,0,0,0,0,0,0,0,0,0,0,0,0,0,0,0,0,0,0,0,0,0,0,0,0,0,0,0,0,0,0,0,0,0,0,0,0,0,0,0,0,0,0,0,0,0,0,0,0,0,0,0,0,0,0,0,0,0,0,0,0,0,0,0,0,0,0,0,0,0,0,0,0,0,0,0,0,0,0,0,0,0,0,0,0,0,0,0,0,0,0,0,0,0,0,0,0,0,0,0,0,0,0,0,0,0,0,0,0,0,0,0,0,0,0,0,0,0,0,0,0,0],"sum_hessian":[7.8002E4,2.5757E4,5.2245E4,1.35E4,1.2257E4,3.1266E4,2.0979E4,1.106E4,2.44E3,2.529E3,9.728E3,6.24E3,2.5026E4,4.467E3,1.6512E4,6.605E3,4.455E3,1.543E3,8.97E2,1.169E3,1.36E3,4.826E3,4.902E3,1.045E3,5.195E3,1.6571E4,8.455E3,8.68E2,3.599E3,4.88E3,1.1632E4,8.34E2,5.771E3,5.86E2,3.869E3,1.312E3,2.31E2,4.14E2,4.83E2,1.053E3,1.16E2,1.129E3,2.31E2,2.704E3,2.122E3,2.774E3,2.128E3,6.56E2,3.89E2,3.29E3,1.905E3,1.3134E4,3.437E3,6.236E3,2.219E3,3.02E2,5.66E2,1.9E3,1.699E3,2.927E3,1.953E3,4.288E3,7.344E3,3.4E1,8E2,7.62E2,5.009E3,1.76E2,4.1E2,2.957E3,9.12E2,4.92E2,8.2E2,4.3E1,1.88E2,1.77E2,2.37E2,4.01E2,8.2E1,1.08E2,9.45E2,5E1,6.6E1,4.7E2,6.59E2,8.8E1,1.43E2,1.363E3,1.341E3,1.025E3,1.097E3,1.365E3,1.409E3,9.82E2,1.146E3,5.41E2,1.15E2,3.23E2,6.6E1,6.46E2,2.644E3,7.5E2,1.155E3,3.827E3,9.307E3,1.026E3,2.411E3,1.854E3,4.382E3,1.424E3,7.95E2,1.72E2,1.3E2,3.79E2,1.87E2,1.008E3,8.92E2,5.23E2,1.176E3,1.376E3,1.551E3,9.11E2,1.042E3,1.98E3,2.308E3,3.44E3,3.904E3],"tree_param":{"num_deleted":"0","num_feature":"6","num_nodes":"127","size_leaf_vector":"0"}},{"base_weights":[-9.076186E-3,3.5238336E-3,-4.0640943E-2,-3.7499662E-2,1.7043345E-2,-3.6724538E-2,-1.3549885E-1,2.077905E-2,-4.8962403E-2,2.8216884E-2,-3.9386205E-2,-6.9592066E-2,-2.6585989E-2,-1.15786746E-1,-1.8865718E-1,-1.141853E-2,4.748994E-2,-9.134399E-2,-3.8532045E-2,-5.692203E-4,4.2500447E-2,-1.900588E-2,-9.830798E-2,7.548704E-2,-8.229065E-2,8.216984E-2,-3.6785528E-2,-9.6585795E-2,-1.6534127E-1,-1.9631119E-1,-8.46271E-2,3.4029454E-2,-2.4365192E-2,1.1974487E-1,-1.6407201E-2,-9.954075E-2,-4.7206067E-2,-7.815559E-2,-3.1047512E-2,-3.368987E-2,3.648008E-2,1.8416306E-2,6.635759E-2,2.6199307E-2,-3.424142E-2,-8.008016E-2,-1.3459814E-1,1.2887688E-1,-7.4909575E-2,-2.8222522E-1,-6.2604666E-2,4.0654665E-1,2.269985E-2,-1.0781505E-1,-3.003448E-2,-1.19208835E-1,-3.1448234E-2,-3.0590737E-1,-1.1726115E-1,-2.4609032E-1,-1.8523435E-1,1.8465286E-2,-2.1580075E-1,1.7201184E-1,-2.6923785E-1,-7.316781E-2,5.8582764E-2,3.2675177E-2,1.7358895E-1,-7.406466E-2,2.7339563E-2,-8.403522E-2,-1.9877496E-1,-3.7905595E-1,-6.7407954E-3,-1.4282508E-1,-2.5991369E-2,-6.2974714E-2,-1.7205313E-2,-7.836131E-2,-7.74665E-3,1.8100296E-1,1.2103168E-3,4.5881044E-2,-2.2223266E-2,5.2303944E-2,1.7273146E-1,-3.7829928E-2,7.34158E-2,-5.038055E-2,3.0759549E-2,-2.1030508E-2,-9.259168E-2,-3.239911E-1,-1.2743463E-1,7.861377E-2,2.5934047E-1,1.4038928E-1,-2.161856E-1,-3.2435276E-2,-4.234934E-1,1.4567545E-1,-8.628008E-2,6.2401026E-1,-4.9420904E-2,-1.4386962E-1,8.1877455E-2,2.874657E-2,-4.4328704E-1,-4.2799443E-2,4.5746397E-2,-9.712305E-2,-2.4548866E-1,1.3223724E-2,-2.0530438E-1,-7.1064085E-1,-2.4908847E-1,-1.4526898E-1,-5.80173E-2,-3.2262477E-1,-1.5660375E-1,-1.2926218E-1,-2.1330862E-1,7.265444E-2,-2.6171315E-1],"categories":[],"categories_nodes":[],"categories_segments":[],"categories_sizes":[],"default_left":[1,1,1,1,1,1,1,1,1,1,1,1,1,1,1,1,1,1,1,1,1,1,1,1,1,1,1,1,1,1,1,1,1,1,1,1,1,1,1,1,1,1,1,1,1,1,1,1,1,1,1,1,1,1,1,1,1,1,1,1,1,1,0,0,0,0,0,0,0,0,0,0,0,0,0,0,0,0,0,0,0,0,0,0,0,0,0,0,0,0,0,0,0,0,0,0,0,0,0,0,0,0,0,0,0,0,0,0,0,0,0,0,0,0,0,0,0,0,0,0,0,0,0,0,0],"id":11,"left_children":[1,3,5,7,9,11,13,15,17,19,21,23,25,27,29,31,33,35,37,39,41,43,45,47,49,51,53,55,57,59,61,63,65,67,69,71,73,75,77,79,81,83,85,87,89,91,93,95,97,99,101,103,105,107,109,111,113,115,117,119,121,123,-1,-1,-1,-1,-1,-1,-1,-1,-1,-1,-1,-1,-1,-1,-1,-1,-1,-1,-1,-1,-1,-1,-1,-1,-1,-1,-1,-1,-1,-1,-1,-1,-1,-1,-1,-1,-1,-1,-1,-1,-1,-1,-1,-1,-1,-1,-1,-1,-1,-1,-1,-1,-1,-1,-1,-1,-1,-1,-1,-1,-1,-1,-1],"loss_changes":[3.1023232E1,3.092057E1,8.262424E0,9.232578E0,2.6439981E1,7.1202526E0,9.0237045E-1,1.9545213E0,5.1013336E0,1.4391731E1,8.321189E0,9.287712E0,1.8123884E1,5.9869576E-1,1.720972E-1,6.074692E-1,5.7361336E0,8.201752E-1,2.7464218E0,1.4246598E1,1.3440479E1,3.5485215E0,1.1673355E0,3.2696924E0,1.8217392E1,2.701702E1,7.158928E0,6.859002E-1,1.1738892E0,7.5722694E-2,2.4739888E-1,9.6289425E0,3.2548926E0,2.727541E0,1.6667609E0,2.9406376E0,4.8182387E0,4.961982E0,3.4451857E0,7.103579E0,2.7932922E1,1.2996415E1,1.7559502E1,3.9299607E0,4.043575E0,8.757496E-1,7.646017E-1,1.9468641E0,3.2849226E0,1.463052E1,2.081695E1,2.1547764E1,1.1692541E1,5.9385868E1,1.3197446E1,9.439368E-1,9.5022726E-1,8.578305E-1,2.1557617E-1,2.0288157E-1,2.6156092E-1,1.8602358E-1,0E0,0E0,0E0,0E0,0E0,0E0,0E0,0E0,0E0,0E0,0E0,0E0,0E0,0E0,0E0,0E0,0E0,0E0,0E0,0E0,0E0,0E0,0E0,0E0,0E0,0E0,0E0,0E0,0E0,0E0,0E0,0E0,0E0,0E0,0E0,0E0,0E0,0E0,0E0,0E0,0E0,0E0,0E0,0E0,0E0,0E0,0E0,0E0,0E0,0E0,0E0,0E0,0E0,0E0,0E0,0E0,0E0,0E0,0E0,0E0,0E0,0E0,0E0],"parents":[2147483647,0,0,1,1,2,2,3,3,4,4,5,5,6,6,7,7,8,8,9,9,10,10,11,11,12,12,13,13,14,14,15,15,16,16,17,17,18,18,19,19,20,20,21,21,22,22,23,23,24,24,25,25,26,26,27,27,28,28,29,29,30,30,31,31,32,32,33,33,34,34,35,35,36,36,37,37,38,38,39,39,40,40,41,41,42,42,43,43,44,44,45,45,46,46,47,47,48,48,49,49,50,50,51,51,52,52,53,53,54,54,55,55,56,56,57,57,58,58,59,59,60,60,61,61],"right_children":[2,4,6,8,10,12,14,16,18,20,22,24,26,28,30,32,34,36,38,40,42,44,46,48,50,52,54,56,58,60,62,64,66,68,70,72,74,76,78,80,82,84,86,88,90,92,94,96,98,100,102,104,106,108,110,112,114,116,118,120,122,124,-1,-1,-1,-1,-1,-1,-1,-1,-1,-1,-1,-1,-1,-1,-1,-1,-1,-1,-1,-1,-1,-1,-1,-1,-1,-1,-1,-1,-1,-1,-1,-1,-1,-1,-1,-1,-1,-1,-1,-1,-1,-1,-1,-1,-1,-1,-1,-1,-1,-1,-1,-1,-1,-1,-1,-1,-1,-1,-1,-1,-1,-1,-1],"split_conditions":[4.5E0,5.5E0,2.25E1,5E-1,2.05E1,7.5E0,3.75E1,5.5E0,5E-1,2.0205E3,3.75E1,1.5E0,9.5E0,8.5E0,2.85E1,1.5E0,8.5E0,2.65E1,2.5E0,7.5E0,5.5E0,3.5E0,2.25E1,4.5E0,2.5E0,1.5E0,1.5E0,6.5E0,9.5E0,2.5E0,2.0215E3,2.0225E3,1.95E1,1.15E1,2.0205E3,2.25E1,1.5E0,2.0215E3,9.5E0,1.15E1,8.5E0,3.5E0,2.0225E3,2.0215E3,1.05E1,2.5E0,1.5E0,1.65E1,8.5E0,4.5E0,3.5E0,2.0225E3,4.5E0,2.0225E3,2.0225E3,5.5E0,2.45E1,4.5E0,2.0215E3,2.0215E3,5.5E0,3.05E1,-6.4740226E-2,5.1603552E-2,-8.077136E-2,-2.1950344E-2,1.757483E-2,9.802554E-3,5.2076686E-2,-2.2219397E-2,8.201869E-3,-2.5210567E-2,-5.963249E-2,-1.1371679E-1,-2.0222387E-3,-4.2847525E-2,-7.797411E-3,-1.8892415E-2,-5.161594E-3,-2.3508394E-2,-2.323995E-3,5.430089E-2,3.6309505E-4,1.3764313E-2,-6.66698E-3,1.5691184E-2,5.181944E-2,-1.1348979E-2,2.2024741E-2,-1.5114166E-2,9.227865E-3,-6.3091526E-3,-2.7777506E-2,-9.719733E-2,-3.823039E-2,2.3584133E-2,7.7802144E-2,4.2116784E-2,-6.485568E-2,-9.730583E-3,-1.2704802E-1,4.3702636E-2,-2.5884025E-2,1.8720308E-1,-1.4826272E-2,-4.316089E-2,2.4563238E-2,8.623972E-3,-1.3298611E-1,-1.2839833E-2,1.372392E-2,-2.9136917E-2,-7.36466E-2,3.9671175E-3,-6.1591316E-2,-2.1319227E-1,-7.4726544E-2,-4.3580696E-2,-1.740519E-2,-9.678744E-2,-4.698113E-2,-3.8778655E-2,-6.399259E-2,2.1796333E-2,-7.851395E-2],"split_indices":[5,3,3,3,3,2,4,1,5,0,4,1,2,1,2,1,1,2,1,1,1,1,3,2,1,1,1,1,1,1,0,0,2,2,0,2,1,0,2,2,1,1,0,0,1,1,2,3,3,2,1,0,1,0,0,1,2,2,0,0,1,2,0,0,0,0,0,0,0,0,0,0,0,0,0,0,0,0,0,0,0,0,0,0,0,0,0,0,0,0,0,0,0,0,0,0,0,0,0,0,0,0,0,0,0,0,0,0,0,0,0,0,0,0,0,0,0,0,0,0,0,0,0,0,0],"split_type":[0,0,0,0,0,0,0,0,0,0,0,0,0,0,0,0,0,0,0,0,0,0,0,0,0,0,0,0,0,0,0,0,0,0,0,0,0,0,0,0,0,0,0,0,0,0,0,0,0,0,0,0,0,0,0,0,0,0,0,0,0,0,0,0,0,0,0,0,0,0,0,0,0,0,0,0,0,0,0,0,0,0,0,0,0,0,0,0,0,0,0,0,0,0,0,0,0,0,0,0,0,0,0,0,0,0,0,0,0,0,0,0,0,0,0,0,0,0,0,0,0,0,0,0,0],"sum_hessian":[7.8002E4,5.5749E4,2.2253E4,1.3818E4,4.1931E4,2.1372E4,8.81E2,2.271E3,1.1547E4,3.5001E4,6.93E3,5.037E3,1.6335E4,6.45E2,2.36E2,1.03E3,1.241E3,2.279E3,9.268E3,1.1608E4,2.3393E4,5.15E3,1.78E3,4.05E2,4.632E3,1.4E3,1.4935E4,4.67E2,1.78E2,2.19E2,1.7E1,2.28E2,8.02E2,5.82E2,6.59E2,1.921E3,3.58E2,1.471E3,7.797E3,6.129E3,5.479E3,1.1642E4,1.1751E4,1.298E3,3.852E3,1.187E3,5.93E2,2.99E2,1.06E2,4.14E2,4.218E3,2.16E2,1.184E3,1.295E3,1.364E4,3.46E2,1.21E2,4.4E1,1.34E2,3.6E1,1.83E2,1E1,7E0,1.57E2,7.1E1,5.05E2,2.97E2,2.23E2,3.59E2,2.84E2,3.75E2,1.663E3,2.58E2,3.8E1,3.2E2,6.56E2,8.15E2,2.357E3,5.44E3,2.251E3,3.878E3,1.074E3,4.405E3,6.947E3,4.695E3,1.0381E4,1.37E3,5.51E2,7.47E2,3.086E3,7.66E2,2.08E2,9.79E2,2E1,5.73E2,2.17E2,8.2E1,4.2E1,6.4E1,1.5E2,2.64E2,4.3E2,3.788E3,1.46E2,7E1,3.1E2,8.74E2,9.21E2,3.74E2,1.1674E4,1.966E3,2.96E2,5E1,9.7E1,2.4E1,4E0,4E1,9E1,4.4E1,1.8E1,1.8E1,6.3E1,1.2E2,9E0,1E0],"tree_param":{"num_deleted":"0","num_feature":"6","num_nodes":"125","size_leaf_vector":"0"}},{"base_weights":[-6.3688373E-3,-2.5516273E-2,7.263619E-3,2.605506E-2,-3.1123932E-2,6.109638E-2,-1.4619666E-2,4.2259816E-2,-2.0750921E-2,-6.380153E-2,-2.035471E-2,1.28442915E-2,8.6773194E-2,-8.6233495E-3,-6.955436E-2,1.2990662E-2,6.543895E-2,-6.0602818E-2,-3.6353865E-3,8.601676E-3,-9.939434E-2,-4.8598047E-2,2.1263873E-3,8.992509E-2,-1.3881436E-2,1.2700605E-1,9.503197E-3,-5.0199658E-2,-2.5366833E-3,-1.1286047E-2,-8.861665E-2,-1.1914672E-2,4.772582E-2,1.1458688E-1,2.1147013E-2,-4.0535673E-2,-1.0853542E-1,9.583745E-3,-4.8857525E-2,2.8935991E-2,-3.241115E-2,-7.554156E-2,-1.1808806E-1,-2.6371038E-2,-7.132663E-2,-2.125845E-2,4.9490113E-2,9.7247146E-2,-9.658911E-2,2.314122E-3,-9.666936E-2,6.2026296E-2,1.8253943E-1,1.10212564E-1,-2.3150112E-2,-2.0145538E-1,-4.0064104E-2,-3.6295738E-2,6.944285E-3,-8.5288845E-2,-1.9667158E-3,-6.365792E-2,-1.0940826E-1,-2.1176195E-2,9.22379E-2,7.8316465E-2,6.0238317E-3,6.404013E-2,1.8256524E-1,-2.6129398E-2,5.6284726E-2,1.4006373E-1,-6.741966E-2,-3.577514E-1,-6.256911E-2,3.7390374E-2,-3.435148E-2,-1.881285E-1,-3.1775035E-2,5.885885E-3,5.778903E-2,-1.0151653E-1,-2.3861535E-2,-9.017883E-2,-2.4712842E-3,-8.983997E-2,-1.754279E-1,4.8775086E-3,-4.1554406E-2,-8.578179E-2,-5.3841945E-2,-4.4981134E-3,-6.351702E-2,7.329712E-2,-9.194737E-3,1.8214639E-1,8.4020354E-2,-2.0689483E-1,5.1637784E-2,2.531591E-2,-4.3401945E-2,-2.8110072E-1,-2.3394113E-2,-2.451612E-1,9.530469E-2,1.0453496E-1,2.3521434E-1,3.3942975E-2,1.451908E-1,-4.8968054E-2,8.344687E-2,-3.6096263E-1,-6.422518E-2,4.5388702E-2,-5.124041E-2,-1.3474895E-1,2.3397885E-2,5.5313643E-2,-1.2560198E-2,-2.1052265E-1,-6.320873E-3,1.5260301E-2,-4.665853E-2,-1.389136E-1,-4.5517646E-2,-1.5561207E-1,-8.7327845E-2],"categories":[],"categories_nodes":[],"categories_segments":[],"categories_sizes":[],"default_left":[1,1,1,1,1,1,1,1,1,1,1,1,1,1,1,1,1,1,1,1,1,1,1,1,1,1,1,1,1,1,1,1,1,1,1,1,1,1,1,1,1,1,1,1,1,1,1,1,1,1,1,1,1,1,1,1,1,1,1,1,1,1,1,0,0,0,0,0,0,0,0,0,0,0,0,0,0,0,0,0,0,0,0,0,0,0,0,0,0,0,0,0,0,0,0,0,0,0,0,0,0,0,0,0,0,0,0,0,0,0,0,0,0,0,0,0,0,0,0,0,0,0,0,0,0,0,0],"id":12,"left_children":[1,3,5,7,9,11,13,15,17,19,21,23,25,27,29,31,33,35,37,39,41,43,45,47,49,51,53,55,57,59,61,63,65,67,69,71,73,75,77,79,81,83,85,87,89,91,93,95,97,99,101,103,105,107,109,111,113,115,117,119,121,123,125,-1,-1,-1,-1,-1,-1,-1,-1,-1,-1,-1,-1,-1,-1,-1,-1,-1,-1,-1,-1,-1,-1,-1,-1,-1,-1,-1,-1,-1,-1,-1,-1,-1,-1,-1,-1,-1,-1,-1,-1,-1,-1,-1,-1,-1,-1,-1,-1,-1,-1,-1,-1,-1,-1,-1,-1,-1,-1,-1,-1,-1,-1,-1,-1],"loss_changes":[2.036104E1,9.382278E0,5.3677006E1,2.4143589E0,1.0295305E1,1.6314743E1,1.0670831E1,1.6029673E0,5.584085E-1,1.8689503E1,1.3973889E1,9.425932E0,2.6718872E1,7.3915343E0,3.54E0,9.0545356E-1,2.8688512E0,2.3222059E-1,3.4360394E-1,1.9949548E0,2.159031E0,4.925726E0,1.3574604E1,1.6181498E0,4.5562506E0,2.038417E1,9.683878E0,5.710246E0,8.155599E0,5.42592E-1,1.2395096E0,5.903662E-1,5.5700505E-1,2.1358614E0,1.1559942E0,8.591088E-1,8.024145E-1,5.4493666E-1,3.0330455E-1,1.0630999E0,4.661014E-1,2.2875433E0,4.3964157E0,2.3407047E0,1.2141113E0,5.8110514E0,5.660369E0,1.2581148E0,7.464459E-1,2.990659E0,7.50735E0,2.6663742E1,1.2495171E1,1.918539E0,6.1247897E0,5.098893E0,3.342125E0,3.2838116E1,1.8769077E1,8.689417E-1,5.396466E-1,1.4871607E0,1.3218517E0,0E0,0E0,0E0,0E0,0E0,0E0,0E0,0E0,0E0,0E0,0E0,0E0,0E0,0E0,0E0,0E0,0E0,0E0,0E0,0E0,0E0,0E0,0E0,0E0,0E0,0E0,0E0,0E0,0E0,0E0,0E0,0E0,0E0,0E0,0E0,0E0,0E0,0E0,0E0,0E0,0E0,0E0,0E0,0E0,0E0,0E0,0E0,0E0,0E0,0E0,0E0,0E0,0E0,0E0,0E0,0E0,0E0,0E0,0E0,0E0,0E0,0E0,0E0,0E0],"parents":[2147483647,0,0,1,1,2,2,3,3,4,4,5,5,6,6,7,7,8,8,9,9,10,10,11,11,12,12,13,13,14,14,15,15,16,16,17,17,18,18,19,19,20,20,21,21,22,22,23,23,24,24,25,25,26,26,27,27,28,28,29,29,30,30,31,31,32,32,33,33,34,34,35,35,36,36,37,37,38,38,39,39,40,40,41,41,42,42,43,43,44,44,45,45,46,46,47,47,48,48,49,49,50,50,51,51,52,52,53,53,54,54,55,55,56,56,57,57,58,58,59,59,60,60,61,61,62,62],"right_children":[2,4,6,8,10,12,14,16,18,20,22,24,26,28,30,32,34,36,38,40,42,44,46,48,50,52,54,56,58,60,62,64,66,68,70,72,74,76,78,80,82,84,86,88,90,92,94,96,98,100,102,104,106,108,110,112,114,116,118,120,122,124,126,-1,-1,-1,-1,-1,-1,-1,-1,-1,-1,-1,-1,-1,-1,-1,-1,-1,-1,-1,-1,-1,-1,-1,-1,-1,-1,-1,-1,-1,-1,-1,-1,-1,-1,-1,-1,-1,-1,-1,-1,-1,-1,-1,-1,-1,-1,-1,-1,-1,-1,-1,-1,-1,-1,-1,-1,-1,-1,-1,-1,-1,-1,-1,-1],"split_conditions":[9.5E0,5E-1,1.35E1,3.75E1,7.5E0,4.5E0,2.25E1,5.5E0,1.5E0,3.5E0,4.5E0,1.05E1,9.5E0,2.0195E3,7.5E0,3.5E0,8.5E0,2.15E1,9.5E0,2.5E0,5.5E0,2.5E0,3.75E1,2.95E1,2.55E1,6.5E0,1.05E1,2.5E0,1.55E1,2.0195E3,5.5E0,2.85E1,3.5E0,2.0215E3,2.0205E3,1.5E0,1.5E0,1.85E1,3.5E0,6.5E0,3.5E0,8.5E0,7.5E0,2.25E1,6.5E0,4.5E0,4.5E0,4.5E0,2E0,1.25E1,1.5E0,3.5E0,2.0205E3,1.05E1,2.55E1,2.5E0,4.5E0,4.5E0,3.5E0,1.65E1,4.5E0,1.5E0,7.5E0,-6.3528586E-3,2.767137E-2,2.349494E-2,1.8071496E-3,1.9212041E-2,5.4769576E-2,-7.83882E-3,1.6885418E-2,4.201912E-2,-2.02259E-2,-1.0732543E-1,-1.8770734E-2,1.1217113E-2,-1.0305444E-2,-5.6438554E-2,-9.532511E-3,1.7657656E-3,1.733671E-2,-3.045496E-2,-7.1584606E-3,-2.705365E-2,-7.4138533E-4,-2.6951993E-2,-5.2628372E-2,1.4632526E-3,-1.2466323E-2,-2.5734538E-2,-1.6152585E-2,-1.349434E-3,-1.9055106E-2,2.1989137E-2,-2.7584212E-3,5.4643918E-2,2.5206108E-2,-6.206845E-2,1.5491336E-2,7.5947735E-3,-1.3020584E-2,-8.4330216E-2,-7.018234E-3,-7.354836E-2,2.8591407E-2,3.136049E-2,7.056431E-2,1.0182893E-2,4.355724E-2,-1.4690417E-2,2.503406E-2,-1.08288795E-1,-1.9267555E-2,1.3616611E-2,-1.5372124E-2,-4.0424686E-2,7.0193657E-3,1.6594093E-2,-3.7680597E-3,-6.31568E-2,-1.8962619E-3,4.5780903E-3,-1.3997559E-2,-4.167408E-2,-1.3655295E-2,-4.668362E-2,-2.6198355E-2],"split_indices":[3,3,3,4,4,1,3,1,5,3,3,3,1,0,4,5,1,2,1,3,1,3,4,2,2,1,3,2,3,0,1,2,1,0,0,1,1,2,2,1,2,3,3,4,1,5,5,2,1,3,1,2,0,1,2,5,1,1,1,2,5,1,1,0,0,0,0,0,0,0,0,0,0,0,0,0,0,0,0,0,0,0,0,0,0,0,0,0,0,0,0,0,0,0,0,0,0,0,0,0,0,0,0,0,0,0,0,0,0,0,0,0,0,0,0,0,0,0,0,0,0,0,0,0,0,0,0],"split_type":[0,0,0,0,0,0,0,0,0,0,0,0,0,0,0,0,0,0,0,0,0,0,0,0,0,0,0,0,0,0,0,0,0,0,0,0,0,0,0,0,0,0,0,0,0,0,0,0,0,0,0,0,0,0,0,0,0,0,0,0,0,0,0,0,0,0,0,0,0,0,0,0,0,0,0,0,0,0,0,0,0,0,0,0,0,0,0,0,0,0,0,0,0,0,0,0,0,0,0,0,0,0,0,0,0,0,0,0,0,0,0,0,0,0,0,0,0,0,0,0,0,0,0,0,0,0,0],"sum_hessian":[7.8002E4,3.2439E4,4.5563E4,3.181E3,2.9258E4,1.3168E4,3.2395E4,2.363E3,8.18E2,7.251E3,2.2007E4,4.574E3,8.594E3,2.9208E4,3.187E3,1.045E3,1.318E3,2.45E2,5.73E2,2.39E3,4.861E3,9.753E3,1.2254E4,1.177E3,3.397E3,5.651E3,2.943E3,3.729E3,2.5479E4,7.86E2,2.401E3,6.09E2,4.36E2,6.24E2,6.94E2,1.74E2,7.1E1,4.44E2,1.29E2,1.598E3,7.92E2,2.138E3,2.723E3,4.932E3,4.821E3,8.204E3,4.05E3,1.133E3,4.4E1,2.842E3,5.55E2,2.605E3,3.046E3,7.2E2,2.223E3,2.33E2,3.496E3,5.586E3,1.9893E4,8.7E1,6.99E2,1.093E3,1.308E3,5.6E2,4.9E1,2.51E2,1.85E2,3.59E2,2.65E2,2.96E2,3.98E2,2.2E1,1.52E2,1E1,6.1E1,2.72E2,1.72E2,1.3E1,1.16E2,8.89E2,7.09E2,8.6E1,7.06E2,1.781E3,3.57E2,1.826E3,8.97E2,1.613E3,3.319E3,2.637E3,2.184E3,5.875E3,2.329E3,2.881E3,1.169E3,1.51E2,9.82E2,2.5E1,1.9E1,1.891E3,9.51E2,1.57E2,3.98E2,2.54E2,2.351E3,1.229E3,1.817E3,2.27E2,4.93E2,1.79E3,4.33E2,1.07E2,1.26E2,4.04E2,3.092E3,2.108E3,3.478E3,5.716E3,1.4177E4,3.3E1,5.4E1,5.05E2,1.94E2,2.11E2,8.82E2,4.21E2,8.87E2],"tree_param":{"num_deleted":"0","num_feature":"6","num_nodes":"127","size_leaf_vector":"0"}},{"base_weights":[-4.464783E-3,1.2989325E-3,-3.9295953E-2,-1.2965207E-2,1.1452234E-2,-1.4289978E-1,-3.607095E-2,-4.641783E-2,-6.396064E-3,5.5160087E-2,-6.225993E-3,-2.0134531E-1,2.5346113E-2,-3.1306565E-2,-8.969438E-2,-5.6384783E-2,7.910623E-3,-3.4354575E-2,6.296205E-4,2.5168039E-2,7.948447E-2,-9.740184E-3,3.6282778E-2,-1.2739614E-2,-3.26575E-1,8.95145E-2,-3.6533598E-2,-4.2716138E-2,8.4055E-3,-6.885588E-2,-1.4826928E-1,-4.4296905E-2,-1.3275024E-1,-4.735007E-2,2.7954313E-1,1.8713848E-1,-5.4289717E-2,-5.5453602E-2,6.0619013E-3,8.251733E-2,5.336124E-3,1.2099276E-1,1.8784521E-2,-3.0491678E-2,1.8521126E-4,-1.3841823E-1,7.861025E-2,-9.592789E-2,3.763965E-2,-1.582906E-1,-4.0745145E-1,-8.182922E-2,1.6649109E-1,4.8989326E-2,-9.0207845E-2,8.301501E-3,-4.9351234E-2,-6.9037983E-3,2.1649547E-1,6.682908E-2,-7.76548E-2,-1.0046653E-1,-1.7089747E-1,1.561391E-1,-6.409477E-2,-5.374235E-1,-7.26404E-2,-5.3365487E-1,-8.145755E-3,1.7911374E-3,3.721072E-1,-3.4323734E-1,2.1100132E-1,-2.6840755E-1,-3.3335466E-2,2.801531E-1,-2.6091298E-1,-6.683766E-3,7.8922905E-2,3.8780864E-2,1.0769045E-1,-8.2115255E-2,1.1903476E-2,5.1173396E-2,1.632264E-1,-1.6270459E-1,3.1126434E-2,7.3997867E-3,-4.6825252E-2,2.3011945E-3,-1.2917005E-1,-7.250392E-2,-1.8665427E-1,3.1132774E-2,1.8798664E-1,-2.212931E-1,-4.546515E-3,5.1965788E-2,-8.4393114E-2,-2.07653E-1,-1.353348E-1,-6.3367313E-1,-3.1067535E-1,-3.691052E-2,-1.8489835E-1,2.0921867E-1,-8.899051E-2,5.878634E-2,3.181398E-6,-7.423876E-2,-1.2750956E-1,2.9267522E-2,-3.6252845E-2,-4.0747914E-2,-8.033758E-2,9.397287E-2,-4.3880604E-2,1.1020915E-1,4.4227216E-1,-3.2091613E-3,2.772647E-1,-8.944341E-2,1.0127886E-2,-1.2497107E-1,-7.637767E-4,-1.8307152E-1,-2.4773262E-2],"categories":[],"categories_nodes":[],"categories_segments":[],"categories_sizes":[],"default_left":[1,1,1,1,1,1,1,1,1,1,1,1,1,1,1,1,1,1,1,1,1,1,1,1,1,1,1,1,1,1,1,1,1,1,1,1,1,1,1,1,1,1,1,1,1,1,1,1,1,1,1,1,1,1,1,1,1,1,1,1,1,1,1,0,0,0,0,0,0,0,0,0,0,0,0,0,0,0,0,0,0,0,0,0,0,0,0,0,0,0,0,0,0,0,0,0,0,0,0,0,0,0,0,0,0,0,0,0,0,0,0,0,0,0,0,0,0,0,0,0,0,0,0,0,0,0,0],"id":13,"left_children":[1,3,5,7,9,11,13,15,17,19,21,23,25,27,29,31,33,35,37,39,41,43,45,47,49,51,53,55,57,59,61,63,65,67,69,71,73,75,77,79,81,83,85,87,89,91,93,95,97,99,101,103,105,107,109,111,113,115,117,119,121,123,125,-1,-1,-1,-1,-1,-1,-1,-1,-1,-1,-1,-1,-1,-1,-1,-1,-1,-1,-1,-1,-1,-1,-1,-1,-1,-1,-1,-1,-1,-1,-1,-1,-1,-1,-1,-1,-1,-1,-1,-1,-1,-1,-1,-1,-1,-1,-1,-1,-1,-1,-1,-1,-1,-1,-1,-1,-1,-1,-1,-1,-1,-1,-1,-1],"loss_changes":[1.5659695E1,9.69335E0,3.6952534E0,6.1157064E0,3.0211252E1,3.2893987E0,2.7415886E0,2.4739685E0,4.569715E0,8.212601E0,4.159202E0,5.853359E0,3.4872305E-1,4.471074E0,1.0590472E0,3.557272E0,1.0655751E1,2.0639357E1,5.664876E0,5.7363343E0,1.56617775E1,5.2964416E0,1.5731911E1,4.227071E-1,1.9634323E0,5.807704E-1,2.1098629E-1,2.595066E0,7.019617E0,7.788248E-1,2.3053741E-1,1.324E1,1.2780152E1,1.1244148E1,3.0845175E0,4.9577446E0,1.9225441E1,1.13294815E2,1.574321E1,1.422698E0,2.1541183E0,1.0878342E1,5.663109E0,5.14962E0,4.7618184E0,1.3059368E0,8.884416E0,4.343236E-1,1.14525795E-1,2.8555036E-2,1.9924183E0,5.7991534E-2,3.4610176E-1,8.638341E-3,7.2127283E-3,8.258954E-1,1.8049755E0,7.662013E0,3.5748005E0,5.9043145E-1,6.311207E-1,1.8558556E-1,2.6941967E-1,0E0,0E0,0E0,0E0,0E0,0E0,0E0,0E0,0E0,0E0,0E0,0E0,0E0,0E0,0E0,0E0,0E0,0E0,0E0,0E0,0E0,0E0,0E0,0E0,0E0,0E0,0E0,0E0,0E0,0E0,0E0,0E0,0E0,0E0,0E0,0E0,0E0,0E0,0E0,0E0,0E0,0E0,0E0,0E0,0E0,0E0,0E0,0E0,0E0,0E0,0E0,0E0,0E0,0E0,0E0,0E0,0E0,0E0,0E0,0E0,0E0,0E0,0E0,0E0],"parents":[2147483647,0,0,1,1,2,2,3,3,4,4,5,5,6,6,7,7,8,8,9,9,10,10,11,11,12,12,13,13,14,14,15,15,16,16,17,17,18,18,19,19,20,20,21,21,22,22,23,23,24,24,25,25,26,26,27,27,28,28,29,29,30,30,31,31,32,32,33,33,34,34,35,35,36,36,37,37,38,38,39,39,40,40,41,41,42,42,43,43,44,44,45,45,46,46,47,47,48,48,49,49,50,50,51,51,52,52,53,53,54,54,55,55,56,56,57,57,58,58,59,59,60,60,61,61,62,62],"right_children":[2,4,6,8,10,12,14,16,18,20,22,24,26,28,30,32,34,36,38,40,42,44,46,48,50,52,54,56,58,60,62,64,66,68,70,72,74,76,78,80,82,84,86,88,90,92,94,96,98,100,102,104,106,108,110,112,114,116,118,120,122,124,126,-1,-1,-1,-1,-1,-1,-1,-1,-1,-1,-1,-1,-1,-1,-1,-1,-1,-1,-1,-1,-1,-1,-1,-1,-1,-1,-1,-1,-1,-1,-1,-1,-1,-1,-1,-1,-1,-1,-1,-1,-1,-1,-1,-1,-1,-1,-1,-1,-1,-1,-1,-1,-1,-1,-1,-1,-1,-1,-1,-1,-1,-1,-1,-1],"split_conditions":[5.5E0,9.5E0,1.5E0,5E-1,1.35E1,1E1,2.15E1,2.65E1,6.5E0,5.5E0,1.15E1,4E0,2.0195E3,1.65E1,3.75E1,2.25E1,2.0225E3,1.5E0,1.5E0,1.05E1,9.5E0,2.0205E3,1.55E1,2.0215E3,7.5E0,8.5E0,1.05E1,1.5E0,1.15E1,3.5E0,1.05E1,1.5E0,1.5E0,1.5E0,1.5E0,2.0195E3,2.5E0,1.55E1,2.0225E3,2.5E0,2.5E0,2.0205E3,2.5E0,1.65E1,3.05E1,2.0205E3,2.0215E3,9.5E0,2.15E1,2.02E3,2.02E3,6E0,2.15E1,8.5E0,2.05E1,2.15E1,9.5E0,3.5E0,2.0215E3,7.5E0,2.75E1,8.5E0,2.85E1,4.6841733E-2,-1.922843E-2,-1.6122705E-1,-2.179212E-2,-1.6009647E-1,-2.4437266E-3,5.373412E-4,1.1163217E-1,-1.029712E-1,6.33004E-2,-8.052227E-2,-1.00006405E-2,8.404593E-2,-7.82739E-2,-2.0051298E-3,2.3676872E-2,1.16342595E-2,3.2307137E-2,-2.4634577E-2,3.571043E-3,1.5352019E-2,4.896792E-2,-4.881138E-2,9.337931E-3,2.219936E-3,-1.4047576E-2,6.9035834E-4,-3.8751014E-2,-2.1751177E-2,-5.5996284E-2,9.339833E-3,5.6395996E-2,-6.638794E-2,-1.3639546E-3,1.5589737E-2,-2.5317935E-2,-6.2295903E-2,-4.060044E-2,-1.9010195E-1,-9.3202606E-2,-1.1073156E-2,-5.5469505E-2,6.2765606E-2,-2.6697153E-2,1.7635902E-2,9.544194E-7,-2.227163E-2,-3.825287E-2,8.780257E-3,-1.0875854E-2,-1.2224375E-2,-2.4101274E-2,2.8191863E-2,-1.3164182E-2,3.306275E-2,1.3268165E-1,-9.627484E-4,8.3179414E-2,-2.6833024E-2,3.038366E-3,-3.749132E-2,-2.2913302E-4,-5.492146E-2,-7.431979E-3],"split_indices":[5,3,2,5,3,1,3,2,2,1,1,1,0,3,4,2,0,1,1,3,1,0,3,0,3,3,3,3,1,2,2,1,1,1,1,0,1,2,0,1,2,0,2,3,2,0,0,3,3,0,0,3,3,3,3,2,1,1,0,1,2,2,2,0,0,0,0,0,0,0,0,0,0,0,0,0,0,0,0,0,0,0,0,0,0,0,0,0,0,0,0,0,0,0,0,0,0,0,0,0,0,0,0,0,0,0,0,0,0,0,0,0,0,0,0,0,0,0,0,0,0,0,0,0,0,0,0],"split_type":[0,0,0,0,0,0,0,0,0,0,0,0,0,0,0,0,0,0,0,0,0,0,0,0,0,0,0,0,0,0,0,0,0,0,0,0,0,0,0,0,0,0,0,0,0,0,0,0,0,0,0,0,0,0,0,0,0,0,0,0,0,0,0,0,0,0,0,0,0,0,0,0,0,0,0,0,0,0,0,0,0,0,0,0,0,0,0,0,0,0,0,0,0,0,0,0,0,0,0,0,0,0,0,0,0,0,0,0,0,0,0,0,0,0,0,0,0,0,0,0,0,0,0,0,0,0,0],"sum_hessian":[7.8002E4,6.6928E4,1.1074E4,2.783E4,3.9098E4,3.33E2,1.0741E4,4.567E3,2.3263E4,1.1259E4,2.7839E4,2.47E2,8.6E1,9.866E3,8.75E2,3.859E3,7.08E2,4.671E3,1.8592E4,5.043E3,6.216E3,2.5714E4,2.125E3,9.9E1,1.48E2,4.2E1,4.4E1,7.664E3,2.202E3,6.47E2,2.28E2,3.333E3,5.26E2,5.89E2,1.19E2,3.85E2,4.286E3,1.641E3,1.6951E4,1.295E3,3.748E3,3.691E3,2.525E3,8.319E3,1.7395E4,4.14E2,1.711E3,3.7E1,6.2E1,4.9E1,9.9E1,1.3E1,2.9E1,1.7E1,2.7E1,8.82E2,6.782E3,2.052E3,1.5E2,3.9E1,6.08E2,7.5E1,1.53E2,2.99E2,3.034E3,6.7E1,4.59E2,4.3E1,5.46E2,3E1,8.9E1,1.6E1,3.69E2,3.81E2,3.905E3,6.23E2,1.018E3,1.4428E4,2.523E3,4.74E2,8.21E2,2.61E2,3.487E3,1.392E3,2.299E3,1.6E2,2.365E3,2.506E3,5.813E3,1.7116E4,2.79E2,1.76E2,2.38E2,1.194E3,5.17E2,1.5E1,2.2E1,5.6E1,6E0,1.3E1,3.6E1,2.8E1,7.1E1,1E1,3E0,2.5E1,4E0,1.4E1,3E0,2.1E1,6E0,6E2,2.82E2,5.31E3,